{"learner":{"attributes":{"best_iteration":"50","best_score":"0.6809662371999076","scikit_learn":"{\"_estimator_type\": \"classifier\"}"},"feature_names":[],"feature_types":[],"gradient_booster":{"model":{"gbtree_model_param":{"num_parallel_tree":"1","num_trees":"81"},"iteration_indptr":[0,1,2,3,4,5,6,7,8,9,10,11,12,13,14,15,16,17,18,19,20,21,22,23,24,25,26,27,28,29,30,31,32,33,34,35,36,37,38,39,40,41,42,43,44,45,46,47,48,49,50,51,52,53,54,55,56,57,58,59,60,61,62,63,64,65,66,67,68,69,70,71,72,73,74,75,76,77,78,79,80,81],"tree_info":[0,0,0,0,0,0,0,0,0,0,0,0,0,0,0,0,0,0,0,0,0,0,0,0,0,0,0,0,0,0,0,0,0,0,0,0,0,0,0,0,0,0,0,0,0,0,0,0,0,0,0,0,0,0,0,0,0,0,0,0,0,0,0,0,0,0,0,0,0,0,0,0,0,0,0,0,0,0,0,0,0],"trees":[{"base_weights":[3.8112376E-2,1.678775E-1,-5.437052E-1,-6.517153E-2,4.1748875E-1,-3.390677E-1,-1.4386814E-2,4.7350692E-4,-1.3736193E-2,1.0917248E-3,9.533566E-3,3.5174382E-3,-4.7980417E-3],"categories":[],"categories_nodes":[],"categories_segments":[],"categories_sizes":[],"default_left":[0,0,0,0,0,0,0,0,0,0,0,0,0],"id":0,"left_children":[1,3,5,7,9,11,-1,-1,-1,-1,-1,-1,-1],"loss_changes":[2.6034039E1,1.641513E1,1.1031668E1,2.164251E1,2.2391806E1,5.2730374E0,0E0,0E0,0E0,0E0,0E0,0E0,0E0],"parents":[2147483647,0,0,1,1,2,2,3,3,4,4,5,5],"right_children":[2,4,6,8,10,12,-1,-1,-1,-1,-1,-1,-1],"split_conditions":[1.1346518E-2,1.4318301E-3,8.108919E-2,2.0932164E-2,1.02552725E-2,-5.0669737E-2,-1.4386814E-2,4.7350692E-4,-1.3736193E-2,1.0917248E-3,9.533566E-3,3.5174382E-3,-4.7980417E-3],"split_indices":[0,22,7,15,8,4,0,0,0,0,0,0,0],"split_type":[0,0,0,0,0,0,0,0,0,0,0,0,0],"sum_hessian":[3.4261444E2,2.8071655E2,6.189788E1,1.4555673E2,1.3515982E2,5.1500973E1,1.039691E1,1.3491803E2,1.0638699E1,8.656032E1,4.8599506E1,8.462601E0,4.303837E1],"tree_param":{"num_deleted":"0","num_feature":"23","num_nodes":"13","size_leaf_vector":"1"}},{"base_weights":[4.1717898E-2,8.159434E-1,-2.2252621E-2,1.0873929E0,2.0685229E-3,5.008052E-1,-1.5004398E-1,7.4915276E-3,1.30203245E-2,7.445361E-3,-4.221286E-3,1.325065E-3,-3.0784407E-3],"categories":[],"categories_nodes":[],"categories_segments":[],"categories_sizes":[],"default_left":[0,0,0,0,0,0,0,0,0,0,0,0,0],"id":1,"left_children":[1,3,5,7,-1,9,11,-1,-1,-1,-1,-1,-1],"loss_changes":[1.6807335E1,4.0569363E0,2.1069532E1,3.0808258E-1,0E0,1.4238635E1,1.1329559E1,0E0,0E0,0E0,0E0,0E0,0E0],"parents":[2147483647,0,0,1,1,2,2,3,3,5,5,6,6],"right_children":[2,4,6,8,-1,10,12,-1,-1,-1,-1,-1,-1],"split_conditions":[-2.556457E-2,2.0748567E-2,1.130528E-2,1.9707138E-2,2.0685229E-3,7.4768734E-1,8.085364E-1,7.4915276E-3,1.30203245E-2,7.445361E-3,-4.221286E-3,1.325065E-3,-3.0784407E-3],"split_indices":[5,15,17,17,0,14,16,0,0,0,0,0,0],"split_type":[0,0,0,0,0,0,0,0,0,0,0,0,0],"sum_hessian":[3.3798624E2,2.4897734E1,3.130885E2,1.667917E1,8.218563E0,6.0900425E1,2.5218806E2,8.21843E0,8.460741E0,4.8330475E1,1.256995E1,9.04293E1,1.6175877E2],"tree_param":{"num_deleted":"0","num_feature":"23","num_nodes":"13","size_leaf_vector":"1"}},{"base_weights":[6.2208086E-2,1.4153236E-1,-6.585645E-1,-1.9119844E-1,3.0433974E-1,4.4811973E-3,-1.0967247E0,3.752285E-3,-6.078428E-3,-6.8988425E-5,6.6100876E-3,-1.6653212E-2,-5.8638486E-3],"categories":[],"categories_nodes":[],"categories_segments":[],"categories_sizes":[],"default_left":[0,0,0,0,0,0,0,0,0,0,0,0,0],"id":2,"left_children":[1,3,5,7,9,-1,11,-1,-1,-1,-1,-1,-1],"loss_changes":[1.9265726E1,1.646708E1,1.669835E1,2.385953E1,2.2625465E1,0E0,6.0554276E0,0E0,0E0,0E0,0E0,0E0,0E0],"parents":[2147483647,0,0,1,1,2,2,3,3,4,4,6,6],"right_children":[2,4,6,8,10,-1,12,-1,-1,-1,-1,-1,-1],"split_conditions":[8.721313E-2,1.0415455E-3,-3.3491012E-4,-2.7501093E-2,1.2269705E-3,4.4811973E-3,7.434724E-1,3.752285E-3,-6.078428E-3,-6.8988425E-5,6.6100876E-3,-1.6653212E-2,-5.8638486E-3],"split_indices":[7,12,13,7,22,0,14,0,0,0,0,0,0],"split_type":[0,0,0,0,0,0,0,0,0,0,0,0,0],"sum_hessian":[3.343318E2,3.0190897E2,3.242281E1,9.9133865E1,2.0277512E2,9.189549E0,2.323326E1,4.2056953E1,5.7076912E1,1.08807526E2,9.396758E1,9.918914E0,1.3314345E1],"tree_param":{"num_deleted":"0","num_feature":"23","num_nodes":"13","size_leaf_vector":"1"}},{"base_weights":[-1.3280862E-2,3.5373387E-1,-1.6077925E-1,4.1723955E-2,6.198378E-1,-2.435705E-1,5.8066577E-1,-4.2150426E-3,5.323347E-3,8.007348E-3,1.063718E-3,-1.8173904E-3,-1.2311544E-2,-5.9247285E-4,9.901381E-3],"categories":[],"categories_nodes":[],"categories_segments":[],"categories_sizes":[],"default_left":[0,0,0,0,0,0,0,0,0,0,0,0,0,0,0],"id":3,"left_children":[1,3,5,7,9,11,13,-1,-1,-1,-1,-1,-1,-1,-1],"loss_changes":[1.8614202E1,8.159429E0,1.5194138E1,1.07810335E1,4.8502293E0,1.3289092E1,6.5901012E0,0E0,0E0,0E0,0E0,0E0,0E0,0E0,0E0],"parents":[2147483647,0,0,1,1,2,2,3,3,4,4,5,5,6,6],"right_children":[2,4,6,8,10,12,14,-1,-1,-1,-1,-1,-1,-1,-1],"split_conditions":[5.6416776E-2,1.2269705E-3,3.520503E-3,4.6416555E-2,7.951494E-1,2.230556E-2,1.2101421E-1,-4.2150426E-3,5.323347E-3,8.007348E-3,1.063718E-3,-1.8173904E-3,-1.2311544E-2,-5.9247285E-4,9.901381E-3],"split_indices":[10,22,22,10,19,11,10,0,0,0,0,0,0,0,0],"split_type":[0,0,0,0,0,0,0,0,0,0,0,0,0,0,0],"sum_hessian":[3.4180313E2,9.75858E1,2.4421733E2,4.54509E1,5.21349E1,2.2029071E2,2.3926617E1,2.3450296E1,2.2000603E1,3.813889E1,1.399601E1,2.0842546E2,1.1865247E1,9.669959E0,1.4256658E1],"tree_param":{"num_deleted":"0","num_feature":"23","num_nodes":"15","size_leaf_vector":"1"}},{"base_weights":[-2.730718E-2,8.405776E-2,-5.106545E-1,1.7613436E-1,-5.447773E-1,3.3969488E-3,-7.016258E-1,1.4129939E-2,1.2275227E-3,-1.2931318E-2,-1.614583E-3,-5.438269E-3,-1.33546E-2],"categories":[],"categories_nodes":[],"categories_segments":[],"categories_sizes":[],"default_left":[0,0,0,0,0,0,0,0,0,0,0,0,0],"id":4,"left_children":[1,3,5,7,9,-1,11,-1,-1,-1,-1,-1,-1],"loss_changes":[1.8313072E1,1.6118164E1,1.058276E1,1.5813463E1,9.999743E0,0E0,4.509123E0,0E0,0E0,0E0,0E0,0E0,0E0],"parents":[2147483647,0,0,1,1,2,2,3,3,4,4,6,6],"right_children":[2,4,6,8,10,-1,12,-1,-1,-1,-1,-1,-1],"split_conditions":[1.1346518E-2,2.0932164E-2,-2.297792E-2,-4.6651863E-2,1.4130465E-3,3.3969488E-3,8.721313E-2,1.4129939E-2,1.2275227E-3,-1.2931318E-2,-1.614583E-3,-5.438269E-3,-1.33546E-2],"split_indices":[0,15,7,7,22,0,7,0,0,0,0,0,0],"split_type":[0,0,0,0,0,0,0,0,0,0,0,0,0],"sum_hessian":[3.384175E2,2.7571735E2,6.2700165E1,2.4113E2,3.458734E1,1.1355974E1,5.134419E1,8.922678E0,2.3220734E2,1.0911427E1,2.3675915E1,4.2597214E1,8.746975E0],"tree_param":{"num_deleted":"0","num_feature":"23","num_nodes":"13","size_leaf_vector":"1"}},{"base_weights":[1.9429624E-2,1.3584206E-1,-5.0591695E-1,-8.731092E-3,1.9128507E-1,-8.445033E-1,-2.391067E-2,2.3103745E-3,-8.001154E-3,-5.789757E-3,-1.0683199E-2,2.8371075E-3,-6.511652E-3],"categories":[],"categories_nodes":[],"categories_segments":[],"categories_sizes":[],"default_left":[0,0,0,0,0,0,0,0,0,0,0,0,0],"id":5,"left_children":[1,3,5,-1,7,9,11,-1,-1,-1,-1,-1,-1],"loss_changes":[2.1329952E1,1.613078E1,1.0306179E1,0E0,1.0878194E1,1.58852E0,5.4209704E0,0E0,0E0,0E0,0E0,0E0,0E0],"parents":[2147483647,0,0,1,1,2,2,4,4,5,5,6,6],"right_children":[2,4,6,-1,8,10,12,-1,-1,-1,-1,-1,-1],"split_conditions":[1.1346518E-2,-1.8133078E-3,2.3692457E-3,-8.731092E-3,1.8441266E-1,7.169634E-1,3.0962335E-2,2.3103745E-3,-8.001154E-3,-5.789757E-3,-1.0683199E-2,2.8371075E-3,-6.511652E-3],"split_indices":[0,22,22,0,10,9,1,0,0,0,0,0,0],"split_type":[0,0,0,0,0,0,0,0,0,0,0,0,0],"sum_hessian":[3.4665063E2,2.8437656E2,6.2274055E1,1.4044634E1,2.7033194E2,3.6137287E1,2.613677E1,2.6064764E2,9.684282E0,1.8169044E1,1.7968243E1,1.7903929E1,8.232843E0],"tree_param":{"num_deleted":"0","num_feature":"23","num_nodes":"13","size_leaf_vector":"1"}},{"base_weights":[-3.582612E-2,-2.6799026E-1,1.8582004E-1,-1.4474674E-1,-1.2488638E0,-1.710936E-1,6.6829634E-1,-2.4630877E-4,-9.95936E-3,-7.511407E-3,-1.5762692E-2,5.8819354E-3,-4.0416946E-3,-5.829617E-4,9.363118E-3],"categories":[],"categories_nodes":[],"categories_segments":[],"categories_sizes":[],"default_left":[0,0,0,0,0,0,0,0,0,0,0,0,0,0,0],"id":6,"left_children":[1,3,5,7,9,11,13,-1,-1,-1,-1,-1,-1,-1,-1],"loss_changes":[1.7577333E1,1.9979492E1,3.0223227E1,1.5238698E1,1.8281212E0,1.8164341E1,1.4572182E1,0E0,0E0,0E0,0E0,0E0,0E0,0E0,0E0],"parents":[2147483647,0,0,1,1,2,2,3,3,4,4,5,5,6,6],"right_children":[2,4,6,8,10,12,14,-1,-1,-1,-1,-1,-1,-1,-1],"split_conditions":[1.3969615E-3,1.9673388E-2,3.1086097E-3,9.0621096E-1,1.5602476E-2,7.594098E-1,-2.4473567E-3,-2.4630877E-4,-9.95936E-3,-7.511407E-3,-1.5762692E-2,5.8819354E-3,-4.0416946E-3,-5.829617E-4,9.363118E-3],"split_indices":[22,11,12,9,18,16,13,0,0,0,0,0,0,0,0],"split_type":[0,0,0,0,0,0,0,0,0,0,0,0,0,0,0],"sum_hessian":[3.3961636E2,1.6577042E2,1.7384595E2,1.482863E2,1.7484114E1,1.0029658E2,7.354938E1,1.3085027E2,1.7436043E1,8.244702E0,9.23941E0,2.3198765E1,7.709781E1,2.0030088E1,5.3519287E1],"tree_param":{"num_deleted":"0","num_feature":"23","num_nodes":"15","size_leaf_vector":"1"}},{"base_weights":[3.566218E-2,-9.573649E-3,8.622925E-2,1.8530612E-1,-3.5033858E-1,8.34494E-3,1.2345815E-3,-6.085134E-3,1.035083E-3],"categories":[],"categories_nodes":[],"categories_segments":[],"categories_sizes":[],"default_left":[0,0,0,0,0,0,0,0,0],"id":7,"left_children":[1,-1,3,5,7,-1,-1,-1,-1],"loss_changes":[1.7379663E1,0E0,1.4282051E1,1.0679432E1,7.227239E0,0E0,0E0,0E0,0E0],"parents":[2147483647,0,0,2,2,3,3,4,4],"right_children":[2,-1,4,6,8,-1,-1,-1,-1],"split_conditions":[-1.8133078E-3,-9.573649E-3,1.1346518E-2,-2.6805323E-2,2.5795125E-3,8.34494E-3,1.2345815E-3,-6.085134E-3,1.035083E-3],"split_indices":[22,0,0,5,22,0,0,0,0],"split_type":[0,0,0,0,0,0,0,0,0],"sum_hessian":[3.434647E2,1.5773568E1,3.2769113E2,2.6754797E2,6.0143127E1,2.2185453E1,2.4536253E2,3.8118366E1,2.2024763E1],"tree_param":{"num_deleted":"0","num_feature":"23","num_nodes":"9","size_leaf_vector":"1"}},{"base_weights":[4.5070168E-2,1.5134324E-1,-4.4343504E-1,5.5576396E-1,3.5339292E-2,-7.1237934E-1,-4.3857854E-2,3.2410442E-3,1.0963467E-2,1.2525102E-3,-6.396324E-3,-3.7248756E-3,-1.0781045E-2,4.955714E-3,-7.099822E-3],"categories":[],"categories_nodes":[],"categories_segments":[],"categories_sizes":[],"default_left":[0,0,0,0,0,0,0,0,0,0,0,0,0,0,0],"id":8,"left_children":[1,3,5,7,9,11,13,-1,-1,-1,-1,-1,-1,-1,-1],"loss_changes":[1.7772062E1,1.3156158E1,6.5444765E0,7.4758396E0,1.33898115E1,4.136593E0,9.580135E0,0E0,0E0,0E0,0E0,0E0,0E0,0E0,0E0],"parents":[2147483647,0,0,1,1,2,2,3,3,4,4,5,5,6,6],"right_children":[2,4,6,8,10,12,14,-1,-1,-1,-1,-1,-1,-1,-1],"split_conditions":[1.1346518E-2,7.285083E-1,2.5027816E-3,2.038935E-3,2.0932164E-2,1.9321974E-2,2.158622E-2,3.2410442E-3,1.0963467E-2,1.2525102E-3,-6.396324E-3,-3.7248756E-3,-1.0781045E-2,4.955714E-3,-7.099822E-3],"split_indices":[0,16,22,22,15,18,1,0,0,0,0,0,0,0,0],"split_type":[0,0,0,0,0,0,0,0,0,0,0,0,0,0,0],"sum_hessian":[3.4003763E2,2.7984766E2,6.0189957E1,6.1533737E1,2.1831393E2,3.550781E1,2.468215E1,4.4194374E1,1.7339361E1,1.9336992E2,2.4944016E1,1.9450089E1,1.605772E1,1.3779507E1,1.0902643E1],"tree_param":{"num_deleted":"0","num_feature":"23","num_nodes":"15","size_leaf_vector":"1"}},{"base_weights":[2.960284E-2,1.21289164E-1,-5.2167344E-1,1.1761653E-2,7.821855E-2,-1.2348504E0,1.9525213E-2,-3.5604604E-3,2.1522974E-3,-5.786247E-3,-1.5981566E-2,-3.8408276E-3,7.5859833E-3],"categories":[],"categories_nodes":[],"categories_segments":[],"categories_sizes":[],"default_left":[0,0,0,0,0,0,0,0,0,0,0,0,0],"id":9,"left_children":[1,3,5,-1,7,9,11,-1,-1,-1,-1,-1,-1],"loss_changes":[1.7176044E1,1.3133888E1,1.8731491E1,0E0,1.6781118E1,4.064541E0,8.805092E0,0E0,0E0,0E0,0E0,0E0,0E0],"parents":[2147483647,0,0,1,1,2,2,4,4,5,5,6,6],"right_children":[2,4,6,-1,8,10,12,-1,-1,-1,-1,-1,-1],"split_conditions":[2.0932164E-2,-6.6997886E-2,1.8941468E-3,1.1761653E-2,2.0636837E-3,-4.1761636E-4,4.040379E-3,-3.5604604E-3,2.1522974E-3,-5.786247E-3,-1.5981566E-2,-3.8408276E-3,7.5859833E-3],"split_indices":[15,4,22,0,11,5,13,0,0,0,0,0,0],"split_type":[0,0,0,0,0,0,0,0,0,0,0,0,0],"sum_hessian":[3.3756845E2,2.9010004E2,4.7468426E1,1.03481245E1,2.797519E2,1.9927202E1,2.7541225E1,6.671052E1,2.1304138E2,8.024867E0,1.1902335E1,1.8124016E1,9.417211E0],"tree_param":{"num_deleted":"0","num_feature":"23","num_nodes":"13","size_leaf_vector":"1"}},{"base_weights":[-2.4785185E-2,2.848721E-1,-1.5781894E-1,-9.211927E-2,6.686436E-1,6.984795E-1,-2.4993996E-1,2.4466338E-3,-5.8788364E-3,8.527683E-3,-2.0145618E-4,1.0781455E-3,1.111022E-2,4.0013064E-3,-3.2112398E-3],"categories":[],"categories_nodes":[],"categories_segments":[],"categories_sizes":[],"default_left":[0,0,0,0,0,0,0,0,0,0,0,0,0,0,0],"id":10,"left_children":[1,3,5,7,9,11,13,-1,-1,-1,-1,-1,-1,-1,-1],"loss_changes":[1.3883523E1,1.4718561E1,1.8761183E1,8.823319E0,6.399328E0,5.521222E0,1.0006846E1,0E0,0E0,0E0,0E0,0E0,0E0,0E0,0E0],"parents":[2147483647,0,0,1,1,2,2,3,3,4,4,5,5,6,6],"right_children":[2,4,6,8,10,12,14,-1,-1,-1,-1,-1,-1,-1,-1],"split_conditions":[1.1267268E-2,1.2269705E-3,-2.6805323E-2,1.5278253E-2,1.0537176E0,-6.716163E-2,7.953375E-3,2.4466338E-3,-5.8788364E-3,8.527683E-3,-2.0145618E-4,1.0781455E-3,1.111022E-2,4.0013064E-3,-3.2112398E-3],"split_indices":[18,22,5,2,16,21,15,0,0,0,0,0,0,0,0],"split_type":[0,0,0,0,0,0,0,0,0,0,0,0,0,0,0],"sum_hessian":[3.349293E2,1.0030712E2,2.3462218E2,5.098391E1,4.9323208E1,2.2149775E1,2.124724E2,3.066146E1,2.0322449E1,3.8731556E1,1.0591652E1,9.627203E0,1.2522572E1,2.0513823E1,1.9195857E2],"tree_param":{"num_deleted":"0","num_feature":"23","num_nodes":"15","size_leaf_vector":"1"}},{"base_weights":[-2.29862E-2,9.68353E-2,-5.399269E-1,-3.292027E-1,2.4357566E-1,-1.2422371E-2,-3.8054332E-1,-1.7215739E-3,-1.1795746E-2,-1.5149638E-3,4.9282406E-3,-5.639636E-3,4.572831E-3],"categories":[],"categories_nodes":[],"categories_segments":[],"categories_sizes":[],"default_left":[0,0,0,0,0,0,0,0,0,0,0,0,0],"id":11,"left_children":[1,3,5,7,9,-1,11,-1,-1,-1,-1,-1,-1],"loss_changes":[2.1130102E1,1.740396E1,6.712002E0,9.334444E0,2.0427467E1,0E0,8.518679E0,0E0,0E0,0E0,0E0,0E0,0E0],"parents":[2147483647,0,0,1,1,2,2,3,3,4,4,6,6],"right_children":[2,4,6,8,10,-1,12,-1,-1,-1,-1,-1,-1],"split_conditions":[1.1346518E-2,7.6167955E-5,-4.3843426E-3,1.93712E-2,2.618529E-3,-1.2422371E-2,3.377408E-3,-1.7215739E-3,-1.1795746E-2,-1.5149638E-3,4.9282406E-3,-5.639636E-3,4.572831E-3],"split_indices":[0,22,13,11,12,0,22,0,0,0,0,0,0],"split_type":[0,0,0,0,0,0,0,0,0,0,0,0,0],"sum_hessian":[3.3929077E2,2.7610513E2,6.3185642E1,7.0416954E1,2.0568819E2,1.0430502E1,5.275514E1,6.045472E1,9.962231E0,7.971996E1,1.2596822E2,4.3548256E1,9.206884E0],"tree_param":{"num_deleted":"0","num_feature":"23","num_nodes":"13","size_leaf_vector":"1"}},{"base_weights":[1.8325152E-2,-1.07975425E-2,7.096925E-2,9.62973E-3,1.9151574E-2,1.1307966E-3,-3.746842E-3],"categories":[],"categories_nodes":[],"categories_segments":[],"categories_sizes":[],"default_left":[0,0,0,0,0,0,0],"id":12,"left_children":[1,-1,3,-1,5,-1,-1],"loss_changes":[1.9717922E1,0E0,1.5011215E1,0E0,1.14483185E1,0E0,0E0],"parents":[2147483647,0,0,2,2,4,4],"right_children":[2,-1,4,-1,6,-1,-1],"split_conditions":[-1.8133078E-3,-1.07975425E-2,-5.0054703E-2,9.62973E-3,1.1346518E-2,1.1307966E-3,-3.746842E-3],"split_indices":[22,0,2,0,0,0,0],"split_type":[0,0,0,0,0,0,0],"sum_hessian":[3.3877127E2,1.4605765E1,3.2416553E2,1.6831942E1,3.073336E2,2.4872633E2,5.860725E1],"tree_param":{"num_deleted":"0","num_feature":"23","num_nodes":"7","size_leaf_vector":"1"}},{"base_weights":[-1.6542451E-2,5.5713296E-2,-6.5254694E-1,-2.7510917E-1,2.2507529E-1,-3.7848926E-4,-1.1396005E0,4.5519224E-3,-6.3993833E-3,-4.0153653E-4,6.291005E-3,-6.83707E-3,-1.5232962E-2],"categories":[],"categories_nodes":[],"categories_segments":[],"categories_sizes":[],"default_left":[0,0,0,0,0,0,0,0,0,0,0,0,0],"id":13,"left_children":[1,3,5,7,9,-1,11,-1,-1,-1,-1,-1,-1],"loss_changes":[1.5761309E1,1.7329657E1,1.043183E1,2.8214844E1,2.1927515E1,0E0,2.3671246E0,0E0,0E0,0E0,0E0,0E0,0E0],"parents":[2147483647,0,0,1,1,2,2,3,3,4,4,6,6],"right_children":[2,4,6,8,10,-1,12,-1,-1,-1,-1,-1,-1],"split_conditions":[8.721313E-2,1.167519E-3,1.2154542E-2,-3.4585014E-2,1.4318301E-3,-3.7848926E-4,1.3941546E-2,4.5519224E-3,-6.3993833E-3,-4.0153653E-4,6.291005E-3,-6.83707E-3,-1.5232962E-2],"split_indices":[7,12,1,7,22,0,17,0,0,0,0,0,0],"split_type":[0,0,0,0,0,0,0,0,0,0,0,0,0],"sum_hessian":[3.4118173E2,3.0719415E2,3.398758E1,1.03804245E2,2.0338991E2,1.5501384E1,1.8486195E1,3.4498585E1,6.930566E1,1.2332912E2,8.00608E1,9.7196045E0,8.766589E0],"tree_param":{"num_deleted":"0","num_feature":"23","num_nodes":"13","size_leaf_vector":"1"}},{"base_weights":[1.28717E-2,-1.0491867E-2,6.063661E-2,-2.4538445E-1,2.2127672E-1,3.7212193E-3,-5.3376216E-3,4.7956943E-3,-2.063523E-3],"categories":[],"categories_nodes":[],"categories_segments":[],"categories_sizes":[],"default_left":[0,0,0,0,0,0,0,0,0],"id":14,"left_children":[1,-1,3,5,7,-1,-1,-1,-1],"loss_changes":[1.727368E1,0E0,1.6060476E1,2.0242018E1,2.3740704E1,0E0,0E0,0E0,0E0],"parents":[2147483647,0,0,2,2,3,3,4,4],"right_children":[2,-1,4,6,8,-1,-1,-1,-1],"split_conditions":[-1.8133078E-3,-1.0491867E-2,2.4000767E-3,-3.4585014E-2,6.754694E-2,3.7212193E-3,-5.3376216E-3,4.7956943E-3,-2.063523E-3],"split_indices":[22,0,12,7,7,0,0,0,0],"split_type":[0,0,0,0,0,0,0,0,0],"sum_hessian":[3.3825403E2,1.3655553E1,3.2459848E2,1.1155586E2,2.130426E2,3.542007E1,7.613579E1,1.3274294E2,8.0299675E1],"tree_param":{"num_deleted":"0","num_feature":"23","num_nodes":"9","size_leaf_vector":"1"}},{"base_weights":[3.0947585E-2,1.726426E-1,-2.7445206E-1,-1.8773855E-1,3.371733E-1,-6.8708205E-1,7.1614005E-2,-4.616436E-3,5.6392485E-3,-7.807076E-3,4.2582634E-3,-4.576213E-3,-1.1630621E-2,-2.003453E-3,5.382594E-3],"categories":[],"categories_nodes":[],"categories_segments":[],"categories_sizes":[],"default_left":[0,0,0,0,0,0,0,0,0,0,0,0,0,0,0],"id":15,"left_children":[1,3,5,7,9,11,13,-1,-1,-1,-1,-1,-1,-1,-1],"loss_changes":[1.4885054E1,1.3987091E1,1.5621694E1,1.5546762E1,1.6345554E1,4.910904E0,7.7497716E0,0E0,0E0,0E0,0E0,0E0,0E0,0E0,0E0],"parents":[2147483647,0,0,1,1,2,2,3,3,4,4,5,5,6,6],"right_children":[2,4,6,8,10,12,14,-1,-1,-1,-1,-1,-1,-1,-1],"split_conditions":[1.1529846E-2,2.6729184E-3,1.3659903E-3,3.2393495E-3,-1.8133078E-3,6.4306E-4,4.85992E-2,-4.616436E-3,5.6392485E-3,-7.807076E-3,4.2582634E-3,-4.576213E-3,-1.1630621E-2,-2.003453E-3,5.382594E-3],"split_indices":[1,12,22,22,22,22,7,0,0,0,0,0,0,0,0],"split_type":[0,0,0,0,0,0,0,0,0,0,0,0,0,0,0],"sum_hessian":[3.418804E2,2.3382724E2,1.0805317E2,7.3247635E1,1.605796E2,4.8837105E1,5.9216064E1,5.3967716E1,1.927992E1,1.12253895E1,1.4935422E2,3.427515E1,1.4561954E1,3.777285E1,2.1443214E1],"tree_param":{"num_deleted":"0","num_feature":"23","num_nodes":"15","size_leaf_vector":"1"}},{"base_weights":[-2.0698749E-2,8.376199E-2,-4.8810655E-1,1.3704E-1,-8.056797E-3,-3.3496657E-1,-1.2639884E-2,-1.5554494E-3,2.7028252E-3,-5.0106137E-3,4.7873864E-3],"categories":[],"categories_nodes":[],"categories_segments":[],"categories_sizes":[],"default_left":[0,0,0,0,0,0,0,0,0,0,0],"id":16,"left_children":[1,3,5,7,-1,9,-1,-1,-1,-1,-1],"loss_changes":[1.6533743E1,1.3234004E1,6.9254274E0,1.0261669E1,0E0,7.4049006E0,0E0,0E0,0E0,0E0,0E0],"parents":[2147483647,0,0,1,1,2,2,3,3,5,5],"right_children":[2,4,6,8,-1,10,-1,-1,-1,-1,-1],"split_conditions":[1.1346518E-2,5.4567564E-2,8.721313E-2,2.0636837E-3,-8.056797E-3,1.1410603E-2,-1.2639884E-2,-1.5554494E-3,2.7028252E-3,-5.0106137E-3,4.7873864E-3],"split_indices":[0,6,7,11,0,11,0,0,0,0,0],"split_type":[0,0,0,0,0,0,0,0,0,0,0],"sum_hessian":[3.3679007E2,2.7594095E2,6.084911E1,2.611442E2,1.4796747E1,5.2014458E1,8.834652E0,8.1660324E1,1.7948389E2,4.35161E1,8.498354E0],"tree_param":{"num_deleted":"0","num_feature":"23","num_nodes":"11","size_leaf_vector":"1"}},{"base_weights":[-6.9260974E-3,3.241571E-1,-1.3722529E-1,5.488623E-1,-2.460421E-1,-6.170199E-1,2.3950047E-3,-3.8082881E-3,6.965085E-3,1.4493668E-3,-1.0176607E-2,4.5101373E-3,-8.964441E-3,1.6060399E-3,-4.572257E-3],"categories":[],"categories_nodes":[],"categories_segments":[],"categories_sizes":[],"default_left":[0,0,0,0,0,0,0,0,0,0,0,0,0,0,0],"id":17,"left_children":[1,3,5,7,9,11,13,-1,-1,-1,-1,-1,-1,-1,-1],"loss_changes":[1.4635411E1,1.2411549E1,1.6307177E1,9.741991E0,8.527064E0,1.6779335E1,1.3855948E1,0E0,0E0,0E0,0E0,0E0,0E0,0E0,0E0],"parents":[2147483647,0,0,1,1,2,2,3,3,4,4,5,5,6,6],"right_children":[2,4,6,8,10,12,14,-1,-1,-1,-1,-1,-1,-1,-1],"split_conditions":[5.6227367E-2,8.247681E-1,6.812503E-2,3.227955E-2,1.0606076E0,1.0729281E-2,2.0932164E-2,-3.8082881E-3,6.965085E-3,1.4493668E-3,-1.0176607E-2,4.5101373E-3,-8.964441E-3,1.6060399E-3,-4.572257E-3],"split_indices":[10,19,10,10,16,17,15,0,0,0,0,0,0,0,0],"split_type":[0,0,0,0,0,0,0,0,0,0,0,0,0,0,0],"sum_hessian":[3.3722372E2,9.481532E1,2.4240839E2,6.803957E1,2.677575E1,5.386976E1,1.8853864E2,9.108198E0,5.8931377E1,1.8310163E1,8.465587E0,1.1043704E1,4.2826057E1,1.4074312E2,4.7795517E1],"tree_param":{"num_deleted":"0","num_feature":"23","num_nodes":"15","size_leaf_vector":"1"}},{"base_weights":[1.7371587E-3,9.745013E-2,-4.4189695E-1,-1.4067197E-1,3.5311383E-1,4.4044773E-3,-6.349444E-1,-5.990894E-4,-1.1971833E-2,-5.81379E-4,8.018485E-3,-1.2076737E-3,-7.885275E-3],"categories":[],"categories_nodes":[],"categories_segments":[],"categories_sizes":[],"default_left":[0,0,0,0,0,0,0,0,0,0,0,0,0],"id":18,"left_children":[1,3,5,7,9,-1,11,-1,-1,-1,-1,-1,-1],"loss_changes":[1.4753342E1,1.74476E1,1.0782444E1,1.2614719E1,2.5531588E1,0E0,3.9322357E0,0E0,0E0,0E0,0E0,0E0,0E0],"parents":[2147483647,0,0,1,1,2,2,3,3,4,4,6,6],"right_children":[2,4,6,8,10,-1,12,-1,-1,-1,-1,-1,-1],"split_conditions":[1.1346518E-2,1.4130465E-3,-2.297792E-2,5.4567564E-2,2.0636837E-3,4.4044773E-3,5.890531E-3,-5.990894E-4,-1.1971833E-2,-5.81379E-4,8.018485E-3,-1.2076737E-3,-7.885275E-3],"split_indices":[0,22,7,6,11,0,1,0,0,0,0,0,0],"split_type":[0,0,0,0,0,0,0,0,0,0,0,0,0],"sum_hessian":[3.4543774E2,2.8477795E2,6.0659805E1,1.4768019E2,1.3709776E2,1.06592E1,5.0000607E1,1.3817441E2,9.505777E0,7.1990814E1,6.510695E1,1.1910867E1,3.808974E1],"tree_param":{"num_deleted":"0","num_feature":"23","num_nodes":"13","size_leaf_vector":"1"}},{"base_weights":[1.4989999E-2,1.1580816E-1,-4.2428765E-1,1.9123702E-1,-3.724982E-1,1.66922E-1,-6.2776774E-1,1.2880359E-2,1.4434821E-3,-1.44304745E-2,6.227068E-4,-2.4149306E-3,5.4787183E-3,-4.1403063E-3,-1.2159221E-2],"categories":[],"categories_nodes":[],"categories_segments":[],"categories_sizes":[],"default_left":[0,0,0,0,0,0,0,0,0,0,0,0,0,0,0],"id":19,"left_children":[1,3,5,7,9,11,13,-1,-1,-1,-1,-1,-1,-1,-1],"loss_changes":[1.5273363E1,1.0398232E1,7.850075E0,1.23379135E1,1.7708853E1,2.8200982E0,5.54426E0,0E0,0E0,0E0,0E0,0E0,0E0,0E0,0E0],"parents":[2147483647,0,0,1,1,2,2,3,3,4,4,5,5,6,6],"right_children":[2,4,6,8,10,12,14,-1,-1,-1,-1,-1,-1,-1,-1],"split_conditions":[1.1346518E-2,2.0748567E-2,2.973984E-3,-4.0443327E-2,1.1159394E-1,1.0469056E-1,7.839131E-2,1.2880359E-2,1.4434821E-3,-1.44304745E-2,6.227068E-4,-2.4149306E-3,5.4787183E-3,-4.1403063E-3,-1.2159221E-2],"split_indices":[0,15,1,7,10,10,7,0,0,0,0,0,0,0,0],"split_type":[0,0,0,0,0,0,0,0,0,0,0,0,0,0,0],"sum_hessian":[3.4276157E2,2.7937814E2,6.3383427E1,2.4252379E2,3.6854366E1,1.6275312E1,4.7108112E1,8.857753E0,2.3366603E2,9.974538E0,2.6879827E1,8.031183E0,8.244129E0,3.580164E1,1.1306476E1],"tree_param":{"num_deleted":"0","num_feature":"23","num_nodes":"15","size_leaf_vector":"1"}},{"base_weights":[-2.7748087E-2,-2.4827208E-1,1.9124247E-1,-1.4501075E-1,-1.2226369E-2,-4.057485E-2,7.6885325E-1,-5.69204E-4,-1.1399601E-2,6.188086E-3,-1.9008651E-3,9.429303E-3,2.3991383E-4],"categories":[],"categories_nodes":[],"categories_segments":[],"categories_sizes":[],"default_left":[0,0,0,0,0,0,0,0,0,0,0,0,0],"id":20,"left_children":[1,3,5,7,-1,9,11,-1,-1,-1,-1,-1,-1],"loss_changes":[1.6740868E1,1.719553E1,2.3330296E1,1.3717951E1,0E0,1.2452588E1,6.4455223E0,0E0,0E0,0E0,0E0,0E0,0E0],"parents":[2147483647,0,0,1,1,2,2,3,3,5,5,6,6],"right_children":[2,4,6,8,-1,10,12,-1,-1,-1,-1,-1,-1],"split_conditions":[1.4318301E-3,1.9730343E-2,1.29848905E-2,2.0748567E-2,-1.2226369E-2,7.266659E-1,1.1137259E-2,-5.69204E-4,-1.1399601E-2,6.188086E-3,-1.9008651E-3,9.429303E-3,2.3991383E-4],"split_indices":[22,11,8,15,0,16,0,0,0,0,0,0,0],"split_type":[0,0,0,0,0,0,0,0,0,0,0,0,0],"sum_hessian":[3.4467123E2,1.7166772E2,1.7300351E2,1.5625676E2,1.5410966E1,1.2411939E2,4.888411E1,1.4451865E2,1.1738113E1,2.2361368E1,1.01758026E2,3.940832E1,9.47579E0],"tree_param":{"num_deleted":"0","num_feature":"23","num_nodes":"13","size_leaf_vector":"1"}},{"base_weights":[-2.2470715E-2,-2.0385054E-1,1.8362454E-1,-1.7860405E-2,-6.864234E-1,-1.4953604E-1,6.395053E-1,6.072431E-4,-1.1004767E-2,-9.811341E-4,-8.679047E-3,-4.589804E-3,4.590008E-3,-9.73002E-4,8.056918E-3],"categories":[],"categories_nodes":[],"categories_segments":[],"categories_sizes":[],"default_left":[0,0,0,0,0,0,0,0,0,0,0,0,0,0,0],"id":21,"left_children":[1,3,5,7,9,11,13,-1,-1,-1,-1,-1,-1,-1,-1],"loss_changes":[1.2867654E1,1.6415567E1,2.4577639E1,1.1394026E1,5.3484173E0,1.7900608E1,8.435432E0,0E0,0E0,0E0,0E0,0E0,0E0,0E0,0E0],"parents":[2147483647,0,0,1,1,2,2,3,3,4,4,5,5,6,6],"right_children":[2,4,6,8,10,12,14,-1,-1,-1,-1,-1,-1,-1,-1],"split_conditions":[1.5812279E-3,1.1529846E-2,2.0636837E-3,1.982693E-2,8.247681E-1,1.2101421E-1,-1.6423193E-3,6.072431E-4,-1.1004767E-2,-9.811341E-4,-8.679047E-3,-4.589804E-3,4.590008E-3,-9.73002E-4,8.056918E-3],"split_indices":[22,1,11,11,19,10,13,0,0,0,0,0,0,0,0],"split_type":[0,0,0,0,0,0,0,0,0,0,0,0,0,0,0],"sum_hessian":[3.4222363E2,1.8203212E2,1.6019151E2,1.3214043E2,4.98917E1,9.294135E1,6.725015E1,1.240778E2,8.062622E0,1.2125376E1,3.7766327E1,6.1774464E1,3.1166893E1,1.2452997E1,5.4797157E1],"tree_param":{"num_deleted":"0","num_feature":"23","num_nodes":"15","size_leaf_vector":"1"}},{"base_weights":[-7.793048E-3,-9.72208E-3,3.6432568E-2,1.3907856E-1,-4.1904035E-1,9.177795E-3,8.5653114E-4,-6.9828983E-3,1.536646E-4],"categories":[],"categories_nodes":[],"categories_segments":[],"categories_sizes":[],"default_left":[0,0,0,0,0,0,0,0,0],"id":22,"left_children":[1,-1,3,5,7,-1,-1,-1,-1],"loss_changes":[1.4549911E1,0E0,1.5315684E1,1.1032394E1,7.321781E0,0E0,0E0,0E0,0E0],"parents":[2147483647,0,0,2,2,3,3,4,4],"right_children":[2,-1,4,6,8,-1,-1,-1,-1],"split_conditions":[-1.8133078E-3,-9.72208E-3,1.1346518E-2,-5.0054703E-2,2.471095E-3,9.177795E-3,8.5653114E-4,-6.9828983E-3,1.536646E-4],"split_indices":[22,0,0,2,22,0,0,0,0],"split_type":[0,0,0,0,0,0,0,0,0],"sum_hessian":[3.3930157E2,1.395724E1,3.2534433E2,2.6607578E2,5.9268555E1,1.6044273E1,2.5003151E2,3.5707355E1,2.35612E1],"tree_param":{"num_deleted":"0","num_feature":"23","num_nodes":"9","size_leaf_vector":"1"}},{"base_weights":[-1.1361946E-2,-2.4017088E-1,2.0961879E-1,-1.6668516E-1,-1.4569082E-2,-5.265162E-2,8.6636835E-1,-6.800946E-4,-1.1484092E-2,5.7359855E-3,-2.716346E-3,1.1154002E-2,3.487272E-3],"categories":[],"categories_nodes":[],"categories_segments":[],"categories_sizes":[],"default_left":[0,0,0,0,0,0,0,0,0,0,0,0,0],"id":23,"left_children":[1,3,5,7,-1,9,11,-1,-1,-1,-1,-1,-1],"loss_changes":[1.7538948E1,1.4992834E1,3.0444407E1,1.5597886E1,0E0,1.7580875E1,6.110962E0,0E0,0E0,0E0,0E0,0E0,0E0],"parents":[2147483647,0,0,1,1,2,2,3,3,5,5,6,6],"right_children":[2,4,6,8,-1,10,12,-1,-1,-1,-1,-1,-1],"split_conditions":[1.4130465E-3,2.2002656E-2,1.29848905E-2,4.5385823E-2,-1.4569082E-2,-3.564352E-2,1.646041E-2,-6.800946E-4,-1.1484092E-2,5.7359855E-3,-2.716346E-3,1.1154002E-2,3.487272E-3],"split_indices":[22,15,8,8,0,7,17,0,0,0,0,0,0],"split_type":[0,0,0,0,0,0,0,0,0,0,0,0,0],"sum_hessian":[3.4488184E2,1.6939706E2,1.7548476E2,1.6082115E2,8.575913E0,1.2606215E2,4.9422604E1,1.4710455E2,1.3716596E1,3.224063E1,9.382152E1,3.25894E1,1.6833204E1],"tree_param":{"num_deleted":"0","num_feature":"23","num_nodes":"13","size_leaf_vector":"1"}},{"base_weights":[-3.367535E-2,-1.042597E-2,1.5163333E-2,2.3649162E-1,-1.6326989E-1,-1.8920273E-3,4.7239754E-3,-3.7507315E-3,2.7303263E-3],"categories":[],"categories_nodes":[],"categories_segments":[],"categories_sizes":[],"default_left":[0,0,0,0,0,0,0,0,0],"id":24,"left_children":[1,-1,3,5,7,-1,-1,-1,-1],"loss_changes":[1.7035007E1,0E0,1.3088234E1,1.4941813E1,1.7063103E1,0E0,0E0,0E0,0E0],"parents":[2147483647,0,0,2,2,3,3,4,4],"right_children":[2,-1,4,6,8,-1,-1,-1,-1],"split_conditions":[-1.8133078E-3,-1.042597E-2,1.3987899E-3,2.2738334E-3,2.103973E-3,-1.8920273E-3,4.7239754E-3,-3.7507315E-3,2.7303263E-3],"split_indices":[22,0,1,12,22,0,0,0,0],"split_type":[0,0,0,0,0,0,0,0,0],"sum_hessian":[3.443963E2,1.4961898E1,3.2943442E2,1.4689754E2,1.8253687E2,5.244965E1,9.44479E1,1.2297764E2,5.955922E1],"tree_param":{"num_deleted":"0","num_feature":"23","num_nodes":"9","size_leaf_vector":"1"}},{"base_weights":[-8.613516E-3,-1.04264105E-2,3.3726204E-2,-2.52389E-1,1.6271E-1,2.6115733E-3,-6.5437416E-3,-5.1914656E-4,5.1472154E-3],"categories":[],"categories_nodes":[],"categories_segments":[],"categories_sizes":[],"default_left":[0,0,0,0,0,0,0,0,0],"id":25,"left_children":[1,-1,3,5,7,-1,-1,-1,-1],"loss_changes":[1.5333339E1,0E0,1.2464988E1,2.184694E1,1.760373E1,0E0,0E0,0E0,0E0],"parents":[2147483647,0,0,2,2,3,3,4,4],"right_children":[2,-1,4,6,8,-1,-1,-1,-1],"split_conditions":[-2.2563047E-3,-1.04264105E-2,1.0415455E-3,-2.297792E-2,1.4318301E-3,2.6115733E-3,-6.5437416E-3,-5.1914656E-4,5.1472154E-3],"split_indices":[22,0,12,7,22,0,0,0,0],"split_type":[0,0,0,0,0,0,0,0,0],"sum_hessian":[3.484295E2,1.2776407E1,3.3565308E2,1.0400025E2,2.3165283E2,4.5817524E1,5.8182728E1,1.4443936E2,8.721347E1],"tree_param":{"num_deleted":"0","num_feature":"23","num_nodes":"9","size_leaf_vector":"1"}},{"base_weights":[-3.3555035E-2,-1.1901802E-2,1.2897862E-2,1.5745749E-1,-3.0950186E-1,-2.824623E-3,3.3680692E-3,-6.8531567E-3,6.702643E-4],"categories":[],"categories_nodes":[],"categories_segments":[],"categories_sizes":[],"default_left":[0,0,0,0,0,0,0,0,0],"id":26,"left_children":[1,-1,3,5,7,-1,-1,-1,-1],"loss_changes":[1.8168146E1,0E0,1.5233189E1,1.7895319E1,1.4366012E1,0E0,0E0,0E0,0E0],"parents":[2147483647,0,0,2,2,3,3,4,4],"right_children":[2,-1,4,6,8,-1,-1,-1,-1],"split_conditions":[-2.2563047E-3,-1.1901802E-2,1.1529846E-2,1.0415455E-3,1.5327431E-3,-2.824623E-3,3.3680692E-3,-6.8531567E-3,6.702643E-4],"split_indices":[22,0,1,12,22,0,0,0,0],"split_type":[0,0,0,0,0,0,0,0,0],"sum_hessian":[3.36861E2,1.2056108E1,3.2480487E2,2.2460617E2,1.0019872E2,6.488273E1,1.5972343E2,4.9736504E1,5.046222E1],"tree_param":{"num_deleted":"0","num_feature":"23","num_nodes":"9","size_leaf_vector":"1"}},{"base_weights":[4.8217913E-3,8.10048E-2,-6.6325825E-1,6.433243E-1,2.425638E-2,3.6669287E-3,-1.0318735E0,2.9434606E-3,8.438438E-3,-3.2271047E-3,1.8865062E-3,-4.08666E-3,-1.6550753E-2],"categories":[],"categories_nodes":[],"categories_segments":[],"categories_sizes":[],"default_left":[0,0,0,0,0,0,0,0,0,0,0,0,0],"id":27,"left_children":[1,3,5,7,9,-1,11,-1,-1,-1,-1,-1,-1],"loss_changes":[1.7876505E1,1.0043453E1,1.4028202E1,1.7709217E0,1.645217E1,0E0,9.70875E0,0E0,0E0,0E0,0E0,0E0,0E0],"parents":[2147483647,0,0,1,1,2,2,3,3,4,4,6,6],"right_children":[2,4,6,8,10,-1,12,-1,-1,-1,-1,-1,-1],"split_conditions":[8.721313E-2,-7.618825E-1,-3.3491012E-4,2.4000494E-2,2.0636837E-3,3.6669287E-3,1.3941546E-2,2.9434606E-3,8.438438E-3,-3.2271047E-3,1.8865062E-3,-4.08666E-3,-1.6550753E-2],"split_indices":[7,9,13,18,11,0,17,0,0,0,0,0,0],"split_type":[0,0,0,0,0,0,0,0,0,0,0,0,0],"sum_hessian":[3.4917792E2,3.1422476E2,3.4953167E1,2.785669E1,2.8636807E2,9.213857E0,2.573931E1,1.1065878E1,1.6790812E1,9.175306E1,1.9461502E2,1.3697472E1,1.2041839E1],"tree_param":{"num_deleted":"0","num_feature":"23","num_nodes":"13","size_leaf_vector":"1"}},{"base_weights":[1.1747287E-3,-2.1260928E-1,2.2011396E-1,2.705701E-1,-4.286466E-1,-1.2591311E-1,7.076374E-1,4.344248E-3,-3.917924E-3,-3.1438207E-3,-1.0930566E-2,5.9844353E-3,-3.5736754E-3,3.266308E-3,1.0189205E-2],"categories":[],"categories_nodes":[],"categories_segments":[],"categories_sizes":[],"default_left":[0,0,0,0,0,0,0,0,0,0,0,0,0,0,0],"id":28,"left_children":[1,3,5,7,9,11,13,-1,-1,-1,-1,-1,-1,-1,-1],"loss_changes":[1.595223E1,1.8116299E1,2.849355E1,6.019226E0,8.732378E0,1.6866776E1,7.974964E0,0E0,0E0,0E0,0E0,0E0,0E0,0E0,0E0],"parents":[2147483647,0,0,1,1,2,2,3,3,4,4,5,5,6,6],"right_children":[2,4,6,8,10,12,14,-1,-1,-1,-1,-1,-1,-1,-1],"split_conditions":[1.4527787E-3,-3.6082405E-3,3.1086097E-3,5.157561E-2,9.374876E-1,7.578966E-1,6.017144E-3,4.344248E-3,-3.917924E-3,-3.1438207E-3,-1.0930566E-2,5.9844353E-3,-3.5736754E-3,3.266308E-3,1.0189205E-2],"split_indices":[22,2,12,4,9,16,3,0,0,0,0,0,0,0,0],"split_type":[0,0,0,0,0,0,0,0,0,0,0,0,0,0,0],"sum_hessian":[3.388182E2,1.7144199E2,1.6737624E2,5.2892525E1,1.1854946E2,9.832811E1,6.904813E1,4.2678802E1,1.021372E1,1.0241024E2,1.6139227E1,2.3426687E1,7.490142E1,3.1968449E1,3.7079674E1],"tree_param":{"num_deleted":"0","num_feature":"23","num_nodes":"15","size_leaf_vector":"1"}},{"base_weights":[2.3993386E-2,1.3901606E-1,-4.9978614E-1,-8.661746E-3,1.9500212E-1,-7.669941E-1,-9.195303E-2,1.3689735E-4,3.7873527E-3,-1.6866833E-3,-1.0268522E-2,3.149149E-3,-4.966395E-3],"categories":[],"categories_nodes":[],"categories_segments":[],"categories_sizes":[],"default_left":[0,0,0,0,0,0,0,0,0,0,0,0,0],"id":29,"left_children":[1,3,5,-1,7,9,11,-1,-1,-1,-1,-1,-1],"loss_changes":[2.0682894E1,1.6000984E1,6.6669645E0,0E0,8.899399E0,5.6131706E0,4.3730435E0,0E0,0E0,0E0,0E0,0E0,0E0],"parents":[2147483647,0,0,1,1,2,2,4,4,5,5,6,6],"right_children":[2,4,6,-1,8,10,12,-1,-1,-1,-1,-1,-1],"split_conditions":[1.1346518E-2,-1.8133078E-3,1.0675073E-1,-8.661746E-3,1.4130465E-3,5.4884765E-2,1.7164497E-2,1.3689735E-4,3.7873527E-3,-1.6866833E-3,-1.0268522E-2,3.149149E-3,-4.966395E-3],"split_indices":[0,22,10,0,22,10,5,0,0,0,0,0,0],"split_type":[0,0,0,0,0,0,0,0,0,0,0,0,0],"sum_hessian":[3.4115115E2,2.803258E2,6.0825325E1,1.4026081E1,2.6629974E2,3.6216198E1,2.4609129E1,1.3457367E2,1.3172607E2,1.1465607E1,2.475059E1,1.2382107E1,1.2227023E1],"tree_param":{"num_deleted":"0","num_feature":"23","num_nodes":"13","size_leaf_vector":"1"}},{"base_weights":[-1.3810217E-2,8.6442225E-2,-4.9838182E-1,5.1553047E-1,7.4421205E-3,1.8854918E-4,-6.358301E-1,7.688196E-3,-3.6439886E-3,5.69951E-3,-5.806958E-4,-9.832871E-3,-3.7121528E-3],"categories":[],"categories_nodes":[],"categories_segments":[],"categories_sizes":[],"default_left":[0,0,0,0,0,0,0,0,0,0,0,0,0],"id":30,"left_children":[1,3,5,7,9,-1,11,-1,-1,-1,-1,-1,-1],"loss_changes":[1.6763428E1,9.692221E0,4.2171E0,1.0189176E1,8.972261E0,0E0,3.9341984E0,0E0,0E0,0E0,0E0,0E0,0E0],"parents":[2147483647,0,0,1,1,2,2,3,3,4,4,6,6],"right_children":[2,4,6,8,10,-1,12,-1,-1,-1,-1,-1,-1],"split_conditions":[1.1346518E-2,1.0777036E-2,1.7300919E-3,7.434724E-1,-2.6805323E-2,1.8854918E-4,1.5568916E-2,7.688196E-3,-3.6439886E-3,5.69951E-3,-5.806958E-4,-9.832871E-3,-3.7121528E-3],"split_indices":[0,17,1,14,5,0,0,0,0,0,0,0,0],"split_type":[0,0,0,0,0,0,0,0,0,0,0,0,0],"sum_hessian":[3.431853E2,2.8503613E2,5.8149174E1,4.3459675E1,2.4157645E2,1.2389313E1,4.575986E1,3.3843918E1,9.615758E0,2.439672E1,2.1717973E2,1.8609034E1,2.7150826E1],"tree_param":{"num_deleted":"0","num_feature":"23","num_nodes":"13","size_leaf_vector":"1"}},{"base_weights":[-2.8859638E-2,2.5162145E-1,-1.8525098E-1,-1.3457838E-1,4.5506322E-1,4.0841293E-1,-3.1610402E-1,2.2988708E-3,-4.9938224E-3,-4.4324026E-3,6.1802673E-3,6.1859195E-3,-1.1318512E-3,-3.9076987E-3,4.5515625E-3],"categories":[],"categories_nodes":[],"categories_segments":[],"categories_sizes":[],"default_left":[0,0,0,0,0,0,0,0,0,0,0,0,0,0,0],"id":31,"left_children":[1,3,5,7,9,11,13,-1,-1,-1,-1,-1,-1,-1,-1],"loss_changes":[1.5298765E1,9.874247E0,1.7515404E1,5.9469275E0,1.2282669E1,4.5492716E0,1.0771149E1,0E0,0E0,0E0,0E0,0E0,0E0,0E0,0E0],"parents":[2147483647,0,0,1,1,2,2,3,3,4,4,5,5,6,6],"right_children":[2,4,6,8,10,12,14,-1,-1,-1,-1,-1,-1,-1,-1],"split_conditions":[1.2253965E-2,1.02552725E-2,-1.620557E-2,1.0044545E-2,5.912444E-3,2.108165E-2,3.60378E-3,2.2988708E-3,-4.9938224E-3,-4.4324026E-3,6.1802673E-3,6.1859195E-3,-1.1318512E-3,-3.9076987E-3,4.5515625E-3],"split_indices":[18,8,5,18,15,15,22,0,0,0,0,0,0,0,0],"split_type":[0,0,0,0,0,0,0,0,0,0,0,0,0,0,0],"sum_hessian":[3.4670807E2,1.2389638E2,2.228117E2,4.2864277E1,8.1032104E1,3.985832E1,1.8295338E2,2.1627087E1,2.123719E1,1.2178837E1,6.8853264E1,2.8277775E1,1.1580544E1,1.6725476E2,1.5698629E1],"tree_param":{"num_deleted":"0","num_feature":"23","num_nodes":"15","size_leaf_vector":"1"}},{"base_weights":[-2.957286E-2,3.84707E-1,-1.17298774E-1,6.6174954E-1,-2.4750161E-1,6.097948E-1,-1.8873753E-1,1.3161908E-2,4.038602E-3,3.6303243E-3,-7.3225675E-3,5.6241173E-4,8.647644E-3,-1.3712912E-3,-9.155473E-3],"categories":[],"categories_nodes":[],"categories_segments":[],"categories_sizes":[],"default_left":[0,0,0,0,0,0,0,0,0,0,0,0,0,0,0],"id":32,"left_children":[1,3,5,7,9,11,13,-1,-1,-1,-1,-1,-1,-1,-1],"loss_changes":[1.2487244E1,1.0683198E1,1.4830023E1,6.5623703E0,5.897243E0,3.5617628E0,9.578589E0,0E0,0E0,0E0,0E0,0E0,0E0,0E0,0E0],"parents":[2147483647,0,0,1,1,2,2,3,3,4,4,5,5,6,6],"right_children":[2,4,6,8,10,12,14,-1,-1,-1,-1,-1,-1,-1,-1],"split_conditions":[1.1229694E-2,1.0645566E0,-2.6805323E-2,-2.5435695E-5,7.951494E-1,1.1647216E0,9.8764785E-2,1.3161908E-2,4.038602E-3,3.6303243E-3,-7.3225675E-3,5.6241173E-4,8.647644E-3,-1.3712912E-3,-9.155473E-3],"split_indices":[17,16,5,5,19,16,7,0,0,0,0,0,0,0,0],"split_type":[0,0,0,0,0,0,0,0,0,0,0,0,0,0,0],"sum_hessian":[3.4135178E2,5.905991E1,2.8229187E2,4.1032276E1,1.8027636E1,2.4580376E1,2.577115E2,1.0438631E1,3.0593643E1,8.089837E0,9.937798E0,8.13639E0,1.6443985E1,2.4173532E2,1.5976168E1],"tree_param":{"num_deleted":"0","num_feature":"23","num_nodes":"15","size_leaf_vector":"1"}},{"base_weights":[2.4250114E-2,1.4074947E-1,-3.369095E-1,-7.263901E-3,1.7672409E-1,-7.401523E-1,2.883712E-2,-1.3913625E-3,2.9763759E-3,-3.5228827E-3,-1.2646268E-2,-2.5410145E-3,7.1805827E-3],"categories":[],"categories_nodes":[],"categories_segments":[],"categories_sizes":[],"default_left":[0,0,0,0,0,0,0,0,0,0,0,0,0],"id":33,"left_children":[1,3,5,-1,7,9,11,-1,-1,-1,-1,-1,-1],"loss_changes":[1.4569562E1,8.291311E0,1.2480198E1,0E0,9.667853E0,7.7353706E0,9.008451E0,0E0,0E0,0E0,0E0,0E0,0E0],"parents":[2147483647,0,0,1,1,2,2,4,4,5,5,6,6],"right_children":[2,4,6,-1,8,10,12,-1,-1,-1,-1,-1,-1],"split_conditions":[1.5973942E-2,-2.2563047E-3,1.5109106E-3,-7.263901E-3,1.0415455E-3,1.58751E-2,9.9627515E-3,-1.3913625E-3,2.9763759E-3,-3.5228827E-3,-1.2646268E-2,-2.5410145E-3,7.1805827E-3],"split_indices":[1,22,22,0,12,17,8,0,0,0,0,0,0],"split_type":[0,0,0,0,0,0,0,0,0,0,0,0,0],"sum_hessian":[3.441501E2,2.6067453E2,8.347557E1,9.619216E0,2.5105531E2,3.9215755E1,4.4259815E1,6.945872E1,1.8159659E2,2.3504902E1,1.5710854E1,3.1825964E1,1.243385E1],"tree_param":{"num_deleted":"0","num_feature":"23","num_nodes":"13","size_leaf_vector":"1"}},{"base_weights":[2.133095E-2,2.970033E-1,-1.280936E-1,5.046613E-1,-7.619512E-2,5.992263E-1,-2.276646E-1,-6.0387067E-3,6.633155E-3,-6.883966E-3,3.8684276E-3,8.826271E-3,4.0415983E-4,-1.5930985E-3,-1.1026655E-2],"categories":[],"categories_nodes":[],"categories_segments":[],"categories_sizes":[],"default_left":[0,0,0,0,0,0,0,0,0,0,0,0,0,0,0],"id":34,"left_children":[1,3,5,7,9,11,13,-1,-1,-1,-1,-1,-1,-1,-1],"loss_changes":[1.4119794E1,9.374256E0,1.6241825E1,1.4036007E1,1.2720853E1,4.2488832E0,1.1567189E1,0E0,0E0,0E0,0E0,0E0,0E0,0E0,0E0],"parents":[2147483647,0,0,1,1,2,2,3,3,4,4,5,5,6,6],"right_children":[2,4,6,8,10,12,14,-1,-1,-1,-1,-1,-1,-1,-1],"split_conditions":[1.2253965E-2,6.7149706E-2,-3.6824547E-2,-8.269339E-3,1.4328716E-2,2.0932164E-2,9.674613E-2,-6.0387067E-3,6.633155E-3,-6.883966E-3,3.8684276E-3,8.826271E-3,4.0415983E-4,-1.5930985E-3,-1.1026655E-2],"split_indices":[18,7,2,8,11,15,7,0,0,0,0,0,0,0,0],"split_type":[0,0,0,0,0,0,0,0,0,0,0,0,0,0,0],"sum_hessian":[3.408546E2,1.1946563E2,2.2138896E2,7.652996E1,4.293567E1,2.6054544E1,1.9533443E2,9.230361E0,6.72996E1,1.82801E1,2.465557E1,1.6902805E1,9.151738E0,1.8227707E2,1.3057349E1],"tree_param":{"num_deleted":"0","num_feature":"23","num_nodes":"15","size_leaf_vector":"1"}},{"base_weights":[-2.105733E-3,6.8575434E-2,-6.131057E-1,1.7530969E-1,-4.6589687E-1,4.5971456E-3,-9.9146736E-1,8.609987E-4,6.1821216E-3,-8.3907135E-3,1.8098333E-3,-1.6369322E-2,-2.3811697E-3],"categories":[],"categories_nodes":[],"categories_segments":[],"categories_sizes":[],"default_left":[0,0,0,0,0,0,0,0,0,0,0,0,0],"id":35,"left_children":[1,3,5,7,9,-1,11,-1,-1,-1,-1,-1,-1],"loss_changes":[1.5203042E1,1.8083286E1,1.5272028E1,1.0368226E1,1.2897996E1,0E0,1.2885609E1,0E0,0E0,0E0,0E0,0E0,0E0],"parents":[2147483647,0,0,1,1,2,2,3,3,4,4,6,6],"right_children":[2,4,6,8,10,-1,12,-1,-1,-1,-1,-1,-1],"split_conditions":[8.721313E-2,2.0748567E-2,-4.7280669E-4,1.6076325E-2,2.9278262E-2,4.5971456E-3,7.4768734E-1,8.609987E-4,6.1821216E-3,-8.3907135E-3,1.8098333E-3,-1.6369322E-2,-2.3811697E-3],"split_indices":[7,15,13,15,17,0,14,0,0,0,0,0,0],"split_type":[0,0,0,0,0,0,0,0,0,0,0,0,0],"sum_hessian":[3.500612E2,3.1456027E2,3.550092E1,2.627592E2,5.180108E1,9.199971E0,2.630095E1,2.1970117E2,4.305801E1,3.2661877E1,1.9139204E1,1.3533058E1,1.2767892E1],"tree_param":{"num_deleted":"0","num_feature":"23","num_nodes":"13","size_leaf_vector":"1"}},{"base_weights":[1.6226511E-2,1.24298945E-1,-4.0985325E-1,-8.051974E-3,1.7883384E-1,-6.8288004E-1,1.3812375E-1,1.4245313E-3,1.0829447E-2,7.3228363E-4,-9.187664E-3,5.606084E-3,-3.2702729E-3],"categories":[],"categories_nodes":[],"categories_segments":[],"categories_sizes":[],"default_left":[0,0,0,0,0,0,0,0,0,0,0,0,0],"id":36,"left_children":[1,3,5,-1,7,9,11,-1,-1,-1,-1,-1,-1],"loss_changes":[1.5751951E1,1.3969891E1,1.0450551E1,0E0,8.346926E0,8.337492E0,4.870547E0,0E0,0E0,0E0,0E0,0E0,0E0],"parents":[2147483647,0,0,1,1,2,2,4,4,5,5,6,6],"right_children":[2,4,6,-1,8,10,12,-1,-1,-1,-1,-1,-1],"split_conditions":[1.0909513E-2,-1.8133078E-3,2.5795125E-3,-8.051974E-3,4.0160827E-3,1.7300919E-3,2.158622E-2,1.4245313E-3,1.0829447E-2,7.3228363E-4,-9.187664E-3,5.606084E-3,-3.2702729E-3],"split_indices":[0,22,22,0,22,1,1,0,0,0,0,0,0],"split_type":[0,0,0,0,0,0,0,0,0,0,0,0,0],"sum_hessian":[3.3997433E2,2.7175394E2,6.822039E1,1.4297729E1,2.574562E2,4.536922E1,2.2851171E1,2.4860991E2,8.846307E0,1.0952315E1,3.441691E1,1.1867243E1,1.0983928E1],"tree_param":{"num_deleted":"0","num_feature":"23","num_nodes":"13","size_leaf_vector":"1"}},{"base_weights":[4.758602E-2,-9.952558E-3,9.890891E-2,1.0698539E-2,4.5714468E-2,-3.0747855E-3,1.9342635E-3],"categories":[],"categories_nodes":[],"categories_segments":[],"categories_sizes":[],"default_left":[0,0,0,0,0,0,0],"id":37,"left_children":[1,-1,3,-1,5,-1,-1],"loss_changes":[1.8610994E1,0E0,1.7024885E1,0E0,1.646452E1,0E0,0E0],"parents":[2147483647,0,0,2,2,4,4],"right_children":[2,-1,4,-1,6,-1,-1],"split_conditions":[-1.8133078E-3,-9.952558E-3,-5.0054703E-2,1.0698539E-2,1.0415455E-3,-3.0747855E-3,1.9342635E-3],"split_indices":[22,0,2,0,12,0,0],"split_type":[0,0,0,0,0,0,0],"sum_hessian":[3.44889E2,1.5314665E1,3.2957434E2,1.61256E1,3.1344873E2,9.211396E1,2.2133476E2],"tree_param":{"num_deleted":"0","num_feature":"23","num_nodes":"7","size_leaf_vector":"1"}},{"base_weights":[1.0619829E-3,2.6855662E-1,-1.7056832E-1,-5.95209E-3,3.3246955E-1,-4.2016917E-1,6.282821E-2,4.47516E-4,5.508928E-3,-2.0548694E-3,-9.276458E-3,-3.9664735E-3,4.222628E-3],"categories":[],"categories_nodes":[],"categories_segments":[],"categories_sizes":[],"default_left":[0,0,0,0,0,0,0,0,0,0,0,0,0],"id":38,"left_children":[1,3,5,-1,7,9,11,-1,-1,-1,-1,-1,-1],"loss_changes":[1.5743123E1,7.5967903E0,1.2195462E1,0E0,7.858034E0,1.0820663E1,1.8139061E1,0E0,0E0,0E0,0E0,0E0,0E0],"parents":[2147483647,0,0,1,1,2,2,4,4,5,5,6,6],"right_children":[2,4,6,-1,8,10,12,-1,-1,-1,-1,-1,-1],"split_conditions":[-2.4375985E-4,-1.6201728E-3,1.2418305E-3,-5.95209E-3,6.450825E-4,4.460313E-2,1.0415455E-3,4.47516E-4,5.508928E-3,-2.0548694E-3,-9.276458E-3,-3.9664735E-3,4.222628E-3],"split_indices":[5,22,22,0,11,6,12,0,0,0,0,0,0],"split_type":[0,0,0,0,0,0,0,0,0,0,0,0,0],"sum_hessian":[3.4091357E2,1.3302405E2,2.0788954E2,8.592049E0,1.24432E2,1.0007078E2,1.07818756E2,5.4218113E1,7.021388E1,7.130916E1,2.8761616E1,4.7278175E1,6.054058E1],"tree_param":{"num_deleted":"0","num_feature":"23","num_nodes":"13","size_leaf_vector":"1"}},{"base_weights":[-8.158189E-3,1.8441121E-1,-2.0729695E-1,2.8727818E-1,-4.036935E-1,-1.3159795E-1,-7.0315444E-1,3.6120005E-3,-8.149034E-3,1.9712863E-3,-7.3186127E-3,-3.7972142E-3,8.6142786E-4,-2.458362E-3,-1.15464E-2],"categories":[],"categories_nodes":[],"categories_segments":[],"categories_sizes":[],"default_left":[0,0,0,0,0,0,0,0,0,0,0,0,0,0,0],"id":39,"left_children":[1,3,5,7,9,11,13,-1,-1,-1,-1,-1,-1,-1,-1],"loss_changes":[1.2596363E1,1.0219757E1,5.968153E0,1.1923692E1,5.128672E0,7.667157E0,4.083991E0,0E0,0E0,0E0,0E0,0E0,0E0,0E0,0E0],"parents":[2147483647,0,0,1,1,2,2,3,3,4,4,5,5,6,6],"right_children":[2,4,6,8,10,12,14,-1,-1,-1,-1,-1,-1,-1,-1],"split_conditions":[1.6942129E-3,2.108165E-2,8.819736E-2,4.5385823E-2,7.7305424E-1,3.721254E-2,9.445672E-3,3.6120005E-3,-8.149034E-3,1.9712863E-3,-7.3186127E-3,-3.7972142E-3,8.6142786E-4,-2.458362E-3,-1.15464E-2],"split_indices":[0,15,7,8,16,7,15,0,0,0,0,0,0,0,0],"split_type":[0,0,0,0,0,0,0,0,0,0,0,0,0,0,0],"sum_hessian":[3.264779E2,1.6601424E2,1.6046367E2,1.4173459E2,2.4279655E1,1.4030908E2,2.0154585E1,1.3345615E2,8.278442E0,8.717898E0,1.5561756E1,6.523151E1,7.5077576E1,1.0779914E1,9.374671E0],"tree_param":{"num_deleted":"0","num_feature":"23","num_nodes":"15","size_leaf_vector":"1"}},{"base_weights":[-2.4498643E-2,-2.3178929E-1,1.7602015E-1,-1.343475E-1,-9.9811286E-1,-4.6317924E-2,7.484869E-1,-3.6138317E-4,-1.0572337E-2,-5.9180115E-3,-1.2665597E-2,5.212184E-3,-2.3810896E-3,9.188043E-3,3.237265E-3],"categories":[],"categories_nodes":[],"categories_segments":[],"categories_sizes":[],"default_left":[0,0,0,0,0,0,0,0,0,0,0,0,0,0,0],"id":40,"left_children":[1,3,5,7,9,11,13,-1,-1,-1,-1,-1,-1,-1,-1],"loss_changes":[1.4103156E1,1.2319762E1,2.1995197E1,1.3477587E1,1.285656E0,1.375327E1,3.1984615E0,0E0,0E0,0E0,0E0,0E0,0E0,0E0,0E0],"parents":[2147483647,0,0,1,1,2,2,3,3,4,4,5,5,6,6],"right_children":[2,4,6,8,10,12,14,-1,-1,-1,-1,-1,-1,-1,-1],"split_conditions":[1.4318301E-3,9.0621096E-1,1.266357E-2,2.0932164E-2,5.4437567E-2,-3.564352E-2,1.7025752E-2,-3.6138317E-4,-1.0572337E-2,-5.9180115E-3,-1.2665597E-2,5.212184E-3,-2.3810896E-3,9.188043E-3,3.237265E-3],"split_indices":[22,9,8,15,4,7,18,0,0,0,0,0,0,0,0],"split_type":[0,0,0,0,0,0,0,0,0,0,0,0,0,0,0],"sum_hessian":[3.373166E2,1.6578096E2,1.7153561E2,1.4812186E2,1.7659105E1,1.24212364E2,4.7323254E1,1.3481468E2,1.3307182E1,8.300421E0,9.358685E0,3.0939737E1,9.327262E1,3.294863E1,1.4374622E1],"tree_param":{"num_deleted":"0","num_feature":"23","num_nodes":"15","size_leaf_vector":"1"}},{"base_weights":[-1.21786725E-2,8.195187E-2,-4.4298822E-1,8.476327E-1,1.6471546E-2,3.619192E-3,-6.6552824E-1,4.2808563E-3,1.2270154E-2,-3.4579192E-3,1.3047587E-3,-1.0629613E-2,-1.9230089E-3],"categories":[],"categories_nodes":[],"categories_segments":[],"categories_sizes":[],"default_left":[0,0,0,0,0,0,0,0,0,0,0,0,0],"id":41,"left_children":[1,3,5,7,9,-1,11,-1,-1,-1,-1,-1,-1],"loss_changes":[1.3796403E1,1.3990097E1,1.1167677E1,2.9740868E0,1.0714066E1,0E0,8.849768E0,0E0,0E0,0E0,0E0,0E0,0E0],"parents":[2147483647,0,0,1,1,2,2,3,3,4,4,6,6],"right_children":[2,4,6,8,10,-1,12,-1,-1,-1,-1,-1,-1],"split_conditions":[1.1346518E-2,-4.6651863E-2,1.7300919E-3,-7.159203E-2,2.0042039E-3,3.619192E-3,2.103973E-3,4.2808563E-3,1.2270154E-2,-3.4579192E-3,1.3047587E-3,-1.0629613E-2,-1.9230089E-3],"split_indices":[0,7,1,7,11,0,22,0,0,0,0,0,0],"split_type":[0,0,0,0,0,0,0,0,0,0,0,0,0],"sum_hessian":[3.3831702E2,2.783157E2,6.0001335E1,2.0985159E1,2.5733054E2,1.2860336E1,4.7141E1,1.097578E1,1.0009379E1,6.1110588E1,1.9621994E2,2.494506E1,2.219594E1],"tree_param":{"num_deleted":"0","num_feature":"23","num_nodes":"13","size_leaf_vector":"1"}},{"base_weights":[-1.1766771E-2,3.0410564E-2,-9.705564E-3,1.2215317E-1,-4.9375936E-1,2.910727E-4,9.903168E-3,-1.3715501E-2,-2.6087442E-3],"categories":[],"categories_nodes":[],"categories_segments":[],"categories_sizes":[],"default_left":[0,0,0,0,0,0,0,0,0],"id":42,"left_children":[1,3,-1,5,7,-1,-1,-1,-1],"loss_changes":[1.3882407E1,1.5886134E1,0E0,2.2660221E1,9.703657E0,0E0,0E0,0E0,0E0],"parents":[2147483647,0,0,1,1,3,3,4,4],"right_children":[2,4,-1,6,8,-1,-1,-1,-1],"split_conditions":[2.230556E-2,2.0932164E-2,-9.705564E-3,1.1485321E-1,1.0274876E-1,2.910727E-4,9.903168E-3,-1.3715501E-2,-2.6087442E-3],"split_indices":[11,15,0,10,10,0,0,0,0],"split_type":[0,0,0,0,0,0,0,0,0],"sum_hessian":[3.4156107E2,3.280963E2,1.3464736E1,2.798778E2,4.8218525E1,2.5371887E2,2.6158926E1,9.085195E0,3.913333E1],"tree_param":{"num_deleted":"0","num_feature":"23","num_nodes":"9","size_leaf_vector":"1"}},{"base_weights":[3.7385177E-2,-1.504522E-1,2.2137225E-1,-5.828026E-2,-9.1649044E-1,-1.0513043E-1,6.4110225E-1,2.3162673E-4,-9.335489E-3,-4.3306216E-3,-1.2810732E-2,-4.711236E-3,4.778855E-3,2.84048E-4,7.816278E-3],"categories":[],"categories_nodes":[],"categories_segments":[],"categories_sizes":[],"default_left":[0,0,0,0,0,0,0,0,0,0,0,0,0,0,0],"id":43,"left_children":[1,3,5,7,9,11,13,-1,-1,-1,-1,-1,-1,-1,-1],"loss_changes":[1.1912514E1,1.1997897E1,2.3919678E1,1.0957922E1,2.6641083E0,2.1297684E1,6.546652E0,0E0,0E0,0E0,0E0,0E0,0E0,0E0,0E0],"parents":[2147483647,0,0,1,1,2,2,3,3,4,4,5,5,6,6],"right_children":[2,4,6,8,10,12,14,-1,-1,-1,-1,-1,-1,-1,-1],"split_conditions":[1.4318301E-3,1.93712E-2,2.0636837E-3,2.0748567E-2,1.5602476E-2,1.12374E-1,-1.8711113E-3,2.3162673E-4,-9.335489E-3,-4.3306216E-3,-1.2810732E-2,-4.711236E-3,4.778855E-3,2.84048E-4,7.816278E-3],"split_indices":[22,11,11,15,18,10,13,0,0,0,0,0,0,0,0],"split_type":[0,0,0,0,0,0,0,0,0,0,0,0,0,0,0],"sum_hessian":[3.4273062E2,1.6968098E2,1.7304964E2,1.5241772E2,1.7263258E1,9.7756004E1,7.5293625E1,1.4033336E2,1.20843525E1,8.362546E0,8.900713E0,6.0173504E1,3.75825E1,1.4271487E1,6.102214E1],"tree_param":{"num_deleted":"0","num_feature":"23","num_nodes":"15","size_leaf_vector":"1"}},{"base_weights":[4.6288542E-2,1.473935E-1,-3.9678577E-1,-8.2867265E-2,3.9936456E-1,-7.5394225E-1,-1.6881222E-2,3.8199301E-3,-2.3569965E-3,1.9199217E-3,8.3365245E-3,-2.998362E-3,-1.007598E-2,-5.0557577E-3,6.814252E-3],"categories":[],"categories_nodes":[],"categories_segments":[],"categories_sizes":[],"default_left":[0,0,0,0,0,0,0,0,0,0,0,0,0,0,0],"id":44,"left_children":[1,3,5,7,9,11,13,-1,-1,-1,-1,-1,-1,-1,-1],"loss_changes":[1.5113172E1,1.5950921E1,8.496031E0,1.0333516E1,1.1653355E1,3.4183617E0,1.106342E1,0E0,0E0,0E0,0E0,0E0,0E0,0E0,0E0],"parents":[2147483647,0,0,1,1,2,2,3,3,4,4,5,5,6,6],"right_children":[2,4,6,8,10,12,14,-1,-1,-1,-1,-1,-1,-1,-1],"split_conditions":[1.1564552E-2,1.3969615E-3,2.1246825E-3,-1.2949406E-3,1.2398331E-2,8.1200665E-1,-5.566844E-3,3.8199301E-3,-2.3569965E-3,1.9199217E-3,8.3365245E-3,-2.998362E-3,-1.007598E-2,-5.0557577E-3,6.814252E-3],"split_indices":[0,22,22,13,8,19,8,0,0,0,0,0,0,0,0],"split_type":[0,0,0,0,0,0,0,0,0,0,0,0,0,0,0],"sum_hessian":[3.3506464E2,2.7335516E2,6.170947E1,1.4318155E2,1.3017361E2,3.1299538E1,3.0409931E1,3.505565E1,1.0812589E2,8.908002E1,4.1093605E1,1.1999521E1,1.9300016E1,1.805237E1,1.2357561E1],"tree_param":{"num_deleted":"0","num_feature":"23","num_nodes":"15","size_leaf_vector":"1"}},{"base_weights":[-6.0753E-3,-6.759559E-2,6.150721E-1,2.3309337E-2,-5.5886537E-1,8.571859E-1,-5.36821E-4,7.849869E-4,-1.1268528E-2,-3.499817E-3,-1.2980543E-2,4.5747147E-3,1.2362601E-2],"categories":[],"categories_nodes":[],"categories_segments":[],"categories_sizes":[],"default_left":[0,0,0,0,0,0,0,0,0,0,0,0,0],"id":45,"left_children":[1,3,5,7,9,11,-1,-1,-1,-1,-1,-1,-1],"loss_changes":[1.3047331E1,1.3883045E1,5.0281725E0,1.6785458E1,7.0398483E0,2.8664532E0,0E0,0E0,0E0,0E0,0E0,0E0,0E0],"parents":[2147483647,0,0,1,1,2,2,3,3,4,4,5,5],"right_children":[2,4,6,8,10,12,-1,-1,-1,-1,-1,-1,-1],"split_conditions":[3.3472003E-3,1.9571902E-2,1.2269115E0,2.230556E-2,5.0917673E-1,1.3046083E-1,-5.36821E-4,7.849869E-4,-1.1268528E-2,-3.499817E-3,-1.2980543E-2,4.5747147E-3,1.2362601E-2],"split_indices":[22,15,16,11,9,10,0,0,0,0,0,0,0],"split_type":[0,0,0,0,0,0,0,0,0,0,0,0,0],"sum_hessian":[3.3934747E2,3.0957718E2,2.9770275E1,2.620414E2,4.7535786E1,2.1650297E1,8.119978E0,2.5093242E2,1.1108985E1,3.821131E1,9.324473E0,1.1612412E1,1.0037885E1],"tree_param":{"num_deleted":"0","num_feature":"23","num_nodes":"13","size_leaf_vector":"1"}},{"base_weights":[2.4902795E-2,-1.7970139E-1,2.2377254E-1,-9.766568E-2,-1.0421012E-2,-4.442905E-2,5.973553E-1,-1.0921121E-2,-1.0559592E-4,-3.694655E-3,5.8490974E-3,1.2868666E-3,8.620177E-3],"categories":[],"categories_nodes":[],"categories_segments":[],"categories_sizes":[],"default_left":[0,0,0,0,0,0,0,0,0,0,0,0,0],"id":46,"left_children":[1,3,5,7,-1,9,11,-1,-1,-1,-1,-1,-1],"loss_changes":[1.39557E1,1.1863056E1,1.744767E1,1.3461126E1,0E0,2.1109938E1,8.910433E0,0E0,0E0,0E0,0E0,0E0,0E0],"parents":[2147483647,0,0,1,1,2,2,3,3,5,5,6,6],"right_children":[2,4,6,8,-1,10,12,-1,-1,-1,-1,-1,-1],"split_conditions":[1.4318301E-3,4.7157604E-2,3.1086097E-3,1.0415455E-3,-1.0421012E-2,3.2393495E-3,5.3338325E-1,-1.0921121E-2,-1.0559592E-4,-3.694655E-3,5.8490974E-3,1.2868666E-3,8.620177E-3],"split_indices":[22,8,12,12,0,22,14,0,0,0,0,0,0],"split_type":[0,0,0,0,0,0,0,0,0,0,0,0,0],"sum_hessian":[3.4099142E2,1.6812001E2,1.728714E2,1.545333E2,1.3586718E1,1.0114134E2,7.173006E1,1.151658E1,1.4301672E2,6.6967415E1,3.4173927E1,2.6424078E1,4.5305977E1],"tree_param":{"num_deleted":"0","num_feature":"23","num_nodes":"13","size_leaf_vector":"1"}},{"base_weights":[-4.887814E-3,7.9937585E-2,-4.9934554E-1,3.573843E-1,-8.998013E-2,-1.0871712E0,-8.004099E-2,2.168607E-3,1.0078354E-2,-3.10892E-3,1.7570641E-3,-7.2143283E-3,-1.4726766E-2,-4.7095767E-3,6.839006E-3],"categories":[],"categories_nodes":[],"categories_segments":[],"categories_sizes":[],"default_left":[0,0,0,0,0,0,0,0,0,0,0,0,0,0,0],"id":47,"left_children":[1,3,5,7,9,11,13,-1,-1,-1,-1,-1,-1,-1,-1],"loss_changes":[1.4301461E1,1.3755375E1,1.2219256E1,9.905814E0,1.0697576E1,1.8572063E0,9.347197E0,0E0,0E0,0E0,0E0,0E0,0E0,0E0,0E0],"parents":[2147483647,0,0,1,1,2,2,3,3,4,4,5,5,6,6],"right_children":[2,4,6,8,10,12,14,-1,-1,-1,-1,-1,-1,-1,-1],"split_conditions":[2.108165E-2,-2.4375985E-4,1.8941468E-3,1.6076325E-2,1.3277516E-3,1.589769E-1,-3.0856317E-2,2.168607E-3,1.0078354E-2,-3.10892E-3,1.7570641E-3,-7.2143283E-3,-1.4726766E-2,-4.7095767E-3,6.839006E-3],"split_indices":[15,5,22,15,22,10,4,0,0,0,0,0,0,0,0],"split_type":[0,0,0,0,0,0,0,0,0,0,0,0,0,0,0],"sum_hessian":[3.3902548E2,2.90097E2,4.8928493E1,1.09765434E2,1.8033156E2,1.9707554E1,2.9220942E1,9.136115E1,1.8404282E1,9.836954E1,8.196201E1,1.1586527E1,8.121026E0,1.9583422E1,9.637519E0],"tree_param":{"num_deleted":"0","num_feature":"23","num_nodes":"15","size_leaf_vector":"1"}},{"base_weights":[8.728348E-3,4.715437E-1,-9.307614E-2,9.306966E-2,8.7576044E-1,-3.460282E-2,-9.550111E-1,4.2480133E-3,-7.9767285E-3,1.1262967E-2,2.8385094E-3,-3.1401287E-3,1.3656856E-3,-1.2906641E-2,-5.371452E-3],"categories":[],"categories_nodes":[],"categories_segments":[],"categories_sizes":[],"default_left":[0,0,0,0,0,0,0,0,0,0,0,0,0,0,0],"id":48,"left_children":[1,3,5,7,9,11,13,-1,-1,-1,-1,-1,-1,-1,-1],"loss_changes":[1.6155563E1,9.376221E0,1.4136043E1,1.0103558E1,4.09577E0,1.2683991E1,1.8064919E0,0E0,0E0,0E0,0E0,0E0,0E0,0E0,0E0],"parents":[2147483647,0,0,1,1,2,2,3,3,4,4,5,5,6,6],"right_children":[2,4,6,8,10,12,14,-1,-1,-1,-1,-1,-1,-1,-1],"split_conditions":[1.1364827E-2,1.2806341E-3,9.8764785E-2,9.029953E-1,1.0729281E-2,1.0415455E-3,1.7855134E-2,4.2480133E-3,-7.9767285E-3,1.1262967E-2,2.8385094E-3,-3.1401287E-3,1.3656856E-3,-1.2906641E-2,-5.371452E-3],"split_indices":[17,22,7,9,17,12,12,0,0,0,0,0,0,0,0],"split_type":[0,0,0,0,0,0,0,0,0,0,0,0,0,0,0],"sum_hessian":[3.4095267E2,6.0821053E1,2.8013162E2,3.204608E1,2.877497E1,2.63309E2,1.682263E1,2.3731174E1,8.314907E0,1.9583208E1,9.191762E0,9.9711426E1,1.6359755E2,8.170739E0,8.651891E0],"tree_param":{"num_deleted":"0","num_feature":"23","num_nodes":"15","size_leaf_vector":"1"}},{"base_weights":[1.1652496E-2,-1.8236028E-1,2.0155875E-1,-9.184693E-2,-1.0535454E-2,-1.3443388E-1,6.523854E-1,-7.269182E-5,-8.5058445E-3,4.942877E-3,-4.517359E-3,1.0256533E-2,4.049566E-3],"categories":[],"categories_nodes":[],"categories_segments":[],"categories_sizes":[],"default_left":[0,0,0,0,0,0,0,0,0,0,0,0,0],"id":49,"left_children":[1,3,5,7,-1,9,11,-1,-1,-1,-1,-1,-1],"loss_changes":[1.2611458E1,1.3256866E1,2.6284763E1,9.908658E0,0E0,2.015744E1,6.4212875E0,0E0,0E0,0E0,0E0,0E0,0E0],"parents":[2147483647,0,0,1,1,2,2,3,3,5,5,6,6],"right_children":[2,4,6,8,-1,10,12,-1,-1,-1,-1,-1,-1],"split_conditions":[1.4318301E-3,1.9673388E-2,2.0636837E-3,9.7087187E-1,-1.0535454E-2,-3.564352E-2,2.0567267E-3,-7.269182E-5,-8.5058445E-3,4.942877E-3,-4.517359E-3,1.0256533E-2,4.049566E-3],"split_indices":[22,11,11,9,0,7,5,0,0,0,0,0,0],"split_type":[0,0,0,0,0,0,0,0,0,0,0,0,0],"sum_hessian":[3.4029355E2,1.6834648E2,1.7194707E2,1.535034E2,1.4843085E1,9.892324E1,7.302383E1,1.3901657E2,1.4486828E1,3.299237E1,6.593088E1,2.7855755E1,4.516807E1],"tree_param":{"num_deleted":"0","num_feature":"23","num_nodes":"13","size_leaf_vector":"1"}},{"base_weights":[-2.7371502E-2,-1.0385824E-2,1.8852178E-2,1.1723755E-1,-4.124732E-1,1.6672027E-4,5.7256985E-3,-8.019849E-3,-6.406324E-4],"categories":[],"categories_nodes":[],"categories_segments":[],"categories_sizes":[],"default_left":[0,0,0,0,0,0,0,0,0],"id":50,"left_children":[1,-1,3,5,7,-1,-1,-1,-1],"loss_changes":[1.5900735E1,0E0,1.3877986E1,1.2177297E1,8.193095E0,0E0,0E0,0E0,0E0],"parents":[2147483647,0,0,2,2,3,3,4,4],"right_children":[2,-1,4,6,8,-1,-1,-1,-1],"split_conditions":[-1.8133078E-3,-1.0385824E-2,1.5373511E-2,1.1290628E-1,1.5812279E-3,1.6672027E-4,5.7256985E-3,-8.019849E-3,-6.406324E-4],"split_indices":[22,0,5,10,22,0,0,0,0],"split_type":[0,0,0,0,0,0,0,0,0],"sum_hessian":[3.3876282E2,1.3869894E1,3.248929E2,2.6514215E2,5.9750767E1,2.180253E2,4.7116856E1,2.759668E1,3.2154087E1],"tree_param":{"num_deleted":"0","num_feature":"23","num_nodes":"9","size_leaf_vector":"1"}},{"base_weights":[9.877374E-3,9.8444276E-2,-3.1629276E-1,-7.826001E-2,3.0082852E-1,5.0476454E-2,-5.841404E-1,2.6265723E-3,-3.9554536E-3,5.2783284E-3,-2.5820488E-4,-5.8880392E-3,4.7945725E-3,2.084731E-3,-8.179468E-3],"categories":[],"categories_nodes":[],"categories_segments":[],"categories_sizes":[],"default_left":[0,0,0,0,0,0,0,0,0,0,0,0,0,0,0],"id":51,"left_children":[1,3,5,7,9,11,13,-1,-1,-1,-1,-1,-1,-1,-1],"loss_changes":[9.879203E0,9.638867E0,7.2045894E0,1.5716292E1,9.322069E0,8.988555E0,8.007781E0,0E0,0E0,0E0,0E0,0E0,0E0,0E0,0E0],"parents":[2147483647,0,0,1,1,2,2,3,3,4,4,5,5,6,6],"right_children":[2,4,6,8,10,12,14,-1,-1,-1,-1,-1,-1,-1,-1],"split_conditions":[1.4181118E-2,5.4669434E-1,5.9022E-1,-7.914484E-3,6.7149706E-2,3.956687E-4,9.770837E-3,2.6265723E-3,-3.9554536E-3,5.2783284E-3,-2.5820488E-4,-5.8880392E-3,4.7945725E-3,2.084731E-3,-8.179468E-3],"split_indices":[5,14,14,1,7,13,18,0,0,0,0,0,0,0,0],"split_type":[0,0,0,0,0,0,0,0,0,0,0,0,0,0,0],"sum_hessian":[3.3990646E2,2.6786868E2,7.203778E1,1.4333466E2,1.2453403E2,3.0746935E1,4.129085E1,6.917721E1,7.4157455E1,7.3110245E1,5.1423786E1,1.2197412E1,1.8549522E1,9.430251E0,3.18606E1],"tree_param":{"num_deleted":"0","num_feature":"23","num_nodes":"15","size_leaf_vector":"1"}},{"base_weights":[1.0436686E-2,1.1613171E-1,-4.5435783E-1,-8.210593E-2,3.824802E-1,-6.578722E-1,-9.398444E-2,-1.4890634E-4,-1.1072899E-2,8.2903035E-4,9.320014E-3,-4.3725083E-3,-9.817432E-3,3.1987007E-3,-5.7337712E-3],"categories":[],"categories_nodes":[],"categories_segments":[],"categories_sizes":[],"default_left":[0,0,0,0,0,0,0,0,0,0,0,0,0,0,0],"id":52,"left_children":[1,3,5,7,9,11,13,-1,-1,-1,-1,-1,-1,-1,-1],"loss_changes":[1.6832552E1,1.4766799E1,4.5942497E0,1.106526E1,1.9555548E1,2.4578495E0,4.9607124E0,0E0,0E0,0E0,0E0,0E0,0E0,0E0,0E0],"parents":[2147483647,0,0,1,1,2,2,3,3,4,4,5,5,6,6],"right_children":[2,4,6,8,10,12,14,-1,-1,-1,-1,-1,-1,-1,-1],"split_conditions":[1.1346518E-2,1.5812279E-3,2.5456501E-3,2.2002656E-2,1.02552725E-2,1.9887963E-2,2.0049058E-2,-1.4890634E-4,-1.1072899E-2,8.2903035E-4,9.320014E-3,-4.3725083E-3,-9.817432E-3,3.1987007E-3,-5.7337712E-3],"split_indices":[0,22,22,15,8,18,1,0,0,0,0,0,0,0,0],"split_type":[0,0,0,0,0,0,0,0,0,0,0,0,0,0,0],"sum_hessian":[3.4056308E2,2.7807788E2,6.2485214E1,1.5981937E2,1.182585E2,3.940591E1,2.3079306E1,1.5093779E2,8.881579E0,7.7279594E1,4.0978905E1,2.4836994E1,1.4568915E1,1.2564912E1,1.0514393E1],"tree_param":{"num_deleted":"0","num_feature":"23","num_nodes":"15","size_leaf_vector":"1"}},{"base_weights":[-7.2099376E-3,7.706782E-2,-3.8404042E-1,6.0924655E-1,1.2118456E-2,-8.0427724E-1,-1.10816196E-1,-3.1964562E-4,8.514755E-3,-4.1017616E-3,1.435139E-3,-1.1560089E-2,-3.6034705E-3,4.109309E-3,-3.089877E-3],"categories":[],"categories_nodes":[],"categories_segments":[],"categories_sizes":[],"default_left":[0,0,0,0,0,0,0,0,0,0,0,0,0,0,0],"id":53,"left_children":[1,3,5,7,9,11,13,-1,-1,-1,-1,-1,-1,-1,-1],"loss_changes":[1.0902913E1,9.692565E0,7.115059E0,4.7650843E0,1.3993353E1,3.4185505E0,4.1782694E0,0E0,0E0,0E0,0E0,0E0,0E0,0E0,0E0],"parents":[2147483647,0,0,1,1,2,2,3,3,4,4,5,5,6,6],"right_children":[2,4,6,8,10,12,14,-1,-1,-1,-1,-1,-1,-1,-1],"split_conditions":[1.1346518E-2,-3.4585014E-2,1.5816333E-2,-2.5589628E-2,2.618529E-3,2.3528522E-2,-8.953594E-3,-3.1964562E-4,8.514755E-3,-4.1017616E-3,1.435139E-3,-1.1560089E-2,-3.6034705E-3,4.109309E-3,-3.089877E-3],"split_indices":[0,7,0,0,12,3,12,0,0,0,0,0,0,0,0],"split_type":[0,0,0,0,0,0,0,0,0,0,0,0,0,0,0],"sum_hessian":[3.4137576E2,2.7963187E2,6.1743904E1,2.9503914E1,2.5012796E2,2.3561346E1,3.8182556E1,8.327638E0,2.1176275E1,5.885403E1,1.9127393E2,1.2250826E1,1.1310521E1,1.0214953E1,2.7967604E1],"tree_param":{"num_deleted":"0","num_feature":"23","num_nodes":"15","size_leaf_vector":"1"}},{"base_weights":[-6.409111E-3,1.8779728E-1,-2.4391665E-1,4.522906E-1,-3.0081887E-2,-5.3165644E-1,3.0802183E-2,1.3037007E-3,7.63921E-3,4.9059163E-3,-2.2247375E-3,-2.4428961E-3,-8.2435245E-3,-2.5592537E-3,5.6427727E-3],"categories":[],"categories_nodes":[],"categories_segments":[],"categories_sizes":[],"default_left":[0,0,0,0,0,0,0,0,0,0,0,0,0,0,0],"id":54,"left_children":[1,3,5,7,9,11,13,-1,-1,-1,-1,-1,-1,-1,-1],"loss_changes":[1.5718703E1,1.0818754E1,1.2133466E1,8.402809E0,1.0501823E1,6.100626E0,1.2284072E1,0E0,0E0,0E0,0E0,0E0,0E0,0E0,0E0],"parents":[2147483647,0,0,1,1,2,2,3,3,4,4,5,5,6,6],"right_children":[2,4,6,8,10,12,14,-1,-1,-1,-1,-1,-1,-1,-1],"split_conditions":[2.886797E-3,1.3649873E-2,1.5812279E-3,1.2806341E-3,-2.8226499E-2,1.0810137E-2,4.216474E-3,1.3037007E-3,7.63921E-3,4.9059163E-3,-2.2247375E-3,-2.4428961E-3,-8.2435245E-3,-2.5592537E-3,5.6427727E-3],"split_indices":[0,18,22,22,2,1,11,0,0,0,0,0,0,0,0],"split_type":[0,0,0,0,0,0,0,0,0,0,0,0,0,0,0],"sum_hessian":[3.3878824E2,1.8649957E2,1.5228865E2,8.3752625E1,1.02746956E2,7.392477E1,7.8363884E1,4.1893814E1,4.185881E1,2.7303917E1,7.544304E1,3.8227703E1,3.569706E1,5.130772E1,2.7056162E1],"tree_param":{"num_deleted":"0","num_feature":"23","num_nodes":"15","size_leaf_vector":"1"}},{"base_weights":[-8.481544E-3,-9.444682E-3,2.9778568E-2,7.020485E-2,-7.860132E-3,-2.3202517E-3,2.162771E-3],"categories":[],"categories_nodes":[],"categories_segments":[],"categories_sizes":[],"default_left":[0,0,0,0,0,0,0],"id":55,"left_children":[1,-1,3,5,-1,-1,-1],"loss_changes":[1.1989839E1,0E0,1.0670461E1,1.3629769E1,0E0,0E0,0E0],"parents":[2147483647,0,0,2,2,3,3],"right_children":[2,-1,4,6,-1,-1,-1],"split_conditions":[-2.2563047E-3,-9.444682E-3,9.8764785E-2,1.0415455E-3,-7.860132E-3,-2.3202517E-3,2.162771E-3],"split_indices":[22,0,7,12,0,0,0],"split_type":[0,0,0,0,0,0,0],"sum_hessian":[3.3302393E2,1.214818E1,3.2087573E2,3.065964E2,1.4279337E1,9.970789E1,2.0688852E2],"tree_param":{"num_deleted":"0","num_feature":"23","num_nodes":"7","size_leaf_vector":"1"}},{"base_weights":[-9.623779E-3,2.1588893E-1,-1.9389658E-1,6.465307E-1,5.1457714E-2,1.2386525E-1,-3.1768024E-1,9.626171E-3,-2.0439522E-3,-3.3606503E-3,1.6571471E-3,-1.8728973E-3,6.0285577E-3,-8.198705E-3,-2.3960986E-3],"categories":[],"categories_nodes":[],"categories_segments":[],"categories_sizes":[],"default_left":[0,0,0,0,0,0,0,0,0,0,0,0,0,0,0],"id":56,"left_children":[1,3,5,7,9,11,13,-1,-1,-1,-1,-1,-1,-1,-1],"loss_changes":[1.4081372E1,1.0758068E1,7.3731346E0,1.1499756E1,4.986954E0,8.010449E0,5.0752544E0,0E0,0E0,0E0,0E0,0E0,0E0,0E0,0E0],"parents":[2147483647,0,0,1,1,2,2,3,3,4,4,5,5,6,6],"right_children":[2,4,6,8,10,12,14,-1,-1,-1,-1,-1,-1,-1,-1],"split_conditions":[1.3987899E-3,5.6416776E-2,1.0380689E-2,6.005733E-2,6.862886E-2,1.0546945E-2,4.6416555E-2,9.626171E-3,-2.0439522E-3,-3.3606503E-3,1.6571471E-3,-1.8728973E-3,6.0285577E-3,-8.198705E-3,-2.3960986E-3],"split_indices":[1,10,18,7,10,15,10,0,0,0,0,0,0,0,0],"split_type":[0,0,0,0,0,0,0,0,0,0,0,0,0,0,0],"sum_hessian":[3.3684677E2,1.5139647E2,1.854503E2,4.1023888E1,1.10372574E2,5.1989296E1,1.33461E2,2.981682E1,1.1207067E1,2.4690178E1,8.5682396E1,3.188537E1,2.0103924E1,1.6677944E1,1.1678306E2],"tree_param":{"num_deleted":"0","num_feature":"23","num_nodes":"15","size_leaf_vector":"1"}},{"base_weights":[1.7693203E-3,1.3767552E-1,-3.405314E-1,5.6262755E-1,5.3222865E-2,-6.986195E-1,-2.4253108E-2,2.6169422E-3,1.0212926E-2,-9.568318E-3,1.0007882E-3,-2.392049E-3,-1.043954E-2,-2.14536E-3,7.5438027E-3],"categories":[],"categories_nodes":[],"categories_segments":[],"categories_sizes":[],"default_left":[0,0,0,0,0,0,0,0,0,0,0,0,0,0,0],"id":57,"left_children":[1,3,5,7,9,11,13,-1,-1,-1,-1,-1,-1,-1,-1],"loss_changes":[1.5890537E1,8.744512E0,1.0977692E1,5.313096E0,9.800837E0,6.967945E0,7.9527793E0,0E0,0E0,0E0,0E0,0E0,0E0,0E0,0E0],"parents":[2147483647,0,0,1,1,2,2,3,3,4,4,5,5,6,6],"right_children":[2,4,6,8,10,12,14,-1,-1,-1,-1,-1,-1,-1,-1],"split_conditions":[1.3252863E-2,7.049527E-1,1.5327431E-3,1.7309665E-3,-2.2563047E-3,6.443141E-1,9.1038114E-1,2.6169422E-3,1.0212926E-2,-9.568318E-3,1.0007882E-3,-2.392049E-3,-1.043954E-2,-2.14536E-3,7.5438027E-3],"split_indices":[1,16,22,22,22,14,9,0,0,0,0,0,0,0,0],"split_type":[0,0,0,0,0,0,0,0,0,0,0,0,0,0,0],"sum_hessian":[3.3957147E2,2.4349332E2,9.607816E1,3.942932E1,2.0406398E2,4.4493763E1,5.15844E1,2.4756784E1,1.4672539E1,8.18578E0,1.958782E2,1.9819557E1,2.4674204E1,4.203607E1,9.548329E0],"tree_param":{"num_deleted":"0","num_feature":"23","num_nodes":"15","size_leaf_vector":"1"}},{"base_weights":[-1.1425417E-2,3.0504423E-1,-1.3788705E-1,6.3734436E-1,2.816791E-2,-2.2922269E-1,5.2731234E-1,9.199223E-3,-2.3946173E-3,-5.7378346E-3,3.1569866E-3,-1.694786E-3,-1.1110707E-2,1.9276502E-3,9.066929E-3],"categories":[],"categories_nodes":[],"categories_segments":[],"categories_sizes":[],"default_left":[0,0,0,0,0,0,0,0,0,0,0,0,0,0,0],"id":58,"left_children":[1,3,5,7,9,11,13,-1,-1,-1,-1,-1,-1,-1,-1],"loss_changes":[1.3535835E1,8.867581E0,1.4798986E1,1.1084391E1,9.480238E0,1.1039952E1,3.5655537E0,0E0,0E0,0E0,0E0,0E0,0E0,0E0,0E0],"parents":[2147483647,0,0,1,1,2,2,3,3,4,4,5,5,6,6],"right_children":[2,4,6,8,10,12,14,-1,-1,-1,-1,-1,-1,-1,-1],"split_conditions":[5.6416776E-2,1.5680386E-3,3.377408E-3,6.0566258E-2,7.6443977E-3,6.4425476E-2,-2.7133168E-3,9.199223E-3,-2.3946173E-3,-5.7378346E-3,3.1569866E-3,-1.694786E-3,-1.1110707E-2,1.9276502E-3,9.066929E-3],"split_indices":[10,1,22,7,2,6,13,0,0,0,0,0,0,0,0],"split_type":[0,0,0,0,0,0,0,0,0,0,0,0,0,0,0],"sum_hessian":[3.3616507E2,9.557555E1,2.4058954E2,4.284824E1,5.2727306E1,2.121197E2,2.8469831E1,3.2367603E1,1.0480637E1,1.6722618E1,3.600469E1,1.9977724E2,1.2342468E1,1.5930246E1,1.2539585E1],"tree_param":{"num_deleted":"0","num_feature":"23","num_nodes":"15","size_leaf_vector":"1"}},{"base_weights":[6.0949973E-3,7.2288856E-2,-5.480607E-1,1.6201462E-1,-3.5436383E-1,4.5125574E-4,-9.4523627E-1,1.092251E-2,1.0473034E-3,-2.4620994E-4,-6.0358387E-3,-4.6505607E-3,-1.2339057E-2],"categories":[],"categories_nodes":[],"categories_segments":[],"categories_sizes":[],"default_left":[0,0,0,0,0,0,0,0,0,0,0,0,0],"id":59,"left_children":[1,3,5,7,9,-1,11,-1,-1,-1,-1,-1,-1],"loss_changes":[1.259762E1,1.1798566E1,8.676596E0,1.3425924E1,4.3904424E0,0E0,2.4750328E0,0E0,0E0,0E0,0E0,0E0,0E0],"parents":[2147483647,0,0,1,1,2,2,3,3,4,4,6,6],"right_children":[2,4,6,8,10,-1,12,-1,-1,-1,-1,-1,-1],"split_conditions":[8.721313E-2,2.0932164E-2,1.2433643E-2,-4.0443327E-2,7.949957E-1,4.5125574E-4,9.37912E-3,1.092251E-2,1.0473034E-3,-2.4620994E-4,-6.0358387E-3,-4.6505607E-3,-1.2339057E-2],"split_indices":[7,15,18,7,16,0,15,0,0,0,0,0,0],"split_type":[0,0,0,0,0,0,0,0,0,0,0,0,0],"sum_hessian":[3.4135056E2,3.057038E2,3.5646748E1,2.5309729E2,5.2606506E1,1.4651278E1,2.099547E1,1.3633666E1,2.3946362E2,2.3117952E1,2.9488554E1,8.863212E0,1.2132257E1],"tree_param":{"num_deleted":"0","num_feature":"23","num_nodes":"13","size_leaf_vector":"1"}},{"base_weights":[-7.6813176E-3,6.144061E-1,-6.654134E-2,4.6973085E-4,8.2347596E-1,2.1087925E-1,-2.3483166E-1,3.6924058E-3,1.072937E-2,3.6770988E-3,-8.985018E-4,-1.5855154E-3,-9.596403E-3],"categories":[],"categories_nodes":[],"categories_segments":[],"categories_sizes":[],"default_left":[0,0,0,0,0,0,0,0,0,0,0,0,0],"id":60,"left_children":[1,3,5,-1,7,9,11,-1,-1,-1,-1,-1,-1],"loss_changes":[1.2672031E1,3.5103083E0,1.480483E1,0E0,2.074132E0,5.6860046E0,1.075004E1,0E0,0E0,0E0,0E0,0E0,0E0],"parents":[2147483647,0,0,1,1,2,2,4,4,5,5,6,6],"right_children":[2,4,6,-1,8,10,12,-1,-1,-1,-1,-1,-1],"split_conditions":[-7.618825E-1,1.6852217E-2,1.2253965E-2,4.6973085E-4,-7.214187E-2,6.7149706E-2,9.279224E-2,3.6924058E-3,1.072937E-2,3.6770988E-3,-8.985018E-4,-1.5855154E-3,-9.596403E-3],"split_indices":[9,17,18,0,4,7,7,0,0,0,0,0,0],"split_type":[0,0,0,0,0,0,0,0,0,0,0,0,0],"sum_hessian":[3.439618E2,2.8915668E1,3.150461E2,8.115149E0,2.0800518E1,1.1885872E2,1.9618741E2,8.25302E0,1.2547499E1,7.797301E1,4.088571E1,1.7860904E2,1.7578375E1],"tree_param":{"num_deleted":"0","num_feature":"23","num_nodes":"13","size_leaf_vector":"1"}},{"base_weights":[5.0802194E-2,3.7600523E-1,-4.0542033E-2,7.375293E-1,2.073459E-2,2.770556E-1,-1.484183E-1,9.471543E-3,-1.0980328E-4,3.7464171E-3,-3.066137E-3,7.4674754E-4,7.3239463E-3,-4.8813857E-3,-1.8570948E-4],"categories":[],"categories_nodes":[],"categories_segments":[],"categories_sizes":[],"default_left":[0,0,0,0,0,0,0,0,0,0,0,0,0,0,0],"id":61,"left_children":[1,3,5,7,9,11,13,-1,-1,-1,-1,-1,-1,-1,-1],"loss_changes":[1.025719E1,9.708123E0,9.294369E0,5.8933144E0,4.6575537E0,6.2877293E0,8.912693E0,0E0,0E0,0E0,0E0,0E0,0E0,0E0,0E0],"parents":[2147483647,0,0,1,1,2,2,3,3,4,4,5,5,6,6],"right_children":[2,4,6,8,10,12,14,-1,-1,-1,-1,-1,-1,-1,-1],"split_conditions":[7.387708E-1,1.6942129E-3,-1.2590049E-2,8.4632427E-1,1.6335567E-2,-1.90969E-2,2.0636837E-3,9.471543E-3,-1.0980328E-4,3.7464171E-3,-3.066137E-3,7.4674754E-4,7.3239463E-3,-4.8813857E-3,-1.8570948E-4],"split_indices":[16,0,1,19,17,1,11,0,0,0,0,0,0,0,0],"split_type":[0,0,0,0,0,0,0,0,0,0,0,0,0,0,0],"sum_hessian":[3.4378375E2,7.470461E1,2.6907916E2,3.649315E1,3.8211464E1,6.782573E1,2.0125342E2,2.830169E1,8.191462E0,1.8291471E1,1.991999E1,4.7761543E1,2.0064186E1,5.488865E1,1.4636478E2],"tree_param":{"num_deleted":"0","num_feature":"23","num_nodes":"15","size_leaf_vector":"1"}},{"base_weights":[-3.306656E-2,-9.241376E-3,1.1654287E-2,1.7201039E-1,-1.9554293E-1,8.84354E-4,8.322879E-3,-7.168247E-4,-6.7075915E-3],"categories":[],"categories_nodes":[],"categories_segments":[],"categories_sizes":[],"default_left":[0,0,0,0,0,0,0,0,0],"id":62,"left_children":[1,-1,3,5,7,-1,-1,-1,-1],"loss_changes":[1.3661008E1,0E0,1.0903729E1,1.0132998E1,8.380888E0,0E0,0E0,0E0,0E0],"parents":[2147483647,0,0,2,2,3,3,4,4],"right_children":[2,-1,4,6,8,-1,-1,-1,-1],"split_conditions":[-1.8133078E-3,-9.241376E-3,3.4501615E-3,3.147215E-3,1.2269115E0,8.84354E-4,8.322879E-3,-7.168247E-4,-6.7075915E-3],"split_indices":[22,0,0,22,16,0,0,0,0],"split_type":[0,0,0,0,0,0,0,0,0],"sum_hessian":[3.4154523E2,1.5382451E1,3.2616275E2,1.8396025E2,1.422025E2,1.6429807E2,1.9662184E1,1.1371472E2,2.8487785E1],"tree_param":{"num_deleted":"0","num_feature":"23","num_nodes":"9","size_leaf_vector":"1"}},{"base_weights":[3.2585632E-2,4.5977256E-1,-6.4863466E-2,9.500313E-2,9.1362005E-1,4.7580686E-1,-1.2734412E-1,4.678326E-3,-7.8423405E-3,1.3914361E-2,6.1848247E-3,-4.7080978E-4,6.873759E-3,-8.371247E-3,-8.215628E-4],"categories":[],"categories_nodes":[],"categories_segments":[],"categories_sizes":[],"default_left":[0,0,0,0,0,0,0,0,0,0,0,0,0,0,0],"id":63,"left_children":[1,3,5,7,9,11,13,-1,-1,-1,-1,-1,-1,-1,-1],"loss_changes":[1.4164894E1,1.0374871E1,9.430054E0,1.2217396E1,3.0940132E0,3.2341785E0,7.9307566E0,0E0,0E0,0E0,0E0,0E0,0E0,0E0,0E0],"parents":[2147483647,0,0,1,1,2,2,3,3,4,4,5,5,6,6],"right_children":[2,4,6,8,10,12,14,-1,-1,-1,-1,-1,-1,-1,-1],"split_conditions":[1.1364827E-2,1.3141319E-3,-3.6824547E-2,1.1192497E0,7.872436E-4,7.586269E-2,-1.6201728E-3,4.678326E-3,-7.8423405E-3,1.3914361E-2,6.1848247E-3,-4.7080978E-4,6.873759E-3,-8.371247E-3,-8.215628E-4],"split_indices":[17,22,2,16,1,19,22,0,0,0,0,0,0,0,0],"split_type":[0,0,0,0,0,0,0,0,0,0,0,0,0,0,0],"sum_hessian":[3.385489E2,6.2193516E1,2.7635535E2,3.5151024E1,2.7042492E1,2.7942488E1,2.4841287E2,2.5012638E1,1.0138385E1,8.907337E0,1.8135155E1,8.273124E0,1.9669363E1,1.3819524E1,2.3459335E2],"tree_param":{"num_deleted":"0","num_feature":"23","num_nodes":"15","size_leaf_vector":"1"}},{"base_weights":[1.60864E-2,-2.4223852E-1,1.2534314E-1,1.11415565E-1,-6.825802E-1,3.2057607E-1,-1.9927624E-1,-8.955476E-3,3.2236245E-3,-8.887135E-3,4.717128E-4,9.311984E-3,2.241418E-3,-3.8413182E-3,3.1803825E-3],"categories":[],"categories_nodes":[],"categories_segments":[],"categories_sizes":[],"default_left":[0,0,0,0,0,0,0,0,0,0,0,0,0,0,0],"id":64,"left_children":[1,3,5,7,9,11,13,-1,-1,-1,-1,-1,-1,-1,-1],"loss_changes":[9.696195E0,1.5981279E1,1.5358977E1,1.25030775E1,6.906168E0,8.687932E0,8.848464E0,0E0,0E0,0E0,0E0,0E0,0E0,0E0,0E0],"parents":[2147483647,0,0,1,1,2,2,3,3,4,4,5,5,6,6],"right_children":[2,4,6,8,10,12,14,-1,-1,-1,-1,-1,-1,-1,-1],"split_conditions":[7.6179235E-4,-5.813295E-3,6.754694E-2,1.6918242E-2,1.5200413E-2,-1.35600865E-2,1.7391833E-2,-8.955476E-3,3.2236245E-3,-8.887135E-3,4.717128E-4,9.311984E-3,2.241418E-3,-3.8413182E-3,3.1803825E-3],"split_indices":[12,12,7,17,4,4,12,0,0,0,0,0,0,0,0],"split_type":[0,0,0,0,0,0,0,0,0,0,0,0,0,0,0],"sum_hessian":[3.4147168E2,1.0113427E2,2.4033742E2,5.6502262E1,4.4632004E1,1.5008537E2,9.025205E1,9.224306E0,4.7277958E1,3.4631725E1,1.0000279E1,1.9289274E1,1.307961E2,6.668167E1,2.3570375E1],"tree_param":{"num_deleted":"0","num_feature":"23","num_nodes":"15","size_leaf_vector":"1"}},{"base_weights":[4.5026625E-3,6.723256E-2,-8.0721027E-1,3.660232E-1,-8.187608E-2,-3.2902348E-3,-1.4771152E-2,2.1867321E-3,9.054105E-3,7.758686E-6,-7.495481E-3],"categories":[],"categories_nodes":[],"categories_segments":[],"categories_sizes":[],"default_left":[0,0,0,0,0,0,0,0,0,0,0],"id":65,"left_children":[1,3,5,7,9,-1,-1,-1,-1,-1,-1],"loss_changes":[1.7439497E1,1.4191403E1,7.3847866E0,8.226823E0,1.1747147E1,0E0,0E0,0E0,0E0,0E0,0E0],"parents":[2147483647,0,0,1,1,2,2,3,3,4,4],"right_children":[2,4,6,8,10,-1,-1,-1,-1,-1,-1],"split_conditions":[5.4567564E-2,8.085364E-1,9.029344E-2,1.1159394E-1,2.1637743E-2,-3.2902348E-3,-1.4771152E-2,2.1867321E-3,9.054105E-3,7.758686E-6,-7.495481E-3],"split_indices":[6,16,7,10,15,0,0,0,0,0,0],"split_type":[0,0,0,0,0,0,0,0,0,0,0],"sum_hessian":[3.4043127E2,3.1686115E2,2.3570139E1,1.0500088E2,2.1186026E2,1.4623118E1,8.947021E0,8.3575195E1,2.1425684E1,1.894116E2,2.2448658E1],"tree_param":{"num_deleted":"0","num_feature":"23","num_nodes":"11","size_leaf_vector":"1"}},{"base_weights":[-8.330681E-3,-1.9287239E-1,1.6996625E-1,8.075881E-3,-2.7797425E-1,-6.848381E-2,7.524514E-1,-1.8731692E-3,-1.0371506E-2,-2.1017618E-3,4.352444E-3,1.4641647E-3,8.721036E-3],"categories":[],"categories_nodes":[],"categories_segments":[],"categories_sizes":[],"default_left":[0,0,0,0,0,0,0,0,0,0,0,0,0],"id":66,"left_children":[1,3,5,-1,7,9,11,-1,-1,-1,-1,-1,-1],"loss_changes":[1.1420286E1,1.4744066E1,2.457393E1,0E0,1.0673902E1,9.098172E0,3.597025E0,0E0,0E0,0E0,0E0,0E0,0E0],"parents":[2147483647,0,0,1,1,2,2,4,4,5,5,6,6],"right_children":[2,4,6,-1,8,10,12,-1,-1,-1,-1,-1,-1],"split_conditions":[1.3969615E-3,-4.6354568E-1,1.29848905E-2,8.075881E-3,1.9730343E-2,3.3472003E-3,6.886898E-3,-1.8731692E-3,-1.0371506E-2,-2.1017618E-3,4.352444E-3,1.4641647E-3,8.721036E-3],"split_indices":[22,9,8,0,11,22,15,0,0,0,0,0,0],"split_type":[0,0,0,0,0,0,0,0,0,0,0,0,0],"sum_hessian":[3.4509088E2,1.6953561E2,1.7555528E2,1.2625075E1,1.5691054E2,1.2518935E2,5.036593E1,1.412856E2,1.5624932E1,9.8160736E1,2.7028616E1,8.671038E0,4.169489E1],"tree_param":{"num_deleted":"0","num_feature":"23","num_nodes":"13","size_leaf_vector":"1"}},{"base_weights":[-3.8807802E-2,-2.720334E-1,1.967159E-1,-5.6313355E-2,-5.861406E-1,2.605537E-2,6.546156E-1,-2.0720875E-3,6.815826E-3,-1.9698727E-3,-1.022611E-2,-9.7536575E-4,5.6840884E-3,8.68418E-3,3.8915835E-4],"categories":[],"categories_nodes":[],"categories_segments":[],"categories_sizes":[],"default_left":[0,0,0,0,0,0,0,0,0,0,0,0,0,0,0],"id":67,"left_children":[1,3,5,7,9,11,13,-1,-1,-1,-1,-1,-1,-1,-1],"loss_changes":[1.8849691E1,1.1645298E1,1.3332766E1,1.164137E1,1.1699596E1,8.467212E0,6.066515E0,0E0,0E0,0E0,0E0,0E0,0E0,0E0,0E0],"parents":[2147483647,0,0,1,1,2,2,3,3,4,4,5,5,6,6],"right_children":[2,4,6,8,10,12,14,-1,-1,-1,-1,-1,-1,-1,-1],"split_conditions":[1.4318301E-3,8.247681E-1,1.3290318E-2,1.5737163E-2,1.3424783E-2,3.4992753E-3,8.1447047E-1,-2.0720875E-3,6.815826E-3,-1.9698727E-3,-1.022611E-2,-9.7536575E-4,5.6840884E-3,8.68418E-3,3.8915835E-4],"split_indices":[22,19,8,2,17,22,9,0,0,0,0,0,0,0,0],"split_type":[0,0,0,0,0,0,0,0,0,0,0,0,0,0,0],"sum_hessian":[3.411832E2,1.7135007E2,1.6983313E2,1.0228374E2,6.906633E1,1.24491646E2,4.5341496E1,8.551551E1,1.676823E1,3.7279533E1,3.1786797E1,1.0205535E2,2.2436295E1,3.3350155E1,1.1991337E1],"tree_param":{"num_deleted":"0","num_feature":"23","num_nodes":"15","size_leaf_vector":"1"}},{"base_weights":[-3.302756E-2,2.2146255E-1,-1.6931628E-1,-2.851457E-1,3.780371E-1,1.3980407E-1,-3.751912E-1,3.1377699E-3,-6.504359E-3,1.169808E-3,7.920389E-3,-5.4924516E-3,2.478692E-3,-5.9147603E-3,1.8602061E-3],"categories":[],"categories_nodes":[],"categories_segments":[],"categories_sizes":[],"default_left":[0,0,0,0,0,0,0,0,0,0,0,0,0,0,0],"id":68,"left_children":[1,3,5,7,9,11,13,-1,-1,-1,-1,-1,-1,-1,-1],"loss_changes":[1.1841564E1,9.557228E0,1.4193478E1,6.4821177E0,9.789119E0,6.8047204E0,1.6332241E1,0E0,0E0,0E0,0E0,0E0,0E0,0E0,0E0],"parents":[2147483647,0,0,1,1,2,2,3,3,4,4,5,5,6,6],"right_children":[2,4,6,8,10,12,14,-1,-1,-1,-1,-1,-1,-1,-1],"split_conditions":[1.2253965E-2,2.6326394E-3,-4.3633E-3,-1.3530876E-4,1.2806341E-3,-4.1428767E-4,2.38355E-3,3.1377699E-3,-6.504359E-3,1.169808E-3,7.920389E-3,-5.4924516E-3,2.478692E-3,-5.9147603E-3,1.8602061E-3],"split_indices":[18,8,2,0,22,22,22,0,0,0,0,0,0,0,0],"split_type":[0,0,0,0,0,0,0,0,0,0,0,0,0,0,0],"sum_hessian":[3.3933054E2,1.1812756E2,2.2120296E2,2.7695532E1,9.043203E1,8.8556564E1,1.326464E2,1.0545824E1,1.7149708E1,5.624702E1,3.418501E1,1.1452181E1,7.7104385E1,9.5707756E1,3.693864E1],"tree_param":{"num_deleted":"0","num_feature":"23","num_nodes":"15","size_leaf_vector":"1"}},{"base_weights":[-4.5489767E-3,8.6083725E-2,-5.1319915E-1,-1.6817117E-2,6.279081E-1,-1.0772939E0,-1.0981916E-1,-4.698751E-3,1.1155242E-3,1.2164875E-2,2.4552154E-3,-4.9911365E-3,-1.40895955E-2,-6.2999646E-3,2.7891165E-3],"categories":[],"categories_nodes":[],"categories_segments":[],"categories_sizes":[],"default_left":[0,0,0,0,0,0,0,0,0,0,0,0,0,0,0],"id":69,"left_children":[1,3,5,7,9,11,13,-1,-1,-1,-1,-1,-1,-1,-1],"loss_changes":[1.5816957E1,1.624913E1,1.1688366E1,1.4344465E1,1.0169374E1,3.423586E0,6.5183754E0,0E0,0E0,0E0,0E0,0E0,0E0,0E0,0E0],"parents":[2147483647,0,0,1,1,2,2,3,3,4,4,5,5,6,6],"right_children":[2,4,6,8,10,12,14,-1,-1,-1,-1,-1,-1,-1,-1],"split_conditions":[2.0932164E-2,1.6076325E-2,1.8941468E-3,2.0042039E-3,2.9232984E-3,-3.6539657E-3,4.7345853E-1,-4.698751E-3,1.1155242E-3,1.2164875E-2,2.4552154E-3,-4.9911365E-3,-1.40895955E-2,-6.2999646E-3,2.7891165E-3],"split_indices":[15,15,22,11,5,4,19,0,0,0,0,0,0,0,0],"split_type":[0,0,0,0,0,0,0,0,0,0,0,0,0,0,0],"sum_hessian":[3.411402E2,2.902529E2,5.088731E1,2.4474164E2,4.5511265E1,2.0520441E1,3.036687E1,5.344753E1,1.912941E2,1.706424E1,2.8447025E1,8.393407E0,1.2127034E1,1.27221575E1,1.7644712E1],"tree_param":{"num_deleted":"0","num_feature":"23","num_nodes":"15","size_leaf_vector":"1"}},{"base_weights":[1.3385831E-3,1.7581719E-1,-2.178562E-1,-7.0089945E-3,2.2516078E-1,-1.1717849E-1,-6.9941384E-1,5.8562723E-3,1.1293496E-3,-3.4959624E-3,1.5039667E-3,-1.2253608E-2,-6.759776E-4],"categories":[],"categories_nodes":[],"categories_segments":[],"categories_sizes":[],"default_left":[0,0,0,0,0,0,0,0,0,0,0,0,0],"id":70,"left_children":[1,3,5,-1,7,9,11,-1,-1,-1,-1,-1,-1],"loss_changes":[1.3130992E1,8.427706E0,7.2957397E0,0E0,7.2857666E0,7.9544363E0,8.594213E0,0E0,0E0,0E0,0E0,0E0,0E0],"parents":[2147483647,0,0,1,1,2,2,4,4,5,5,6,6],"right_children":[2,4,6,-1,8,10,12,-1,-1,-1,-1,-1,-1],"split_conditions":[2.9425377E-3,-2.2563047E-3,1.2543472E0,-7.0089945E-3,1.0044545E-2,1.6765237E-3,1.4259883E0,5.8562723E-3,1.1293496E-3,-3.4959624E-3,1.5039667E-3,-1.2253608E-2,-6.759776E-4],"split_indices":[0,22,16,0,18,22,16,0,0,0,0,0,0],"split_type":[0,0,0,0,0,0,0,0,0,0,0,0,0],"sum_hessian":[3.4133908E2,1.9016557E2,1.5117352E2,9.429081E0,1.8073648E2,1.2606156E2,2.5111952E1,4.190866E1,1.3882782E2,6.72988E1,5.8762764E1,1.3191465E1,1.1920486E1],"tree_param":{"num_deleted":"0","num_feature":"23","num_nodes":"13","size_leaf_vector":"1"}},{"base_weights":[4.841363E-3,-7.981119E-3,4.547337E-2,4.350559E-1,-5.4489356E-2,3.6003027E-4,7.672217E-3,-9.260235E-5,-1.2445426E-2],"categories":[],"categories_nodes":[],"categories_segments":[],"categories_sizes":[],"default_left":[0,0,0,0,0,0,0,0,0],"id":71,"left_children":[1,-1,3,5,7,-1,-1,-1,-1],"loss_changes":[1.1277263E1,0E0,1.2832114E1,8.889144E0,1.412429E1,0E0,0E0,0E0,0E0],"parents":[2147483647,0,0,2,2,3,3,4,4],"right_children":[2,-1,4,6,8,-1,-1,-1,-1],"split_conditions":[-1.8133078E-3,-7.981119E-3,-1.2840573E-2,1.5632343E-3,5.183044E-2,3.6003027E-4,7.672217E-3,-9.260235E-5,-1.2445426E-2],"split_indices":[22,0,1,12,8,0,0,0,0],"split_type":[0,0,0,0,0,0,0,0,0],"sum_hessian":[3.4354443E2,1.5649183E1,3.2789526E2,6.6270096E1,2.6162515E2,3.060757E1,3.566252E1,2.530168E2,8.608366E0],"tree_param":{"num_deleted":"0","num_feature":"23","num_nodes":"9","size_leaf_vector":"1"}},{"base_weights":[-2.4455952E-2,-2.3182969E-1,1.7534596E-1,-1.5940315E-1,-1.0066933E-2,-9.44914E-2,5.724931E-1,-6.5077393E-4,-8.099341E-3,-4.6289596E-3,2.8865347E-3,-2.2195072E-3,8.948485E-3],"categories":[],"categories_nodes":[],"categories_segments":[],"categories_sizes":[],"default_left":[0,0,0,0,0,0,0,0,0,0,0,0,0],"id":72,"left_children":[1,3,5,7,-1,9,11,-1,-1,-1,-1,-1,-1],"loss_changes":[1.4175911E1,9.258579E0,1.873495E1,9.438561E0,0E0,1.4905762E1,1.8295313E1,0E0,0E0,0E0,0E0,0E0,0E0],"parents":[2147483647,0,0,1,1,2,2,3,3,5,5,6,6],"right_children":[2,4,6,8,-1,10,12,-1,-1,-1,-1,-1,-1],"split_conditions":[1.4318301E-3,2.0932164E-2,3.1086097E-3,9.029953E-1,-1.0066933E-2,1.0172274E-1,-2.5687804E-3,-6.5077393E-4,-8.099341E-3,-4.6289596E-3,2.8865347E-3,-2.2195072E-3,8.948485E-3],"split_indices":[22,15,12,9,0,10,13,0,0,0,0,0,0],"split_type":[0,0,0,0,0,0,0,0,0,0,0,0,0],"sum_hessian":[3.40154E2,1.6683559E2,1.733184E2,1.5367711E2,1.3158487E1,1.0365392E2,6.966448E1,1.3517677E2,1.8500338E1,5.2737335E1,5.0916584E1,2.0198017E1,4.946646E1],"tree_param":{"num_deleted":"0","num_feature":"23","num_nodes":"13","size_leaf_vector":"1"}},{"base_weights":[-2.1463516E-3,3.0190876E-1,-1.195901E-1,6.600961E-1,4.658129E-2,5.666409E-1,-1.9137613E-1,9.035429E-3,-1.8332922E-3,-2.660875E-3,4.381975E-3,1.8317024E-3,9.001829E-3,-5.490287E-3,-7.478011E-4],"categories":[],"categories_nodes":[],"categories_segments":[],"categories_sizes":[],"default_left":[0,0,0,0,0,0,0,0,0,0,0,0,0,0,0],"id":73,"left_children":[1,3,5,7,9,11,13,-1,-1,-1,-1,-1,-1,-1,-1],"loss_changes":[1.207126E1,8.5835705E0,1.2120382E1,8.198954E0,6.9818835E0,2.820971E0,9.195451E0,0E0,0E0,0E0,0E0,0E0,0E0,0E0,0E0],"parents":[2147483647,0,0,1,1,2,2,3,3,4,4,5,5,6,6],"right_children":[2,4,6,8,10,12,14,-1,-1,-1,-1,-1,-1,-1,-1],"split_conditions":[5.6227367E-2,1.3987899E-3,-2.4725193E-2,5.9688188E-2,4.6416555E-2,2.471095E-3,6.862886E-2,9.035429E-3,-1.8332922E-3,-2.660875E-3,4.381975E-3,1.8317024E-3,9.001829E-3,-5.490287E-3,-7.478011E-4],"split_indices":[10,1,5,7,10,22,10,0,0,0,0,0,0,0,0],"split_type":[0,0,0,0,0,0,0,0,0,0,0,0,0,0,0],"sum_hessian":[3.3603073E2,9.319182E1,2.4283891E2,3.812404E1,5.5067776E1,2.2344597E1,2.2049431E2,2.952938E1,8.594658E0,3.079856E1,2.4269218E1,1.111497E1,1.1229627E1,5.329762E1,1.6719669E2],"tree_param":{"num_deleted":"0","num_feature":"23","num_nodes":"15","size_leaf_vector":"1"}},{"base_weights":[2.0868927E-2,7.707182E-3,-1.9608498E-2,2.758353E-1,-1.4582594E-1,-1.330107E-5,6.0864114E-3,5.00886E-3,-1.9702076E-3],"categories":[],"categories_nodes":[],"categories_segments":[],"categories_sizes":[],"default_left":[0,0,0,0,0,0,0,0,0],"id":74,"left_children":[1,-1,3,5,7,-1,-1,-1,-1],"loss_changes":[1.0302006E1,0E0,1.2067689E1,8.938358E0,7.602521E0,0E0,0E0,0E0,0E0],"parents":[2147483647,0,0,2,2,3,3,4,4],"right_children":[2,-1,4,6,8,-1,-1,-1,-1],"split_conditions":[-5.0054703E-2,7.707182E-3,1.1267268E-2,1.2928682E-3,1.1006831E-2,-1.330107E-5,6.0864114E-3,5.00886E-3,-1.9702076E-3],"split_indices":[2,0,18,22,17,0,0,0,0],"split_type":[0,0,0,0,0,0,0,0,0],"sum_hessian":[3.3792017E2,1.6382969E1,3.215372E2,9.5892105E1,2.256451E2,5.286303E1,4.3029076E1,1.5907814E1,2.0973727E2],"tree_param":{"num_deleted":"0","num_feature":"23","num_nodes":"9","size_leaf_vector":"1"}},{"base_weights":[-2.2110535E-2,-2.1416353E-1,1.942323E-1,-1.2250302E-1,-1.11614205E-2,-2.152173E-2,7.5928223E-1,-4.7186445E-4,-1.1404668E-2,-2.176211E-3,4.403134E-3,3.6771279E-3,9.73484E-3],"categories":[],"categories_nodes":[],"categories_segments":[],"categories_sizes":[],"default_left":[0,0,0,0,0,0,0,0,0,0,0,0,0],"id":75,"left_children":[1,3,5,7,-1,9,11,-1,-1,-1,-1,-1,-1],"loss_changes":[1.4256744E1,1.4886577E1,1.9694595E1,1.2679018E1,0E0,1.0762993E1,3.3853645E0,0E0,0E0,0E0,0E0,0E0,0E0],"parents":[2147483647,0,0,1,1,2,2,3,3,5,5,6,6],"right_children":[2,4,6,8,-1,10,12,-1,-1,-1,-1,-1,-1],"split_conditions":[1.5812279E-3,2.0748567E-2,1.2398331E-2,4.7157604E-2,-1.11614205E-2,3.2393495E-3,6.470453E-2,-4.7186445E-4,-1.1404668E-2,-2.176211E-3,4.403134E-3,3.6771279E-3,9.73484E-3],"split_indices":[22,15,8,8,0,22,10,0,0,0,0,0,0],"split_type":[0,0,0,0,0,0,0,0,0,0,0,0,0],"sum_hessian":[3.4112732E2,1.8071349E2,1.6041385E2,1.6507419E2,1.563929E1,1.1678394E2,4.3629906E1,1.5467642E2,1.0397766E1,8.234731E1,3.4436626E1,1.6388231E1,2.7241676E1],"tree_param":{"num_deleted":"0","num_feature":"23","num_nodes":"13","size_leaf_vector":"1"}},{"base_weights":[1.9789437E-2,3.24894E-1,-1.0684389E-1,2.1722825E-1,1.1407164E-2,-1.9245346E-1,6.469605E-1,4.2595896E-3,-1.849692E-3,5.3688465E-3,-2.6332778E-3,1.579667E-3,9.88265E-3],"categories":[],"categories_nodes":[],"categories_segments":[],"categories_sizes":[],"default_left":[0,0,0,0,0,0,0,0,0,0,0,0,0],"id":76,"left_children":[1,3,5,7,-1,9,11,-1,-1,-1,-1,-1,-1],"loss_changes":[1.3110584E1,8.493108E0,1.56072445E1,7.5627704E0,0E0,1.1318186E1,3.9658928E0,0E0,0E0,0E0,0E0,0E0,0E0],"parents":[2147483647,0,0,1,1,2,2,3,3,5,5,6,6],"right_children":[2,4,6,8,-1,10,12,-1,-1,-1,-1,-1,-1],"split_conditions":[1.2895965E-2,1.2395262E-2,3.4992753E-3,8.7558645E-1,1.1407164E-2,-3.4949575E-2,-4.1691014E-3,4.2595896E-3,-1.849692E-3,5.3688465E-3,-2.6332778E-3,1.579667E-3,9.88265E-3],"split_indices":[17,17,22,19,0,1,13,0,0,0,0,0,0],"split_type":[0,0,0,0,0,0,0,0,0,0,0,0,0],"sum_hessian":[3.374339E2,9.851374E1,2.3892015E2,8.8147064E1,1.036668E1,2.1522208E2,2.3698082E1,5.79917E1,3.0155363E1,1.8479727E1,1.9674236E2,1.0342709E1,1.3355372E1],"tree_param":{"num_deleted":"0","num_feature":"23","num_nodes":"13","size_leaf_vector":"1"}},{"base_weights":[-1.749806E-2,-2.2892414E-1,1.781015E-1,-1.40339E-1,-1.06763635E-2,1.1172689E0,5.7649326E-2,1.3681377E-4,-6.7306585E-3,1.3963884E-2,6.153265E-3,1.551986E-3,-5.8385776E-3],"categories":[],"categories_nodes":[],"categories_segments":[],"categories_sizes":[],"default_left":[0,0,0,0,0,0,0,0,0,0,0,0,0],"id":77,"left_children":[1,3,5,7,-1,9,11,-1,-1,-1,-1,-1,-1],"loss_changes":[1.42293625E1,1.2132586E1,2.0159994E1,1.2372043E1,0E0,1.9804001E0,1.0072599E1,0E0,0E0,0E0,0E0,0E0,0E0],"parents":[2147483647,0,0,1,1,2,2,3,3,5,5,6,6],"right_children":[2,4,6,8,-1,10,12,-1,-1,-1,-1,-1,-1],"split_conditions":[1.4130465E-3,1.9730343E-2,1.0777036E-2,1.4786786E-2,-1.06763635E-2,7.3150625E-3,2.0955049E-2,1.3681377E-4,-6.7306585E-3,1.3963884E-2,6.153265E-3,1.551986E-3,-5.8385776E-3],"split_indices":[22,11,17,1,0,5,0,0,0,0,0,0,0],"split_type":[0,0,0,0,0,0,0,0,0,0,0,0,0],"sum_hessian":[3.4209378E2,1.6431415E2,1.7777965E2,1.4967294E2,1.4641192E1,1.9268356E1,1.5851129E2,1.1686082E2,3.281213E1,1.1237469E1,8.030887E0,1.3824713E2,2.0264154E1],"tree_param":{"num_deleted":"0","num_feature":"23","num_nodes":"13","size_leaf_vector":"1"}},{"base_weights":[2.3570402E-2,8.740669E-2,-5.115491E-1,-1.9393857E-1,2.3204583E-1,2.8037743E-3,-8.43992E-1,2.4325869E-3,-5.244138E-3,9.345549E-3,1.5156702E-3,-2.8388842E-3,-1.5206966E-2],"categories":[],"categories_nodes":[],"categories_segments":[],"categories_sizes":[],"default_left":[0,0,0,0,0,0,0,0,0,0,0,0,0],"id":78,"left_children":[1,3,5,7,9,-1,11,-1,-1,-1,-1,-1,-1],"loss_changes":[1.1606389E1,1.2384819E1,9.771853E0,1.5082466E1,1.1207123E1,0E0,9.331594E0,0E0,0E0,0E0,0E0,0E0,0E0],"parents":[2147483647,0,0,1,1,2,2,3,3,4,4,6,6],"right_children":[2,4,6,8,10,-1,12,-1,-1,-1,-1,-1,-1],"split_conditions":[8.819736E-2,1.7430701E-3,-3.3491012E-4,-2.297792E-2,-1.35600865E-2,2.8037743E-3,1.388716E-2,2.4325869E-3,-5.244138E-3,9.345549E-3,1.5156702E-3,-2.8388842E-3,-1.5206966E-2],"split_indices":[7,12,13,7,4,0,17,0,0,0,0,0,0],"split_type":[0,0,0,0,0,0,0,0,0,0,0,0,0],"sum_hessian":[3.3745615E2,3.022378E2,3.521835E1,1.0250637E2,1.9973143E2,1.0459334E1,2.4759016E1,4.424157E1,5.8264797E1,1.9438448E1,1.8029297E2,1.4323268E1,1.0435749E1],"tree_param":{"num_deleted":"0","num_feature":"23","num_nodes":"13","size_leaf_vector":"1"}},{"base_weights":[-2.8112208E-2,4.745068E-1,-8.669778E-2,9.735354E-3,9.600926E-2,-5.2525735E-1,3.861324E-2,-2.6642748E-3,6.105881E-3,-7.6923924E-3,3.5456847E-3,-1.6281536E-3,3.6126722E-3],"categories":[],"categories_nodes":[],"categories_segments":[],"categories_sizes":[],"default_left":[0,0,0,0,0,0,0,0,0,0,0,0,0],"id":79,"left_children":[1,3,5,-1,7,9,11,-1,-1,-1,-1,-1,-1],"loss_changes":[1.0044418E1,6.6341047E0,1.6787212E1,0E0,4.147217E0,1.4842035E1,1.5541446E1,0E0,0E0,0E0,0E0,0E0,0E0],"parents":[2147483647,0,0,1,1,2,2,4,4,5,5,6,6],"right_children":[2,4,6,-1,8,10,12,-1,-1,-1,-1,-1,-1],"split_conditions":[-3.564352E-2,2.0932164E-2,1.0415455E-3,9.735354E-3,-1.4343721E-2,1.17960036E-1,1.2806341E-3,-2.6642748E-3,6.105881E-3,-7.6923924E-3,3.5456847E-3,-1.6281536E-3,3.6126722E-3],"split_indices":[7,15,12,0,12,10,22,0,0,0,0,0,0],"split_type":[0,0,0,0,0,0,0,0,0,0,0,0,0],"sum_hessian":[3.3871347E2,3.461804E1,3.0409543E2,1.4253483E1,2.0364555E1,6.687096E1,2.3722449E2,1.223162E1,8.132936E0,5.245148E1,1.44194765E1,1.463534E2,9.0871086E1],"tree_param":{"num_deleted":"0","num_feature":"23","num_nodes":"13","size_leaf_vector":"1"}},{"base_weights":[2.4845274E-2,3.3277825E-1,-8.976415E-2,1.1555205E-2,2.3406573E-1,-5.08312E-1,3.8158122E-2,7.438057E-3,6.841888E-4,-1.1283241E-2,-2.1660428E-3,-1.4257384E-3,4.127822E-3],"categories":[],"categories_nodes":[],"categories_segments":[],"categories_sizes":[],"default_left":[0,0,0,0,0,0,0,0,0,0,0,0,0],"id":80,"left_children":[1,3,5,-1,7,9,11,-1,-1,-1,-1,-1,-1],"loss_changes":[1.1888564E1,7.148739E0,1.3172611E1,0E0,6.9422016E0,1.016907E1,1.2861261E1,0E0,0E0,0E0,0E0,0E0,0E0],"parents":[2147483647,0,0,1,1,2,2,4,4,5,5,6,6],"right_children":[2,4,6,-1,8,10,12,-1,-1,-1,-1,-1,-1],"split_conditions":[5.6227367E-2,-1.35600865E-2,6.812503E-2,1.1555205E-2,7.3680276E-1,1.7430701E-3,2.3692457E-3,7.438057E-3,6.841888E-4,-1.1283241E-2,-2.1660428E-3,-1.4257384E-3,4.127822E-3],"split_indices":[10,4,10,0,16,12,22,0,0,0,0,0,0],"split_type":[0,0,0,0,0,0,0,0,0,0,0,0,0],"sum_hessian":[3.3501624E2,9.03527E1,2.4466353E2,8.532307E0,8.18204E1,5.6576794E1,1.8808675E2,1.9211407E1,6.2608986E1,1.7184301E1,3.939249E1,1.2729468E2,6.079206E1],"tree_param":{"num_deleted":"0","num_feature":"23","num_nodes":"13","size_leaf_vector":"1"}}]},"name":"gbtree"},"learner_model_param":{"base_score":"5.906168E-1","boost_from_average":"1","num_class":"0","num_feature":"23","num_target":"1"},"objective":{"name":"binary:logistic","reg_loss_param":{"scale_pos_weight":"1"}}},"version":[2,1,4]}