{"learner":{"attributes":{"best_iteration":"0","best_score":"0.6754722308461406","scikit_learn":"{\"_estimator_type\": \"classifier\"}"},"feature_names":[],"feature_types":[],"gradient_booster":{"model":{"gbtree_model_param":{"num_parallel_tree":"1","num_trees":"31"},"iteration_indptr":[0,1,2,3,4,5,6,7,8,9,10,11,12,13,14,15,16,17,18,19,20,21,22,23,24,25,26,27,28,29,30,31],"tree_info":[0,0,0,0,0,0,0,0,0,0,0,0,0,0,0,0,0,0,0,0,0,0,0,0,0,0,0,0,0,0,0],"trees":[{"base_weights":[3.5252646E-2,-6.0042685E-1,2.9106626E-1,-9.1042894E-1,-1.3821736E-1,-8.9718085E-3,3.4230956E-1,1.7084649E-3,-1.1385866E-2,3.0224787E-3,-7.6249116E-3,6.6562723E-3,1.7087203E-3],"categories":[],"categories_nodes":[],"categories_segments":[],"categories_sizes":[],"default_left":[0,0,0,0,0,0,0,0,0,0,0,0,0],"id":0,"left_children":[1,3,5,7,9,-1,11,-1,-1,-1,-1,-1,-1],"loss_changes":[5.5744034E1,1.3971127E1,1.5184809E1,1.4678036E1,1.1414832E1,0E0,1.2909849E1,0E0,0E0,0E0,0E0,0E0,0E0],"parents":[2147483647,0,0,1,1,2,2,3,3,4,4,6,6],"right_children":[2,4,6,8,10,-1,12,-1,-1,-1,-1,-1,-1],"split_conditions":[3.030274E-6,9.132818E-2,1.9026982E-2,-9.261867E-2,3.3418037E-2,-8.9718085E-3,-1.3364127E-3,1.7084649E-3,-1.1385866E-2,3.0224787E-3,-7.6249116E-3,6.6562723E-3,1.7087203E-3],"split_indices":[22,7,17,20,11,0,13,0,0,0,0,0,0],"split_type":[0,0,0,0,0,0,0,0,0,0,0,0,0],"sum_hessian":[3.407219E2,9.738346E1,2.4333842E2,5.7708717E1,3.9674744E1,9.377666E0,2.3396075E2,1.0099026E1,4.760969E1,2.3564392E1,1.611035E1,8.007085E1,1.5388991E2],"tree_param":{"num_deleted":"0","num_feature":"23","num_nodes":"13","size_leaf_vector":"1"}},{"base_weights":[9.1306603E-4,1.6687952E-1,-6.3447696E-1,-4.6223227E-2,5.3228194E-1,1.9207923E-2,-8.534543E-1,5.8904686E-3,-1.2539142E-3,8.258647E-3,5.572455E-4,-4.159615E-3,4.2164745E-3,-2.4017948E-3,-1.2153978E-2],"categories":[],"categories_nodes":[],"categories_segments":[],"categories_sizes":[],"default_left":[0,0,0,0,0,0,0,0,0,0,0,0,0,0,0],"id":1,"left_children":[1,3,5,7,9,11,13,-1,-1,-1,-1,-1,-1,-1,-1],"loss_changes":[3.5657585E1,2.0901178E1,1.004072E1,8.636853E0,1.3782564E1,3.4241743E0,1.1357067E1,0E0,0E0,0E0,0E0,0E0,0E0,0E0,0E0],"parents":[2147483647,0,0,1,1,2,2,3,3,4,4,5,5,6,6],"right_children":[2,4,6,8,10,12,14,-1,-1,-1,-1,-1,-1,-1,-1],"split_conditions":[4.041905E-2,2.8492756E-2,-3.8921665E-2,-3.207636E-3,2.02963E-1,1.1447146E0,3.62444E-2,5.8904686E-3,-1.2539142E-3,8.258647E-3,5.572455E-4,-4.159615E-3,4.2164745E-3,-2.4017948E-3,-1.2153978E-2],"split_indices":[17,17,5,11,10,16,15,0,0,0,0,0,0,0,0],"split_type":[0,0,0,0,0,0,0,0,0,0,0,0,0,0,0],"sum_hessian":[3.361318E2,2.6710123E2,6.903057E1,1.6926143E2,9.7839806E1,1.7550774E1,5.1479794E1,1.8042484E1,1.5121895E2,6.0089024E1,3.775078E1,8.416342E0,9.134432E0,1.9723686E1,3.1756107E1],"tree_param":{"num_deleted":"0","num_feature":"23","num_nodes":"15","size_leaf_vector":"1"}},{"base_weights":[2.7759112E-2,-4.996792E-1,2.569965E-1,-8.1416124E-1,-1.5473638E-1,-1.1119421E-2,3.1637952E-1,2.5719926E-3,-1.03009315E-2,2.6552265E-3,-8.559618E-3,4.9543083E-3,-3.5929016E-4],"categories":[],"categories_nodes":[],"categories_segments":[],"categories_sizes":[],"default_left":[0,0,0,0,0,0,0,0,0,0,0,0,0],"id":2,"left_children":[1,3,5,7,9,-1,11,-1,-1,-1,-1,-1,-1],"loss_changes":[4.0453724E1,1.0871584E1,1.930403E1,1.24790535E1,1.483929E1,0E0,1.4162167E1,0E0,0E0,0E0,0E0,0E0,0E0],"parents":[2147483647,0,0,1,1,2,2,3,3,4,4,6,6],"right_children":[2,4,6,8,10,-1,12,-1,-1,-1,-1,-1,-1],"split_conditions":[2.6787427E-4,8.055502E-3,1.8816726E-2,-6.21498E-2,3.3418037E-2,-1.1119421E-2,6.854236E-1,2.5719926E-3,-1.03009315E-2,2.6552265E-3,-8.559618E-3,4.9543083E-3,-3.5929016E-4],"split_indices":[22,11,17,5,11,0,14,0,0,0,0,0,0],"split_type":[0,0,0,0,0,0,0,0,0,0,0,0,0],"sum_hessian":[3.3251898E2,1.0038031E2,2.3213866E2,5.179703E1,4.8583282E1,8.914332E0,2.2322433E2,8.656436E0,4.3140594E1,3.0765951E1,1.781733E1,1.4773549E2,7.548883E1],"tree_param":{"num_deleted":"0","num_feature":"23","num_nodes":"13","size_leaf_vector":"1"}},{"base_weights":[4.911677E-3,-4.2960772E-1,2.5086012E-1,-7.347165E-1,-1.4523023E-1,4.564308E-1,-1.164087E-1,1.9623202E-3,-8.876951E-3,7.570885E-3,-4.0531238E-3,-4.6163136E-3,5.3853593E-3,-5.3514857E-3,2.8801481E-3],"categories":[],"categories_nodes":[],"categories_segments":[],"categories_sizes":[],"default_left":[0,0,0,0,0,0,0,0,0,0,0,0,0,0,0],"id":3,"left_children":[1,3,5,7,9,11,13,-1,-1,-1,-1,-1,-1,-1,-1],"loss_changes":[3.654528E1,1.0617844E1,1.653854E1,8.631054E0,1.5612806E1,1.081625E1,1.3558835E1,0E0,0E0,0E0,0E0,0E0,0E0,0E0,0E0],"parents":[2147483647,0,0,1,1,2,2,3,3,4,4,5,5,6,6],"right_children":[2,4,6,8,10,12,14,-1,-1,-1,-1,-1,-1,-1,-1],"split_conditions":[6.951763E-4,5.160959E-3,6.854236E-1,1.9899527E-2,1.945294E-2,6.858948E-2,3.0136414E-2,1.9623202E-3,-8.876951E-3,7.570885E-3,-4.0531238E-3,-4.6163136E-3,5.3853593E-3,-5.3514857E-3,2.8801481E-3],"split_indices":[22,11,14,18,12,10,12,0,0,0,0,0,0,0,0],"split_type":[0,0,0,0,0,0,0,0,0,0,0,0,0,0,0],"sum_hessian":[3.3995367E2,1.2260303E2,2.1735065E2,5.8381687E1,6.4221344E1,1.3919598E2,7.815466E1,8.199722E0,5.0181965E1,1.3941677E1,5.0279667E1,1.1047336E1,1.2814865E2,3.8238895E1,3.9915768E1],"tree_param":{"num_deleted":"0","num_feature":"23","num_nodes":"15","size_leaf_vector":"1"}},{"base_weights":[-8.468599E-3,-4.7153762E-1,2.6975483E-1,-7.64566E-1,-1.8006405E-1,4.5532852E-1,-1.077851E-1,2.3940317E-3,-9.397348E-3,1.1005486E-2,-4.553698E-3,9.2843425E-4,5.969605E-3,-1.1239699E-2,2.2027497E-3],"categories":[],"categories_nodes":[],"categories_segments":[],"categories_sizes":[],"default_left":[0,0,0,0,0,0,0,0,0,0,0,0,0,0,0],"id":4,"left_children":[1,3,5,7,9,11,13,-1,-1,-1,-1,-1,-1,-1,-1],"loss_changes":[4.36221E1,1.0715525E1,1.4868877E1,1.1314739E1,2.3422098E1,7.235243E0,2.3755718E1,0E0,0E0,0E0,0E0,0E0,0E0,0E0,0E0],"parents":[2147483647,0,0,1,1,2,2,3,3,4,4,5,5,6,6],"right_children":[2,4,6,8,10,12,14,-1,-1,-1,-1,-1,-1,-1,-1],"split_conditions":[6.951763E-4,8.055502E-3,6.9602084E-1,-1.640961E-2,1.945294E-2,1.9206863E-2,1.1540482E-1,2.3940317E-3,-9.397348E-3,1.1005486E-2,-4.553698E-3,9.2843425E-4,5.969605E-3,-1.1239699E-2,2.2027497E-3],"split_indices":[22,11,14,13,12,15,7,0,0,0,0,0,0,0,0],"split_type":[0,0,0,0,0,0,0,0,0,0,0,0,0,0,0],"sum_hessian":[3.3659726E2,1.2607161E2,2.1052567E2,6.205873E1,6.401288E1,1.4100894E2,6.9516716E1,9.1647625E0,5.289397E1,1.0796113E1,5.3216766E1,4.008167E1,1.0092728E2,1.6373318E1,5.3143402E1],"tree_param":{"num_deleted":"0","num_feature":"23","num_nodes":"15","size_leaf_vector":"1"}},{"base_weights":[-2.9429939E-2,-5.8242404E-1,1.9705184E-1,-8.766168E-1,-1.9979215E-1,6.7080504E-1,5.6744337E-2,2.3916082E-3,-1.0970219E-2,1.4349965E-3,-7.167853E-3,4.266156E-3,1.290775E-2,1.3452545E-3,-7.291783E-3],"categories":[],"categories_nodes":[],"categories_segments":[],"categories_sizes":[],"default_left":[0,0,0,0,0,0,0,0,0,0,0,0,0,0,0],"id":5,"left_children":[1,3,5,7,9,11,13,-1,-1,-1,-1,-1,-1,-1,-1],"loss_changes":[4.3418465E1,1.1162075E1,1.6316654E1,1.4192024E1,8.102304E0,7.9462776E0,1.1768793E1,0E0,0E0,0E0,0E0,0E0,0E0,0E0,0E0],"parents":[2147483647,0,0,1,1,2,2,3,3,4,4,5,5,6,6],"right_children":[2,4,6,8,10,12,14,-1,-1,-1,-1,-1,-1,-1,-1],"split_conditions":[3.030274E-6,8.055502E-3,3.3505243E-4,-1.640961E-2,3.3228207E-2,3.8112586E-3,4.430509E-2,2.3916082E-3,-1.0970219E-2,1.4349965E-3,-7.167853E-3,4.266156E-3,1.290775E-2,1.3452545E-3,-7.291783E-3],"split_indices":[22,11,6,13,11,22,17,0,0,0,0,0,0,0,0],"split_type":[0,0,0,0,0,0,0,0,0,0,0,0,0,0,0],"sum_hessian":[3.447572E2,9.9714806E1,2.4504242E2,5.5642303E1,4.4072502E1,5.512613E1,1.8991629E2,9.164239E0,4.647806E1,2.6919771E1,1.7152729E1,4.075999E1,1.4366138E1,1.735675E2,1.6348778E1],"tree_param":{"num_deleted":"0","num_feature":"23","num_nodes":"15","size_leaf_vector":"1"}},{"base_weights":[-2.5539273E-2,-7.1124685E-1,1.5439355E-1,-1.0173999E0,-5.1547073E-2,7.030936E-1,4.9202897E-2,1.1324858E-3,-1.3031966E-2,8.001081E-3,-7.5614457E-3,1.6639184E-4,9.519247E-3,-2.6543974E-3,2.1314388E-3],"categories":[],"categories_nodes":[],"categories_segments":[],"categories_sizes":[],"default_left":[0,0,0,0,0,0,0,0,0,0,0,0,0,0,0],"id":6,"left_children":[1,3,5,7,9,11,13,-1,-1,-1,-1,-1,-1,-1,-1],"loss_changes":[4.1912094E1,1.42071495E1,1.5503289E1,1.5713032E1,1.4666438E1,7.3685226E0,1.1764422E1,0E0,0E0,0E0,0E0,0E0,0E0,0E0,0E0],"parents":[2147483647,0,0,1,1,2,2,3,3,4,4,5,5,6,6],"right_children":[2,4,6,8,10,12,14,-1,-1,-1,-1,-1,-1,-1,-1],"split_conditions":[-5.5427797E-4,1.7195134E-1,3.183372E-1,-5.5700894E-2,3.462252E-2,9.936291E-2,1.9213229E-3,1.1324858E-3,-1.3031966E-2,8.001081E-3,-7.5614457E-3,1.6639184E-4,9.519247E-3,-2.6543974E-3,2.1314388E-3],"split_indices":[22,7,19,5,11,19,22,0,0,0,0,0,0,0,0],"split_type":[0,0,0,0,0,0,0,0,0,0,0,0,0,0,0],"sum_hessian":[3.3780573E2,6.960284E1,2.6820288E2,4.7169994E1,2.2432838E1,4.2231117E1,2.2597177E2,9.63933E0,3.7530666E1,1.0095155E1,1.2337684E1,1.1519359E1,3.0711758E1,7.719557E1,1.487762E2],"tree_param":{"num_deleted":"0","num_feature":"23","num_nodes":"15","size_leaf_vector":"1"}},{"base_weights":[-2.7420105E-2,-5.292958E-1,2.5009036E-1,5.2498183E-3,-6.096943E-1,-9.274848E-3,3.0117562E-1,-1.3467554E-2,-4.276668E-3,6.695148E-3,1.2488394E-3],"categories":[],"categories_nodes":[],"categories_segments":[],"categories_sizes":[],"default_left":[0,0,0,0,0,0,0,0,0,0,0],"id":7,"left_children":[1,3,5,-1,7,-1,9,-1,-1,-1,-1],"loss_changes":[4.7848347E1,1.0687214E1,1.3591565E1,0E0,1.4732937E1,0E0,1.3737602E1,0E0,0E0,0E0,0E0],"parents":[2147483647,0,0,1,1,2,2,4,4,6,6],"right_children":[2,4,6,-1,8,-1,10,-1,-1,-1,-1],"split_conditions":[6.951763E-4,-1.7399599E-1,1.8816726E-2,5.2498183E-3,-1.8192912E-2,-9.274848E-3,8.831699E-3,-1.3467554E-2,-4.276668E-3,6.695148E-3,1.2488394E-3],"split_indices":[22,6,17,0,12,0,21,0,0,0,0],"split_type":[0,0,0,0,0,0,0,0,0,0,0],"sum_hessian":[3.4160074E2,1.2130827E2,2.2029245E2,8.203591E0,1.1310468E2,8.446026E0,2.1184644E2,2.1133362E1,9.197132E1,6.7667E1,1.4417943E2],"tree_param":{"num_deleted":"0","num_feature":"23","num_nodes":"11","size_leaf_vector":"1"}},{"base_weights":[7.6960444E-2,-6.2272114E-1,2.5646803E-1,-1.0007113E0,-3.5312034E-2,-6.5513873E-3,3.0159065E-1,8.486089E-4,-1.2641366E-2,3.9815563E-3,-9.712025E-3,5.7612364E-3,1.5627769E-3],"categories":[],"categories_nodes":[],"categories_segments":[],"categories_sizes":[],"default_left":[0,0,0,0,0,0,0,0,0,0,0,0,0],"id":8,"left_children":[1,3,5,7,9,-1,11,-1,-1,-1,-1,-1,-1],"loss_changes":[4.2767628E1,1.5408451E1,1.1331936E1,1.2199524E1,1.1855319E1,0E0,1.0226454E1,0E0,0E0,0E0,0E0,0E0,0E0],"parents":[2147483647,0,0,1,1,2,2,3,3,4,4,6,6],"right_children":[2,4,6,8,10,-1,12,-1,-1,-1,-1,-1,-1],"split_conditions":[-4.954724E-4,9.132818E-2,1.9026982E-2,-5.5700894E-2,3.6733292E-2,-6.5513873E-3,-1.3364127E-3,8.486089E-4,-1.2641366E-2,3.9815563E-3,-9.712025E-3,5.7612364E-3,1.5627769E-3],"split_indices":[22,7,17,5,12,0,13,0,0,0,0,0,0],"split_type":[0,0,0,0,0,0,0,0,0,0,0,0,0],"sum_hessian":[3.3824002E2,6.85557E1,2.6968433E2,4.128545E1,2.7270258E1,1.2081628E1,2.576027E2,8.194374E0,3.3091072E1,1.9030602E1,8.239656E0,8.81328E1,1.694699E2],"tree_param":{"num_deleted":"0","num_feature":"23","num_nodes":"13","size_leaf_vector":"1"}},{"base_weights":[-2.9897159E-2,-5.813793E-1,1.9839792E-1,3.0199632E-3,-6.802214E-1,-9.84158E-3,2.487294E-1,-3.8264035E-3,-1.2925903E-2,4.2801313E-3,2.8142746E-4],"categories":[],"categories_nodes":[],"categories_segments":[],"categories_sizes":[],"default_left":[0,0,0,0,0,0,0,0,0,0,0],"id":9,"left_children":[1,3,5,-1,7,-1,9,-1,-1,-1,-1],"loss_changes":[4.251687E1,8.836914E0,1.4465884E1,0E0,1.5762917E1,0E0,9.082902E0,0E0,0E0,0E0,0E0],"parents":[2147483647,0,0,1,1,2,2,4,4,6,6],"right_children":[2,4,6,-1,8,-1,10,-1,-1,-1,-1],"split_conditions":[3.030274E-6,-9.261867E-2,1.8816726E-2,3.0199632E-3,3.9915215E-2,-9.84158E-3,5.1664665E-2,-3.8264035E-3,-1.2925903E-2,4.2801313E-3,2.8142746E-4],"split_indices":[22,2,17,0,17,0,3,0,0,0,0],"split_type":[0,0,0,0,0,0,0,0,0,0,0],"sum_hessian":[3.3578558E2,9.785502E1,2.3793057E2,9.640469E0,8.8214554E1,8.955861E0,2.289747E2,6.045922E1,2.7755331E1,1.2579409E2,1.0318061E2],"tree_param":{"num_deleted":"0","num_feature":"23","num_nodes":"11","size_leaf_vector":"1"}},{"base_weights":[3.7407205E-2,-4.642397E-1,3.254932E-1,3.4417782E-3,-5.328547E-1,5.123704E-1,-2.8090274E-2,-1.4018608E-2,-4.0662917E-3,-4.7067655E-3,5.810578E-3,-8.7712435E-3,2.9923308E-3],"categories":[],"categories_nodes":[],"categories_segments":[],"categories_sizes":[],"default_left":[0,0,0,0,0,0,0,0,0,0,0,0,0],"id":10,"left_children":[1,3,5,-1,7,9,11,-1,-1,-1,-1,-1,-1],"loss_changes":[4.8436275E1,6.966936E0,1.4076843E1,0E0,1.1837933E1,9.678383E0,2.0976574E1,0E0,0E0,0E0,0E0,0E0,0E0],"parents":[2147483647,0,0,1,1,2,2,4,4,5,5,6,6],"right_children":[2,4,6,-1,8,10,12,-1,-1,-1,-1,-1,-1],"split_conditions":[6.951763E-4,-1.640961E-2,6.854236E-1,3.4417782E-3,-7.655869E-2,2.0034073E-2,1.2822582E-1,-1.4018608E-2,-4.0662917E-3,-4.7067655E-3,5.810578E-3,-8.7712435E-3,2.9923308E-3],"split_indices":[22,13,14,0,8,17,7,0,0,0,0,0,0],"split_type":[0,0,0,0,0,0,0,0,0,0,0,0,0],"sum_hessian":[3.331131E2,1.2129299E2,2.1182011E2,9.175208E0,1.1211778E2,1.3828444E2,7.353567E1,1.2938183E1,9.91796E1,8.648959E0,1.2963548E2,1.9994041E1,5.3541626E1],"tree_param":{"num_deleted":"0","num_feature":"23","num_nodes":"13","size_leaf_vector":"1"}},{"base_weights":[8.98765E-3,-3.8475636E-1,2.449889E-1,-6.659156E-1,-6.2451996E-2,-9.023152E-3,2.9718235E-1,4.7837887E-3,-8.4191365E-3,9.76265E-3,-2.5480858E-3,6.759597E-3,1.2344222E-3],"categories":[],"categories_nodes":[],"categories_segments":[],"categories_sizes":[],"default_left":[0,0,0,0,0,0,0,0,0,0,0,0,0],"id":11,"left_children":[1,3,5,7,9,-1,11,-1,-1,-1,-1,-1,-1],"loss_changes":[3.1545757E1,1.1487925E1,1.2977071E1,1.4067173E1,1.2313232E1,0E0,1.3325167E1,0E0,0E0,0E0,0E0,0E0,0E0],"parents":[2147483647,0,0,1,1,2,2,3,3,4,4,6,6],"right_children":[2,4,6,8,10,-1,12,-1,-1,-1,-1,-1,-1],"split_conditions":[6.951763E-4,1.08819E-2,1.9026982E-2,-1.640961E-2,1.9858303E-2,-9.023152E-3,-1.2857362E-3,4.7837887E-3,-8.4191365E-3,9.76265E-3,-2.5480858E-3,6.759597E-3,1.2344222E-3],"split_indices":[22,11,17,13,12,0,13,0,0,0,0,0,0],"split_type":[0,0,0,0,0,0,0,0,0,0,0,0,0],"sum_hessian":[3.3746442E2,1.2623084E2,2.1123358E2,6.684933E1,5.938151E1,8.482622E0,2.0275096E2,8.682142E0,5.8167187E1,8.641657E0,5.0739857E1,6.284644E1,1.3990453E2],"tree_param":{"num_deleted":"0","num_feature":"23","num_nodes":"13","size_leaf_vector":"1"}},{"base_weights":[1.4499618E-2,-4.0064257E-1,2.5895333E-1,4.673584E-3,-4.6891692E-1,-1.0656473E-2,3.175093E-1,-1.2319017E-2,-3.411569E-3,4.8047686E-3,4.8386777E-4],"categories":[],"categories_nodes":[],"categories_segments":[],"categories_sizes":[],"default_left":[0,0,0,0,0,0,0,0,0,0,0],"id":12,"left_children":[1,3,5,-1,7,-1,9,-1,-1,-1,-1],"loss_changes":[3.4392982E1,7.663389E0,1.6879974E1,0E0,1.0980328E1,0E0,8.96804E0,0E0,0E0,0E0,0E0],"parents":[2147483647,0,0,1,1,2,2,4,4,6,6],"right_children":[2,4,6,-1,8,-1,10,-1,-1,-1,-1],"split_conditions":[6.951763E-4,-1.1021101E-1,1.8816726E-2,4.673584E-3,-8.963693E-2,-1.0656473E-2,6.7099154E-2,-1.2319017E-2,-3.411569E-3,4.8047686E-3,4.8386777E-4],"split_indices":[22,2,17,0,8,0,3,0,0,0,0],"split_type":[0,0,0,0,0,0,0,0,0,0,0],"sum_hessian":[3.368814E2,1.2461527E2,2.1226614E2,8.660855E0,1.1595442E2,8.258182E0,2.0400797E2,1.5391836E1,1.00562584E2,1.2657494E2,7.7433014E1],"tree_param":{"num_deleted":"0","num_feature":"23","num_nodes":"11","size_leaf_vector":"1"}},{"base_weights":[-1.4810556E-2,-5.709922E-1,2.2171487E-1,-8.7992704E-1,-1.8046252E-1,9.070176E-1,1.19404994E-1,1.7911776E-4,-1.0338343E-2,1.8678985E-3,-7.6565538E-3,1.2075497E-2,4.727334E-3,2.0914788E-3,-6.983536E-3],"categories":[],"categories_nodes":[],"categories_segments":[],"categories_sizes":[],"default_left":[0,0,0,0,0,0,0,0,0,0,0,0,0,0,0],"id":13,"left_children":[1,3,5,7,9,11,13,-1,-1,-1,-1,-1,-1,-1,-1],"loss_changes":[4.4888958E1,1.2124062E1,1.6680927E1,7.837471E0,1.0077073E1,3.4691257E0,1.5521215E1,0E0,0E0,0E0,0E0,0E0,0E0,0E0,0E0],"parents":[2147483647,0,0,1,1,2,2,3,3,4,4,5,5,6,6],"right_children":[2,4,6,8,10,12,14,-1,-1,-1,-1,-1,-1,-1,-1],"split_conditions":[3.030274E-6,8.055502E-3,3.1022337E-1,1.919349E-2,3.3418037E-2,1.10856425E-2,4.430509E-2,1.7911776E-4,-1.0338343E-2,1.8678985E-3,-7.6565538E-3,1.2075497E-2,4.727334E-3,2.0914788E-3,-6.983536E-3],"split_indices":[22,11,19,18,11,12,17,0,0,0,0,0,0,0,0],"split_type":[0,0,0,0,0,0,0,0,0,0,0,0,0,0,0],"sum_hessian":[3.39266E2,1.0080718E2,2.384588E2,5.5583656E1,4.5223522E1,2.995379E1,2.0850502E2,8.263137E0,4.732052E1,2.8204126E1,1.7019396E1,1.665068E1,1.3303109E1,1.8855658E2,1.9948431E1],"tree_param":{"num_deleted":"0","num_feature":"23","num_nodes":"15","size_leaf_vector":"1"}},{"base_weights":[5.0219696E-2,-4.1269612E-1,2.639587E-1,-6.6538537E-1,-1.0423366E-1,6.1304486E-1,9.371594E-2,3.4326985E-3,-8.420655E-3,2.1254106E-3,-9.284585E-3,9.271206E-3,1.1886721E-3,-1.0634692E-3,4.4298926E-3],"categories":[],"categories_nodes":[],"categories_segments":[],"categories_sizes":[],"default_left":[0,0,0,0,0,0,0,0,0,0,0,0,0,0,0],"id":14,"left_children":[1,3,5,7,9,11,13,-1,-1,-1,-1,-1,-1,-1,-1],"loss_changes":[3.348331E1,8.265923E0,1.3692778E1,1.0731663E1,1.3079779E1,1.1633833E1,1.0997122E1,0E0,0E0,0E0,0E0,0E0,0E0,0E0,0E0],"parents":[2147483647,0,0,1,1,2,2,3,3,4,4,5,5,6,6],"right_children":[2,4,6,8,10,12,14,-1,-1,-1,-1,-1,-1,-1,-1],"split_conditions":[2.2723517E-4,8.055502E-3,9.498375E-3,-6.21498E-2,3.759766E-2,1.8858397E-2,3.0830339E-2,3.4326985E-3,-8.420655E-3,2.1254106E-3,-9.284585E-3,9.271206E-3,1.1886721E-3,-1.0634692E-3,4.4298926E-3],"split_indices":[22,11,3,5,12,12,12,0,0,0,0,0,0,0,0],"split_type":[0,0,0,0,0,0,0,0,0,0,0,0,0,0,0],"sum_hessian":[3.3630856E2,1.0593776E2,2.303708E2,5.7597435E1,4.8340324E1,7.466588E1,1.5570493E2,8.44464E0,4.9152794E1,3.5455738E1,1.2884588E1,4.5116135E1,2.9549747E1,9.9440926E1,5.6263992E1],"tree_param":{"num_deleted":"0","num_feature":"23","num_nodes":"15","size_leaf_vector":"1"}},{"base_weights":[-9.177453E-3,-4.462045E-1,2.4074084E-1,-1.9717214E-1,-8.158156E-1,-8.550911E-3,2.9213634E-1,-3.917119E-3,8.7959105E-3,4.909146E-4,-1.095516E-2,3.6916807E-3,-4.6757073E-3],"categories":[],"categories_nodes":[],"categories_segments":[],"categories_sizes":[],"default_left":[0,0,0,0,0,0,0,0,0,0,0,0,0],"id":15,"left_children":[1,3,5,7,9,-1,11,-1,-1,-1,-1,-1,-1],"loss_changes":[3.7335407E1,1.1285454E1,1.2499276E1,1.6183945E1,1.2086632E1,0E0,1.2374132E1,0E0,0E0,0E0,0E0,0E0,0E0],"parents":[2147483647,0,0,1,1,2,2,3,3,4,4,6,6],"right_children":[2,4,6,8,10,-1,12,-1,-1,-1,-1,-1,-1],"split_conditions":[6.951763E-4,3.9163176E-2,1.8816726E-2,2.7201328E-2,-7.117474E-1,-8.550911E-3,4.430509E-2,-3.917119E-3,8.7959105E-3,4.909146E-4,-1.095516E-2,3.6916807E-3,-4.6757073E-3],"split_indices":[22,17,17,15,9,0,17,0,0,0,0,0,0],"split_type":[0,0,0,0,0,0,0,0,0,0,0,0,0],"sum_hessian":[3.398499E2,1.2335541E2,2.1649452E2,7.461537E1,4.874004E1,8.998343E0,2.0749617E2,6.373629E1,1.087908E1,1.2111764E1,3.6628277E1,1.8886043E2,1.8635748E1],"tree_param":{"num_deleted":"0","num_feature":"23","num_nodes":"13","size_leaf_vector":"1"}},{"base_weights":[-2.8419051E-2,1.1085569E-1,-5.845833E-1,-7.425739E-2,4.4238216E-1,2.7792212E-3,-7.292718E-1,-1.2292885E-3,8.166362E-3,7.286061E-3,9.621443E-4,-1.0869441E-3,-9.201149E-3],"categories":[],"categories_nodes":[],"categories_segments":[],"categories_sizes":[],"default_left":[0,0,0,0,0,0,0,0,0,0,0,0,0],"id":16,"left_children":[1,3,5,7,9,-1,11,-1,-1,-1,-1,-1,-1],"loss_changes":[2.6074043E1,1.6564222E1,8.614502E0,7.6327386E0,9.507172E0,0E0,6.7688713E0,0E0,0E0,0E0,0E0,0E0,0E0],"parents":[2147483647,0,0,1,1,2,2,3,3,4,4,6,6],"right_children":[2,4,6,8,10,-1,12,-1,-1,-1,-1,-1,-1],"split_conditions":[4.099391E-2,2.8682722E-2,-1.640961E-2,3.3935368E-2,1.8574214E-1,2.7792212E-3,3.389878E-2,-1.2292885E-3,8.166362E-3,7.286061E-3,9.621443E-4,-1.0869441E-3,-9.201149E-3],"split_indices":[17,17,13,15,10,0,15,0,0,0,0,0,0],"split_type":[0,0,0,0,0,0,0,0,0,0,0,0,0],"sum_hessian":[3.34778E2,2.6837274E2,6.640527E1,1.7271216E2,9.5660576E1,9.407175E0,5.6998096E1,1.6458267E2,8.129497E0,5.1759323E1,4.390125E1,1.3774893E1,4.32232E1],"tree_param":{"num_deleted":"0","num_feature":"23","num_nodes":"13","size_leaf_vector":"1"}},{"base_weights":[-3.2301795E-2,-4.326183E-1,2.0343569E-1,3.727973E-3,-5.1130146E-1,2.746132E-1,-5.072521E-1,-1.0087406E-2,-3.552674E-3,8.8467327E-4,7.0864963E-3,1.8730611E-3,-1.0353037E-2],"categories":[],"categories_nodes":[],"categories_segments":[],"categories_sizes":[],"default_left":[0,0,0,0,0,0,0,0,0,0,0,0,0],"id":17,"left_children":[1,3,5,-1,7,9,11,-1,-1,-1,-1,-1,-1],"loss_changes":[3.1817228E1,8.10791E0,1.0878006E1,0E0,8.508282E0,1.55801115E1,7.410777E0,0E0,0E0,0E0,0E0,0E0,0E0],"parents":[2147483647,0,0,1,1,2,2,4,4,5,5,6,6],"right_children":[2,4,6,-1,8,10,12,-1,-1,-1,-1,-1,-1],"split_conditions":[6.951763E-4,1.5152211E-2,4.430509E-2,3.727973E-3,2.689037E-2,2.9219605E-2,-6.166495E-3,-1.0087406E-2,-3.552674E-3,8.8467327E-4,7.0864963E-3,1.8730611E-3,-1.0353037E-2],"split_indices":[22,15,17,0,17,17,2,0,0,0,0,0,0],"split_type":[0,0,0,0,0,0,0,0,0,0,0,0,0],"sum_hessian":[3.3522287E2,1.2393243E2,2.1129044E2,1.0697085E1,1.1323534E2,1.9261324E2,1.8677197E1,2.5733055E1,8.750229E1,1.3564345E2,5.6969788E1,8.345483E0,1.0331714E1],"tree_param":{"num_deleted":"0","num_feature":"23","num_nodes":"13","size_leaf_vector":"1"}},{"base_weights":[6.361412E-2,-4.3935055E-1,2.9877204E-1,-7.585105E-1,-4.9642E-2,7.331822E-1,1.9359608E-1,-1.00162625E-2,-2.27114E-3,1.0265441E-2,-3.1868168E-3,7.078299E-4,9.106689E-3,7.016125E-4,5.5158185E-3],"categories":[],"categories_nodes":[],"categories_segments":[],"categories_sizes":[],"default_left":[0,0,0,0,0,0,0,0,0,0,0,0,0,0,0],"id":18,"left_children":[1,3,5,7,9,11,13,-1,-1,-1,-1,-1,-1,-1,-1],"loss_changes":[4.0859818E1,1.3657936E1,1.0606056E1,7.584038E0,1.499115E1,5.284153E0,8.389963E0,0E0,0E0,0E0,0E0,0E0,0E0,0E0,0E0],"parents":[2147483647,0,0,1,1,2,2,3,3,4,4,5,5,6,6],"right_children":[2,4,6,8,10,12,14,-1,-1,-1,-1,-1,-1,-1,-1],"split_conditions":[2.6787427E-4,8.055502E-3,4.629483E-1,-4.954724E-4,1.945294E-2,-3.8921665E-2,2.4026927E-1,-1.00162625E-2,-2.27114E-3,1.0265441E-2,-3.1868168E-3,7.078299E-4,9.106689E-3,7.016125E-4,5.5158185E-3],"split_indices":[22,11,14,22,12,5,7,0,0,0,0,0,0,0,0],"split_type":[0,0,0,0,0,0,0,0,0,0,0,0,0,0,0],"sum_hessian":[3.4335144E2,1.09111435E2,2.3423999E2,5.946499E1,4.9646446E1,4.449412E1,1.8974588E2,4.0192078E1,1.9272913E1,9.365981E0,4.0280464E1,9.698208E0,3.4795914E1,1.4198492E2,4.7760944E1],"tree_param":{"num_deleted":"0","num_feature":"23","num_nodes":"15","size_leaf_vector":"1"}},{"base_weights":[-3.861437E-3,7.692925E-2,-3.879721E-1,1.2455199E-1,-5.115015E-1,-5.9541166E-1,4.755983E-3,-1.15880655E-4,4.6778806E-3,2.133224E-3,-9.960277E-3,-1.0744304E-2,-3.2668206E-4],"categories":[],"categories_nodes":[],"categories_segments":[],"categories_sizes":[],"default_left":[0,0,0,0,0,0,0,0,0,0,0,0,0],"id":19,"left_children":[1,3,5,7,9,11,-1,-1,-1,-1,-1,-1,-1],"loss_changes":[1.0633844E1,7.9985657E0,1.0950376E1,1.2283802E1,7.726852E0,1.3027407E1,0E0,0E0,0E0,0E0,0E0,0E0,0E0],"parents":[2147483647,0,0,1,1,2,2,3,3,4,4,5,5],"right_children":[2,4,6,8,10,12,-1,-1,-1,-1,-1,-1,-1],"split_conditions":[3.667284E-2,3.1021833E-1,1.2077426E0,2.8518165E-2,2.7625414E-2,9.454667E-3,4.755983E-3,-1.15880655E-4,4.6778806E-3,2.133224E-3,-9.960277E-3,-1.0744304E-2,-3.2668206E-4],"split_indices":[15,7,16,12,5,6,0,0,0,0,0,0,0],"split_type":[0,0,0,0,0,0,0,0,0,0,0,0,0],"sum_hessian":[3.4070554E2,2.8215836E2,5.8547157E1,2.6176184E2,2.0396517E1,4.7457775E1,1.1089381E1,1.8811482E2,7.3647026E1,8.396122E0,1.2000394E1,2.5144764E1,2.2313013E1],"tree_param":{"num_deleted":"0","num_feature":"23","num_nodes":"13","size_leaf_vector":"1"}},{"base_weights":[-2.7116148E-2,-4.9576202E-1,1.6919237E-1,1.8157777E-1,-6.290175E-1,6.377214E-1,5.321194E-2,-9.838469E-5,3.4563355E-3,-8.374165E-3,-3.1302017E-3,3.392526E-3,1.0368758E-2,-3.1598874E-3,1.8312538E-3],"categories":[],"categories_nodes":[],"categories_segments":[],"categories_sizes":[],"default_left":[0,0,0,0,0,0,0,0,0,0,0,0,0,0,0],"id":20,"left_children":[1,3,5,7,9,11,13,-1,-1,-1,-1,-1,-1,-1,-1],"loss_changes":[3.1693201E1,9.292427E0,1.31650505E1,5.5271894E-1,5.3482437E0,5.3792477E0,9.448774E0,0E0,0E0,0E0,0E0,0E0,0E0,0E0,0E0],"parents":[2147483647,0,0,1,1,2,2,3,3,4,4,5,5,6,6],"right_children":[2,4,6,8,10,12,14,-1,-1,-1,-1,-1,-1,-1,-1],"split_conditions":[3.030274E-6,1.0988623E-1,4.629483E-1,1.7953414E-2,1.08819E-2,2.6268624E-3,1.8786555E-2,-9.838469E-5,3.4563355E-3,-8.374165E-3,-3.1302017E-3,3.392526E-3,1.0368758E-2,-3.1598874E-3,1.8312538E-3],"split_indices":[22,10,14,15,11,22,15,0,0,0,0,0,0,0,0],"split_type":[0,0,0,0,0,0,0,0,0,0,0,0,0,0,0],"sum_hessian":[3.4258264E2,1.0068726E2,2.4189537E2,1.6492573E1,8.419469E1,4.710512E1,1.9479025E2,8.045413E0,8.447159E0,4.9740765E1,3.4453922E1,2.801028E1,1.9094841E1,5.0328766E1,1.4446149E2],"tree_param":{"num_deleted":"0","num_feature":"23","num_nodes":"15","size_leaf_vector":"1"}},{"base_weights":[3.4491114E-2,-5.985361E-1,2.032191E-1,-8.8321537E-1,2.4668798E-2,6.357529E-1,1.2266158E-1,2.6464154E-4,-1.08507E-2,7.1490696E-3,-6.4576566E-3,1.3190211E-2,3.8856124E-3,1.8882441E-3,-5.73881E-3],"categories":[],"categories_nodes":[],"categories_segments":[],"categories_sizes":[],"default_left":[0,0,0,0,0,0,0,0,0,0,0,0,0,0,0],"id":21,"left_children":[1,3,5,7,9,11,13,-1,-1,-1,-1,-1,-1,-1,-1],"loss_changes":[3.6559933E1,1.2804155E1,9.333483E0,9.115082E0,1.1366396E1,6.6096535E0,1.0658917E1,0E0,0E0,0E0,0E0,0E0,0E0,0E0,0E0],"parents":[2147483647,0,0,1,1,2,2,3,3,4,4,5,5,6,6],"right_children":[2,4,6,8,10,12,14,-1,-1,-1,-1,-1,-1,-1,-1],"split_conditions":[-4.954724E-4,1.7425129E-1,3.1022337E-1,-5.5700894E-2,3.462252E-2,-1.0824973E-1,4.565059E-2,2.6464154E-4,-1.08507E-2,7.1490696E-3,-6.4576566E-3,1.3190211E-2,3.8856124E-3,1.8882441E-3,-5.73881E-3],"split_indices":[22,7,19,5,11,4,17,0,0,0,0,0,0,0,0],"split_type":[0,0,0,0,0,0,0,0,0,0,0,0,0,0,0],"sum_hessian":[3.4015253E2,7.104842E1,2.691041E2,4.8483845E1,2.2564583E1,4.116843E1,2.2793568E2,8.962457E0,3.952139E1,1.1085401E1,1.1479181E1,9.785122E0,3.1383307E1,2.0882849E2,1.9107185E1],"tree_param":{"num_deleted":"0","num_feature":"23","num_nodes":"15","size_leaf_vector":"1"}},{"base_weights":[1.6686495E-2,-3.276572E-1,2.1075138E-1,-6.497519E-1,-1.5661083E-1,-1.0137765E-2,2.6271537E-1,1.6697805E-3,-9.24648E-3,3.5856836E-3,-5.1569133E-3,3.3523994E-3,-5.137948E-3],"categories":[],"categories_nodes":[],"categories_segments":[],"categories_sizes":[],"default_left":[0,0,0,0,0,0,0,0,0,0,0,0,0],"id":22,"left_children":[1,3,5,7,9,-1,11,-1,-1,-1,-1,-1,-1],"loss_changes":[2.2667713E1,6.635271E0,1.4067481E1,9.605808E0,1.5203857E1,0E0,1.1934253E1,0E0,0E0,0E0,0E0,0E0,0E0],"parents":[2147483647,0,0,1,1,2,2,3,3,4,4,6,6],"right_children":[2,4,6,8,10,-1,12,-1,-1,-1,-1,-1,-1],"split_conditions":[6.951763E-4,2.7594928E-2,1.8816726E-2,1.5152211E-2,3.957763E-2,-1.0137765E-2,4.565059E-2,1.6697805E-3,-9.24648E-3,3.5856836E-3,-5.1569133E-3,3.3523994E-3,-5.137948E-3],"split_indices":[22,17,17,15,17,0,17,0,0,0,0,0,0],"split_type":[0,0,0,0,0,0,0,0,0,0,0,0,0],"sum_hessian":[3.3717664E2,1.2128439E2,2.1589226E2,4.1096855E1,8.018754E1,8.035154E0,2.078571E2,1.0447977E1,3.0648878E1,3.293563E1,4.7251907E1,1.9062167E2,1.7235428E1],"tree_param":{"num_deleted":"0","num_feature":"23","num_nodes":"13","size_leaf_vector":"1"}},{"base_weights":[1.4992381E-2,-4.1184115E-1,2.1639007E-1,-6.695516E-1,-7.716931E-2,8.593162E-1,1.03651576E-1,3.2854571E-3,-8.391906E-3,1.0425824E-2,-3.245864E-3,1.1439458E-2,3.0356883E-3,-5.9931085E-4,3.8291987E-3],"categories":[],"categories_nodes":[],"categories_segments":[],"categories_sizes":[],"default_left":[0,0,0,0,0,0,0,0,0,0,0,0,0,0,0],"id":23,"left_children":[1,3,5,7,9,11,13,-1,-1,-1,-1,-1,-1,-1,-1],"loss_changes":[2.9635498E1,9.481403E0,1.6884806E1,1.0826633E1,1.3973352E1,5.1575165E0,9.176937E0,0E0,0E0,0E0,0E0,0E0,0E0,0E0,0E0],"parents":[2147483647,0,0,1,1,2,2,3,3,4,4,5,5,6,6],"right_children":[2,4,6,8,10,12,14,-1,-1,-1,-1,-1,-1,-1,-1],"split_conditions":[1.9001479E-4,1.08819E-2,-2.8821517E-2,-1.657635E-1,2.0029487E-2,5.3672683E-1,3.0136414E-2,3.2854571E-3,-8.391906E-3,1.0425824E-2,-3.245864E-3,1.1439458E-2,3.0356883E-3,-5.9931085E-4,3.8291987E-3],"split_indices":[22,11,4,6,12,19,12,0,0,0,0,0,0,0,0],"split_type":[0,0,0,0,0,0,0,0,0,0,0,0,0,0,0],"sum_hessian":[3.427093E2,1.09530396E2,2.3317888E2,6.1314896E1,4.8215496E1,3.380026E1,1.9937863E2,8.7712345E0,5.2543663E1,8.143965E0,4.0071533E1,2.165243E1,1.2147828E1,1.26226364E2,7.315226E1],"tree_param":{"num_deleted":"0","num_feature":"23","num_nodes":"15","size_leaf_vector":"1"}},{"base_weights":[2.6857449E-2,-3.520837E-1,3.1398726E-1,-1.8669036E-1,-6.69276E-1,5.330514E-1,-5.238997E-2,-6.0035214E-3,2.8687504E-3,1.4276012E-3,-9.10928E-3,-5.463793E-3,6.168956E-3,-4.569624E-3,2.884301E-3],"categories":[],"categories_nodes":[],"categories_segments":[],"categories_sizes":[],"default_left":[0,0,0,0,0,0,0,0,0,0,0,0,0,0,0],"id":24,"left_children":[1,3,5,7,9,11,13,-1,-1,-1,-1,-1,-1,-1,-1],"loss_changes":[3.7446346E1,7.66E0,1.5738813E1,1.955073E1,1.0033989E1,1.1432159E1,1.0357092E1,0E0,0E0,0E0,0E0,0E0,0E0,0E0,0E0],"parents":[2147483647,0,0,1,1,2,2,3,3,4,4,5,5,6,6],"right_children":[2,4,6,8,10,12,14,-1,-1,-1,-1,-1,-1,-1,-1],"split_conditions":[1.3047464E-3,4.041905E-2,5.1636198E-3,2.7241597E-2,-7.117474E-1,6.317114E-2,1.2822582E-1,-6.0035214E-3,2.8687504E-3,1.4276012E-3,-9.10928E-3,-5.463793E-3,6.168956E-3,-4.569624E-3,2.884301E-3],"split_indices":[22,17,13,17,9,10,7,0,0,0,0,0,0,0,0],"split_type":[0,0,0,0,0,0,0,0,0,0,0,0,0,0,0],"sum_hessian":[3.4214316E2,1.4739352E2,1.9474963E2,9.7922455E1,4.947107E1,1.215923E2,7.315733E1,5.2124077E1,4.5798378E1,1.143951E1,3.8031563E1,8.366278E0,1.1322603E2,3.329433E1,3.9863003E1],"tree_param":{"num_deleted":"0","num_feature":"23","num_nodes":"15","size_leaf_vector":"1"}},{"base_weights":[-2.8774038E-2,-4.5790705E-1,1.7717257E-1,-7.1183556E-1,-1.4351434E-1,5.1850474E-1,9.356189E-3,2.6588407E-3,-8.826809E-3,9.452553E-3,-4.1432474E-3,3.132049E-3,1.008604E-2,-2.0988262E-3,3.9256727E-3],"categories":[],"categories_nodes":[],"categories_segments":[],"categories_sizes":[],"default_left":[0,0,0,0,0,0,0,0,0,0,0,0,0,0,0],"id":25,"left_children":[1,3,5,7,9,11,13,-1,-1,-1,-1,-1,-1,-1,-1],"loss_changes":[3.0762812E1,8.9077E0,1.3473622E1,1.0621206E1,1.5628962E1,7.485794E0,1.3421049E1,0E0,0E0,0E0,0E0,0E0,0E0,0E0,0E0],"parents":[2147483647,0,0,1,1,2,2,3,3,4,4,5,5,6,6],"right_children":[2,4,6,8,10,12,14,-1,-1,-1,-1,-1,-1,-1,-1],"split_conditions":[1.9001479E-4,8.055502E-3,8.831699E-3,-1.657635E-1,2.0029487E-2,3.8565565E-3,3.0136414E-2,2.6588407E-3,-8.826809E-3,9.452553E-3,-4.1432474E-3,3.132049E-3,1.008604E-2,-2.0988262E-3,3.9256727E-3],"split_indices":[22,11,3,6,12,22,12,0,0,0,0,0,0,0,0],"split_type":[0,0,0,0,0,0,0,0,0,0,0,0,0,0,0],"sum_hessian":[3.4616235E2,1.1185842E2,2.3430394E2,6.1180237E1,5.067818E1,7.653828E1,1.5776566E2,9.017618E0,5.216262E1,9.598356E0,4.1079826E1,5.5097366E1,2.1440908E1,1.0064053E2,5.712513E1],"tree_param":{"num_deleted":"0","num_feature":"23","num_nodes":"15","size_leaf_vector":"1"}},{"base_weights":[-5.5334633E-3,-4.932134E-1,1.9576328E-1,-7.807029E-1,-1.7064485E-1,5.536347E-1,2.0062858E-2,1.4987179E-3,-9.803584E-3,-4.4277715E-3,3.3412343E-3,8.449011E-3,1.2728034E-3,-1.8913645E-3,3.928244E-3],"categories":[],"categories_nodes":[],"categories_segments":[],"categories_sizes":[],"default_left":[0,0,0,0,0,0,0,0,0,0,0,0,0,0,0],"id":26,"left_children":[1,3,5,7,9,11,13,-1,-1,-1,-1,-1,-1,-1,-1],"loss_changes":[3.3030087E1,8.982687E0,1.496518E1,9.7519E0,6.68698E0,9.627487E0,1.2612681E1,0E0,0E0,0E0,0E0,0E0,0E0,0E0,0E0],"parents":[2147483647,0,0,1,1,2,2,3,3,4,4,5,5,6,6],"right_children":[2,4,6,8,10,12,14,-1,-1,-1,-1,-1,-1,-1,-1],"split_conditions":[3.030274E-6,1.10856425E-2,8.831699E-3,-5.0799802E-2,1.0154204E0,1.3545942E-2,3.0136414E-2,1.4987179E-3,-9.803584E-3,-4.4277715E-3,3.3412343E-3,8.449011E-3,1.2728034E-3,-1.8913645E-3,3.928244E-3],"split_indices":[22,12,21,5,16,8,12,0,0,0,0,0,0,0,0],"split_type":[0,0,0,0,0,0,0,0,0,0,0,0,0,0,0],"sum_hessian":[3.3448007E2,9.730058E1,2.3717949E2,5.0696774E1,4.660381E1,7.739277E1,1.5978671E2,8.999646E0,4.1697124E1,3.0359245E1,1.6244564E1,4.539751E1,3.1995256E1,1.02663216E2,5.7123505E1],"tree_param":{"num_deleted":"0","num_feature":"23","num_nodes":"15","size_leaf_vector":"1"}},{"base_weights":[3.6014277E-2,-3.5515726E-1,1.9494529E-1,-5.719011E-1,-2.6343396E-2,6.228475E-1,6.0540285E-2,4.987003E-3,-7.610949E-3,4.0918817E-3,-7.3881545E-3,4.0866355E-3,1.224095E-2,-6.031202E-3,1.4881673E-3],"categories":[],"categories_nodes":[],"categories_segments":[],"categories_sizes":[],"default_left":[0,0,0,0,0,0,0,0,0,0,0,0,0,0,0],"id":27,"left_children":[1,3,5,7,9,11,13,-1,-1,-1,-1,-1,-1,-1,-1],"loss_changes":[2.1682161E1,7.168318E0,1.4216857E1,1.2674633E1,1.3053446E1,7.11504E0,1.1204481E1,0E0,0E0,0E0,0E0,0E0,0E0,0E0,0E0],"parents":[2147483647,0,0,1,1,2,2,3,3,4,4,5,5,6,6],"right_children":[2,4,6,8,10,12,14,-1,-1,-1,-1,-1,-1,-1,-1],"split_conditions":[3.030274E-6,9.132818E-2,4.0670815E-3,-6.21498E-2,3.3418037E-2,3.9058567E-3,6.259062E-1,4.987003E-3,-7.610949E-3,4.0918817E-3,-7.3881545E-3,4.0866355E-3,1.224095E-2,-6.031202E-3,1.4881673E-3],"split_indices":[22,7,6,5,11,22,16,0,0,0,0,0,0,0,0],"split_type":[0,0,0,0,0,0,0,0,0,0,0,0,0,0,0],"sum_hessian":[3.4664633E2,9.979344E1,2.4685289E2,5.9701073E1,4.009237E1,5.8135162E1,1.8871773E2,8.720123E0,5.098095E1,2.5146242E1,1.4946128E1,4.4103683E1,1.4031476E1,2.1470533E1,1.672472E2],"tree_param":{"num_deleted":"0","num_feature":"23","num_nodes":"15","size_leaf_vector":"1"}},{"base_weights":[-2.6678504E-2,-4.308142E-1,2.1380001E-1,-6.021165E-1,-1.9922613E-1,-7.3183808E-3,2.5573388E-1,-9.473342E-3,-2.542005E-3,1.7234263E-3,-7.3315618E-3,4.373634E-3,-2.5605055E-4],"categories":[],"categories_nodes":[],"categories_segments":[],"categories_sizes":[],"default_left":[0,0,0,0,0,0,0,0,0,0,0,0,0],"id":28,"left_children":[1,3,5,7,9,-1,11,-1,-1,-1,-1,-1,-1],"loss_changes":[3.288277E1,4.886673E0,8.601763E0,8.412693E0,1.1068344E1,0E0,1.0431911E1,0E0,0E0,0E0,0E0,0E0,0E0],"parents":[2147483647,0,0,1,1,2,2,3,3,4,4,6,6],"right_children":[2,4,6,8,10,-1,12,-1,-1,-1,-1,-1,-1],"split_conditions":[6.951763E-4,-4.954724E-4,1.9026982E-2,1.10856425E-2,4.7372997E-2,-7.3183808E-3,6.912916E-2,-9.473342E-3,-2.542005E-3,1.7234263E-3,-7.3315618E-3,4.373634E-3,-2.5605055E-4],"split_indices":[22,22,17,12,4,0,3,0,0,0,0,0,0],"split_type":[0,0,0,0,0,0,0,0,0,0,0,0,0],"sum_hessian":[3.3640125E2,1.2520192E2,2.1119934E2,7.104846E1,5.4153458E1,8.26927E0,2.0293007E2,3.4797733E1,3.6250732E1,3.2331074E1,2.1822388E1,1.2298053E2,7.994954E1],"tree_param":{"num_deleted":"0","num_feature":"23","num_nodes":"13","size_leaf_vector":"1"}},{"base_weights":[-1.9251206E-3,-5.754079E-1,1.5597127E-1,-9.1594213E-1,-3.398051E-2,-2.9977723E-3,4.3753496E-1,-3.9885825E-5,-1.1348449E-2,4.609672E-3,-1.0414171E-2,2.1305028E-3,-3.3061479E-3,1.16624E-2,2.4436577E-3],"categories":[],"categories_nodes":[],"categories_segments":[],"categories_sizes":[],"default_left":[0,0,0,0,0,0,0,0,0,0,0,0,0,0,0],"id":29,"left_children":[1,3,5,7,9,11,13,-1,-1,-1,-1,-1,-1,-1,-1],"loss_changes":[3.0858795E1,1.3533657E1,1.1962353E1,9.00404E0,1.5162352E1,1.2229867E1,1.3289843E1,0E0,0E0,0E0,0E0,0E0,0E0,0E0,0E0],"parents":[2147483647,0,0,1,1,2,2,3,3,4,4,5,5,6,6],"right_children":[2,4,6,8,10,12,14,-1,-1,-1,-1,-1,-1,-1,-1],"split_conditions":[-4.954724E-4,9.839261E-2,3.8565565E-3,-5.5700894E-2,-8.7405206E-4,2.4241395E-2,9.498375E-3,-3.9885825E-5,-1.1348449E-2,4.609672E-3,-1.0414171E-2,2.1305028E-3,-3.3061479E-3,1.16624E-2,2.4436577E-3],"split_indices":[22,7,22,5,22,12,3,0,0,0,0,0,0,0,0],"split_type":[0,0,0,0,0,0,0,0,0,0,0,0,0,0,0],"sum_hessian":[3.3879846E2,7.257185E1,2.6622662E2,4.41265E1,2.8445356E1,1.7078938E2,9.543723E1,8.73878E0,3.538772E1,1.9438011E1,9.007346E0,1.0312981E2,6.765957E1,1.8942348E1,7.649489E1],"tree_param":{"num_deleted":"0","num_feature":"23","num_nodes":"15","size_leaf_vector":"1"}},{"base_weights":[2.1040753E-2,1.5483747E-1,-5.0893015E-1,4.578085E-3,4.6813235E-1,-6.556563E-1,3.8270545E-3,5.9537417E-3,-6.294976E-4,-4.9076728E-3,5.705299E-3,-7.878127E-3,-4.456024E-4],"categories":[],"categories_nodes":[],"categories_segments":[],"categories_sizes":[],"default_left":[0,0,0,0,0,0,0,0,0,0,0,0,0],"id":30,"left_children":[1,3,5,7,9,11,-1,-1,-1,-1,-1,-1,-1],"loss_changes":[2.4312815E1,1.287968E1,9.294086E0,7.4560566E0,8.988388E0,4.7882633E0,0E0,0E0,0E0,0E0,0E0,0E0,0E0],"parents":[2147483647,0,0,1,1,2,2,3,3,4,4,5,5],"right_children":[2,4,6,8,10,12,-1,-1,-1,-1,-1,-1,-1],"split_conditions":[4.099391E-2,2.935582E-2,7.6524146E-2,-4.1847997E-3,-2.484664E-2,1.1595768E0,3.8270545E-3,5.9537417E-3,-6.294976E-4,-4.9076728E-3,5.705299E-3,-7.878127E-3,-4.456024E-4],"split_indices":[17,17,18,11,11,16,0,0,0,0,0,0,0],"split_type":[0,0,0,0,0,0,0,0,0,0,0,0,0],"sum_hessian":[3.4076526E2,2.726418E2,6.812345E1,1.849517E2,8.7690094E1,5.87245E1,9.398952E0,1.8169695E1,1.6678201E2,8.0947E0,7.95954E1,4.8045036E1,1.0679463E1],"tree_param":{"num_deleted":"0","num_feature":"23","num_nodes":"13","size_leaf_vector":"1"}}]},"name":"gbtree"},"learner_model_param":{"base_score":"5.977088E-1","boost_from_average":"1","num_class":"0","num_feature":"23","num_target":"1"},"objective":{"name":"binary:logistic","reg_loss_param":{"scale_pos_weight":"1"}}},"version":[2,1,4]}