{"learner":{"attributes":{"best_iteration":"40","best_score":"0.6763136997005018","scikit_learn":"{\"_estimator_type\": \"classifier\"}"},"feature_names":[],"feature_types":[],"gradient_booster":{"model":{"gbtree_model_param":{"num_parallel_tree":"1","num_trees":"71"},"iteration_indptr":[0,1,2,3,4,5,6,7,8,9,10,11,12,13,14,15,16,17,18,19,20,21,22,23,24,25,26,27,28,29,30,31,32,33,34,35,36,37,38,39,40,41,42,43,44,45,46,47,48,49,50,51,52,53,54,55,56,57,58,59,60,61,62,63,64,65,66,67,68,69,70,71],"tree_info":[0,0,0,0,0,0,0,0,0,0,0,0,0,0,0,0,0,0,0,0,0,0,0,0,0,0,0,0,0,0,0,0,0,0,0,0,0,0,0,0,0,0,0,0,0,0,0,0,0,0,0,0,0,0,0,0,0,0,0,0,0,0,0,0,0,0,0,0,0,0,0],"trees":[{"base_weights":[5.8123082E-2,-3.000321E-1,8.088182E-1,-9.5504385E-1,-1.3542414E-1,9.9827725E-1,-1.0000764E-1,-2.4965798E-4,-1.1530903E-2,-3.942473E-5,-9.651608E-3,1.1184577E-2,7.072517E-4,5.64653E-3,-8.702136E-3],"categories":[],"categories_nodes":[],"categories_segments":[],"categories_sizes":[],"default_left":[0,0,0,0,0,0,0,0,0,0,0,0,0,0,0],"id":0,"left_children":[1,3,5,7,9,11,13,-1,-1,-1,-1,-1,-1,-1,-1],"loss_changes":[9.231975E1,2.494743E1,1.9192734E1,8.544701E0,2.0400784E1,1.0159592E1,1.0748943E1,0E0,0E0,0E0,0E0,0E0,0E0,0E0,0E0],"parents":[2147483647,0,0,1,1,2,2,3,3,4,4,5,5,6,6],"right_children":[2,4,6,8,10,12,14,-1,-1,-1,-1,-1,-1,-1,-1],"split_conditions":[2.2722527E-3,-1.1108245E-3,7.54052E-1,-1.7655319E-2,1.44125195E-2,2.1029256E-2,5.028074E-2,-2.4965798E-4,-1.1530903E-2,-3.942473E-5,-9.651608E-3,1.1184577E-2,7.072517E-4,5.64653E-3,-8.702136E-3],"split_indices":[22,22,14,0,0,0,21,0,0,0,0,0,0,0,0],"split_type":[0,0,0,0,0,0,0,0,0,0,0,0,0,0,0],"sum_hessian":[3.414654E2,2.3157957E2,1.0988583E2,4.5544785E1,1.8603479E2,9.0848595E1,1.903724E1,8.193242E0,3.7351543E1,1.6145506E2,2.4579725E1,8.0245575E1,1.0603019E1,1.0362041E1,8.675198E0],"tree_param":{"num_deleted":"0","num_feature":"23","num_nodes":"15","size_leaf_vector":"1"}},{"base_weights":[2.6701856E-2,2.9898655E-1,-1.4014252E-1,3.9360547E-1,-5.5210143E-3,2.9394543E-2,-5.3709114E-1,6.3167606E-3,1.0448196E-3,1.8199622E-3,-7.717E-3,-1.3306571E-2,-2.3474225E-3],"categories":[],"categories_nodes":[],"categories_segments":[],"categories_sizes":[],"default_left":[0,0,0,0,0,0,0,0,0,0,0,0,0],"id":1,"left_children":[1,3,5,7,-1,9,11,-1,-1,-1,-1,-1,-1],"loss_changes":[1.5389991E1,1.0579935E1,1.415935E1,7.9453983E0,0E0,1.8259495E1,1.4791395E1,0E0,0E0,0E0,0E0,0E0,0E0],"parents":[2147483647,0,0,1,1,2,2,3,3,5,5,6,6],"right_children":[2,4,6,8,-1,10,12,-1,-1,-1,-1,-1,-1],"split_conditions":[-5.6545384E-4,3.1003624E-2,1.9545518E-2,3.956778E-3,-5.5210143E-3,2.0960981E-2,2.1551777E-2,6.3167606E-3,1.0448196E-3,1.8199622E-3,-7.717E-3,-1.3306571E-2,-2.3474225E-3],"split_indices":[5,17,17,6,0,11,17,0,0,0,0,0,0],"split_type":[0,0,0,0,0,0,0,0,0,0,0,0,0],"sum_hessian":[3.368466E2,1.2768186E2,2.0916473E2,1.15390915E2,1.2290952E1,1.4721503E2,6.1949703E1,6.263286E1,5.2758057E1,1.243082E2,2.2906836E1,1.615282E1,4.5796883E1],"tree_param":{"num_deleted":"0","num_feature":"23","num_nodes":"13","size_leaf_vector":"1"}},{"base_weights":[4.147516E-2,-3.15011E-1,8.055042E-1,-1.2804294E0,-1.576299E-1,1.0031108E0,-9.792725E-2,-3.5477844E-3,-1.6655138E-2,2.4696435E-3,-2.8281366E-3,1.1541789E-2,5.909876E-3,4.713549E-3,-7.54241E-3],"categories":[],"categories_nodes":[],"categories_segments":[],"categories_sizes":[],"default_left":[0,0,0,0,0,0,0,0,0,0,0,0,0,0,0],"id":2,"left_children":[1,3,5,7,9,11,13,-1,-1,-1,-1,-1,-1,-1,-1],"loss_changes":[9.128188E1,3.4531876E1,1.9130531E1,1.078093E1,1.0083128E1,4.769562E0,7.844708E0,0E0,0E0,0E0,0E0,0E0,0E0,0E0,0E0],"parents":[2147483647,0,0,1,1,2,2,3,3,4,4,5,5,6,6],"right_children":[2,4,6,8,10,12,14,-1,-1,-1,-1,-1,-1,-1,-1],"split_conditions":[2.2722527E-3,-1.80656E-3,7.5996935E-1,-4.983739E-3,-1.2095264E-2,1.7180612E-2,5.135094E-2,-3.5477844E-3,-1.6655138E-2,2.4696435E-3,-2.8281366E-3,1.1541789E-2,5.909876E-3,4.713549E-3,-7.54241E-3],"split_indices":[22,22,14,5,1,1,3,0,0,0,0,0,0,0,0],"split_type":[0,0,0,0,0,0,0,0,0,0,0,0,0,0,0],"sum_hessian":[3.3321283E2,2.276036E2,1.0560923E2,3.0902632E1,1.9670097E2,8.65647E1,1.9044533E1,9.643434E0,2.1259197E1,4.624953E1,1.5045145E2,6.2027336E1,2.4537361E1,1.0349371E1,8.695161E0],"tree_param":{"num_deleted":"0","num_feature":"23","num_nodes":"15","size_leaf_vector":"1"}},{"base_weights":[-3.4216058E-2,-3.9889738E-1,7.7804214E-1,1.1376348E-2,-7.257409E-1,1.0211555E0,-2.8492259E-2,-2.5011182E-3,2.962858E-3,-1.8614925E-2,-5.5526686E-3,1.1774186E-2,4.7164485E-3,-1.0032773E-2,5.545459E-3],"categories":[],"categories_nodes":[],"categories_segments":[],"categories_sizes":[],"default_left":[0,0,0,0,0,0,0,0,0,0,0,0,0,0,0],"id":3,"left_children":[1,3,5,7,9,11,13,-1,-1,-1,-1,-1,-1,-1,-1],"loss_changes":[1.01512436E2,3.1714966E1,2.0852943E1,7.958334E0,2.445037E1,6.454155E0,1.5089056E1,0E0,0E0,0E0,0E0,0E0,0E0,0E0,0E0],"parents":[2147483647,0,0,1,1,2,2,3,3,4,4,5,5,6,6],"right_children":[2,4,6,8,10,12,14,-1,-1,-1,-1,-1,-1,-1,-1],"split_conditions":[2.2722527E-3,5.8882637E-4,7.112637E-1,2.9809398E-4,-1.9168083E-3,1.5199975E-2,3.0203676E-3,-2.5011182E-3,2.962858E-3,-1.8614925E-2,-5.5526686E-3,1.1774186E-2,4.7164485E-3,-1.0032773E-2,5.545459E-3],"split_indices":[22,5,14,22,22,5,22,0,0,0,0,0,0,0,0],"split_type":[0,0,0,0,0,0,0,0,0,0,0,0,0,0,0],"sum_hessian":[3.406503E2,2.3544911E2,1.0520119E2,1.0482794E2,1.3062117E2,8.063063E1,2.4570562E1,5.4724373E1,5.0103565E1,1.5752636E1,1.1486853E2,6.1888783E1,1.8741846E1,8.926132E0,1.5644429E1],"tree_param":{"num_deleted":"0","num_feature":"23","num_nodes":"15","size_leaf_vector":"1"}},{"base_weights":[2.2344872E-2,-3.6247113E-1,8.228751E-1,-1.2059377E0,-2.3849426E-1,1.0196453E0,8.767622E-2,-1.6148308E-3,-1.7157298E-2,-1.0592152E-3,-1.004616E-2,1.1408265E-2,1.1249108E-3,-4.443714E-3,7.878742E-3],"categories":[],"categories_nodes":[],"categories_segments":[],"categories_sizes":[],"default_left":[0,0,0,0,0,0,0,0,0,0,0,0,0,0,0],"id":4,"left_children":[1,3,5,7,9,11,13,-1,-1,-1,-1,-1,-1,-1,-1],"loss_changes":[1.0449544E2,2.3672232E1,1.5840202E1,1.5225777E1,2.0309616E1,9.4103775E0,9.418734E0,0E0,0E0,0E0,0E0,0E0,0E0,0E0,0E0],"parents":[2147483647,0,0,1,1,2,2,3,3,4,4,5,5,6,6],"right_children":[2,4,6,8,10,12,14,-1,-1,-1,-1,-1,-1,-1,-1],"split_conditions":[2.2722527E-3,-1.9168083E-3,3.2316178E-2,-4.983739E-3,1.44125195E-2,2.1029256E-2,1.18700005E-2,-1.6148308E-3,-1.7157298E-2,-1.0592152E-3,-1.004616E-2,1.1408265E-2,1.1249108E-3,-4.443714E-3,7.878742E-3],"split_indices":[22,22,8,5,0,0,15,0,0,0,0,0,0,0,0],"split_type":[0,0,0,0,0,0,0,0,0,0,0,0,0,0,0],"sum_hessian":[3.3724008E2,2.2812653E2,1.0911353E2,2.8115805E1,2.0001073E2,8.577076E1,2.3342773E1,9.653864E0,1.846194E1,1.7147609E2,2.8534645E1,7.543613E1,1.0334635E1,1.3471658E1,9.871117E0],"tree_param":{"num_deleted":"0","num_feature":"23","num_nodes":"15","size_leaf_vector":"1"}},{"base_weights":[-3.3080183E-2,-4.0495494E-1,8.078365E-1,-1.1999589E0,-2.7498558E-1,9.64214E-1,2.2510707E-3,-2.4106344E-3,-1.5255E-2,-1.4408358E-3,-1.0610018E-2,1.0506417E-2,2.7516265E-3,-6.5369145E-3,7.2781364E-3],"categories":[],"categories_nodes":[],"categories_segments":[],"categories_sizes":[],"default_left":[0,0,0,0,0,0,0,0,0,0,0,0,0,0,0],"id":5,"left_children":[1,3,5,7,9,11,13,-1,-1,-1,-1,-1,-1,-1,-1],"loss_changes":[1.0866563E2,2.4559334E1,1.3422165E1,1.0104992E1,2.1282616E1,5.025284E0,9.197289E0,0E0,0E0,0E0,0E0,0E0,0E0,0E0,0E0],"parents":[2147483647,0,0,1,1,2,2,3,3,4,4,5,5,6,6],"right_children":[2,4,6,8,10,12,14,-1,-1,-1,-1,-1,-1,-1,-1],"split_conditions":[2.2722527E-3,-1.80656E-3,5.0033487E-2,-5.300533E-3,1.44125195E-2,1.1103852E-1,1.3224427E-1,-2.4106344E-3,-1.5255E-2,-1.4408358E-3,-1.0610018E-2,1.0506417E-2,2.7516265E-3,-6.5369145E-3,7.2781364E-3],"split_indices":[22,22,6,5,0,10,10,0,0,0,0,0,0,0,0],"split_type":[0,0,0,0,0,0,0,0,0,0,0,0,0,0,0],"sum_hessian":[3.4544406E2,2.3988101E2,1.0556306E2,3.254925E1,2.0733177E2,8.823773E1,1.7325325E1,8.690755E0,2.3858496E1,1.7874683E2,2.8584934E1,7.79373E1,1.0300428E1,9.151236E0,8.174089E0],"tree_param":{"num_deleted":"0","num_feature":"23","num_nodes":"15","size_leaf_vector":"1"}},{"base_weights":[-4.556211E-2,-4.198673E-1,7.490841E-1,-1.3052135E0,-2.9160887E-1,9.5585245E-1,2.6649203E-2,-3.616507E-3,-1.7110676E-2,-7.443875E-4,-4.689654E-3,5.550312E-3,1.091291E-2,8.002241E-3,-7.88885E-3],"categories":[],"categories_nodes":[],"categories_segments":[],"categories_sizes":[],"default_left":[0,0,0,0,0,0,0,0,0,0,0,0,0,0,0],"id":6,"left_children":[1,3,5,7,9,11,13,-1,-1,-1,-1,-1,-1,-1,-1],"loss_changes":[1.0125799E2,2.5889362E1,1.6260883E1,1.0481354E1,7.797783E0,3.994484E0,1.6586159E1,0E0,0E0,0E0,0E0,0E0,0E0,0E0,0E0],"parents":[2147483647,0,0,1,1,2,2,3,3,4,4,5,5,6,6],"right_children":[2,4,6,8,10,12,14,-1,-1,-1,-1,-1,-1,-1,-1],"split_conditions":[2.2722527E-3,-1.9168083E-3,3.2316178E-2,2.5351843E-2,5.8882637E-4,-6.301491E-3,8.70065E-1,-3.616507E-3,-1.7110676E-2,-7.443875E-4,-4.689654E-3,5.550312E-3,1.091291E-2,8.002241E-3,-7.88885E-3],"split_indices":[22,22,8,7,5,8,19,0,0,0,0,0,0,0,0],"split_type":[0,0,0,0,0,0,0,0,0,0,0,0,0,0,0],"sum_hessian":[3.38374E2,2.3034525E2,1.08028755E2,2.7986025E1,2.023592E2,8.3738754E1,2.4289997E1,8.985917E0,1.9000109E1,9.16073E1,1.10751915E2,2.2436747E1,6.130201E1,1.2475312E1,1.1814684E1],"tree_param":{"num_deleted":"0","num_feature":"23","num_nodes":"15","size_leaf_vector":"1"}},{"base_weights":[-1.700171E-2,-3.9344972E-1,7.9205936E-1,-1.2776014E0,-2.6509243E-1,9.585454E-1,1.2183644E-2,-3.3553236E-3,-1.7551452E-2,-1.1418323E-3,-1.1691676E-2,6.3766474E-3,1.2305303E-2,8.458233E-3,-6.487123E-3],"categories":[],"categories_nodes":[],"categories_segments":[],"categories_sizes":[],"default_left":[0,0,0,0,0,0,0,0,0,0,0,0,0,0,0],"id":7,"left_children":[1,3,5,7,9,11,13,-1,-1,-1,-1,-1,-1,-1,-1],"loss_changes":[1.0484506E2,2.631945E1,1.4181931E1,1.2690067E1,2.802399E1,7.076439E0,1.1702247E1,0E0,0E0,0E0,0E0,0E0,0E0,0E0,0E0],"parents":[2147483647,0,0,1,1,2,2,3,3,4,4,5,5,6,6],"right_children":[2,4,6,8,10,12,14,-1,-1,-1,-1,-1,-1,-1,-1],"split_conditions":[2.2722527E-3,-1.9168083E-3,4.8608147E-2,-4.983739E-3,1.44125195E-2,3.3287008E-3,7.842074E-1,-3.3553236E-3,-1.7551452E-2,-1.1418323E-3,-1.1691676E-2,6.3766474E-3,1.2305303E-2,8.458233E-3,-6.487123E-3],"split_indices":[22,22,6,5,0,22,9,0,0,0,0,0,0,0,0],"split_type":[0,0,0,0,0,0,0,0,0,0,0,0,0,0,0],"sum_hessian":[3.422171E2,2.3389963E2,1.0831747E2,2.8516764E1,2.0538287E2,8.907322E1,1.9244246E1,1.0165505E1,1.835126E1,1.7696927E2,2.8413603E1,4.2397835E1,4.6675385E1,8.386228E0,1.0858017E1],"tree_param":{"num_deleted":"0","num_feature":"23","num_nodes":"15","size_leaf_vector":"1"}},{"base_weights":[3.899158E-2,-3.6220467E-1,8.875632E-1,-9.4311446E-1,-2.0330824E-1,1.160132E0,4.4963494E-1,-3.2287948E-3,-1.2358864E-2,-9.1364916E-4,-9.63366E-3,1.2577004E-2,4.8433724E-3,8.399835E-3,1.3976514E-4],"categories":[],"categories_nodes":[],"categories_segments":[],"categories_sizes":[],"default_left":[0,0,0,0,0,0,0,0,0,0,0,0,0,0,0],"id":8,"left_children":[1,3,5,7,9,11,13,-1,-1,-1,-1,-1,-1,-1,-1],"loss_changes":[1.159862E2,2.1166843E1,1.2531502E1,8.575733E0,1.5479585E1,3.7933884E0,7.4001884E0,0E0,0E0,0E0,0E0,0E0,0E0,0E0,0E0],"parents":[2147483647,0,0,1,1,2,2,3,3,4,4,5,5,6,6],"right_children":[2,4,6,8,10,12,14,-1,-1,-1,-1,-1,-1,-1,-1],"split_conditions":[2.2722527E-3,-1.1108245E-3,8.955911E-4,-5.4505426E-3,1.44125195E-2,1.6748415E-2,1.6513022E-2,-3.2287948E-3,-1.2358864E-2,-9.1364916E-4,-9.63366E-3,1.2577004E-2,4.8433724E-3,8.399835E-3,1.3976514E-4],"split_indices":[22,22,13,5,0,0,1,0,0,0,0,0,0,0,0],"split_type":[0,0,0,0,0,0,0,0,0,0,0,0,0,0,0],"sum_hessian":[3.3874692E2,2.3039272E2,1.08354225E2,4.8423977E1,1.8196873E2,6.5769684E1,4.2584538E1,1.6202326E1,3.2221653E1,1.5958485E2,2.2383871E1,5.6719673E1,9.050012E0,2.1970743E1,2.0613796E1],"tree_param":{"num_deleted":"0","num_feature":"23","num_nodes":"15","size_leaf_vector":"1"}},{"base_weights":[3.5648292E-3,-3.7384924E-1,8.138092E-1,-8.5006535E-1,-1.4520231E-1,9.747712E-1,2.5263911E-2,-4.749208E-3,-1.2929227E-2,-2.1132533E-3,7.3836925E-3,1.0391017E-2,3.3256968E-3,7.308796E-3,-5.8428347E-3],"categories":[],"categories_nodes":[],"categories_segments":[],"categories_sizes":[],"default_left":[0,0,0,0,0,0,0,0,0,0,0,0,0,0,0],"id":9,"left_children":[1,3,5,7,9,11,13,-1,-1,-1,-1,-1,-1,-1,-1],"loss_changes":[1.0344571E2,2.5006104E1,1.3619606E1,1.1789383E1,9.336296E0,3.3415375E0,8.706496E0,0E0,0E0,0E0,0E0,0E0,0E0,0E0,0E0],"parents":[2147483647,0,0,1,1,2,2,3,3,4,4,5,5,6,6],"right_children":[2,4,6,8,10,12,14,-1,-1,-1,-1,-1,-1,-1,-1],"split_conditions":[2.2722527E-3,-3.5205498E-4,5.0513756E-2,2.7757944E-3,1.7089413E-1,2.1029256E-2,1.1469677E-2,-4.749208E-3,-1.2929227E-2,-2.1132533E-3,7.3836925E-3,1.0391017E-2,3.3256968E-3,7.308796E-3,-5.8428347E-3],"split_indices":[22,22,3,1,10,0,12,0,0,0,0,0,0,0,0],"split_type":[0,0,0,0,0,0,0,0,0,0,0,0,0,0,0],"sum_hessian":[3.3628668E2,2.2978896E2,1.06497734E2,7.3658455E1,1.561305E2,8.824794E1,1.824979E1,4.099987E1,3.265859E1,1.4596767E2,1.016282E1,7.9651115E1,8.5968275E0,8.366095E0,9.883695E0],"tree_param":{"num_deleted":"0","num_feature":"23","num_nodes":"15","size_leaf_vector":"1"}},{"base_weights":[4.5379486E-2,-2.8144574E-1,7.828762E-1,-1.0277026E0,-1.7262858E-1,9.9108166E-1,-2.9760848E-3,-5.5014406E-4,-1.4198607E-2,-7.578734E-4,-7.803611E-3,1.1187174E-2,3.768868E-3,-4.9557006E-3,7.416405E-3],"categories":[],"categories_nodes":[],"categories_segments":[],"categories_sizes":[],"default_left":[0,0,0,0,0,0,0,0,0,0,0,0,0,0,0],"id":10,"left_children":[1,3,5,7,9,11,13,-1,-1,-1,-1,-1,-1,-1,-1],"loss_changes":[8.088636E1,1.8713942E1,1.6860973E1,1.1137789E1,1.1960684E1,5.9639053E0,8.648686E0,0E0,0E0,0E0,0E0,0E0,0E0,0E0,0E0],"parents":[2147483647,0,0,1,1,2,2,3,3,4,4,5,5,6,6],"right_children":[2,4,6,8,10,12,14,-1,-1,-1,-1,-1,-1,-1,-1],"split_conditions":[2.2722527E-3,-1.80656E-3,3.2316178E-2,-4.983739E-3,1.9991422E-2,1.953923E-2,1.18700005E-2,-5.5014406E-4,-1.4198607E-2,-7.578734E-4,-7.803611E-3,1.1187174E-2,3.768868E-3,-4.9557006E-3,7.416405E-3],"split_indices":[22,22,8,5,5,5,15,0,0,0,0,0,0,0,0],"split_type":[0,0,0,0,0,0,0,0,0,0,0,0,0,0,0],"sum_hessian":[3.3366858E2,2.3163625E2,1.0203234E2,2.8403522E1,2.0323271E2,8.04552E1,2.1577139E1,8.488755E0,1.9914768E1,1.762692E2,2.6963518E1,6.5932365E1,1.4522836E1,1.3187522E1,8.389617E0],"tree_param":{"num_deleted":"0","num_feature":"23","num_nodes":"15","size_leaf_vector":"1"}},{"base_weights":[-1.708553E-2,-3.672219E-1,7.5952715E-1,-2.344297E-1,-1.1305779E0,9.793453E-1,2.2332153E-1,-1.0734747E-2,-9.6846203E-4,-1.8234048E-2,-7.5173634E-3,1.0897762E-2,5.452639E-3,6.2847333E-3,-3.7937132E-3],"categories":[],"categories_nodes":[],"categories_segments":[],"categories_sizes":[],"default_left":[0,0,0,0,0,0,0,0,0,0,0,0,0,0,0],"id":11,"left_children":[1,3,5,7,9,11,13,-1,-1,-1,-1,-1,-1,-1,-1],"loss_changes":[9.2426285E1,2.3479828E1,1.2231842E1,2.3075657E1,7.6711807E0,2.9829254E0,8.054286E0,0E0,0E0,0E0,0E0,0E0,0E0,0E0,0E0],"parents":[2147483647,0,0,1,1,2,2,3,3,4,4,5,5,6,6],"right_children":[2,4,6,8,10,12,14,-1,-1,-1,-1,-1,-1,-1,-1],"split_conditions":[2.2722527E-3,1.44125195E-2,6.7427075E-1,-1.80656E-3,-1.857262E-3,1.3996629E-2,4.412624E-2,-1.0734747E-2,-9.6846203E-4,-1.8234048E-2,-7.5173634E-3,1.0897762E-2,5.452639E-3,6.2847333E-3,-3.7937132E-3],"split_indices":[22,0,14,22,13,0,3,0,0,0,0,0,0,0,0],"split_type":[0,0,0,0,0,0,0,0,0,0,0,0,0,0,0],"sum_hessian":[3.3787634E2,2.3324489E2,1.0463147E2,1.9979584E2,3.3449055E1,7.362313E1,3.1008333E1,2.7188147E1,1.726077E2,1.0476497E1,2.2972557E1,5.748765E1,1.613548E1,1.8517458E1,1.2490876E1],"tree_param":{"num_deleted":"0","num_feature":"23","num_nodes":"15","size_leaf_vector":"1"}},{"base_weights":[2.2071669E-2,-3.1618798E-1,7.840257E-1,-8.9135E-1,-1.6314532E-1,1.0042982E0,-4.834256E-3,-1.388532E-2,-6.0640043E-3,4.107544E-3,-3.3217256E-3,1.081967E-2,2.8740764E-3,6.4550005E-3,-8.008833E-3],"categories":[],"categories_nodes":[],"categories_segments":[],"categories_sizes":[],"default_left":[0,0,0,0,0,0,0,0,0,0,0,0,0,0,0],"id":12,"left_children":[1,3,5,7,9,11,13,-1,-1,-1,-1,-1,-1,-1,-1],"loss_changes":[8.745363E1,2.0543566E1,1.8130669E1,6.1243362E0,1.8263203E1,4.229637E0,1.2819804E1,0E0,0E0,0E0,0E0,0E0,0E0,0E0,0E0],"parents":[2147483647,0,0,1,1,2,2,3,3,4,4,5,5,6,6],"right_children":[2,4,6,8,10,12,14,-1,-1,-1,-1,-1,-1,-1,-1],"split_conditions":[2.2722527E-3,-1.1108245E-3,3.2316178E-2,6.864799E-2,-1.2095264E-2,2.1029256E-2,8.7423235E-1,-1.388532E-2,-6.0640043E-3,4.107544E-3,-3.3217256E-3,1.081967E-2,2.8740764E-3,6.4550005E-3,-8.008833E-3],"split_indices":[22,22,8,10,1,0,19,0,0,0,0,0,0,0,0],"split_type":[0,0,0,0,0,0,0,0,0,0,0,0,0,0,0],"sum_hessian":[3.3734988E2,2.3403714E2,1.0331273E2,4.817239E1,1.8586476E2,8.054823E1,2.2764496E1,1.613938E1,3.203301E1,4.1961704E1,1.4390305E2,7.221512E1,8.333117E0,1.263303E1,1.0131466E1],"tree_param":{"num_deleted":"0","num_feature":"23","num_nodes":"15","size_leaf_vector":"1"}},{"base_weights":[-4.2742517E-2,-3.3543396E-1,8.4486055E-1,-1.1544037E0,-2.2912386E-1,9.625591E-1,-9.4555224E-5,-1.4665392E-2,-6.194538E-3,-1.1343657E-3,-9.313226E-3,1.11382315E-2,3.8645954E-3],"categories":[],"categories_nodes":[],"categories_segments":[],"categories_sizes":[],"default_left":[0,0,0,0,0,0,0,0,0,0,0,0,0],"id":13,"left_children":[1,3,5,7,9,11,-1,-1,-1,-1,-1,-1,-1],"loss_changes":[8.8786385E1,2.21027E1,8.532192E0,3.9788399E0,1.8467525E1,6.0625076E0,0E0,0E0,0E0,0E0,0E0,0E0,0E0],"parents":[2147483647,0,0,1,1,2,2,3,3,4,4,5,5],"right_children":[2,4,6,8,10,12,-1,-1,-1,-1,-1,-1,-1],"split_conditions":[2.6396117E-3,-1.9168083E-3,2.1029256E-2,1.9207628E-2,1.44125195E-2,3.2316178E-2,-9.4555224E-5,-1.4665392E-2,-6.194538E-3,-1.1343657E-3,-9.313226E-3,1.11382315E-2,3.8645954E-3],"split_indices":[22,22,0,18,0,8,0,0,0,0,0,0,0],"split_type":[0,0,0,0,0,0,0,0,0,0,0,0,0],"sum_hessian":[3.3966623E2,2.5590306E2,8.376319E1,2.826927E1,2.2763379E2,7.350918E1,1.0254008E1,1.6752802E1,1.1516468E1,1.9643298E2,3.1200804E1,5.7482773E1,1.6026405E1],"tree_param":{"num_deleted":"0","num_feature":"23","num_nodes":"13","size_leaf_vector":"1"}},{"base_weights":[-7.6935557E-4,-3.431234E-1,7.519941E-1,-8.121E-1,-1.4105049E-1,9.5728445E-1,1.16003705E-2,-4.115234E-3,-1.1609328E-2,3.3272891E-3,-3.0547355E-3,1.1012917E-2,1.8855229E-3,-6.04758E-3,7.3202043E-3],"categories":[],"categories_nodes":[],"categories_segments":[],"categories_sizes":[],"default_left":[0,0,0,0,0,0,0,0,0,0,0,0,0,0,0],"id":14,"left_children":[1,3,5,7,9,11,13,-1,-1,-1,-1,-1,-1,-1,-1],"loss_changes":[8.729729E1,2.1951315E1,1.6084751E1,9.290443E0,1.28723545E1,8.969223E0,1.1099799E1,0E0,0E0,0E0,0E0,0E0,0E0,0E0,0E0],"parents":[2147483647,0,0,1,1,2,2,3,3,4,4,5,5,6,6],"right_children":[2,4,6,8,10,12,14,-1,-1,-1,-1,-1,-1,-1,-1],"split_conditions":[2.2722527E-3,-5.9517776E-4,3.2316178E-2,8.340388E-4,-7.562045E-3,1.953923E-2,1.3174623E-2,-4.115234E-3,-1.1609328E-2,3.3272891E-3,-3.0547355E-3,1.1012917E-2,1.8855229E-3,-6.04758E-3,7.3202043E-3],"split_indices":[22,22,8,5,5,5,17,0,0,0,0,0,0,0,0],"split_type":[0,0,0,0,0,0,0,0,0,0,0,0,0,0,0],"sum_hessian":[3.36739E2,2.3184221E2,1.04896805E2,6.89055E1,1.629367E2,8.189632E1,2.3000488E1,3.3088528E1,3.581697E1,4.1714428E1,1.2122228E2,6.861079E1,1.328553E1,1.2482004E1,1.0518483E1],"tree_param":{"num_deleted":"0","num_feature":"23","num_nodes":"15","size_leaf_vector":"1"}},{"base_weights":[1.6148947E-2,-3.2880077E-1,7.687793E-1,-2.0071065E-1,-1.1298472E0,9.629129E-1,5.295329E-2,-1.0286323E-2,-6.6462724E-4,-1.440269E-2,-6.6574123E-3,1.0707621E-2,3.0604515E-3,-6.2164133E-3,4.906872E-3],"categories":[],"categories_nodes":[],"categories_segments":[],"categories_sizes":[],"default_left":[0,0,0,0,0,0,0,0,0,0,0,0,0,0,0],"id":15,"left_children":[1,3,5,7,9,11,13,-1,-1,-1,-1,-1,-1,-1,-1],"loss_changes":[8.883285E1,2.3850965E1,1.4892021E1,2.2553055E1,3.6706963E0,5.660698E0,7.3917637E0,0E0,0E0,0E0,0E0,0E0,0E0,0E0,0E0],"parents":[2147483647,0,0,1,1,2,2,3,3,4,4,5,5,6,6],"right_children":[2,4,6,8,10,12,14,-1,-1,-1,-1,-1,-1,-1,-1],"split_conditions":[2.2722527E-3,1.44125195E-2,3.2316178E-2,-1.80656E-3,3.3669718E-2,2.0204552E-2,1.2217847E-2,-1.0286323E-2,-6.6462724E-4,-1.440269E-2,-6.6574123E-3,1.0707621E-2,3.0604515E-3,-6.2164133E-3,4.906872E-3],"split_indices":[22,0,8,22,3,5,18,0,0,0,0,0,0,0,0],"split_type":[0,0,0,0,0,0,0,0,0,0,0,0,0,0,0],"sum_hessian":[3.4019177E2,2.3366176E2,1.0653003E2,2.0252747E2,3.1134289E1,8.353104E1,2.2998991E1,2.7328348E1,1.7519911E2,1.7395687E1,1.3738602E1,7.120929E1,1.2321749E1,8.885442E0,1.4113549E1],"tree_param":{"num_deleted":"0","num_feature":"23","num_nodes":"15","size_leaf_vector":"1"}},{"base_weights":[-8.641532E-3,8.072777E-2,-8.375795E-1,3.4843528E-1,-8.919633E-2,-1.2032892E0,-3.433839E-3,1.10176625E-2,2.462211E-3,1.2329041E-3,-3.7441086E-3,-6.799139E-3,-1.6248163E-2],"categories":[],"categories_nodes":[],"categories_segments":[],"categories_sizes":[],"default_left":[0,0,0,0,0,0,0,0,0,0,0,0,0],"id":16,"left_children":[1,3,5,7,9,11,-1,-1,-1,-1,-1,-1,-1],"loss_changes":[2.496523E1,1.3873136E1,5.513998E0,8.842047E0,1.1375228E1,2.9653187E0,0E0,0E0,0E0,0E0,0E0,0E0,0E0],"parents":[2147483647,0,0,1,1,2,2,3,3,4,4,5,5],"right_children":[2,4,6,8,10,12,-1,-1,-1,-1,-1,-1,-1],"split_conditions":[1.2219468E-1,1.4764104E-2,2.5585428E-2,3.4390972E-3,4.4354782E-3,3.182495E-2,-3.433839E-3,1.10176625E-2,2.462211E-3,1.2329041E-3,-3.7441086E-3,-6.799139E-3,-1.6248163E-2],"split_indices":[7,17,11,6,5,8,0,0,0,0,0,0,0],"split_type":[0,0,0,0,0,0,0,0,0,0,0,0,0],"sum_hessian":[3.3508362E2,3.0328818E2,3.1795437E1,1.1735318E2,1.85935E2,1.7448515E1,1.4346922E1,1.2852163E1,1.04501015E2,1.06877945E2,7.905706E1,8.949564E0,8.498952E0],"tree_param":{"num_deleted":"0","num_feature":"23","num_nodes":"13","size_leaf_vector":"1"}},{"base_weights":[-4.2581208E-2,-3.8978162E-1,7.098205E-1,-9.880054E-1,-2.699595E-1,8.4338164E-1,-3.0324245E-3,-2.1921608E-3,-1.3197602E-2,-1.588785E-3,-9.569285E-3,9.996567E-3,2.5234844E-3],"categories":[],"categories_nodes":[],"categories_segments":[],"categories_sizes":[],"default_left":[0,0,0,0,0,0,0,0,0,0,0,0,0],"id":17,"left_children":[1,3,5,7,9,11,-1,-1,-1,-1,-1,-1,-1],"loss_changes":[8.817831E1,1.6283268E1,1.4679382E1,9.441467E0,1.4631594E1,8.471275E0,0E0,0E0,0E0,0E0,0E0,0E0,0E0],"parents":[2147483647,0,0,1,1,2,2,3,3,4,4,5,5],"right_children":[2,4,6,8,10,12,-1,-1,-1,-1,-1,-1,-1],"split_conditions":[2.2722527E-3,-1.4551443E-3,2.1029256E-2,-5.4505426E-3,1.44125195E-2,3.2316178E-2,-3.0324245E-3,-2.1921608E-3,-1.3197602E-2,-1.588785E-3,-9.569285E-3,9.996567E-3,2.5234844E-3],"split_indices":[22,22,0,5,0,8,0,0,0,0,0,0,0],"split_type":[0,0,0,0,0,0,0,0,0,0,0,0,0],"sum_hessian":[3.3548593E2,2.298857E2,1.0560023E2,3.7152508E1,1.9273318E2,9.344768E1,1.2152548E1,1.1700115E1,2.5452394E1,1.6696645E2,2.5766743E1,7.335936E1,2.008832E1],"tree_param":{"num_deleted":"0","num_feature":"23","num_nodes":"13","size_leaf_vector":"1"}},{"base_weights":[3.382111E-2,-2.973743E-1,7.684749E-1,-1.0893599E0,-1.7328325E-1,8.836344E-1,-5.2526575E-3,-2.8415485E-3,-1.4546449E-2,-7.1253517E-4,-8.361562E-3,5.1827626E-3,1.1157781E-2],"categories":[],"categories_nodes":[],"categories_segments":[],"categories_sizes":[],"default_left":[0,0,0,0,0,0,0,0,0,0,0,0,0],"id":18,"left_children":[1,3,5,7,9,11,-1,-1,-1,-1,-1,-1,-1],"loss_changes":[8.407922E1,2.3226582E1,1.6459915E1,9.023724E0,1.3951944E1,7.815155E0,0E0,0E0,0E0,0E0,0E0,0E0,0E0],"parents":[2147483647,0,0,1,1,2,2,3,3,4,4,5,5],"right_children":[2,4,6,8,10,12,-1,-1,-1,-1,-1,-1,-1],"split_conditions":[2.2722527E-3,-1.80656E-3,1.24103464E-1,-4.983739E-3,1.44125195E-2,3.0378192E-3,-5.2526575E-3,-2.8415485E-3,-1.4546449E-2,-7.1253517E-4,-8.361562E-3,5.1827626E-3,1.1157781E-2],"split_indices":[22,22,7,5,0,22,0,0,0,0,0,0,0],"split_type":[0,0,0,0,0,0,0,0,0,0,0,0,0],"sum_hessian":[3.4361932E2,2.3725545E2,1.0636389E2,3.1084747E1,2.0617068E2,9.796109E1,8.4028E0,1.02557335E1,2.0829014E1,1.7962952E2,2.654117E1,3.931615E1,5.8644943E1],"tree_param":{"num_deleted":"0","num_feature":"23","num_nodes":"13","size_leaf_vector":"1"}},{"base_weights":[-1.3218324E-2,8.546691E-2,-5.2090305E-1,1.3629471E-1,-6.4746577E-1,-8.301263E-1,-1.5252955E-1,1.8450331E-3,-5.4829763E-3,1.6555175E-3,-1.3350603E-2,-3.943209E-3,-1.2647537E-2,2.877022E-3,-7.431765E-3],"categories":[],"categories_nodes":[],"categories_segments":[],"categories_sizes":[],"default_left":[0,0,0,0,0,0,0,0,0,0,0,0,0,0,0],"id":19,"left_children":[1,3,5,7,9,11,13,-1,-1,-1,-1,-1,-1,-1,-1],"loss_changes":[1.7163906E1,1.0777954E1,6.224003E0,8.984432E0,1.072105E1,5.1995773E0,7.147917E0,0E0,0E0,0E0,0E0,0E0,0E0,0E0,0E0],"parents":[2147483647,0,0,1,1,2,2,3,3,4,4,5,5,6,6],"right_children":[2,4,6,8,10,12,14,-1,-1,-1,-1,-1,-1,-1,-1],"split_conditions":[3.3121966E-2,2.4843369E-2,2.8113501E-2,2.1029256E-2,3.343147E-3,5.8071003E-3,1.8583652E-2,1.8450331E-3,-5.4829763E-3,1.6555175E-3,-1.3350603E-2,-3.943209E-3,-1.2647537E-2,2.877022E-3,-7.431765E-3],"split_indices":[20,12,1,0,20,0,15,0,0,0,0,0,0,0,0],"split_type":[0,0,0,0,0,0,0,0,0,0,0,0,0,0,0],"sum_hessian":[3.4069757E2,2.8594617E2,5.4751396E1,2.6816348E2,1.77827E1,2.908398E1,2.5667418E1,2.512043E2,1.6959175E1,8.496088E0,9.2866125E0,1.547465E1,1.360933E1,1.5000142E1,1.0667276E1],"tree_param":{"num_deleted":"0","num_feature":"23","num_nodes":"15","size_leaf_vector":"1"}},{"base_weights":[-4.1370834E-3,-3.0812958E-1,6.9892377E-1,-2.0563297E-1,-9.999135E-1,8.160468E-1,-6.0988753E-3,-9.487394E-3,-1.0078653E-3,-1.2923128E-2,-1.639426E-3,1.1679106E-2,4.8376964E-3],"categories":[],"categories_nodes":[],"categories_segments":[],"categories_sizes":[],"default_left":[0,0,0,0,0,0,0,0,0,0,0,0,0],"id":20,"left_children":[1,3,5,7,9,11,-1,-1,-1,-1,-1,-1,-1],"loss_changes":[7.3692314E1,1.6861885E1,1.6452953E1,1.6336407E1,7.3174934E0,1.0654594E1,0E0,0E0,0E0,0E0,0E0,0E0,0E0],"parents":[2147483647,0,0,1,1,2,2,3,3,4,4,5,5],"right_children":[2,4,6,8,10,12,-1,-1,-1,-1,-1,-1,-1],"split_conditions":[2.3043305E-3,1.44125195E-2,2.5548944E-2,-1.9168083E-3,9.1570723E-1,7.175163E-2,-6.0988753E-3,-9.487394E-3,-1.0078653E-3,-1.2923128E-2,-1.639426E-3,1.1679106E-2,4.8376964E-3],"split_indices":[22,0,0,22,9,10,0,0,0,0,0,0,0],"split_type":[0,0,0,0,0,0,0,0,0,0,0,0,0],"sum_hessian":[3.427917E2,2.3970761E2,1.0308409E2,2.0990479E2,2.9802826E1,9.496257E1,8.121521E0,2.4958784E1,1.84946E2,2.1675468E1,8.127357E0,4.490047E1,5.0062096E1],"tree_param":{"num_deleted":"0","num_feature":"23","num_nodes":"13","size_leaf_vector":"1"}},{"base_weights":[-9.739618E-3,-3.3984396E-1,7.4350315E-1,-2.2521984E-2,-5.8966506E-1,1.1865832E0,4.5029613E-1,8.781279E-4,-6.465351E-3,-1.3592249E-2,-4.7537927E-3,6.345852E-3,1.3037087E-2,-7.272036E-4,6.881781E-3],"categories":[],"categories_nodes":[],"categories_segments":[],"categories_sizes":[],"default_left":[0,0,0,0,0,0,0,0,0,0,0,0,0,0,0],"id":21,"left_children":[1,3,5,7,9,11,13,-1,-1,-1,-1,-1,-1,-1,-1],"loss_changes":[8.511548E1,1.8852818E1,1.3016933E1,7.346001E0,1.10613785E1,1.8187332E0,8.060258E0,0E0,0E0,0E0,0E0,0E0,0E0,0E0,0E0],"parents":[2147483647,0,0,1,1,2,2,3,3,4,4,5,5,6,6],"right_children":[2,4,6,8,10,12,14,-1,-1,-1,-1,-1,-1,-1,-1],"split_conditions":[2.2722527E-3,5.8882637E-4,6.701705E-2,2.8924394E-2,-1.9168083E-3,2.557149E-3,1.0731926E-2,8.781279E-4,-6.465351E-3,-1.3592249E-2,-4.7537927E-3,6.345852E-3,1.3037087E-2,-7.272036E-4,6.881781E-3],"split_indices":[22,5,10,17,22,22,15,0,0,0,0,0,0,0,0],"split_type":[0,0,0,0,0,0,0,0,0,0,0,0,0,0,0],"sum_hessian":[3.40296E2,2.3698672E2,1.0330925E2,1.0487059E2,1.3211613E2,3.992685E1,6.3382404E1,8.98441E1,1.502649E1,1.5674746E1,1.1644139E2,8.112356E0,3.1814493E1,2.0032492E1,4.334991E1],"tree_param":{"num_deleted":"0","num_feature":"23","num_nodes":"15","size_leaf_vector":"1"}},{"base_weights":[5.4232396E-2,-2.3982595E-1,7.3502547E-1,-1.0003511E0,-1.2924327E-1,9.66054E-1,2.5874883E-1,-2.2282721E-3,-1.3529204E-2,-3.5727595E-4,-7.266724E-3,6.2502697E-3,1.1321401E-2,7.548665E-3,-5.2738015E-4],"categories":[],"categories_nodes":[],"categories_segments":[],"categories_sizes":[],"default_left":[0,0,0,0,0,0,0,0,0,0,0,0,0,0,0],"id":22,"left_children":[1,3,5,7,9,11,13,-1,-1,-1,-1,-1,-1,-1,-1],"loss_changes":[6.792923E1,1.9811401E1,1.1010204E1,7.9089813E0,1.1603365E1,3.1746254E0,5.4162674E0,0E0,0E0,0E0,0E0,0E0,0E0,0E0,0E0],"parents":[2147483647,0,0,1,1,2,2,3,3,4,4,5,5,6,6],"right_children":[2,4,6,8,10,12,14,-1,-1,-1,-1,-1,-1,-1,-1],"split_conditions":[2.2722527E-3,-1.9168083E-3,6.6666484E-1,-4.983739E-3,1.44125195E-2,-6.301491E-3,8.70065E-1,-2.2282721E-3,-1.3529204E-2,-3.5727595E-4,-7.266724E-3,6.2502697E-3,1.1321401E-2,7.548665E-3,-5.2738015E-4],"split_indices":[22,22,14,5,0,8,19,0,0,0,0,0,0,0,0],"split_type":[0,0,0,0,0,0,0,0,0,0,0,0,0,0,0],"sum_hessian":[3.3743835E2,2.3610434E2,1.01334E2,2.8950817E1,2.0715353E2,6.754261E1,3.379139E1,9.541307E0,1.940951E1,1.8003278E2,2.7120758E1,2.3681116E1,4.3861496E1,1.2484074E1,2.1307318E1],"tree_param":{"num_deleted":"0","num_feature":"23","num_nodes":"15","size_leaf_vector":"1"}},{"base_weights":[-2.0078743E-4,-3.05932E-1,6.8583924E-1,-8.689033E-1,-1.5554637E-1,8.620853E-1,-1.8339337E-1,-4.017141E-3,-1.129431E-2,3.6309548E-3,-3.0479005E-3,4.8727114E-3,1.0276647E-2,-7.683842E-3,3.964756E-3],"categories":[],"categories_nodes":[],"categories_segments":[],"categories_sizes":[],"default_left":[0,0,0,0,0,0,0,0,0,0,0,0,0,0,0],"id":23,"left_children":[1,3,5,7,9,11,13,-1,-1,-1,-1,-1,-1,-1,-1],"loss_changes":[7.228959E1,2.0049265E1,1.6434963E1,5.637192E0,1.476848E1,4.992378E0,6.660089E0,0E0,0E0,0E0,0E0,0E0,0E0,0E0,0E0],"parents":[2147483647,0,0,1,1,2,2,3,3,4,4,5,5,6,6],"right_children":[2,4,6,8,10,12,14,-1,-1,-1,-1,-1,-1,-1,-1],"split_conditions":[2.2722527E-3,-1.1108245E-3,5.0604645E-2,3.7830942E-3,-8.683206E-3,2.8779202E-3,1.3303186E-2,-4.017141E-3,-1.129431E-2,3.6309548E-3,-3.0479005E-3,4.8727114E-3,1.0276647E-2,-7.683842E-3,3.964756E-3],"split_indices":[22,22,6,12,0,22,15,0,0,0,0,0,0,0,0],"split_type":[0,0,0,0,0,0,0,0,0,0,0,0,0,0,0],"sum_hessian":[3.4265625E2,2.374096E2,1.0524665E2,4.904203E1,1.8836757E2,8.751108E1,1.773557E1,1.8467417E1,3.0574614E1,4.177186E1,1.4659572E2,2.802196E1,5.948912E1,8.666959E0,9.068611E0],"tree_param":{"num_deleted":"0","num_feature":"23","num_nodes":"15","size_leaf_vector":"1"}},{"base_weights":[-1.314945E-2,-3.4403616E-1,7.177437E-1,-1.0347936E0,-1.8660511E-1,8.892634E-1,1.3427338E-1,-3.812888E-3,-1.23853935E-2,-7.845081E-4,-8.484011E-3,4.3511004E-3,1.0417879E-2,9.755861E-3,-5.537572E-3],"categories":[],"categories_nodes":[],"categories_segments":[],"categories_sizes":[],"default_left":[0,0,0,0,0,0,0,0,0,0,0,0,0,0,0],"id":24,"left_children":[1,3,5,7,9,11,13,-1,-1,-1,-1,-1,-1,-1,-1],"loss_changes":[8.31903E1,2.5553843E1,1.0609135E1,5.3496666E0,1.382177E1,5.2732773E0,1.5319659E1,0E0,0E0,0E0,0E0,0E0,0E0,0E0,0E0],"parents":[2147483647,0,0,1,1,2,2,3,3,4,4,5,5,6,6],"right_children":[2,4,6,8,10,12,14,-1,-1,-1,-1,-1,-1,-1,-1],"split_conditions":[2.2722527E-3,-1.3565773E-3,3.2316178E-2,1.1456095E-3,1.44125195E-2,-7.0421193E-3,8.4417135E-1,-3.812888E-3,-1.23853935E-2,-7.845081E-4,-8.484011E-3,4.3511004E-3,1.0417879E-2,9.755861E-3,-5.537572E-3],"split_indices":[22,22,8,7,0,8,19,0,0,0,0,0,0,0,0],"split_type":[0,0,0,0,0,0,0,0,0,0,0,0,0,0,0],"sum_hessian":[3.4196396E2,2.3576071E2,1.0620325E2,4.2724804E1,1.930359E2,8.1670815E1,2.4532434E1,1.0837007E1,3.1887798E1,1.6688173E2,2.6154177E1,2.1501417E1,6.0169395E1,1.0848781E1,1.3683655E1],"tree_param":{"num_deleted":"0","num_feature":"23","num_nodes":"15","size_leaf_vector":"1"}},{"base_weights":[-1.7182311E-2,-2.9699174E-1,8.4114105E-1,-1.1070744E0,-1.8469417E-1,9.3559474E-1,5.8122267E-5,-2.7973615E-3,-1.3794633E-2,-6.05638E-4,-8.997059E-3,1.0758851E-2,6.306434E-3],"categories":[],"categories_nodes":[],"categories_segments":[],"categories_sizes":[],"default_left":[0,0,0,0,0,0,0,0,0,0,0,0,0],"id":25,"left_children":[1,3,5,7,9,11,-1,-1,-1,-1,-1,-1,-1],"loss_changes":[8.355072E1,2.3658216E1,6.7430954E0,6.766014E0,2.0499073E1,2.6087418E0,0E0,0E0,0E0,0E0,0E0,0E0,0E0],"parents":[2147483647,0,0,1,1,2,2,3,3,4,4,5,5],"right_children":[2,4,6,8,10,12,-1,-1,-1,-1,-1,-1,-1],"split_conditions":[2.6396117E-3,-1.80656E-3,9.700997E-1,-8.046952E-2,1.44125195E-2,1.3890128E-2,5.8122267E-5,-2.7973615E-3,-1.3794633E-2,-6.05638E-4,-8.997059E-3,1.0758851E-2,6.306434E-3],"split_indices":[22,22,19,9,0,1,0,0,0,0,0,0,0],"split_type":[0,0,0,0,0,0,0,0,0,0,0,0,0],"sum_hessian":[3.4584583E2,2.61313E2,8.453283E1,3.0735737E1,2.3057726E2,7.583757E1,8.695263E0,8.114923E0,2.2620813E1,1.9739328E2,3.3183964E1,5.021057E1,2.5626997E1],"tree_param":{"num_deleted":"0","num_feature":"23","num_nodes":"13","size_leaf_vector":"1"}},{"base_weights":[-1.3325614E-2,-3.250933E-1,7.0902884E-1,-9.6334934E-1,-1.5108106E-1,8.673314E-1,-1.02004915E-1,-1.072387E-3,-1.1495513E-2,-4.3501647E-4,-8.498553E-3,1.0362491E-2,4.8864526E-3,7.737022E-3,-9.2749735E-3],"categories":[],"categories_nodes":[],"categories_segments":[],"categories_sizes":[],"default_left":[0,0,0,0,0,0,0,0,0,0,0,0,0,0,0],"id":26,"left_children":[1,3,5,7,9,11,13,-1,-1,-1,-1,-1,-1,-1,-1],"loss_changes":[7.576094E1,2.5949804E1,1.3110386E1,7.870922E0,1.3930918E1,4.9287186E0,1.3338267E1,0E0,0E0,0E0,0E0,0E0,0E0,0E0,0E0],"parents":[2147483647,0,0,1,1,2,2,3,3,4,4,5,5,6,6],"right_children":[2,4,6,8,10,12,14,-1,-1,-1,-1,-1,-1,-1,-1],"split_conditions":[2.2722527E-3,-1.1108245E-3,5.0033487E-2,-1.7655319E-2,1.44125195E-2,8.4217176E-2,7.9907924E-1,-1.072387E-3,-1.1495513E-2,-4.3501647E-4,-8.498553E-3,1.0362491E-2,4.8864526E-3,7.737022E-3,-9.2749735E-3],"split_indices":[22,22,6,0,0,10,9,0,0,0,0,0,0,0,0],"split_type":[0,0,0,0,0,0,0,0,0,0,0,0,0,0,0],"sum_hessian":[3.3438266E2,2.3395695E2,1.00425705E2,4.9148827E1,1.8480812E2,8.396708E1,1.6458628E1,9.0616255E0,4.00872E1,1.6107254E2,2.373558E1,5.6865196E1,2.7101883E1,8.01685E0,8.441776E0],"tree_param":{"num_deleted":"0","num_feature":"23","num_nodes":"15","size_leaf_vector":"1"}},{"base_weights":[1.7030183E-2,-3.0597174E-1,7.433229E-1,-9.207018E-1,-1.6486017E-1,9.173541E-1,-8.736783E-2,-2.2356845E-3,-1.2297509E-2,2.3765205E-3,-2.8995867E-3,1.305389E-2,7.971427E-3,5.8754557E-3,-6.751191E-3],"categories":[],"categories_nodes":[],"categories_segments":[],"categories_sizes":[],"default_left":[0,0,0,0,0,0,0,0,0,0,0,0,0,0,0],"id":27,"left_children":[1,3,5,7,9,11,13,-1,-1,-1,-1,-1,-1,-1,-1],"loss_changes":[8.172506E1,2.0768473E1,1.5582035E1,9.378597E0,1.0006786E1,3.0989685E0,8.126706E0,0E0,0E0,0E0,0E0,0E0,0E0,0E0,0E0],"parents":[2147483647,0,0,1,1,2,2,3,3,4,4,5,5,6,6],"right_children":[2,4,6,8,10,12,14,-1,-1,-1,-1,-1,-1,-1,-1],"split_conditions":[2.2722527E-3,-1.3565773E-3,7.5996935E-1,-4.983739E-3,-1.2095264E-2,3.6756933E-1,4.7207136E-2,-2.2356845E-3,-1.2297509E-2,2.3765205E-3,-2.8995867E-3,1.305389E-2,7.971427E-3,5.8754557E-3,-6.751191E-3],"split_indices":[22,22,14,5,1,19,6,0,0,0,0,0,0,0,0],"split_type":[0,0,0,0,0,0,0,0,0,0,0,0,0,0,0],"sum_hessian":[3.4639865E2,2.4016814E2,1.0623051E2,4.3806683E1,1.9636145E2,8.774372E1,1.848679E1,1.3984579E1,2.9822104E1,4.6344723E1,1.5001672E2,1.8421398E1,6.932233E1,8.605483E0,9.881307E0],"tree_param":{"num_deleted":"0","num_feature":"23","num_nodes":"15","size_leaf_vector":"1"}},{"base_weights":[3.2927144E-2,-2.4466506E-1,6.939278E-1,-8.041636E-1,-9.754795E-2,8.884807E-1,-1.9244622E-1,1.5168435E-4,-9.643108E-3,-1.6481106E-4,-1.12483855E-2,5.509557E-3,1.0750388E-2,5.0394735E-3,-8.35E-3],"categories":[],"categories_nodes":[],"categories_segments":[],"categories_sizes":[],"default_left":[0,0,0,0,0,0,0,0,0,0,0,0,0,0,0],"id":28,"left_children":[1,3,5,7,9,11,13,-1,-1,-1,-1,-1,-1,-1,-1],"loss_changes":[6.206472E1,1.9536282E1,1.7419994E1,6.506485E0,1.5789719E1,4.583664E0,8.844516E0,0E0,0E0,0E0,0E0,0E0,0E0,0E0,0E0],"parents":[2147483647,0,0,1,1,2,2,3,3,4,4,5,5,6,6],"right_children":[2,4,6,8,10,12,14,-1,-1,-1,-1,-1,-1,-1,-1],"split_conditions":[2.2722527E-3,-1.1108245E-3,5.028074E-2,-1.8846799E-2,2.1029256E-2,2.9316419E-3,7.5996935E-1,1.5168435E-4,-9.643108E-3,-1.6481106E-4,-1.12483855E-2,5.509557E-3,1.0750388E-2,5.0394735E-3,-8.35E-3],"split_indices":[22,22,3,0,0,22,14,0,0,0,0,0,0,0,0],"split_type":[0,0,0,0,0,0,0,0,0,0,0,0,0,0,0],"sum_hessian":[3.3632306E2,2.3729787E2,9.902517E1,4.847548E1,1.888224E2,8.119997E1,1.7825203E1,8.073871E0,4.0401608E1,1.7595338E2,1.286901E1,3.0312038E1,5.088793E1,8.65774E0,9.167463E0],"tree_param":{"num_deleted":"0","num_feature":"23","num_nodes":"15","size_leaf_vector":"1"}},{"base_weights":[1.2034244E-2,-3.1045586E-1,7.3028976E-1,-8.876078E-1,-1.7499927E-1,9.337301E-1,-1.09609924E-1,-1.4741682E-3,-1.1018862E-2,-1.0660093E-3,-1.0092169E-2,1.0170955E-2,1.5854998E-3,-6.5929242E-3,5.820646E-3],"categories":[],"categories_nodes":[],"categories_segments":[],"categories_sizes":[],"default_left":[0,0,0,0,0,0,0,0,0,0,0,0,0,0,0],"id":29,"left_children":[1,3,5,7,9,11,13,-1,-1,-1,-1,-1,-1,-1,-1],"loss_changes":[7.877062E1,1.8194923E1,1.8106995E1,6.875187E0,1.0810646E1,5.3271713E0,8.535702E0,0E0,0E0,0E0,0E0,0E0,0E0,0E0,0E0],"parents":[2147483647,0,0,1,1,2,2,3,3,4,4,5,5,6,6],"right_children":[2,4,6,8,10,12,14,-1,-1,-1,-1,-1,-1,-1,-1],"split_conditions":[2.2722527E-3,-1.3565773E-3,3.4602992E-2,1.1456095E-3,2.1029256E-2,2.1029256E-2,1.2942024E-1,-1.4741682E-3,-1.1018862E-2,-1.0660093E-3,-1.0092169E-2,1.0170955E-2,1.5854998E-3,-6.5929242E-3,5.820646E-3],"split_indices":[22,22,8,7,0,0,10,0,0,0,0,0,0,0,0],"split_type":[0,0,0,0,0,0,0,0,0,0,0,0,0,0,0],"sum_hessian":[3.3809167E2,2.3372092E2,1.04370766E2,4.337148E1,1.9034944E2,8.3929634E1,2.0441137E1,1.0115849E1,3.325563E1,1.7696748E2,1.3381955E1,7.549822E1,8.431408E0,1.14157295E1,9.025408E0],"tree_param":{"num_deleted":"0","num_feature":"23","num_nodes":"15","size_leaf_vector":"1"}},{"base_weights":[-3.6920775E-3,6.433532E-2,-6.9928265E-1,1.4350724E-1,-3.9860803E-1,-4.0175826E-5,-1.0878557E0,8.639612E-3,1.1218792E-3,-8.674855E-3,-7.4104883E-4,-1.5422137E-2,-4.457776E-3],"categories":[],"categories_nodes":[],"categories_segments":[],"categories_sizes":[],"default_left":[0,0,0,0,0,0,0,0,0,0,0,0,0],"id":30,"left_children":[1,3,5,7,9,-1,11,-1,-1,-1,-1,-1,-1],"loss_changes":[1.6197956E1,1.148779E1,8.234109E0,5.92897E0,6.9058976E0,0E0,5.01828E0,0E0,0E0,0E0,0E0,0E0,0E0],"parents":[2147483647,0,0,1,1,2,2,3,3,4,4,6,6],"right_children":[2,4,6,8,10,-1,12,-1,-1,-1,-1,-1,-1],"split_conditions":[1.2219468E-1,1.44125195E-2,8.908487E-3,2.9248583E-1,9.560595E-1,-4.0175826E-5,2.475785E-2,8.639612E-3,1.1218792E-3,-8.674855E-3,-7.4104883E-4,-1.5422137E-2,-4.457776E-3],"split_indices":[7,0,1,14,16,0,1,0,0,0,0,0,0],"split_type":[0,0,0,0,0,0,0,0,0,0,0,0,0],"sum_hessian":[3.4036172E2,3.1086703E2,2.9494675E1,2.6605646E2,4.4810593E1,1.0936528E1,1.8558147E1,9.976495E0,2.5607996E2,1.7643732E1,2.716686E1,1.0046772E1,8.511374E0],"tree_param":{"num_deleted":"0","num_feature":"23","num_nodes":"13","size_leaf_vector":"1"}},{"base_weights":[2.7356585E-3,-2.83186E-1,6.5215665E-1,-9.832813E-1,-1.7917415E-1,9.485119E-1,6.2706806E-2,-1.6165918E-3,-1.2949619E-2,-5.529524E-4,-9.35914E-3,5.1670466E-3,1.119698E-2,3.387031E-3,-7.9665985E-3],"categories":[],"categories_nodes":[],"categories_segments":[],"categories_sizes":[],"default_left":[0,0,0,0,0,0,0,0,0,0,0,0,0,0,0],"id":31,"left_children":[1,3,5,7,9,11,13,-1,-1,-1,-1,-1,-1,-1,-1],"loss_changes":[6.42128E1,1.7308422E1,1.8406769E1,7.6872463E0,1.966049E1,4.6160164E0,8.912132E0,0E0,0E0,0E0,0E0,0E0,0E0,0E0,0E0],"parents":[2147483647,0,0,1,1,2,2,3,3,4,4,5,5,6,6],"right_children":[2,4,6,8,10,12,14,-1,-1,-1,-1,-1,-1,-1,-1],"split_conditions":[2.2455924E-3,-1.9168083E-3,6.7427075E-1,-1.4889271E-2,1.44125195E-2,-7.0421193E-3,1.1079232E-1,-1.6165918E-3,-1.2949619E-2,-5.529524E-4,-9.35914E-3,5.1670466E-3,1.119698E-2,3.387031E-3,-7.9665985E-3],"split_indices":[22,22,14,1,0,8,7,0,0,0,0,0,0,0,0],"split_type":[0,0,0,0,0,0,0,0,0,0,0,0,0,0,0],"sum_hessian":[3.4382388E2,2.391131E2,1.0471078E2,2.9835978E1,2.0927711E2,6.927335E1,3.5437424E1,8.623146E0,2.1212831E1,1.8075969E2,2.8517433E1,2.0807074E1,4.8466278E1,2.72815E1,8.155925E0],"tree_param":{"num_deleted":"0","num_feature":"23","num_nodes":"15","size_leaf_vector":"1"}},{"base_weights":[-4.644802E-2,5.3747497E-2,-5.580455E-1,1.1165125E-1,-6.6210216E-1,-1.5288375E-1,-8.708129E-1,8.145428E-3,6.594777E-4,9.5486443E-4,-1.1883591E-2,2.6092832E-3,-6.5617077E-3,-1.4035989E-2,-5.6606214E-3],"categories":[],"categories_nodes":[],"categories_segments":[],"categories_sizes":[],"default_left":[0,0,0,0,0,0,0,0,0,0,0,0,0,0,0],"id":32,"left_children":[1,3,5,7,9,11,13,-1,-1,-1,-1,-1,-1,-1,-1],"loss_changes":[1.7427698E1,1.1876074E1,6.9218273E0,8.436092E0,8.666094E0,5.475136E0,4.272299E0,0E0,0E0,0E0,0E0,0E0,0E0,0E0,0E0],"parents":[2147483647,0,0,1,1,2,2,3,3,4,4,5,5,6,6],"right_children":[2,4,6,8,10,12,14,-1,-1,-1,-1,-1,-1,-1,-1],"split_conditions":[1.44125195E-2,1.2570916E-1,1.8546406E-2,-2.8442241E-2,8.908487E-3,8.9563355E-2,2.3365367E-2,8.145428E-3,6.594777E-4,9.5486443E-4,-1.1883591E-2,2.6092832E-3,-6.5617077E-3,-1.4035989E-2,-5.6606214E-3],"split_indices":[0,7,17,0,1,7,17,0,0,0,0,0,0,0,0],"split_type":[0,0,0,0,0,0,0,0,0,0,0,0,0,0,0],"sum_hessian":[3.3840265E2,2.837296E2,5.4673027E1,2.632776E2,2.0452007E1,2.4467026E1,3.0206003E1,1.5046668E1,2.4823093E2,8.718947E0,1.1733059E1,1.3691318E1,1.0775709E1,9.678922E0,2.052708E1],"tree_param":{"num_deleted":"0","num_feature":"23","num_nodes":"15","size_leaf_vector":"1"}},{"base_weights":[2.556989E-2,-2.3021579E-1,8.021765E-1,-1.21469215E-1,-9.277576E-1,1.0123217E0,3.984502E-1,-9.134882E-3,-1.4791123E-4,-1.3209314E-2,-4.072767E-3,5.850725E-3,1.134244E-2,8.1086246E-4,9.149432E-3],"categories":[],"categories_nodes":[],"categories_segments":[],"categories_sizes":[],"default_left":[0,0,0,0,0,0,0,0,0,0,0,0,0,0,0],"id":33,"left_children":[1,3,5,7,9,11,13,-1,-1,-1,-1,-1,-1,-1,-1],"loss_changes":[6.806798E1,1.9445946E1,6.798855E0,1.8930761E1,6.547699E0,2.2108269E0,4.959595E0,0E0,0E0,0E0,0E0,0E0,0E0,0E0,0E0],"parents":[2147483647,0,0,1,1,2,2,3,3,4,4,5,5,6,6],"right_children":[2,4,6,8,10,12,14,-1,-1,-1,-1,-1,-1,-1,-1],"split_conditions":[2.6396117E-3,1.44125195E-2,1.3033877E-2,-1.9168083E-3,2.9213276E-2,7.817163E-3,4.236597E-3,-9.134882E-3,-1.4791123E-4,-1.3209314E-2,-4.072767E-3,5.850725E-3,1.134244E-2,8.1086246E-4,9.149432E-3],"split_indices":[22,0,5,22,3,15,22,0,0,0,0,0,0,0,0],"split_type":[0,0,0,0,0,0,0,0,0,0,0,0,0,0,0],"sum_hessian":[3.4073206E2,2.5684146E2,8.389059E1,2.2321626E2,3.3625214E1,5.4181103E1,2.9709484E1,2.5598696E1,1.9761757E2,1.8279148E1,1.53460655E1,1.3316193E1,4.086491E1,1.911877E1,1.0590713E1],"tree_param":{"num_deleted":"0","num_feature":"23","num_nodes":"15","size_leaf_vector":"1"}},{"base_weights":[-1.2871702E-2,-2.5890097E-1,7.160162E-1,-9.9761945E-1,-1.588138E-1,8.985153E-1,-4.1498583E-2,-2.4488748E-3,-1.3393969E-2,-2.3772653E-4,-7.001266E-3,3.9216233E-3,1.0899451E-2,5.8594174E-3,-6.81475E-3],"categories":[],"categories_nodes":[],"categories_segments":[],"categories_sizes":[],"default_left":[0,0,0,0,0,0,0,0,0,0,0,0,0,0,0],"id":34,"left_children":[1,3,5,7,9,11,13,-1,-1,-1,-1,-1,-1,-1,-1],"loss_changes":[6.09367E1,1.8622452E1,1.1892952E1,7.420862E0,1.6423046E1,6.2755966E0,7.468673E0,0E0,0E0,0E0,0E0,0E0,0E0,0E0,0E0],"parents":[2147483647,0,0,1,1,2,2,3,3,4,4,5,5,6,6],"right_children":[2,4,6,8,10,12,14,-1,-1,-1,-1,-1,-1,-1,-1],"split_conditions":[2.557149E-3,-1.9168083E-3,3.4900565E-2,-3.5383992E-3,2.8208569E-2,-6.301491E-3,8.6776227E-1,-2.4488748E-3,-1.3393969E-2,-2.3772653E-4,-7.001266E-3,3.9216233E-3,1.0899451E-2,5.8594174E-3,-6.81475E-3],"split_indices":[22,22,8,5,2,8,19,0,0,0,0,0,0,0,0],"split_type":[0,0,0,0,0,0,0,0,0,0,0,0,0,0,0],"sum_hessian":[3.3777258E2,2.5301466E2,8.475792E1,2.9119959E1,2.238947E2,6.815259E1,1.6605335E1,9.629164E0,1.9490795E1,1.8002727E2,4.3867435E1,1.9533337E1,4.861925E1,8.4274235E0,8.177912E0],"tree_param":{"num_deleted":"0","num_feature":"23","num_nodes":"15","size_leaf_vector":"1"}},{"base_weights":[-3.102419E-2,3.7479322E-2,-7.481083E-1,2.8317016E-1,-1.2274152E-1,-9.499448E-1,-1.7111434E-3,8.238955E-3,1.072478E-3,7.796786E-3,-1.939111E-3,-3.1808508E-3,-1.3947583E-2],"categories":[],"categories_nodes":[],"categories_segments":[],"categories_sizes":[],"default_left":[0,0,0,0,0,0,0,0,0,0,0,0,0],"id":35,"left_children":[1,3,5,7,9,11,-1,-1,-1,-1,-1,-1,-1],"loss_changes":[1.71072E1,1.2565254E1,3.373808E0,1.1892541E1,1.2570301E1,5.8174305E0,0E0,0E0,0E0,0E0,0E0,0E0,0E0],"parents":[2147483647,0,0,1,1,2,2,3,3,4,4,5,5],"right_children":[2,4,6,8,10,12,-1,-1,-1,-1,-1,-1,-1],"split_conditions":[1.2570916E-1,1.4764104E-2,7.525342E-2,4.9936134E-2,-2.8442241E-2,6.6368043E-1,-1.7111434E-3,8.238955E-3,1.072478E-3,7.796786E-3,-1.939111E-3,-3.1808508E-3,-1.3947583E-2],"split_indices":[7,17,3,7,0,14,0,0,0,0,0,0,0],"split_type":[0,0,0,0,0,0,0,0,0,0,0,0,0],"sum_hessian":[3.4668317E2,3.1731735E2,2.93658E1,1.2494813E2,1.9236923E2,2.1276695E1,8.089105E0,2.9768038E1,9.518009E1,1.3334497E1,1.7903473E2,9.49876E0,1.1777936E1],"tree_param":{"num_deleted":"0","num_feature":"23","num_nodes":"13","size_leaf_vector":"1"}},{"base_weights":[1.11011425E-2,-2.3647471E-1,7.973453E-1,-9.3727994E-1,-1.3352801E-1,1.1725076E0,4.5375478E-1,-4.3461E-5,-1.2826259E-2,-3.8284267E-4,-7.2756144E-3,6.6959593E-3,1.3046479E-2,9.185541E-3,2.9471164E-4],"categories":[],"categories_nodes":[],"categories_segments":[],"categories_sizes":[],"default_left":[0,0,0,0,0,0,0,0,0,0,0,0,0,0,0],"id":36,"left_children":[1,3,5,7,9,11,13,-1,-1,-1,-1,-1,-1,-1,-1],"loss_changes":[6.593866E1,1.8463802E1,9.9243355E0,1.0573534E1,1.2748776E1,1.6614227E0,8.644547E0,0E0,0E0,0E0,0E0,0E0,0E0,0E0,0E0],"parents":[2147483647,0,0,1,1,2,2,3,3,4,4,5,5,6,6],"right_children":[2,4,6,8,10,12,14,-1,-1,-1,-1,-1,-1,-1,-1],"split_conditions":[2.5936686E-3,-1.80656E-3,2.6508435E-3,-1.4889271E-2,1.44125195E-2,7.7499163E-1,7.368722E-2,-4.3461E-5,-1.2826259E-2,-3.8284267E-4,-7.2756144E-3,6.6959593E-3,1.3046479E-2,9.185541E-3,2.9471164E-4],"split_indices":[22,22,0,1,0,16,10,0,0,0,0,0,0,0,0],"split_type":[0,0,0,0,0,0,0,0,0,0,0,0,0,0,0],"sum_hessian":[3.3677753E2,2.5665894E2,8.01186E1,3.1835514E1,2.2482341E2,3.714639E1,4.2972214E1,8.874393E0,2.296112E1,1.9467487E2,3.0148544E1,8.9918165E0,2.8154573E1,1.9951044E1,2.3021168E1],"tree_param":{"num_deleted":"0","num_feature":"23","num_nodes":"15","size_leaf_vector":"1"}},{"base_weights":[-6.6367523E-3,-3.1812993E-1,7.023893E-1,9.8826885E-3,-3.704156E-1,9.570617E-1,3.275532E-1,-1.0083628E-2,-2.7027323E-3,1.2230725E-2,7.2524105E-3,-6.239968E-3,5.592026E-3],"categories":[],"categories_nodes":[],"categories_segments":[],"categories_sizes":[],"default_left":[0,0,0,0,0,0,0,0,0,0,0,0,0],"id":37,"left_children":[1,3,5,-1,7,9,11,-1,-1,-1,-1,-1,-1],"loss_changes":[7.5855934E1,1.6664719E1,9.694378E0,0E0,1.4431196E1,2.9304352E0,1.0032978E1,0E0,0E0,0E0,0E0,0E0,0E0],"parents":[2147483647,0,0,1,1,2,2,4,4,5,5,6,6],"right_children":[2,4,6,-1,8,10,12,-1,-1,-1,-1,-1,-1],"split_conditions":[2.2722527E-3,2.9248583E-1,6.922271E-4,9.8826885E-3,-1.9168083E-3,6.0529184E-2,2.6396117E-3,-1.0083628E-2,-2.7027323E-3,1.2230725E-2,7.2524105E-3,-6.239968E-3,5.592026E-3],"split_indices":[22,14,13,0,22,10,22,0,0,0,0,0,0],"split_type":[0,0,0,0,0,0,0,0,0,0,0,0,0],"sum_hessian":[3.4145038E2,2.3761249E2,1.0383789E2,8.455048E0,2.2915744E2,6.0904602E1,4.293329E1,2.9861073E1,1.9929636E2,2.6369755E1,3.4534847E1,8.073976E0,3.4859314E1],"tree_param":{"num_deleted":"0","num_feature":"23","num_nodes":"13","size_leaf_vector":"1"}},{"base_weights":[2.9187402E-2,-2.6370457E-1,6.977673E-1,3.80977E-2,-5.044188E-1,9.3719494E-1,1.8966383E-1,-4.553934E-3,2.014264E-3,-1.23860175E-2,-3.9734873E-3,5.6317537E-3,1.1117278E-2,5.3298497E-3,-3.8336131E-3],"categories":[],"categories_nodes":[],"categories_segments":[],"categories_sizes":[],"default_left":[0,0,0,0,0,0,0,0,0,0,0,0,0,0,0],"id":38,"left_children":[1,3,5,7,9,11,13,-1,-1,-1,-1,-1,-1,-1,-1],"loss_changes":[6.6434235E1,1.7162947E1,1.239349E1,8.60607E0,9.832962E0,3.9424057E0,6.962321E0,0E0,0E0,0E0,0E0,0E0,0E0,0E0,0E0],"parents":[2147483647,0,0,1,1,2,2,3,3,4,4,5,5,6,6],"right_children":[2,4,6,8,10,12,14,-1,-1,-1,-1,-1,-1,-1,-1],"split_conditions":[2.2722527E-3,5.8882637E-4,6.7427075E-1,-1.0012395E-3,-1.9168083E-3,-6.301491E-3,5.028074E-2,-4.553934E-3,2.014264E-3,-1.23860175E-2,-3.9734873E-3,5.6317537E-3,1.1117278E-2,5.3298497E-3,-3.8336131E-3],"split_indices":[22,5,14,22,22,8,3,0,0,0,0,0,0,0,0],"split_type":[0,0,0,0,0,0,0,0,0,0,0,0,0,0,0],"sum_hessian":[3.3731915E2,2.3498315E2,1.0233602E2,1.04635345E2,1.3034781E2,6.898468E1,3.3351337E1,2.557458E1,7.906077E1,1.5244892E1,1.1510291E2,2.3293678E1,4.5691E1,2.0899519E1,1.245182E1],"tree_param":{"num_deleted":"0","num_feature":"23","num_nodes":"15","size_leaf_vector":"1"}},{"base_weights":[-2.980681E-2,7.791831E-2,-5.2043974E-1,1.466706E-1,-6.177734E-1,-6.868718E-1,1.7570638E-3,5.1699387E-4,7.51785E-3,-1.1121545E-2,1.2490293E-3,-3.6541123E-3,-1.2861218E-2],"categories":[],"categories_nodes":[],"categories_segments":[],"categories_sizes":[],"default_left":[0,0,0,0,0,0,0,0,0,0,0,0,0],"id":39,"left_children":[1,3,5,7,9,11,-1,-1,-1,-1,-1,-1,-1],"loss_changes":[1.7183647E1,1.2853027E1,6.901413E0,1.3962568E1,9.0204935E0,8.667917E0,0E0,0E0,0E0,0E0,0E0,0E0,0E0],"parents":[2147483647,0,0,1,1,2,2,3,3,4,4,5,5],"right_children":[2,4,6,8,10,12,-1,-1,-1,-1,-1,-1,-1],"split_conditions":[3.1151261E-2,2.3534516E-2,1.0970408E0,1.702308E-2,2.7680138E-2,9.448811E-1,1.7570638E-3,5.1699387E-4,7.51785E-3,-1.1121545E-2,1.2490293E-3,-3.6541123E-3,-1.2861218E-2],"split_indices":[2,12,9,11,12,19,0,0,0,0,0,0,0],"split_type":[0,0,0,0,0,0,0,0,0,0,0,0,0],"sum_hessian":[3.233512E2,2.6582657E2,5.7524643E1,2.4263695E2,2.3189613E1,4.6436176E1,1.1088469E1,2.1065985E2,3.19771E1,1.3623376E1,9.566237E0,3.1271002E1,1.51651745E1],"tree_param":{"num_deleted":"0","num_feature":"23","num_nodes":"13","size_leaf_vector":"1"}},{"base_weights":[-8.291309E-3,-3.1214583E-1,7.225953E-1,7.1902727E-3,-3.649037E-1,8.8015324E-1,-1.3716094E-2,-1.0106599E-2,-2.754801E-3,7.4356543E-3,1.2837185E-2,-6.152863E-3,6.772841E-3],"categories":[],"categories_nodes":[],"categories_segments":[],"categories_sizes":[],"default_left":[0,0,0,0,0,0,0,0,0,0,0,0,0],"id":40,"left_children":[1,3,5,-1,7,9,11,-1,-1,-1,-1,-1,-1],"loss_changes":[7.461529E1,1.3172022E1,1.1458324E1,0E0,1.279595E1,3.5262756E0,8.055263E0,0E0,0E0,0E0,0E0,0E0,0E0],"parents":[2147483647,0,0,1,1,2,2,4,4,5,5,6,6],"right_children":[2,4,6,-1,8,10,12,-1,-1,-1,-1,-1,-1],"split_conditions":[2.2722527E-3,-2.8442241E-2,4.8608147E-2,7.1902727E-3,-1.9168083E-3,8.065202E-2,1.2942024E-1,-1.0106599E-2,-2.754801E-3,7.4356543E-3,1.2837185E-2,-6.152863E-3,6.772841E-3],"split_indices":[22,0,6,0,22,7,10,0,0,0,0,0,0],"split_type":[0,0,0,0,0,0,0,0,0,0,0,0,0],"sum_hessian":[3.3396338E2,2.3629881E2,9.7664566E1,1.0886627E1,2.2541219E2,8.028879E1,1.7375778E1,2.6164936E1,1.9924725E2,6.2109978E1,1.817881E1,9.34756E0,8.028217E0],"tree_param":{"num_deleted":"0","num_feature":"23","num_nodes":"13","size_leaf_vector":"1"}},{"base_weights":[-6.4716595E-3,-2.832503E-1,6.259708E-1,-1.5510735E-2,-4.8962298E-1,7.932217E-1,-1.6705301E-1,8.061197E-4,-5.8118966E-3,-1.3227374E-2,-3.6158077E-3,9.786646E-3,3.752663E-3,4.4151465E-3,-8.078538E-3],"categories":[],"categories_nodes":[],"categories_segments":[],"categories_sizes":[],"default_left":[0,0,0,0,0,0,0,0,0,0,0,0,0,0,0],"id":41,"left_children":[1,3,5,7,9,11,13,-1,-1,-1,-1,-1,-1,-1,-1],"loss_changes":[5.8923054E1,1.2928946E1,1.3723881E1,5.6444154E0,1.3622244E1,6.2052383E0,7.6388764E0,0E0,0E0,0E0,0E0,0E0,0E0,0E0,0E0],"parents":[2147483647,0,0,1,1,2,2,3,3,4,4,5,5,6,6],"right_children":[2,4,6,8,10,12,14,-1,-1,-1,-1,-1,-1,-1,-1],"split_conditions":[2.2722527E-3,4.6578256E-4,7.5996935E-1,2.8625757E-2,-1.8864312E-3,1.7180612E-2,5.028074E-2,8.061197E-4,-5.8118966E-3,-1.3227374E-2,-3.6158077E-3,9.786646E-3,3.752663E-3,4.4151465E-3,-8.078538E-3],"split_indices":[22,5,14,17,22,1,3,0,0,0,0,0,0,0,0],"split_type":[0,0,0,0,0,0,0,0,0,0,0,0,0,0,0],"sum_hessian":[3.3460074E2,2.3312799E2,1.0147273E2,1.01944496E2,1.311835E2,8.379903E1,1.7673704E1,8.787062E1,1.4073875E1,1.623287E1,1.1495063E2,5.711576E1,2.6683268E1,9.224348E0,8.449356E0],"tree_param":{"num_deleted":"0","num_feature":"23","num_nodes":"15","size_leaf_vector":"1"}},{"base_weights":[-1.0644217E-2,-2.7742285E-1,5.9818566E-1,1.16095826E-1,-4.1580573E-1,7.554779E-1,-1.6347212E-1,3.2546618E-3,-4.8591406E-3,-7.989081E-3,-2.7487238E-3,8.3875675E-3,7.1352493E-4,-8.0495905E-3,4.680409E-3],"categories":[],"categories_nodes":[],"categories_segments":[],"categories_sizes":[],"default_left":[0,0,0,0,0,0,0,0,0,0,0,0,0,0,0],"id":42,"left_children":[1,3,5,7,9,11,13,-1,-1,-1,-1,-1,-1,-1,-1],"loss_changes":[5.5182983E1,1.2911255E1,1.252544E1,8.002439E0,9.227507E0,4.8386307E0,7.887874E0,0E0,0E0,0E0,0E0,0E0,0E0,0E0,0E0],"parents":[2147483647,0,0,1,1,2,2,3,3,4,4,5,5,6,6],"right_children":[2,4,6,8,10,12,14,-1,-1,-1,-1,-1,-1,-1,-1],"split_conditions":[2.2455924E-3,-7.2477874E-3,5.028074E-2,-8.792721E-4,-5.9517776E-4,2.0204552E-2,1.3600238E-2,3.2546618E-3,-4.8591406E-3,-7.989081E-3,-2.7487238E-3,8.3875675E-3,7.1352493E-4,-8.0495905E-3,4.680409E-3],"split_indices":[22,0,21,5,22,5,15,0,0,0,0,0,0,0,0],"split_type":[0,0,0,0,0,0,0,0,0,0,0,0,0,0,0],"sum_hessian":[3.3772723E2,2.3520767E2,1.0251957E2,6.1235012E1,1.7397266E2,8.4978516E1,1.754106E1,4.5774628E1,1.5460388E1,4.553234E1,1.2844032E2,7.555512E1,9.423388E0,8.565564E0,8.975496E0],"tree_param":{"num_deleted":"0","num_feature":"23","num_nodes":"15","size_leaf_vector":"1"}},{"base_weights":[-3.5448163E-4,-2.791689E-1,6.585719E-1,-9.4252807E-1,-1.9168732E-1,1.068666E0,3.8697937E-1,-4.4671595E-3,-1.3634333E-2,-8.5736735E-4,-9.133702E-3,1.207664E-2,4.78099E-3,-2.9443337E-3,7.0112594E-3],"categories":[],"categories_nodes":[],"categories_segments":[],"categories_sizes":[],"default_left":[0,0,0,0,0,0,0,0,0,0,0,0,0,0,0],"id":43,"left_children":[1,3,5,7,9,11,13,-1,-1,-1,-1,-1,-1,-1,-1],"loss_changes":[6.260405E1,1.3714634E1,1.087101E1,5.159668E0,1.6193012E1,2.6895714E0,1.3589442E1,0E0,0E0,0E0,0E0,0E0,0E0,0E0,0E0],"parents":[2147483647,0,0,1,1,2,2,3,3,4,4,5,5,6,6],"right_children":[2,4,6,8,10,12,14,-1,-1,-1,-1,-1,-1,-1,-1],"split_conditions":[2.2864246E-3,-1.9168083E-3,6.701705E-2,6.2519565E-2,1.44125195E-2,7.7960506E-4,1.0731926E-2,-4.4671595E-3,-1.3634333E-2,-8.5736735E-4,-9.133702E-3,1.207664E-2,4.78099E-3,-2.9443337E-3,7.0112594E-3],"split_indices":[22,22,10,7,0,13,15,0,0,0,0,0,0,0,0],"split_type":[0,0,0,0,0,0,0,0,0,0,0,0,0,0,0],"sum_hessian":[3.3876056E2,2.3844331E2,1.00317245E2,2.6642605E1,2.118007E2,3.8798386E1,6.151886E1,1.3179236E1,1.3463368E1,1.8566234E2,2.613837E1,3.056061E1,8.237775E0,1.9431944E1,4.2086914E1],"tree_param":{"num_deleted":"0","num_feature":"23","num_nodes":"15","size_leaf_vector":"1"}},{"base_weights":[3.8107727E-2,-1.982533E-1,8.0129963E-1,-6.723592E-1,-2.9499227E-2,9.714356E-1,4.0186243E-4,-4.1814893E-3,-1.23984525E-2,4.3812552E-3,-1.5194166E-3,4.3986673E-3,1.1296856E-2],"categories":[],"categories_nodes":[],"categories_segments":[],"categories_sizes":[],"default_left":[0,0,0,0,0,0,0,0,0,0,0,0,0],"id":44,"left_children":[1,3,5,7,9,11,-1,-1,-1,-1,-1,-1,-1],"loss_changes":[6.0048496E1,2.0325785E1,1.0152817E1,9.104965E0,1.0864609E1,4.910675E0,0E0,0E0,0E0,0E0,0E0,0E0,0E0],"parents":[2147483647,0,0,1,1,2,2,3,3,4,4,5,5],"right_children":[2,4,6,8,10,12,-1,-1,-1,-1,-1,-1,-1],"split_conditions":[2.5936686E-3,-5.9517776E-4,4.9259484E-2,4.407786E-3,-8.070814E-3,-7.0421193E-3,4.0186243E-4,-4.1814893E-3,-1.23984525E-2,4.3812552E-3,-1.5194166E-3,4.3986673E-3,1.1296856E-2],"split_indices":[22,22,6,0,0,8,0,0,0,0,0,0,0],"split_type":[0,0,0,0,0,0,0,0,0,0,0,0,0],"sum_hessian":[3.3100302E2,2.5329701E2,7.770602E1,6.570839E1,1.8758862E2,6.328355E1,1.4422464E1,4.657953E1,1.912886E1,3.8390755E1,1.4919788E2,1.5384824E1,4.7898727E1],"tree_param":{"num_deleted":"0","num_feature":"23","num_nodes":"13","size_leaf_vector":"1"}},{"base_weights":[-1.9074905E-3,-2.1497202E-1,7.1834815E-1,-1.1076183E-1,-7.62434E-1,8.860118E-1,-8.0231903E-4,-1.2683536E-2,-5.894038E-4,-1.0532964E-2,3.4408313E-3,1.1661923E-2,6.8503306E-3],"categories":[],"categories_nodes":[],"categories_segments":[],"categories_sizes":[],"default_left":[0,0,0,0,0,0,0,0,0,0,0,0,0],"id":45,"left_children":[1,3,5,7,9,11,-1,-1,-1,-1,-1,-1,-1],"loss_changes":[5.175714E1,1.4764001E1,1.038002E1,1.3111588E1,1.3702753E1,2.7890396E0,0E0,0E0,0E0,0E0,0E0,0E0,0E0],"parents":[2147483647,0,0,1,1,2,2,3,3,4,4,5,5],"right_children":[2,4,6,8,10,12,-1,-1,-1,-1,-1,-1,-1],"split_conditions":[2.6396117E-3,3.3121966E-2,4.9259484E-2,6.639725E-3,6.279662E-2,6.294113E-2,-8.0231903E-4,-1.2683536E-2,-5.894038E-4,-1.0532964E-2,3.4408313E-3,1.1661923E-2,6.8503306E-3],"split_indices":[22,2,6,15,2,10,0,0,0,0,0,0,0],"split_type":[0,0,0,0,0,0,0,0,0,0,0,0,0],"sum_hessian":[3.3525964E2,2.5926575E2,7.599392E1,2.188161E2,4.0449642E1,6.2716885E1,1.3277032E1,8.370039E0,2.1044606E2,3.2068195E1,8.381445E0,2.4190628E1,3.8526257E1],"tree_param":{"num_deleted":"0","num_feature":"23","num_nodes":"13","size_leaf_vector":"1"}},{"base_weights":[3.591804E-3,-2.172784E-1,7.130161E-1,1.0582861E-1,-4.177363E-1,9.170557E-1,-2.0009014E-3,-3.8733785E-3,2.4387392E-3,-1.1972318E-2,-3.1666202E-3,1.0340725E-2,2.0859241E-3,6.7933556E-3,-7.969138E-3],"categories":[],"categories_nodes":[],"categories_segments":[],"categories_sizes":[],"default_left":[0,0,0,0,0,0,0,0,0,0,0,0,0,0,0],"id":46,"left_children":[1,3,5,7,9,11,13,-1,-1,-1,-1,-1,-1,-1,-1],"loss_changes":[5.3072712E1,1.6774525E1,1.1733765E1,6.881684E0,1.2196091E1,4.9710274E0,1.0751025E1,0E0,0E0,0E0,0E0,0E0,0E0,0E0,0E0],"parents":[2147483647,0,0,1,1,2,2,3,3,4,4,5,5,6,6],"right_children":[2,4,6,8,10,12,14,-1,-1,-1,-1,-1,-1,-1,-1],"split_conditions":[2.6141165E-3,-8.792721E-4,3.2316178E-2,-1.0012395E-3,-1.9168083E-3,1.9747233E-2,8.7423235E-1,-3.8733785E-3,2.4387392E-3,-1.1972318E-2,-3.1666202E-3,1.0340725E-2,2.0859241E-3,6.7933556E-3,-7.969138E-3],"split_indices":[22,5,8,22,22,0,19,0,0,0,0,0,0,0,0],"split_type":[0,0,0,0,0,0,0,0,0,0,0,0,0,0,0],"sum_hessian":[3.3672134E2,2.573061E2,7.9415245E1,9.869581E1,1.5861028E2,6.1564445E1,1.78508E1,2.1189718E1,7.750609E1,1.6960905E1,1.4164937E2,5.2442863E1,9.121582E0,9.690374E0,8.160426E0],"tree_param":{"num_deleted":"0","num_feature":"23","num_nodes":"15","size_leaf_vector":"1"}},{"base_weights":[5.811288E-3,-2.24658E-1,7.553133E-1,-8.982679E-1,-1.3065901E-1,8.8988006E-1,1.1670046E-3,-1.2875262E-3,-1.2606749E-2,2.4359112E-3,-2.6052124E-3,4.7042402E-3,9.99376E-3],"categories":[],"categories_nodes":[],"categories_segments":[],"categories_sizes":[],"default_left":[0,0,0,0,0,0,0,0,0,0,0,0,0],"id":47,"left_children":[1,3,5,7,9,11,-1,-1,-1,-1,-1,-1,-1],"loss_changes":[5.8126095E1,1.617969E1,6.6968117E0,8.57992E0,1.1097515E1,2.5249748E0,0E0,0E0,0E0,0E0,0E0,0E0,0E0],"parents":[2147483647,0,0,1,1,2,2,3,3,4,4,5,5],"right_children":[2,4,6,8,10,12,-1,-1,-1,-1,-1,-1,-1],"split_conditions":[2.6141165E-3,-1.9168083E-3,4.9259484E-2,-4.983739E-3,7.683862E-1,7.7499163E-1,1.1670046E-3,-1.2875262E-3,-1.2606749E-2,2.4359112E-3,-2.6052124E-3,4.7042402E-3,9.99376E-3],"split_indices":[22,22,6,5,16,16,0,0,0,0,0,0,0],"split_type":[0,0,0,0,0,0,0,0,0,0,0,0,0],"sum_hessian":[3.3451785E2,2.5638162E2,7.8136215E1,3.0347929E1,2.260337E2,6.421214E1,1.3924069E1,1.0150397E1,2.0197533E1,5.800196E1,1.6803174E2,1.4388619E1,4.9823524E1],"tree_param":{"num_deleted":"0","num_feature":"23","num_nodes":"13","size_leaf_vector":"1"}},{"base_weights":[-1.4686445E-2,-2.8778994E-1,6.221248E-1,-1.8863006E-1,-9.2457426E-1,7.568619E-1,-3.433431E-3,-8.495565E-3,-8.3886954E-4,-4.2245993E-3,-1.1985669E-2,9.361274E-3,2.8429693E-4],"categories":[],"categories_nodes":[],"categories_segments":[],"categories_sizes":[],"default_left":[0,0,0,0,0,0,0,0,0,0,0,0,0],"id":48,"left_children":[1,3,5,7,9,11,-1,-1,-1,-1,-1,-1,-1],"loss_changes":[5.886427E1,1.4780535E1,1.3475765E1,1.4202436E1,3.8486423E0,1.1655968E1,0E0,0E0,0E0,0E0,0E0,0E0,0E0],"parents":[2147483647,0,0,1,1,2,2,3,3,4,4,5,5],"right_children":[2,4,6,8,10,12,-1,-1,-1,-1,-1,-1,-1],"split_conditions":[2.2722527E-3,1.44125195E-2,2.1029256E-2,-1.9168083E-3,-1.0669354E-3,7.5996935E-1,-3.433431E-3,-8.495565E-3,-8.3886954E-4,-4.2245993E-3,-1.1985669E-2,9.361274E-3,2.8429693E-4],"split_indices":[22,0,0,22,12,14,0,0,0,0,0,0,0],"split_type":[0,0,0,0,0,0,0,0,0,0,0,0,0],"sum_hessian":[3.3643552E2,2.358407E2,1.0059481E2,2.051855E2,3.065521E1,8.846502E1,1.2129788E1,2.7096487E1,1.78089E2,1.171972E1,1.893549E1,7.076484E1,1.7700186E1],"tree_param":{"num_deleted":"0","num_feature":"23","num_nodes":"13","size_leaf_vector":"1"}},{"base_weights":[3.613365E-3,-1.6766201E-1,7.936765E-1,-6.696045E-1,-5.634629E-2,9.485712E-1,8.888946E-4,-4.0424094E-3,-1.3358514E-2,4.1793915E-4,-6.582668E-3,2.520241E-3,1.1011741E-2],"categories":[],"categories_nodes":[],"categories_segments":[],"categories_sizes":[],"default_left":[0,0,0,0,0,0,0,0,0,0,0,0,0],"id":49,"left_children":[1,3,5,7,9,11,-1,-1,-1,-1,-1,-1,-1],"loss_changes":[4.5740852E1,1.5485092E1,6.4900665E0,8.359337E0,1.3524516E1,4.9594803E0,0E0,0E0,0E0,0E0,0E0,0E0,0E0],"parents":[2147483647,0,0,1,1,2,2,3,3,4,4,5,5],"right_children":[2,4,6,8,10,12,-1,-1,-1,-1,-1,-1,-1],"split_conditions":[3.0203676E-3,-1.1108245E-3,1.8057253E-2,1.1469677E-2,1.44125195E-2,9.177056E-3,8.888946E-4,-4.0424094E-3,-1.3358514E-2,4.1793915E-4,-6.582668E-3,2.520241E-3,1.1011741E-2],"split_indices":[22,22,0,12,0,18,0,0,0,0,0,0,0],"split_type":[0,0,0,0,0,0,0,0,0,0,0,0,0],"sum_hessian":[3.3604065E2,2.7681793E2,5.922273E1,4.9336315E1,2.2748161E2,4.826859E1,1.095414E1,3.643224E1,1.2904074E1,1.963915E2,3.1090109E1,9.150977E0,3.9117615E1],"tree_param":{"num_deleted":"0","num_feature":"23","num_nodes":"13","size_leaf_vector":"1"}},{"base_weights":[-1.8654853E-2,-2.2665316E-1,6.535911E-1,-1.1753951E-2,-1.6844083E-1,8.0724853E-1,-1.3629111E-4,1.8928845E-3,-3.138712E-3,3.664478E-3,9.944222E-3],"categories":[],"categories_nodes":[],"categories_segments":[],"categories_sizes":[],"default_left":[0,0,0,0,0,0,0,0,0,0,0],"id":50,"left_children":[1,3,5,-1,7,9,-1,-1,-1,-1,-1],"loss_changes":[4.7030624E1,1.3985021E1,8.16013E0,0E0,1.27080345E1,4.9674454E0,0E0,0E0,0E0,0E0,0E0],"parents":[2147483647,0,0,1,1,2,2,4,4,5,5],"right_children":[2,4,6,-1,8,10,-1,-1,-1,-1,-1],"split_conditions":[2.5750909E-3,-2.552972E-3,7.5996935E-1,-1.1753951E-2,-5.4505426E-3,-6.301491E-3,-1.3629111E-4,1.8928845E-3,-3.138712E-3,3.664478E-3,9.944222E-3],"split_indices":[22,22,14,0,5,8,0,0,0,0,0],"split_type":[0,0,0,0,0,0,0,0,0,0,0],"sum_hessian":[3.342916E2,2.55806E2,7.848559E1,1.3678754E1,2.4212724E2,6.3623547E1,1.4862045E1,6.98959E1,1.7223134E2,1.9845201E1,4.3778343E1],"tree_param":{"num_deleted":"0","num_feature":"23","num_nodes":"11","size_leaf_vector":"1"}},{"base_weights":[2.8494133E-2,8.7850794E-2,-5.668224E-1,1.3148494E-2,3.6451283E-1,4.192039E-3,-9.6703845E-1,8.4172736E-4,-7.1884743E-3,5.5926596E-3,-6.1873267E-3,-1.2570122E-2,-5.782354E-3],"categories":[],"categories_nodes":[],"categories_segments":[],"categories_sizes":[],"default_left":[0,0,0,0,0,0,0,0,0,0,0,0,0],"id":51,"left_children":[1,3,5,7,9,-1,11,-1,-1,-1,-1,-1,-1],"loss_changes":[1.1929936E1,6.331559E0,1.2487412E1,1.2664999E1,1.2820703E1,0E0,1.7624893E0,0E0,0E0,0E0,0E0,0E0,0E0],"parents":[2147483647,0,0,1,1,2,2,3,3,4,4,6,6],"right_children":[2,4,6,8,10,-1,12,-1,-1,-1,-1,-1,-1],"split_conditions":[1.2570916E-1,1.5406018E-2,4.751727E-3,1.2878936E-2,2.4843369E-2,4.192039E-3,9.1570723E-1,8.4172736E-4,-7.1884743E-3,5.5926596E-3,-6.1873267E-3,-1.2570122E-2,-5.782354E-3],"split_indices":[7,12,1,12,12,0,9,0,0,0,0,0,0],"split_type":[0,0,0,0,0,0,0,0,0,0,0,0,0],"sum_hessian":[3.3520502E2,3.055884E2,2.9616585E1,2.4144319E2,6.414523E1,8.536779E0,2.1079805E1,2.2089514E2,2.0548048E1,5.390031E1,1.0244922E1,1.0795423E1,1.0284384E1],"tree_param":{"num_deleted":"0","num_feature":"23","num_nodes":"13","size_leaf_vector":"1"}},{"base_weights":[2.2478096E-2,-2.427577E-1,6.4936805E-1,2.4275538E-2,-4.590582E-1,7.9756886E-1,-1.6284188E-2,-1.0329983E-3,5.3337333E-3,-1.1558976E-2,-3.6474313E-3,8.635185E-3,1.6779457E-3,-5.356978E-3,4.0051118E-3],"categories":[],"categories_nodes":[],"categories_segments":[],"categories_sizes":[],"default_left":[0,0,0,0,0,0,0,0,0,0,0,0,0,0,0],"id":52,"left_children":[1,3,5,7,9,11,13,-1,-1,-1,-1,-1,-1,-1,-1],"loss_changes":[5.6147114E1,1.37201185E1,9.915966E0,7.015378E0,8.199846E0,3.2660294E0,4.3840985E0,0E0,0E0,0E0,0E0,0E0,0E0,0E0,0E0],"parents":[2147483647,0,0,1,1,2,2,3,3,4,4,5,5,6,6],"right_children":[2,4,6,8,10,12,14,-1,-1,-1,-1,-1,-1,-1,-1],"split_conditions":[2.2722527E-3,5.8882637E-4,5.028074E-2,1.7866705E-2,-1.9168083E-3,2.1029256E-2,1.3303186E-2,-1.0329983E-3,5.3337333E-3,-1.1558976E-2,-3.6474313E-3,8.635185E-3,1.6779457E-3,-5.356978E-3,4.0051118E-3],"split_indices":[22,5,21,12,22,0,15,0,0,0,0,0,0,0,0],"split_type":[0,0,0,0,0,0,0,0,0,0,0,0,0,0,0],"sum_hessian":[3.3573087E2,2.363461E2,9.938477E1,1.0616641E2,1.301797E2,8.112494E1,1.8259834E1,8.553036E1,2.0636053E1,1.4177158E1,1.1600254E2,7.309891E1,8.026034E0,8.002179E0,1.0257655E1],"tree_param":{"num_deleted":"0","num_feature":"23","num_nodes":"15","size_leaf_vector":"1"}},{"base_weights":[-3.873044E-2,3.674389E-2,-7.180802E-1,1.4536044E-1,-2.0967178E-1,1.1930309E-3,-1.0051311E0,6.0686157E-3,1.4620123E-4,-5.354872E-4,-1.196657E-2,-1.2377279E-2,-6.1960444E-3],"categories":[],"categories_nodes":[],"categories_segments":[],"categories_sizes":[],"default_left":[0,0,0,0,0,0,0,0,0,0,0,0,0],"id":53,"left_children":[1,3,5,7,9,-1,11,-1,-1,-1,-1,-1,-1],"loss_changes":[1.7335796E1,8.188021E0,8.245457E0,1.2790501E1,1.4367164E1,0E0,1.500061E0,0E0,0E0,0E0,0E0,0E0,0E0],"parents":[2147483647,0,0,1,1,2,2,3,3,4,4,6,6],"right_children":[2,4,6,8,10,-1,12,-1,-1,-1,-1,-1,-1],"split_conditions":[1.2219468E-1,1.7179035E-2,2.297084E-3,3.1519495E-2,8.984802E-1,1.1930309E-3,9.216409E-1,6.0686157E-3,1.4620123E-4,-5.354872E-4,-1.196657E-2,-1.2377279E-2,-6.1960444E-3],"split_indices":[7,15,1,7,19,0,9,0,0,0,0,0,0],"split_type":[0,0,0,0,0,0,0,0,0,0,0,0,0],"sum_hessian":[3.3659006E2,3.0378598E2,3.280407E1,2.1113206E2,9.265392E1,8.523563E0,2.4280506E1,4.5804543E1,1.6532751E2,8.090974E1,1.1744188E1,1.37651825E1,1.0515323E1],"tree_param":{"num_deleted":"0","num_feature":"23","num_nodes":"13","size_leaf_vector":"1"}},{"base_weights":[-3.649265E-2,-3.023273E-1,6.019719E-1,-9.702728E-1,-2.0620379E-1,8.784751E-1,2.892466E-2,-2.481596E-3,-1.3222364E-2,-1.2041349E-3,-7.564573E-3,7.4879774E-3,1.3026769E-2,3.0993107E-3,-5.289826E-3],"categories":[],"categories_nodes":[],"categories_segments":[],"categories_sizes":[],"default_left":[0,0,0,0,0,0,0,0,0,0,0,0,0,0,0],"id":54,"left_children":[1,3,5,7,9,11,13,-1,-1,-1,-1,-1,-1,-1,-1],"loss_changes":[5.7032303E1,1.5026436E1,1.5629353E1,7.1860924E0,9.755627E0,2.6886978E0,5.367391E0,0E0,0E0,0E0,0E0,0E0,0E0,0E0,0E0],"parents":[2147483647,0,0,1,1,2,2,3,3,4,4,5,5,6,6],"right_children":[2,4,6,8,10,12,14,-1,-1,-1,-1,-1,-1,-1,-1],"split_conditions":[2.2722527E-3,-1.9168083E-3,6.7427075E-1,-4.983739E-3,1.44125195E-2,1.2801684E-2,1.5031914E-2,-2.481596E-3,-1.3222364E-2,-1.2041349E-3,-7.564573E-3,7.4879774E-3,1.3026769E-2,3.0993107E-3,-5.289826E-3],"split_indices":[22,22,14,5,0,11,18,0,0,0,0,0,0,0,0],"split_type":[0,0,0,0,0,0,0,0,0,0,0,0,0,0,0],"sum_hessian":[3.3395343E2,2.3615366E2,9.779976E1,2.8565178E1,2.0758849E2,6.560935E1,3.2190403E1,9.919241E0,1.8645937E1,1.8064314E2,2.6945332E1,5.2366306E1,1.3243051E1,2.170335E1,1.0487055E1],"tree_param":{"num_deleted":"0","num_feature":"23","num_nodes":"15","size_leaf_vector":"1"}},{"base_weights":[-4.032031E-2,-2.3795536E-1,5.960188E-1,-1.4966424E-1,-7.8049654E-1,7.276451E-1,-2.0894075E-3,2.2841685E-3,-3.1256306E-3,-1.4259356E-2,-4.7680195E-3,9.290097E-3,3.5898585E-3],"categories":[],"categories_nodes":[],"categories_segments":[],"categories_sizes":[],"default_left":[0,0,0,0,0,0,0,0,0,0,0,0,0],"id":55,"left_children":[1,3,5,7,9,11,-1,-1,-1,-1,-1,-1,-1],"loss_changes":[4.1548912E1,1.1951361E1,8.449312E0,1.349244E1,6.1853466E0,4.6794205E0,0E0,0E0,0E0,0E0,0E0,0E0,0E0],"parents":[2147483647,0,0,1,1,2,2,3,3,4,4,5,5],"right_children":[2,4,6,8,10,12,-1,-1,-1,-1,-1,-1,-1],"split_conditions":[2.5750909E-3,1.44125195E-2,8.036717E-1,2.060447E-3,5.2793035E-3,1.3890128E-2,-2.0894075E-3,2.2841685E-3,-3.1256306E-3,-1.4259356E-2,-4.7680195E-3,9.290097E-3,3.5898585E-3],"split_indices":[22,0,14,6,1,1,0,0,0,0,0,0,0],"split_type":[0,0,0,0,0,0,0,0,0,0,0,0,0],"sum_hessian":[3.2824722E2,2.5093694E2,7.731027E1,2.1691316E2,3.402378E1,6.6527756E1,1.0782512E1,6.519536E1,1.517178E2,9.704213E0,2.4319567E1,4.2043358E1,2.44844E1],"tree_param":{"num_deleted":"0","num_feature":"23","num_nodes":"13","size_leaf_vector":"1"}},{"base_weights":[-6.228669E-4,5.7567153E-2,-6.673848E-1,2.871207E-1,-3.546288E-2,-1.2055409E-2,-7.3093385E-4,3.9873524E-3,-2.1649548E-3,9.245653E-4,-3.4122537E-3],"categories":[],"categories_nodes":[],"categories_segments":[],"categories_sizes":[],"default_left":[0,0,0,0,0,0,0,0,0,0,0],"id":56,"left_children":[1,3,5,7,9,-1,-1,-1,-1,-1,-1],"loss_changes":[1.293901E1,6.5605297E0,8.472942E0,5.0648184E0,8.603643E0,0E0,0E0,0E0,0E0,0E0,0E0],"parents":[2147483647,0,0,1,1,2,2,3,3,4,4],"right_children":[2,4,6,8,10,-1,-1,-1,-1,-1,-1],"split_conditions":[1.2787664E-1,-5.300533E-3,9.702413E-2,2.8286947E-2,1.9545518E-2,-1.2055409E-2,-7.3093385E-4,3.9873524E-3,-2.1649548E-3,9.245653E-4,-3.4122537E-3],"split_indices":[7,5,4,17,17,0,0,0,0,0,0],"split_type":[0,0,0,0,0,0,0,0,0,0,0],"sum_hessian":[3.314989E2,3.0573068E2,2.5768236E1,8.7568146E1,2.1816254E2,1.2983024E1,1.27852125E1,7.18521E1,1.5716051E1,1.5430486E2,6.385767E1],"tree_param":{"num_deleted":"0","num_feature":"23","num_nodes":"11","size_leaf_vector":"1"}},{"base_weights":[-7.1235364E-3,-2.1429045E-1,6.7675775E-1,-7.225326E-1,-9.814431E-2,9.167609E-1,1.8534397E-1,-3.495813E-4,-9.231949E-3,3.709556E-3,-2.515231E-3,3.3143505E-3,1.0766674E-2,-2.6135757E-3,9.57836E-3],"categories":[],"categories_nodes":[],"categories_segments":[],"categories_sizes":[],"default_left":[0,0,0,0,0,0,0,0,0,0,0,0,0,0,0],"id":57,"left_children":[1,3,5,7,9,11,13,-1,-1,-1,-1,-1,-1,-1,-1],"loss_changes":[4.761721E1,1.5154669E1,9.046463E0,6.5656757E0,1.5282406E1,4.5335197E0,9.531145E0,0E0,0E0,0E0,0E0,0E0,0E0,0E0,0E0],"parents":[2147483647,0,0,1,1,2,2,3,3,4,4,5,5,6,6],"right_children":[2,4,6,8,10,12,14,-1,-1,-1,-1,-1,-1,-1,-1],"split_conditions":[2.6396117E-3,-1.1108245E-3,1.6341683E-2,-1.643232E-2,-6.122025E-3,3.0378192E-3,4.236597E-3,-3.495813E-4,-9.231949E-3,3.709556E-3,-2.515231E-3,3.3143505E-3,1.0766674E-2,-2.6135757E-3,9.57836E-3],"split_indices":[22,22,1,20,0,22,22,0,0,0,0,0,0,0,0],"split_type":[0,0,0,0,0,0,0,0,0,0,0,0,0,0,0],"sum_hessian":[3.34072E2,2.5692792E2,7.714406E1,4.6821514E1,2.1010641E2,5.1248886E1,2.5895168E1,1.0842759E1,3.5978756E1,5.1420696E1,1.5868571E2,1.1655927E1,3.959296E1,1.6826653E1,9.068517E0],"tree_param":{"num_deleted":"0","num_feature":"23","num_nodes":"15","size_leaf_vector":"1"}},{"base_weights":[1.9345466E-2,-2.2119735E-1,5.790322E-1,-6.8829787E-1,-6.267497E-2,7.5542337E-1,-2.4519655E-1,-1.0236938E-2,-4.45481E-3,4.8302813E-5,-7.88205E-3,8.94063E-3,4.1768323E-3,-8.530562E-3,3.985756E-3],"categories":[],"categories_nodes":[],"categories_segments":[],"categories_sizes":[],"default_left":[0,0,0,0,0,0,0,0,0,0,0,0,0,0,0],"id":58,"left_children":[1,3,5,7,9,11,13,-1,-1,-1,-1,-1,-1,-1,-1],"loss_changes":[4.4801785E1,1.7195297E1,1.4727047E1,4.339899E0,8.570788E0,3.4958687E0,7.5352545E0,0E0,0E0,0E0,0E0,0E0,0E0,0E0,0E0],"parents":[2147483647,0,0,1,1,2,2,3,3,4,4,5,5,6,6],"right_children":[2,4,6,8,10,12,14,-1,-1,-1,-1,-1,-1,-1,-1],"split_conditions":[2.2455924E-3,-8.506715E-4,5.028074E-2,1.3993363E-4,1.947997E-3,6.922271E-4,1.3888077E-2,-1.0236938E-2,-4.45481E-3,4.8302813E-5,-7.88205E-3,8.94063E-3,4.1768323E-3,-8.530562E-3,3.985756E-3],"split_indices":[22,22,3,13,22,13,15,0,0,0,0,0,0,0,0],"split_type":[0,0,0,0,0,0,0,0,0,0,0,0,0,0,0],"sum_hessian":[3.308292E2,2.318075E2,9.902171E1,5.7889347E1,1.7391815E2,8.163474E1,1.7386974E1,2.2959764E1,3.492958E1,1.6002257E2,1.3895583E1,5.6708965E1,2.4925776E1,8.775716E0,8.611258E0],"tree_param":{"num_deleted":"0","num_feature":"23","num_nodes":"15","size_leaf_vector":"1"}},{"base_weights":[1.9917216E-2,1.1578902E-1,-4.68602E-1,1.6573761E-1,-3.8979176E-1,-7.495541E-1,8.7667105E-4,6.825957E-4,8.187451E-3,2.6309656E-3,-7.893911E-3,-4.378209E-3,-1.3968068E-2,4.235009E-3,-5.8788755E-3],"categories":[],"categories_nodes":[],"categories_segments":[],"categories_sizes":[],"default_left":[0,0,0,0,0,0,0,0,0,0,0,0,0,0,0],"id":59,"left_children":[1,3,5,7,9,11,13,-1,-1,-1,-1,-1,-1,-1,-1],"loss_changes":[1.58245535E1,7.1930447E0,7.3130207E0,1.6341473E1,6.9070883E0,6.386648E0,5.6619925E0,0E0,0E0,0E0,0E0,0E0,0E0,0E0,0E0],"parents":[2147483647,0,0,1,1,2,2,3,3,4,4,5,5,6,6],"right_children":[2,4,6,8,10,12,14,-1,-1,-1,-1,-1,-1,-1,-1],"split_conditions":[3.3121966E-2,2.3534516E-2,1.045166E0,1.702308E-2,1.4011693E-4,1.0625691E-2,9.405399E-1,6.825957E-4,8.187451E-3,2.6309656E-3,-7.893911E-3,-4.378209E-3,-1.3968068E-2,4.235009E-3,-5.8788755E-3],"split_indices":[2,12,16,11,2,12,19,0,0,0,0,0,0,0,0],"split_type":[0,0,0,0,0,0,0,0,0,0,0,0,0,0,0],"sum_hessian":[3.3571872E2,2.8128046E2,5.4438255E1,2.566018E2,2.4678661E1,3.3684017E1,2.0754238E1,2.2423372E2,3.2368073E1,9.499475E0,1.5179186E1,2.3865986E1,9.818031E0,1.2245162E1,8.509075E0],"tree_param":{"num_deleted":"0","num_feature":"23","num_nodes":"15","size_leaf_vector":"1"}},{"base_weights":[5.5063944E-2,1.19669095E-1,-6.284871E-1,1.663095E-1,-4.0320137E-1,-1.0288738E-2,-4.3093112E-1,2.225985E-3,-2.5657085E-3,9.853464E-4,-6.4754803E-3,-7.5864266E-3,-1.7624452E-3],"categories":[],"categories_nodes":[],"categories_segments":[],"categories_sizes":[],"default_left":[0,0,0,0,0,0,0,0,0,0,0,0,0],"id":60,"left_children":[1,3,5,7,9,-1,11,-1,-1,-1,-1,-1,-1],"loss_changes":[1.5064519E1,7.650274E0,1.8876772E0,6.869603E0,3.221651E0,0E0,1.6569326E0,0E0,0E0,0E0,0E0,0E0,0E0],"parents":[2147483647,0,0,1,1,2,2,3,3,4,4,6,6],"right_children":[2,4,6,8,10,-1,12,-1,-1,-1,-1,-1,-1],"split_conditions":[2.1029256E-2,1.2570916E-1,2.3398185E-2,3.3794034E-2,6.0428395E-3,-1.0288738E-2,1.0036006E-1,2.225985E-3,-2.5657085E-3,9.853464E-4,-6.4754803E-3,-7.5864266E-3,-1.7624452E-3],"split_indices":[0,7,0,2,5,0,10,0,0,0,0,0,0],"split_type":[0,0,0,0,0,0,0,0,0,0,0,0,0],"sum_hessian":[3.3842474E2,3.0995462E2,2.8470125E1,2.851968E2,2.4757824E1,8.016027E0,2.0454098E1,2.5211212E2,3.308468E1,8.303776E0,1.6454048E1,8.079401E0,1.2374697E1],"tree_param":{"num_deleted":"0","num_feature":"23","num_nodes":"13","size_leaf_vector":"1"}},{"base_weights":[1.4111232E-3,1.0081162E-1,-3.6088008E-1,3.5168055E-1,-1.0159274E-2,-1.1035891E-1,-7.756351E-1,5.7904597E-4,7.5998274E-3,-9.433329E-3,5.1653694E-4,-4.124872E-3,6.470981E-3,-1.2120976E-2,-1.6171224E-3],"categories":[],"categories_nodes":[],"categories_segments":[],"categories_sizes":[],"default_left":[0,0,0,0,0,0,0,0,0,0,0,0,0,0,0],"id":61,"left_children":[1,3,5,7,9,11,13,-1,-1,-1,-1,-1,-1,-1,-1],"loss_changes":[1.2239593E1,7.4280224E0,7.5176334E0,9.770038E0,1.077028E1,1.0973748E1,7.143091E0,0E0,0E0,0E0,0E0,0E0,0E0,0E0,0E0],"parents":[2147483647,0,0,1,1,2,2,3,3,4,4,5,5,6,6],"right_children":[2,4,6,8,10,12,14,-1,-1,-1,-1,-1,-1,-1,-1],"split_conditions":[2.8208569E-2,2.529599E-3,1.0854695E-2,-2.676659E-3,3.4510863E-3,5.749735E-3,1.0702525E-1,5.7904597E-4,7.5998274E-3,-9.433329E-3,5.1653694E-4,-4.124872E-3,6.470981E-3,-1.2120976E-2,-1.6171224E-3],"split_indices":[2,11,12,11,12,12,4,0,0,0,0,0,0,0,0],"split_type":[0,0,0,0,0,0,0,0,0,0,0,0,0,0,0],"sum_hessian":[3.3786584E2,2.6569095E2,7.2174904E1,8.081822E1,1.8487271E2,4.5785522E1,2.6389381E1,4.766487E1,3.315335E1,1.0599149E1,1.7427356E2,3.3055893E1,1.2729631E1,1.48544235E1,1.1534958E1],"tree_param":{"num_deleted":"0","num_feature":"23","num_nodes":"15","size_leaf_vector":"1"}},{"base_weights":[-3.780702E-2,-2.5067878E-1,6.7180073E-1,-8.225244E-1,-1.7798425E-1,8.4850705E-1,-1.8838003E-3,-1.8673502E-3,-1.1430479E-2,-8.368945E-4,-6.9671557E-3,9.251599E-3,4.011138E-3],"categories":[],"categories_nodes":[],"categories_segments":[],"categories_sizes":[],"default_left":[0,0,0,0,0,0,0,0,0,0,0,0,0],"id":62,"left_children":[1,3,5,7,9,11,-1,-1,-1,-1,-1,-1,-1],"loss_changes":[5.1034855E1,1.0651926E1,1.2012459E1,5.7006435E0,1.1276998E1,1.8535805E0,0E0,0E0,0E0,0E0,0E0,0E0,0E0],"parents":[2147483647,0,0,1,1,2,2,3,3,4,4,5,5],"right_children":[2,4,6,8,10,12,-1,-1,-1,-1,-1,-1,-1],"split_conditions":[2.6396117E-3,-1.9168083E-3,4.9719036E-2,-9.719826E-3,1.44125195E-2,1.8057253E-2,-1.8838003E-3,-1.8673502E-3,-1.1430479E-2,-8.368945E-4,-6.9671557E-3,9.251599E-3,4.011138E-3],"split_indices":[22,22,3,0,0,0,0,0,0,0,0,0,0],"split_type":[0,0,0,0,0,0,0,0,0,0,0,0,0],"sum_hessian":[3.3574023E2,2.5876218E2,7.697806E1,2.8021158E1,2.3074101E2,6.3870716E1,1.3107343E1,9.92217E0,1.8098988E1,1.9623146E2,3.4509552E1,5.3616577E1,1.025414E1],"tree_param":{"num_deleted":"0","num_feature":"23","num_nodes":"13","size_leaf_vector":"1"}},{"base_weights":[2.4557577E-2,-1.5021801E-1,7.9015964E-1,-5.898705E-1,1.6063897E-2,1.0385826E0,3.0416822E-1,-1.200579E-2,-4.3401388E-3,-9.1524306E-4,3.6930686E-3,4.243389E-3,1.1815238E-2,-2.4184026E-3,9.036108E-3],"categories":[],"categories_nodes":[],"categories_segments":[],"categories_sizes":[],"default_left":[0,0,0,0,0,0,0,0,0,0,0,0,0,0,0],"id":63,"left_children":[1,3,5,7,9,11,13,-1,-1,-1,-1,-1,-1,-1,-1],"loss_changes":[4.4756218E1,1.9925978E1,7.188778E0,6.597477E0,7.583231E0,3.0738564E0,7.563307E0,0E0,0E0,0E0,0E0,0E0,0E0,0E0,0E0],"parents":[2147483647,0,0,1,1,2,2,3,3,4,4,5,5,6,6],"right_children":[2,4,6,8,10,12,14,-1,-1,-1,-1,-1,-1,-1,-1],"split_conditions":[3.0378192E-3,-3.5205498E-4,1.6341683E-2,-2.552972E-3,2.229347E-2,9.365261E-3,4.236597E-3,-1.200579E-2,-4.3401388E-3,-9.1524306E-4,3.6930686E-3,4.243389E-3,1.1815238E-2,-2.4184026E-3,9.036108E-3],"split_indices":[22,22,1,22,17,18,22,0,0,0,0,0,0,0,0],"split_type":[0,0,0,0,0,0,0,0,0,0,0,0,0,0,0],"sum_hessian":[3.3259244E2,2.7143225E2,6.1160164E1,7.3787994E1,1.9764427E2,3.9719707E1,2.1440454E1,1.3639576E1,6.014842E1,1.5206906E2,4.5575203E1,8.247476E0,3.1472233E1,1.1532508E1,9.907947E0],"tree_param":{"num_deleted":"0","num_feature":"23","num_nodes":"15","size_leaf_vector":"1"}},{"base_weights":[-1.3853888E-2,5.1714245E-2,-7.7053547E-1,2.7946213E-1,-9.54045E-2,-2.940617E-3,-1.1777099E-2,4.5146393E-3,7.829806E-4,3.8908824E-4,-4.612497E-3],"categories":[],"categories_nodes":[],"categories_segments":[],"categories_sizes":[],"default_left":[0,0,0,0,0,0,0,0,0,0,0],"id":64,"left_children":[1,3,5,7,9,-1,-1,-1,-1,-1,-1],"loss_changes":[1.6739826E1,1.0436732E1,4.8732557E0,4.192423E0,9.329823E0,0E0,0E0,0E0,0E0,0E0,0E0],"parents":[2147483647,0,0,1,1,2,2,3,3,4,4],"right_children":[2,4,6,8,10,-1,-1,-1,-1,-1,-1],"split_conditions":[2.1029256E-2,-8.792721E-4,5.1346846E-2,8.622837E-3,1.9545518E-2,-2.940617E-3,-1.1777099E-2,4.5146393E-3,7.829806E-4,3.8908824E-4,-4.612497E-3],"split_indices":[0,5,7,12,17,0,0,0,0,0,0],"split_type":[0,0,0,0,0,0,0,0,0,0,0],"sum_hessian":[3.355968E2,3.0969287E2,2.5903917E1,1.2118786E2,1.8850502E2,1.2729783E1,1.3174135E1,6.465849E1,5.6529366E1,1.3853726E2,4.9967754E1],"tree_param":{"num_deleted":"0","num_feature":"23","num_nodes":"11","size_leaf_vector":"1"}},{"base_weights":[4.1401748E-2,1.2148731E-1,-6.17133E-1,2.2562373E-1,-1.221533E-1,7.2308903E-4,-8.970172E-1,5.407891E-3,6.073166E-4,-2.802177E-3,4.689159E-3,-1.1794602E-2,-3.15462E-3],"categories":[],"categories_nodes":[],"categories_segments":[],"categories_sizes":[],"default_left":[0,0,0,0,0,0,0,0,0,0,0,0,0],"id":65,"left_children":[1,3,5,7,9,-1,11,-1,-1,-1,-1,-1,-1],"loss_changes":[1.7742342E1,7.626657E0,7.1054707E0,1.0889678E1,8.570847E0,0E0,3.9028664E0,0E0,0E0,0E0,0E0,0E0,0E0],"parents":[2147483647,0,0,1,1,2,2,3,3,4,4,6,6],"right_children":[2,4,6,8,10,-1,12,-1,-1,-1,-1,-1,-1],"split_conditions":[1.15978345E-1,1.7179035E-2,6.7184126E-1,4.3704636E-2,1.7369136E-1,7.2308903E-4,1.2401593E-1,5.407891E-3,6.073166E-4,-2.802177E-3,4.689159E-3,-1.1794602E-2,-3.15462E-3],"split_indices":[7,15,14,7,10,0,4,0,0,0,0,0,0],"split_type":[0,0,0,0,0,0,0,0,0,0,0,0,0],"sum_hessian":[3.3399545E2,2.9850882E2,3.548666E1,2.0917679E2,8.933201E1,1.0460598E1,2.5026062E1,7.106587E1,1.3811093E2,7.089824E1,1.8433775E1,1.6152964E1,8.873098E0],"tree_param":{"num_deleted":"0","num_feature":"23","num_nodes":"13","size_leaf_vector":"1"}},{"base_weights":[3.9745823E-2,-1.3076223E-1,7.946301E-1,1.3630858E-1,-3.2495227E-1,1.0574517E0,2.1611424E-1,-4.4478495E-3,2.209534E-3,-9.092062E-3,-2.1893498E-3,5.1577454E-3,1.2127788E-2,-2.2061067E-3,6.7623793E-3],"categories":[],"categories_nodes":[],"categories_segments":[],"categories_sizes":[],"default_left":[0,0,0,0,0,0,0,0,0,0,0,0,0,0,0],"id":66,"left_children":[1,3,5,7,9,11,13,-1,-1,-1,-1,-1,-1,-1,-1],"loss_changes":[4.3887814E1,1.4480028E1,9.322773E0,5.896774E0,9.801847E0,2.9871483E0,4.3450484E0,0E0,0E0,0E0,0E0,0E0,0E0,0E0,0E0],"parents":[2147483647,0,0,1,1,2,2,3,3,4,4,5,5,6,6],"right_children":[2,4,6,8,10,12,14,-1,-1,-1,-1,-1,-1,-1,-1],"split_conditions":[3.0203676E-3,5.8882637E-4,1.6513022E-2,-7.374818E-3,-1.8339956E-3,7.817163E-3,4.236597E-3,-4.4478495E-3,2.209534E-3,-9.092062E-3,-2.1893498E-3,5.1577454E-3,1.2127788E-2,-2.2061067E-3,6.7623793E-3],"split_indices":[22,5,1,13,13,15,22,0,0,0,0,0,0,0,0],"split_type":[0,0,0,0,0,0,0,0,0,0,0,0,0,0,0],"sum_hessian":[3.3916467E2,2.7734634E2,6.1818302E1,1.1688783E2,1.6045853E2,4.1937904E1,1.9880398E1,1.4320655E1,1.0256718E2,2.3480894E1,1.3697763E2,1.0308676E1,3.162923E1,1.0466599E1,9.413798E0],"tree_param":{"num_deleted":"0","num_feature":"23","num_nodes":"15","size_leaf_vector":"1"}},{"base_weights":[-1.4836738E-2,-2.351517E-1,5.405751E-1,-8.7754875E-1,-1.4514796E-1,6.370271E-1,-4.43542E-3,-2.7392202E-3,-1.1166421E-2,-4.8636287E-4,-7.33242E-3,3.1514333E-3,8.259056E-3],"categories":[],"categories_nodes":[],"categories_segments":[],"categories_sizes":[],"default_left":[0,0,0,0,0,0,0,0,0,0,0,0,0],"id":67,"left_children":[1,3,5,7,9,11,-1,-1,-1,-1,-1,-1,-1],"loss_changes":[4.1291054E1,1.3838975E1,9.380144E0,3.9496899E0,1.2057764E1,5.0716286E0,0E0,0E0,0E0,0E0,0E0,0E0,0E0],"parents":[2147483647,0,0,1,1,2,2,3,3,4,4,5,5],"right_children":[2,4,6,8,10,12,-1,-1,-1,-1,-1,-1,-1],"split_conditions":[2.2722527E-3,-1.9168083E-3,1.1981679E-1,-3.5383992E-3,1.44125195E-2,3.0378192E-3,-4.43542E-3,-2.7392202E-3,-1.1166421E-2,-4.8636287E-4,-7.33242E-3,3.1514333E-3,8.259056E-3],"split_indices":[22,22,7,5,0,22,0,0,0,0,0,0,0],"split_type":[0,0,0,0,0,0,0,0,0,0,0,0,0],"sum_hessian":[3.354014E2,2.4055656E2,9.484485E1,2.8486372E1,2.1207019E2,8.670017E1,8.144677E0,8.690805E0,1.9795567E1,1.8310385E2,2.8966337E1,3.3048298E1,5.365187E1],"tree_param":{"num_deleted":"0","num_feature":"23","num_nodes":"13","size_leaf_vector":"1"}},{"base_weights":[-1.79462E-2,-2.551757E-1,5.8641756E-1,4.2485728E-4,-4.553964E-1,6.8488306E-1,-3.8253453E-3,1.0313335E-3,-6.560445E-3,-1.0436582E-2,-3.6026265E-3,2.8664365E-3,9.619199E-3],"categories":[],"categories_nodes":[],"categories_segments":[],"categories_sizes":[],"default_left":[0,0,0,0,0,0,0,0,0,0,0,0,0],"id":68,"left_children":[1,3,5,7,9,11,-1,-1,-1,-1,-1,-1,-1],"loss_changes":[4.8081158E1,1.232215E1,9.281895E0,7.2659183E0,7.1798744E0,9.231972E0,0E0,0E0,0E0,0E0,0E0,0E0,0E0],"parents":[2147483647,0,0,1,1,2,2,3,3,4,4,5,5],"right_children":[2,4,6,8,10,12,-1,-1,-1,-1,-1,-1,-1],"split_conditions":[2.2722527E-3,5.8882637E-4,2.4586147E-2,2.8924394E-2,-1.9168083E-3,3.0378192E-3,-3.8253453E-3,1.0313335E-3,-6.560445E-3,-1.0436582E-2,-3.6026265E-3,2.8664365E-3,9.619199E-3],"split_indices":[22,5,0,17,22,22,0,0,0,0,0,0,0],"split_type":[0,0,0,0,0,0,0,0,0,0,0,0,0],"sum_hessian":[3.333136E2,2.397736E2,9.354E1,1.0575951E2,1.3401408E2,8.51774E1,8.362608E0,9.218026E1,1.3579247E1,1.7267803E1,1.16746284E2,3.577937E1,4.9398026E1],"tree_param":{"num_deleted":"0","num_feature":"23","num_nodes":"13","size_leaf_vector":"1"}},{"base_weights":[-2.1907857E-2,-2.3264809E-1,6.612618E-1,-7.358885E-1,-1.0926971E-1,8.295133E-1,-8.5545157E-4,1.2973225E-3,-9.429926E-3,-3.634833E-4,-9.848232E-3,6.338142E-3,1.2630044E-2],"categories":[],"categories_nodes":[],"categories_segments":[],"categories_sizes":[],"default_left":[0,0,0,0,0,0,0,0,0,0,0,0,0],"id":69,"left_children":[1,3,5,7,9,11,-1,-1,-1,-1,-1,-1,-1],"loss_changes":[4.8501225E1,1.5900308E1,1.0051254E1,9.176264E0,1.3236676E1,4.706684E0,0E0,0E0,0E0,0E0,0E0,0E0,0E0],"parents":[2147483647,0,0,1,1,2,2,3,3,4,4,5,5],"right_children":[2,4,6,8,10,12,-1,-1,-1,-1,-1,-1,-1],"split_conditions":[2.5750909E-3,-1.1108245E-3,4.9259484E-2,-1.7129513E-2,2.1029256E-2,6.9319434E-2,-8.5545157E-4,1.2973225E-3,-9.429926E-3,-3.634833E-4,-9.848232E-3,6.338142E-3,1.2630044E-2],"split_indices":[22,22,6,7,0,7,0,0,0,0,0,0,0],"split_type":[0,0,0,0,0,0,0,0,0,0,0,0,0],"sum_hessian":[3.3481256E2,2.5638412E2,7.842844E1,4.950338E1,2.0688075E2,6.391744E1,1.4510997E1,9.629428E0,3.987395E1,1.9193663E2,1.4944126E1,4.5733303E1,1.8184137E1],"tree_param":{"num_deleted":"0","num_feature":"23","num_nodes":"13","size_leaf_vector":"1"}},{"base_weights":[-2.245712E-3,-2.0525499E-1,6.8321955E-1,-9.265488E-2,-6.6612196E-1,8.305589E-1,-2.824902E-4,-1.0997359E-2,-2.801897E-4,-8.27471E-3,8.353506E-4,6.381453E-3,1.2668646E-2],"categories":[],"categories_nodes":[],"categories_segments":[],"categories_sizes":[],"default_left":[0,0,0,0,0,0,0,0,0,0,0,0,0],"id":70,"left_children":[1,3,5,7,9,11,-1,-1,-1,-1,-1,-1,-1],"loss_changes":[4.6896927E1,1.3430512E1,8.09568E0,1.3645916E1,6.2244587E0,4.5498734E0,0E0,0E0,0E0,0E0,0E0,0E0,0E0],"parents":[2147483647,0,0,1,1,2,2,3,3,4,4,5,5],"right_children":[2,4,6,8,10,12,-1,-1,-1,-1,-1,-1,-1],"split_conditions":[2.5936686E-3,2.8874116E-2,4.9259484E-2,-2.552972E-3,5.786587E-2,6.4511937E-1,-2.824902E-4,-1.0997359E-2,-2.801897E-4,-8.27471E-3,8.353506E-4,6.381453E-3,1.2668646E-2],"split_indices":[22,2,6,22,2,9,0,0,0,0,0,0,0],"split_type":[0,0,0,0,0,0,0,0,0,0,0,0,0],"sum_hessian":[3.3500247E2,2.589976E2,7.600488E1,2.091087E2,4.988889E1,6.282661E1,1.31782675E1,1.164564E1,1.9746306E2,4.0967613E1,8.921276E0,4.5308075E1,1.7518536E1],"tree_param":{"num_deleted":"0","num_feature":"23","num_nodes":"13","size_leaf_vector":"1"}}]},"name":"gbtree"},"learner_model_param":{"base_score":"5.949858E-1","boost_from_average":"1","num_class":"0","num_feature":"23","num_target":"1"},"objective":{"name":"binary:logistic","reg_loss_param":{"scale_pos_weight":"1"}}},"version":[2,1,4]}