{"learner":{"attributes":{"best_iteration":"1","best_score":"0.682583257994231","scikit_learn":"{\"_estimator_type\": \"classifier\"}"},"feature_names":[],"feature_types":[],"gradient_booster":{"model":{"gbtree_model_param":{"num_parallel_tree":"1","num_trees":"32"},"iteration_indptr":[0,1,2,3,4,5,6,7,8,9,10,11,12,13,14,15,16,17,18,19,20,21,22,23,24,25,26,27,28,29,30,31,32],"tree_info":[0,0,0,0,0,0,0,0,0,0,0,0,0,0,0,0,0,0,0,0,0,0,0,0,0,0,0,0,0,0,0,0],"trees":[{"base_weights":[3.3299047E-2,-6.4350903E-1,1.5347719E-1,-4.7299495E-1,-1.2990202E-2,2.5566676E-1,-6.039091E-1,-8.596762E-3,2.6359742E-3,7.0623737E-3,1.4802888E-3,2.4774366E-3,-1.1199781E-2],"categories":[],"categories_nodes":[],"categories_segments":[],"categories_sizes":[],"default_left":[0,0,0,0,0,0,0,0,0,0,0,0,0],"id":0,"left_children":[1,3,5,7,-1,9,11,-1,-1,-1,-1,-1,-1],"loss_changes":[2.8519999E1,5.29644E0,2.3183174E1,1.2627562E1,0E0,1.2644287E1,1.5954938E1,0E0,0E0,0E0,0E0,0E0,0E0],"parents":[2147483647,0,0,1,1,2,2,3,3,5,5,6,6],"right_children":[2,4,6,8,-1,10,12,-1,-1,-1,-1,-1,-1],"split_conditions":[0E0,1.822442E-2,1.18722804E-1,8.782927E-2,-1.2990202E-2,1.6475642E-2,2.277665E-2,-8.596762E-3,2.6359742E-3,7.0623737E-3,1.4802888E-3,2.4774366E-3,-1.1199781E-2],"split_indices":[22,12,7,7,0,17,11,0,0,0,0,0,0],"split_type":[0,0,0,0,0,0,0,0,0,0,0,0,0],"sum_hessian":[3.4842334E2,5.1882378E1,2.96541E2,4.253863E1,9.343745E0,2.6187076E2,3.467021E1,2.7785349E1,1.4753283E1,4.9423496E1,2.1244727E2,1.3277954E1,2.139226E1],"tree_param":{"num_deleted":"0","num_feature":"23","num_nodes":"13","size_leaf_vector":"1"}},{"base_weights":[1.5037751E-2,8.998449E-2,-8.850772E-1,-5.935914E-1,1.4719889E-1,-1.6506642E-2,-1.3607302E-3,6.0248193E-3,-1.3220293E-2,6.751531E-3,2.737158E-4],"categories":[],"categories_nodes":[],"categories_segments":[],"categories_sizes":[],"default_left":[0,0,0,0,0,0,0,0,0,0,0],"id":1,"left_children":[1,3,5,7,9,-1,-1,-1,-1,-1,-1],"loss_changes":[2.3335188E1,1.2568991E1,1.5022417E1,2.2444916E1,1.8662613E1,0E0,0E0,0E0,0E0,0E0,0E0],"parents":[2147483647,0,0,1,1,2,2,3,3,4,4],"right_children":[2,4,6,8,10,-1,-1,-1,-1,-1,-1],"split_conditions":[7.742628E-2,9.323084E-3,2.5805956E-2,7.0547224E-3,1.6475642E-2,-1.6506642E-2,-1.3607302E-3,6.0248193E-3,-1.3220293E-2,6.751531E-3,2.737158E-4],"split_indices":[6,15,17,15,17,0,0,0,0,0,0],"split_type":[0,0,0,0,0,0,0,0,0,0,0],"sum_hessian":[3.4372742E2,3.1813815E2,2.5589272E1,2.3847107E1,2.9429105E2,1.2059235E1,1.3530037E1,9.091707E0,1.47554E1,5.3580997E1,2.4071004E2],"tree_param":{"num_deleted":"0","num_feature":"23","num_nodes":"11","size_leaf_vector":"1"}},{"base_weights":[3.9851952E-2,1.6093563E-1,-5.649776E-1,3.1561587E-2,4.5708182E-1,2.1074217E-2,-9.568818E-1,-1.1577163E-2,1.108883E-3,5.976374E-3,-5.5428976E-3,5.319709E-3,-5.913667E-3,-1.4256007E-2,4.896121E-3],"categories":[],"categories_nodes":[],"categories_segments":[],"categories_sizes":[],"default_left":[0,0,0,0,0,0,0,0,0,0,0,0,0,0,0],"id":2,"left_children":[1,3,5,7,9,11,13,-1,-1,-1,-1,-1,-1,-1,-1],"loss_changes":[2.5066135E1,1.0901992E1,1.3136026E1,1.893721E1,1.2635105E1,7.781166E0,2.3914669E1,0E0,0E0,0E0,0E0,0E0,0E0,0E0,0E0],"parents":[2147483647,0,0,1,1,2,2,3,3,4,4,5,5,6,6],"right_children":[2,4,6,8,10,12,14,-1,-1,-1,-1,-1,-1,-1,-1],"split_conditions":[1.068116E-1,1.3380899E-1,1.9758131E-2,-2.1484436E-2,2.9888472E-1,3.5695452E-2,2.7434906E-2,-1.1577163E-2,1.108883E-3,5.976374E-3,-5.5428976E-3,5.319709E-3,-5.913667E-3,-1.4256007E-2,4.896121E-3],"split_indices":[7,10,12,12,10,20,17,0,0,0,0,0,0,0,0],"split_type":[0,0,0,0,0,0,0,0,0,0,0,0,0,0,0],"sum_hessian":[3.4002847E2,2.839226E2,5.6105885E1,1.9836966E2,8.555293E1,2.2862955E1,3.324293E1,1.155413E1,1.8681554E2,7.547312E1,1.0079812E1,1.2536461E1,1.0326493E1,2.5118143E1,8.124788E0],"tree_param":{"num_deleted":"0","num_feature":"23","num_nodes":"15","size_leaf_vector":"1"}},{"base_weights":[-2.560374E-2,6.4332336E-2,-8.943459E-1,-4.6656E-1,1.7013755E-1,-1.3578331E0,7.091237E-4,-9.062615E-3,-2.9337258E-4,6.5809856E-3,5.263442E-4,-7.2456896E-3,-1.6714593E-2],"categories":[],"categories_nodes":[],"categories_segments":[],"categories_sizes":[],"default_left":[0,0,0,0,0,0,0,0,0,0,0,0,0],"id":3,"left_children":[1,3,5,7,9,11,-1,-1,-1,-1,-1,-1,-1],"loss_changes":[2.729733E1,1.7878195E1,1.4758905E1,1.0147851E1,1.5156425E1,3.196373E0,0E0,0E0,0E0,0E0,0E0,0E0,0E0],"parents":[2147483647,0,0,1,1,2,2,3,3,4,4,5,5],"right_children":[2,4,6,8,10,12,-1,-1,-1,-1,-1,-1,-1],"split_conditions":[7.2573625E-2,0E0,5.1718466E-3,1.1948054E-2,1.6475642E-2,2.4447862E-2,7.091237E-4,-9.062615E-3,-2.9337258E-4,6.5809856E-3,5.263442E-4,-7.2456896E-3,-1.6714593E-2],"split_indices":[6,22,22,15,17,11,0,0,0,0,0,0,0],"split_type":[0,0,0,0,0,0,0,0,0,0,0,0,0],"sum_hessian":[3.4764145E2,3.1586737E2,3.177406E1,5.192365E1,2.6394373E2,2.1191736E1,1.0582322E1,2.5353573E1,2.6570076E1,5.0331005E1,2.1361273E2,8.115492E0,1.3076244E1],"tree_param":{"num_deleted":"0","num_feature":"23","num_nodes":"13","size_leaf_vector":"1"}},{"base_weights":[2.5710287E-2,1.5854833E-1,-6.067845E-1,8.901024E-2,7.335357E-1,-3.0472223E-2,-9.847965E-1,2.636005E-3,-1.6629347E-3,1.1056362E-2,-2.3415815E-3,-4.7406084E-3,4.07318E-3,-1.4056386E-2,9.568201E-4],"categories":[],"categories_nodes":[],"categories_segments":[],"categories_sizes":[],"default_left":[0,0,0,0,0,0,0,0,0,0,0,0,0,0,0],"id":4,"left_children":[1,3,5,7,9,11,13,-1,-1,-1,-1,-1,-1,-1,-1],"loss_changes":[2.9097948E1,1.1372381E1,1.3067223E1,1.146958E1,1.1322325E1,5.0180693E0,1.6628685E1,0E0,0E0,0E0,0E0,0E0,0E0,0E0,0E0],"parents":[2147483647,0,0,1,1,2,2,3,3,4,4,5,5,6,6],"right_children":[2,4,6,8,10,12,14,-1,-1,-1,-1,-1,-1,-1,-1],"split_conditions":[1.068116E-1,4.270621E-2,2.1733943E-2,1.7576931E-4,3.0153694E-2,8.9985254E-4,2.2865286E-2,2.636005E-3,-1.6629347E-3,1.1056362E-2,-2.3415815E-3,-4.7406084E-3,4.07318E-3,-1.4056386E-2,9.568201E-4],"split_indices":[7,8,11,13,2,22,15,0,0,0,0,0,0,0,0],"split_type":[0,0,0,0,0,0,0,0,0,0,0,0,0,0,0],"sum_hessian":[3.4417926E2,2.850597E2,5.911957E1,2.5533472E2,2.972498E1,2.3845554E1,3.5274017E1,1.5161787E2,1.0371685E2,2.1366516E1,8.358463E0,1.1803187E1,1.2042368E1,2.5169613E1,1.0104405E1],"tree_param":{"num_deleted":"0","num_feature":"23","num_nodes":"15","size_leaf_vector":"1"}},{"base_weights":[4.7040777E-3,9.128907E-2,-1.0707914E0,-3.4650064E-1,1.7584792E-1,-1.5892824E-2,-7.700187E-4,-7.2346017E-4,-8.407137E-3,6.189244E-3,7.1298453E-4],"categories":[],"categories_nodes":[],"categories_segments":[],"categories_sizes":[],"default_left":[0,0,0,0,0,0,0,0,0,0,0],"id":5,"left_children":[1,3,5,7,9,-1,-1,-1,-1,-1,-1],"loss_changes":[3.301867E1,1.2207094E1,1.3490694E1,7.1813188E0,1.2725156E1,0E0,0E0,0E0,0E0,0E0,0E0],"parents":[2147483647,0,0,1,1,2,2,3,3,4,4],"right_children":[2,4,6,8,10,-1,-1,-1,-1,-1,-1],"split_conditions":[7.742628E-2,0E0,5.1718466E-3,-6.1397714E-4,1.6475642E-2,-1.5892824E-2,-7.700187E-4,-7.2346017E-4,-8.407137E-3,6.189244E-3,7.1298453E-4],"split_indices":[6,22,22,22,17,0,0,0,0,0,0],"split_type":[0,0,0,0,0,0,0,0,0,0,0],"sum_hessian":[3.5252548E2,3.2710623E2,2.541925E1,5.2451153E1,2.746551E2,1.6310392E1,9.108857E0,3.447387E1,1.7977285E1,5.1496223E1,2.2315886E2],"tree_param":{"num_deleted":"0","num_feature":"23","num_nodes":"11","size_leaf_vector":"1"}},{"base_weights":[-1.1277219E-2,6.705304E-2,-9.710265E-1,-3.977963E-1,1.6032751E-1,-1.5705109E-2,1.8127008E-3,-1.751545E-3,-1.23970015E-2,3.934218E-3,-4.908801E-5],"categories":[],"categories_nodes":[],"categories_segments":[],"categories_sizes":[],"default_left":[0,0,0,0,0,0,0,0,0,0,0],"id":6,"left_children":[1,3,5,7,9,-1,-1,-1,-1,-1,-1],"loss_changes":[2.610594E1,1.3990094E1,1.8384764E1,9.898208E0,1.0332769E1,0E0,0E0,0E0,0E0,0E0,0E0],"parents":[2147483647,0,0,1,1,2,2,3,3,4,4],"right_children":[2,4,6,8,10,-1,-1,-1,-1,-1,-1],"split_conditions":[7.742628E-2,0E0,5.1718466E-3,1.822442E-2,8.190124E-1,-1.5705109E-2,1.8127008E-3,-1.751545E-3,-1.23970015E-2,3.934218E-3,-4.908801E-5],"split_indices":[6,22,22,12,16,0,0,0,0,0,0],"split_type":[0,0,0,0,0,0,0,0,0,0,0],"sum_hessian":[3.453917E2,3.2018945E2,2.5202236E1,5.2964916E1,2.6722455E2,1.6338936E1,8.8633E0,4.284309E1,1.0121825E1,1.1027778E2,1.5694676E2],"tree_param":{"num_deleted":"0","num_feature":"23","num_nodes":"11","size_leaf_vector":"1"}},{"base_weights":[-4.3172807E-2,8.823089E-2,-7.104248E-1,-8.836097E-2,3.4218535E-1,-1.00084655E-1,-1.1079416E0,-2.9415044E-3,4.364165E-3,-6.7195756E-4,6.0646962E-3,-6.341151E-3,4.324896E-3,-1.4220184E-2,-1.0349058E-3],"categories":[],"categories_nodes":[],"categories_segments":[],"categories_sizes":[],"default_left":[0,0,0,0,0,0,0,0,0,0,0,0,0,0,0],"id":7,"left_children":[1,3,5,7,9,11,13,-1,-1,-1,-1,-1,-1,-1,-1],"loss_changes":[3.0775866E1,1.3194672E1,1.3899E1,1.8912842E1,1.3089395E1,7.0644393E0,1.0853264E1,0E0,0E0,0E0,0E0,0E0,0E0,0E0,0E0],"parents":[2147483647,0,0,1,1,2,2,3,3,4,4,5,5,6,6],"right_children":[2,4,6,8,10,12,14,-1,-1,-1,-1,-1,-1,-1,-1],"split_conditions":[1.074985E-1,7.122023E-3,2.1733943E-2,3.0549085E-2,6.504387E-4,8.9985254E-4,2.7063292E-2,-2.9415044E-3,4.364165E-3,-6.7195756E-4,6.0646962E-3,-6.341151E-3,4.324896E-3,-1.4220184E-2,-1.0349058E-3],"split_indices":[7,12,11,17,22,22,17,0,0,0,0,0,0,0,0],"split_type":[0,0,0,0,0,0,0,0,0,0,0,0,0,0,0],"sum_hessian":[3.4928973E2,2.925457E2,5.674403E1,1.7294046E2,1.1960524E2,2.2874584E1,3.3869446E1,1.2454147E2,4.8398987E1,4.721464E1,7.2390594E1,1.1326477E1,1.1548106E1,2.5484962E1,8.384483E0],"tree_param":{"num_deleted":"0","num_feature":"23","num_nodes":"15","size_leaf_vector":"1"}},{"base_weights":[-5.7202824E-3,1.0695397E-1,-5.7414293E-1,-4.405657E-1,1.9224808E-1,-1.8226768E-1,-1.2960547E0,-7.4187354E-3,4.213767E-3,-2.7042003E-3,2.981596E-3,-7.7880654E-3,5.235941E-3,-1.826194E-2,-5.0093425E-3],"categories":[],"categories_nodes":[],"categories_segments":[],"categories_sizes":[],"default_left":[0,0,0,0,0,0,0,0,0,0,0,0,0,0,0],"id":8,"left_children":[1,3,5,7,9,11,13,-1,-1,-1,-1,-1,-1,-1,-1],"loss_changes":[2.2276665E1,1.3642817E1,1.6041355E1,1.0554287E1,1.2423585E1,1.660133E1,7.5497017E0,0E0,0E0,0E0,0E0,0E0,0E0,0E0,0E0],"parents":[2147483647,0,0,1,1,2,2,3,3,4,4,5,5,6,6],"right_children":[2,4,6,8,10,12,14,-1,-1,-1,-1,-1,-1,-1,-1],"split_conditions":[1.093605E-1,0E0,7.1815774E-2,2.13678E-2,-1.7848825E-2,9.5263275E-4,4.1949037E-3,-7.4187354E-3,4.213767E-3,-2.7042003E-3,2.981596E-3,-7.7880654E-3,5.235941E-3,-1.826194E-2,-5.0093425E-3],"split_indices":[7,22,6,2,12,22,22,0,0,0,0,0,0,0,0],"split_type":[0,0,0,0,0,0,0,0,0,0,0,0,0,0,0],"sum_hessian":[3.4586087E2,2.8932245E2,5.653843E1,3.843505E1,2.508874E2,3.7457733E1,1.9080694E1,2.8582731E1,9.85232E0,4.6444427E1,2.0444298E2,2.0244951E1,1.7212782E1,1.0669892E1,8.410803E0],"tree_param":{"num_deleted":"0","num_feature":"23","num_nodes":"15","size_leaf_vector":"1"}},{"base_weights":[3.0511828E-2,1.1433441E-1,-8.381505E-1,-3.629055E-1,1.9964519E-1,-1.3802837E0,1.6222844E-3,-6.214439E-3,1.6874E-3,6.8035875E-3,8.2968944E-4,-1.6289474E-2,-9.4989175E-3],"categories":[],"categories_nodes":[],"categories_segments":[],"categories_sizes":[],"default_left":[0,0,0,0,0,0,0,0,0,0,0,0,0],"id":9,"left_children":[1,3,5,7,9,11,-1,-1,-1,-1,-1,-1,-1],"loss_changes":[2.5170229E1,1.2894792E1,1.6724869E1,6.71836E0,1.4965208E1,5.757179E-1,0E0,0E0,0E0,0E0,0E0,0E0,0E0],"parents":[2147483647,0,0,1,1,2,2,3,3,4,4,5,5],"right_children":[2,4,6,8,10,12,-1,-1,-1,-1,-1,-1,-1],"split_conditions":[7.2573625E-2,0E0,5.200955E-3,2.13678E-2,1.6475642E-2,2.953919E-3,1.6222844E-3,-6.214439E-3,1.6874E-3,6.8035875E-3,8.2968944E-4,-1.6289474E-2,-9.4989175E-3],"split_indices":[6,22,22,2,17,22,0,0,0,0,0,0,0],"split_type":[0,0,0,0,0,0,0,0,0,0,0,0,0],"sum_hessian":[3.4336462E2,3.139391E2,2.9425537E1,4.7115383E1,2.668237E2,1.8837313E1,1.0588225E1,3.158617E1,1.5529215E1,5.1169773E1,2.1565392E2,1.0174233E1,8.66308E0],"tree_param":{"num_deleted":"0","num_feature":"23","num_nodes":"13","size_leaf_vector":"1"}},{"base_weights":[-1.8177289E-4,1.3967665E-1,-6.457073E-1,-4.5891267E-1,2.0307775E-1,-2.9600242E-1,-1.3291402E0,4.6646763E-3,-1.2169567E-2,-2.7948066E-3,3.0553495E-3,-8.585491E-3,4.4147433E-3,-1.8039735E-2,-5.527902E-3],"categories":[],"categories_nodes":[],"categories_segments":[],"categories_sizes":[],"default_left":[0,0,0,0,0,0,0,0,0,0,0,0,0,0,0],"id":10,"left_children":[1,3,5,7,9,11,13,-1,-1,-1,-1,-1,-1,-1,-1],"loss_changes":[3.0936234E1,1.0781882E1,1.4190325E1,1.9704485E1,1.2710896E1,1.765895E1,6.511181E0,0E0,0E0,0E0,0E0,0E0,0E0,0E0,0E0],"parents":[2147483647,0,0,1,1,2,2,3,3,4,4,5,5,6,6],"right_children":[2,4,6,8,10,12,14,-1,-1,-1,-1,-1,-1,-1,-1],"split_conditions":[1.074985E-1,9.584545E-3,7.2573625E-2,1.102017E-2,-1.7848825E-2,1.0851303E-3,3.9807395E-3,4.6646763E-3,-1.2169567E-2,-2.7948066E-3,3.0553495E-3,-8.585491E-3,4.4147433E-3,-1.8039735E-2,-5.527902E-3],"split_indices":[7,15,6,17,12,22,22,0,0,0,0,0,0,0,0],"split_type":[0,0,0,0,0,0,0,0,0,0,0,0,0,0,0],"sum_hessian":[3.406626E2,2.806427E2,6.001992E1,2.6280664E1,2.5436203E2,4.065191E1,1.9368011E1,1.2007358E1,1.4273307E1,4.4245316E1,2.1011671E2,2.2967865E1,1.7684044E1,1.1196387E1,8.171624E0],"tree_param":{"num_deleted":"0","num_feature":"23","num_nodes":"15","size_leaf_vector":"1"}},{"base_weights":[1.8391414E-2,2.5646904E-1,-1.7259684E-1,3.7325504E-1,-7.2715348E-3,-3.0364382E-1,5.475584E-1,-1.4109523E-3,5.4560676E-3,-1.7396957E-3,-1.0696588E-2,-2.3297097E-3,8.851306E-3],"categories":[],"categories_nodes":[],"categories_segments":[],"categories_sizes":[],"default_left":[0,0,0,0,0,0,0,0,0,0,0,0,0],"id":11,"left_children":[1,3,5,7,-1,9,11,-1,-1,-1,-1,-1,-1],"loss_changes":[1.5777979E1,1.8010891E1,1.8342491E1,1.237244E1,0E0,1.6063639E1,8.112891E0,0E0,0E0,0E0,0E0,0E0,0E0],"parents":[2147483647,0,0,1,1,2,2,3,3,5,5,6,6],"right_children":[2,4,6,8,-1,10,12,-1,-1,-1,-1,-1,-1],"split_conditions":[5.343561E-3,1.5081265E-3,3.0008566E-2,-6.9150976E-3,-7.2715348E-3,7.3739305E-2,1.5226893E-1,-1.4109523E-3,5.4560676E-3,-1.7396957E-3,-1.0696588E-2,-2.3297097E-3,8.851306E-3],"split_indices":[3,13,17,13,0,3,10,0,0,0,0,0,0],"split_type":[0,0,0,0,0,0,0,0,0,0,0,0,0],"sum_hessian":[3.4502383E2,1.5342638E2,1.9159747E2,1.3769795E2,1.572842E1,1.6258937E2,2.9008097E1,3.4605606E1,1.03092354E2,1.400998E2,2.2489574E1,8.851544E0,2.0156551E1],"tree_param":{"num_deleted":"0","num_feature":"23","num_nodes":"13","size_leaf_vector":"1"}},{"base_weights":[3.381233E-2,9.621039E-2,-9.098922E-1,-4.3923774E-1,1.9371352E-1,-2.16286E-3,-1.3352311E-2,-1.0894661E-2,-2.4356735E-3,7.279612E-4,5.3351223E-3],"categories":[],"categories_nodes":[],"categories_segments":[],"categories_sizes":[],"default_left":[0,0,0,0,0,0,0,0,0,0,0],"id":12,"left_children":[1,3,5,7,9,-1,-1,-1,-1,-1,-1],"loss_changes":[2.0434267E1,1.7052956E1,6.0615616E0,6.1434517E0,1.1286308E1,0E0,0E0,0E0,0E0,0E0,0E0],"parents":[2147483647,0,0,1,1,2,2,3,3,4,4],"right_children":[2,4,6,8,10,-1,-1,-1,-1,-1,-1],"split_conditions":[2.7926266E-2,0E0,-6.2402186E-4,7.383755E-3,2.9040515E-2,-2.16286E-3,-1.3352311E-2,-1.0894661E-2,-2.4356735E-3,7.279612E-4,5.3351223E-3],"split_indices":[12,22,13,12,17,0,0,0,0,0,0],"split_type":[0,0,0,0,0,0,0,0,0,0,0],"sum_hessian":[3.445313E2,3.2400595E2,2.0525333E1,4.937167E1,2.746343E2,8.37561E0,1.2149722E1,1.0363862E1,3.900781E1,2.034506E2,7.1183685E1],"tree_param":{"num_deleted":"0","num_feature":"23","num_nodes":"11","size_leaf_vector":"1"}},{"base_weights":[2.316799E-2,1.5773821E-1,-5.934437E-1,-4.9263322E-1,2.2272184E-1,-9.994633E-1,-7.734209E-2,4.4938168E-3,-1.1252635E-2,7.4579245E-3,1.1164503E-3,-2.7160828E-3,-1.5534215E-2,4.4989074E-3,-8.823424E-3],"categories":[],"categories_nodes":[],"categories_segments":[],"categories_sizes":[],"default_left":[0,0,0,0,0,0,0,0,0,0,0,0,0,0,0],"id":13,"left_children":[1,3,5,7,9,11,13,-1,-1,-1,-1,-1,-1,-1,-1],"loss_changes":[2.8968111E1,1.2215298E1,1.3029615E1,1.6197594E1,1.5086908E1,1.3659466E1,1.2545931E1,0E0,0E0,0E0,0E0,0E0,0E0,0E0,0E0],"parents":[2147483647,0,0,1,1,2,2,3,3,4,4,5,5,6,6],"right_children":[2,4,6,8,10,12,14,-1,-1,-1,-1,-1,-1,-1,-1],"split_conditions":[1.068116E-1,9.584545E-3,1.3932214E-3,1.1098701E-2,1.6475642E-2,1.9758131E-2,5.0973795E-2,4.4938168E-3,-1.1252635E-2,7.4579245E-3,1.1164503E-3,-2.7160828E-3,-1.5534215E-2,4.4989074E-3,-8.823424E-3],"split_indices":[7,15,22,17,17,12,3,0,0,0,0,0,0,0,0],"split_type":[0,0,0,0,0,0,0,0,0,0,0,0,0,0,0],"sum_hessian":[3.4697968E2,2.8543097E2,6.1548683E1,2.5331053E1,2.6009995E2,3.3923965E1,2.7624716E1,1.0293392E1,1.503766E1,4.4558025E1,2.155419E2,1.5304901E1,1.8619064E1,1.6958754E1,1.0665962E1],"tree_param":{"num_deleted":"0","num_feature":"23","num_nodes":"15","size_leaf_vector":"1"}},{"base_weights":[-1.1650025E-2,1.0256746E-1,-7.0757806E-1,-4.227897E-1,1.9416729E-1,5.6118228E-2,-1.1089797E0,-6.4734425E-3,4.5711687E-3,6.602285E-3,8.256892E-4,9.291043E-3,-7.7630226E-3,-1.5185647E-2,8.0665376E-4],"categories":[],"categories_nodes":[],"categories_segments":[],"categories_sizes":[],"default_left":[0,0,0,0,0,0,0,0,0,0,0,0,0,0,0],"id":14,"left_children":[1,3,5,7,9,11,13,-1,-1,-1,-1,-1,-1,-1,-1],"loss_changes":[2.7496637E1,1.438629E1,1.5011959E1,9.078015E0,1.3145945E1,1.36225195E1,1.5721863E1,0E0,0E0,0E0,0E0,0E0,0E0,0E0,0E0],"parents":[2147483647,0,0,1,1,2,2,3,3,4,4,5,5,6,6],"right_children":[2,4,6,8,10,12,14,-1,-1,-1,-1,-1,-1,-1,-1],"split_conditions":[1.18722804E-1,0E0,1.9758131E-2,2.4040299E-2,1.6637417E-2,2.0548312E-2,2.681157E-2,-6.4734425E-3,4.5711687E-3,6.602285E-3,8.256892E-4,9.291043E-3,-7.7630226E-3,-1.5185647E-2,8.0665376E-4],"split_indices":[7,22,12,2,17,18,17,0,0,0,0,0,0,0,0],"split_type":[0,0,0,0,0,0,0,0,0,0,0,0,0,0,0],"sum_hessian":[3.4401254E2,2.9624472E2,4.7767822E1,4.344675E1,2.5279799E2,1.6753412E1,3.1014408E1,3.48239E1,8.622852E0,4.788843E1,2.0490955E2,8.120762E0,8.63265E0,2.2865515E1,8.148893E0],"tree_param":{"num_deleted":"0","num_feature":"23","num_nodes":"15","size_leaf_vector":"1"}},{"base_weights":[1.8532978E-2,1.1848446E-1,-5.2387565E-1,-5.3012305E-1,1.9054244E-1,7.156731E-2,-8.841972E-1,6.38925E-3,-1.1137769E-2,-2.9993875E-4,4.419095E-3,7.016268E-3,-6.3744434E-3,-1.5525873E-2,-2.0975117E-3],"categories":[],"categories_nodes":[],"categories_segments":[],"categories_sizes":[],"default_left":[0,0,0,0,0,0,0,0,0,0,0,0,0,0,0],"id":15,"left_children":[1,3,5,7,9,11,13,-1,-1,-1,-1,-1,-1,-1,-1],"loss_changes":[1.8958973E1,1.3894963E1,1.1739182E1,2.1027447E1,1.4779235E1,1.0025556E1,1.4991728E1,0E0,0E0,0E0,0E0,0E0,0E0,0E0,0E0],"parents":[2147483647,0,0,1,1,2,2,3,3,4,4,5,5,6,6],"right_children":[2,4,6,8,10,12,14,-1,-1,-1,-1,-1,-1,-1,-1],"split_conditions":[1.093605E-1,9.584545E-3,1.9758131E-2,7.0547224E-3,3.755274E-3,2.0548312E-2,1.3932214E-3,6.38925E-3,-1.1137769E-2,-2.9993875E-4,4.419095E-3,7.016268E-3,-6.3744434E-3,-1.5525873E-2,-2.0975117E-3],"split_indices":[7,15,12,15,12,18,22,0,0,0,0,0,0,0,0],"split_type":[0,0,0,0,0,0,0,0,0,0,0,0,0,0,0],"sum_hessian":[3.4755783E2,2.9413763E2,5.342018E1,2.8774654E1,2.6536298E2,2.0441433E1,3.297875E1,9.550492E0,1.9224161E1,1.4181903E2,1.23543945E2,1.0828849E1,9.612584E0,1.5909793E1,1.7068956E1],"tree_param":{"num_deleted":"0","num_feature":"23","num_nodes":"15","size_leaf_vector":"1"}},{"base_weights":[-8.451814E-3,1.2489324E-1,-6.294109E-1,3.2642476E-2,5.281399E-1,-1.281644E-1,-1.0837666E0,-2.0923347E-3,2.941599E-3,-1.0685441E-3,7.944565E-3,4.2390106E-3,-4.8410776E-3,-1.4898066E-2,8.3824754E-4],"categories":[],"categories_nodes":[],"categories_segments":[],"categories_sizes":[],"default_left":[0,0,0,0,0,0,0,0,0,0,0,0,0,0,0],"id":16,"left_children":[1,3,5,7,9,11,13,-1,-1,-1,-1,-1,-1,-1,-1],"loss_changes":[2.8517159E1,1.0531597E1,1.3726362E1,1.4726742E1,9.001882E0,6.116223E0,1.5200909E1,0E0,0E0,0E0,0E0,0E0,0E0,0E0,0E0],"parents":[2147483647,0,0,1,1,2,2,3,3,4,4,5,5,6,6],"right_children":[2,4,6,8,10,12,14,-1,-1,-1,-1,-1,-1,-1,-1],"split_conditions":[1.074985E-1,3.1221312E-2,2.2946183E-2,6.7087677E-3,-6.2477853E-2,1.4227327E-3,2.7434906E-2,-2.0923347E-3,2.941599E-3,-1.0685441E-3,7.944565E-3,4.2390106E-3,-4.8410776E-3,-1.4898066E-2,8.3824754E-4],"split_indices":[7,17,11,12,8,0,17,0,0,0,0,0,0,0,0],"split_type":[0,0,0,0,0,0,0,0,0,0,0,0,0,0,0],"sum_hessian":[3.424532E2,2.8257236E2,5.988085E1,2.3084326E2,5.1729076E1,2.9080853E1,3.08E1,1.2002904E2,1.1081423E2,1.5461675E1,3.6267403E1,1.1324977E1,1.7755877E1,2.2647995E1,8.152003E0],"tree_param":{"num_deleted":"0","num_feature":"23","num_nodes":"15","size_leaf_vector":"1"}},{"base_weights":[-3.9243788E-2,9.790052E-2,-5.778177E-1,-1.4416435E-2,5.022391E-1,-3.1553686E-1,-1.2213496E0,1.7342016E-3,-5.9873727E-3,6.368505E-3,-3.204444E-3,8.199083E-4,-8.426666E-3,-1.741534E-2,-4.2468426E-3],"categories":[],"categories_nodes":[],"categories_segments":[],"categories_sizes":[],"default_left":[0,0,0,0,0,0,0,0,0,0,0,0,0,0,0],"id":17,"left_children":[1,3,5,7,9,11,13,-1,-1,-1,-1,-1,-1,-1,-1],"loss_changes":[2.5455576E1,1.249305E1,1.1419001E1,2.382629E1,6.8260546E0,1.07633705E1,7.5080795E0,0E0,0E0,0E0,0E0,0E0,0E0,0E0,0E0],"parents":[2147483647,0,0,1,1,2,2,3,3,4,4,5,5,6,6],"right_children":[2,4,6,8,10,12,14,-1,-1,-1,-1,-1,-1,-1,-1],"split_conditions":[1.0099075E-1,3.0120946E-2,7.1815774E-2,2.4159204E-2,3.1624578E-2,2.02707E-2,4.1949037E-3,1.7342016E-3,-5.9873727E-3,6.368505E-3,-3.204444E-3,8.199083E-4,-8.426666E-3,-1.741534E-2,-4.2468426E-3],"split_indices":[7,17,6,17,7,12,22,0,0,0,0,0,0,0,0],"split_type":[0,0,0,0,0,0,0,0,0,0,0,0,0,0,0],"sum_hessian":[3.428695E2,2.739326E2,6.893692E1,2.1513646E2,5.8796143E1,5.0034817E1,1.8902098E1,1.6333408E2,5.1802387E1,5.072256E1,8.073582E0,2.9005318E1,2.1029501E1,1.0717834E1,8.184264E0],"tree_param":{"num_deleted":"0","num_feature":"23","num_nodes":"15","size_leaf_vector":"1"}},{"base_weights":[2.0687267E-2,9.853104E-2,-7.125063E-1,-2.7115673E-1,1.6962093E-1,-1.440987E0,5.056257E-2,-4.8784707E-3,4.825185E-3,-2.1115786E-3,2.4713448E-3,-1.7233538E-2,-1.0030576E-2,5.4041985E-3,-4.568995E-3],"categories":[],"categories_nodes":[],"categories_segments":[],"categories_sizes":[],"default_left":[0,0,0,0,0,0,0,0,0,0,0,0,0,0,0],"id":18,"left_children":[1,3,5,7,9,11,13,-1,-1,-1,-1,-1,-1,-1,-1],"loss_changes":[2.0170988E1,8.436497E0,1.8930763E1,8.70749E0,7.9736876E0,4.2169952E-1,4.6058226E0,0E0,0E0,0E0,0E0,0E0,0E0,0E0,0E0],"parents":[2147483647,0,0,1,1,2,2,3,3,4,4,5,5,6,6],"right_children":[2,4,6,8,10,12,14,-1,-1,-1,-1,-1,-1,-1,-1],"split_conditions":[6.941756E-2,0E0,4.1949037E-3,1.461099E-2,-1.7848825E-2,1.19710915E-1,7.188121E-1,-4.8784707E-3,4.825185E-3,-2.1115786E-3,2.4713448E-3,-1.7233538E-2,-1.0030576E-2,5.4041985E-3,-4.568995E-3],"split_indices":[6,22,22,5,12,4,14,0,0,0,0,0,0,0,0],"split_type":[0,0,0,0,0,0,0,0,0,0,0,0,0,0,0],"sum_hessian":[3.5118475E2,3.1826038E2,3.2924355E1,5.087606E1,2.6738434E2,1.638942E1,1.6534937E1,3.978898E1,1.108708E1,4.4932602E1,2.2245172E2,8.179948E0,8.209471E0,8.380361E0,8.154576E0],"tree_param":{"num_deleted":"0","num_feature":"23","num_nodes":"15","size_leaf_vector":"1"}},{"base_weights":[-1.4851837E-2,8.061443E-2,-4.6841434E-1,-5.159749E-1,1.4777851E-1,2.1729326E-1,-8.7304133E-1,6.3211033E-3,-1.0955301E-2,-2.9792706E-4,4.8515946E-3,8.309607E-3,-5.666507E-3,-1.198833E-2,-8.897181E-4],"categories":[],"categories_nodes":[],"categories_segments":[],"categories_sizes":[],"default_left":[0,0,0,0,0,0,0,0,0,0,0,0,0,0,0],"id":19,"left_children":[1,3,5,7,9,11,13,-1,-1,-1,-1,-1,-1,-1,-1],"loss_changes":[1.5170319E1,1.16790085E1,1.709108E1,2.0336752E1,1.5653339E1,1.1731375E1,9.730169E0,0E0,0E0,0E0,0E0,0E0,0E0,0E0,0E0],"parents":[2147483647,0,0,1,1,2,2,3,3,4,4,5,5,6,6],"right_children":[2,4,6,8,10,12,14,-1,-1,-1,-1,-1,-1,-1,-1],"split_conditions":[1.093605E-1,9.584545E-3,1.9758131E-2,7.0547224E-3,8.228984E-3,2.1607194E-2,2.1408968E-2,6.3211033E-3,-1.0955301E-2,-2.9792706E-4,4.8515946E-3,8.309607E-3,-5.666507E-3,-1.198833E-2,-8.897181E-4],"split_indices":[7,15,12,15,12,18,15,0,0,0,0,0,0,0,0],"split_type":[0,0,0,0,0,0,0,0,0,0,0,0,0,0,0],"sum_hessian":[3.4848233E2,2.885668E2,5.9915546E1,2.8523415E1,2.6004337E2,2.2406683E1,3.7508865E1,9.538061E0,1.8985353E1,1.709698E2,8.907358E1,1.2534648E1,9.872035E0,2.6124704E1,1.138416E1],"tree_param":{"num_deleted":"0","num_feature":"23","num_nodes":"15","size_leaf_vector":"1"}},{"base_weights":[-5.1416755E-2,-6.076212E-1,5.466323E-2,-3.2542476E-1,-1.0916327E0,1.4543256E-1,-5.1250184E-1,-1.24833835E-2,3.333554E-4,-1.4667748E-2,-5.501494E-3,3.347359E-3,-1.0835539E-3,-9.255113E-3,2.44129E-3],"categories":[],"categories_nodes":[],"categories_segments":[],"categories_sizes":[],"default_left":[0,0,0,0,0,0,0,0,0,0,0,0,0,0,0],"id":20,"left_children":[1,3,5,7,9,11,13,-1,-1,-1,-1,-1,-1,-1,-1],"loss_changes":[2.077128E1,7.345503E0,1.5318103E1,1.2305689E1,3.3248234E0,1.2336624E1,1.3060541E1,0E0,0E0,0E0,0E0,0E0,0E0,0E0,0E0],"parents":[2147483647,0,0,1,1,2,2,3,3,4,4,5,5,6,6],"right_children":[2,4,6,8,10,12,14,-1,-1,-1,-1,-1,-1,-1,-1],"split_conditions":[0E0,3.1753957E-2,2.277665E-2,7.383755E-3,7.0449203E-1,2.3325592E-2,4.8619034E-3,-1.24833835E-2,3.333554E-4,-1.4667748E-2,-5.501494E-3,3.347359E-3,-1.0835539E-3,-9.255113E-3,2.44129E-3],"split_indices":[22,8,11,12,14,18,22,0,0,0,0,0,0,0,0],"split_type":[0,0,0,0,0,0,0,0,0,0,0,0,0,0,0],"sum_hessian":[3.5047983E2,5.5380066E1,2.9509976E2,3.603986E1,1.9340204E1,2.5502847E2,4.007128E1,9.394038E0,2.6645823E1,1.0415495E1,8.924709E0,1.4588913E2,1.0913934E2,2.5777401E1,1.429388E1],"tree_param":{"num_deleted":"0","num_feature":"23","num_nodes":"15","size_leaf_vector":"1"}},{"base_weights":[-2.2352724E-3,9.315839E-2,-5.832719E-1,-3.6336276E-1,1.707571E-1,2.2909692E-3,-9.2049944E-1,3.4809476E-3,-8.3253225E-3,-3.1746356E-3,2.7063552E-3,-1.4137962E-2,6.3110166E-3],"categories":[],"categories_nodes":[],"categories_segments":[],"categories_sizes":[],"default_left":[0,0,0,0,0,0,0,0,0,0,0,0,0],"id":21,"left_children":[1,3,5,7,9,-1,11,-1,-1,-1,-1,-1,-1],"loss_changes":[1.9395565E1,1.0710939E1,1.3729977E1,1.4974031E1,1.2647589E1,0E0,2.7735933E1,0E0,0E0,0E0,0E0,0E0,0E0],"parents":[2147483647,0,0,1,1,2,2,3,3,4,4,6,6],"right_children":[2,4,6,8,10,-1,12,-1,-1,-1,-1,-1,-1],"split_conditions":[1.1811036E-1,-1.8558016E-2,2.0683156E-2,-2.7859267E-2,0E0,2.2909692E-3,2.7544854E-2,3.4809476E-3,-8.3253225E-3,-3.1746356E-3,2.7063552E-3,-1.4137962E-2,6.3110166E-3],"split_indices":[7,12,11,12,22,0,17,0,0,0,0,0,0],"split_type":[0,0,0,0,0,0,0,0,0,0,0,0,0],"sum_hessian":[3.4794824E2,2.9960007E2,4.8348186E1,4.299188E1,2.566082E2,1.4276725E1,3.407146E1,1.7187098E1,2.580478E1,4.321046E1,2.1339772E2,2.5919693E1,8.151769E0],"tree_param":{"num_deleted":"0","num_feature":"23","num_nodes":"13","size_leaf_vector":"1"}},{"base_weights":[1.8054822E-2,2.6397714E-1,-1.926885E-1,6.978114E-2,5.723407E-1,-9.1461E-2,-1.2219485E-2,-2.0694397E-3,4.2084446E-3,-8.7891845E-4,8.08776E-3,-4.791861E-3,1.4345418E-3],"categories":[],"categories_nodes":[],"categories_segments":[],"categories_sizes":[],"default_left":[0,0,0,0,0,0,0,0,0,0,0,0,0],"id":22,"left_children":[1,3,5,7,9,11,-1,-1,-1,-1,-1,-1,-1],"loss_changes":[1.7977316E1,9.5440855E0,1.9355795E1,9.737855E0,9.703388E0,1.5661856E1,0E0,0E0,0E0,0E0,0E0,0E0,0E0],"parents":[2147483647,0,0,1,1,2,2,3,3,4,4,5,5],"right_children":[2,4,6,8,10,12,-1,-1,-1,-1,-1,-1,-1],"split_conditions":[1.4797616E-1,3.755274E-3,2.7926266E-2,2.8743776E-2,1.27150845E-2,6.9522014E-4,-1.2219485E-2,-2.0694397E-3,4.2084446E-3,-8.7891845E-4,8.08776E-3,-4.791861E-3,1.4345418E-3],"split_indices":[9,12,12,17,15,22,0,0,0,0,0,0,0],"split_type":[0,0,0,0,0,0,0,0,0,0,0,0,0],"sum_hessian":[3.4489362E2,1.5904588E2,1.8584773E2,9.834079E1,6.0705097E1,1.7019768E2,1.5650043E1,5.522237E1,4.3118423E1,1.6172508E1,4.4532593E1,6.3821354E1,1.0637633E2],"tree_param":{"num_deleted":"0","num_feature":"23","num_nodes":"13","size_leaf_vector":"1"}},{"base_weights":[4.668163E-3,9.615466E-2,-8.070853E-1,-5.8234954E-1,1.6728055E-1,-1.3605587E0,-1.5735278E-1,1.1091633E-3,-1.2422753E-2,7.2778356E-3,4.8881193E-4,-8.9417845E-3,-1.6430318E-2,3.9472613E-3,-6.7514423E-3],"categories":[],"categories_nodes":[],"categories_segments":[],"categories_sizes":[],"default_left":[0,0,0,0,0,0,0,0,0,0,0,0,0,0,0],"id":23,"left_children":[1,3,5,7,9,11,13,-1,-1,-1,-1,-1,-1,-1,-1],"loss_changes":[2.6183666E1,1.5386731E1,1.2628187E1,1.3992435E1,1.9046059E1,1.0541267E0,5.2856936E0,0E0,0E0,0E0,0E0,0E0,0E0,0E0,0E0],"parents":[2147483647,0,0,1,1,2,2,3,3,4,4,5,5,6,6],"right_children":[2,4,6,8,10,12,14,-1,-1,-1,-1,-1,-1,-1,-1],"split_conditions":[6.941756E-2,9.584545E-3,4.044323E-3,1.1218751E-2,1.6475642E-2,1.2740435E-1,8.595808E-2,1.1091633E-3,-1.2422753E-2,7.2778356E-3,4.8881193E-4,-8.9417845E-3,-1.6430318E-2,3.9472613E-3,-6.7514423E-3],"split_indices":[6,15,22,17,17,7,3,0,0,0,0,0,0,0,0],"split_type":[0,0,0,0,0,0,0,0,0,0,0,0,0,0,0],"sum_hessian":[3.505282E2,3.158165E2,3.4711704E1,2.928312E1,2.865334E2,1.8153582E1,1.6558125E1,1.4686532E1,1.4596586E1,4.907331E1,2.3746007E2,8.41894E0,9.734642E0,8.128761E0,8.429363E0],"tree_param":{"num_deleted":"0","num_feature":"23","num_nodes":"15","size_leaf_vector":"1"}},{"base_weights":[-2.9037517E-2,7.764732E-2,-5.7226247E-1,2.3691623E-2,6.978944E-1,-8.196206E-2,-8.6956084E-1,2.2510581E-3,-1.0991308E-3,1.0866548E-2,1.6231103E-3,5.438756E-3,-4.960404E-3,-1.2324941E-2,3.2168876E-3],"categories":[],"categories_nodes":[],"categories_segments":[],"categories_sizes":[],"default_left":[0,0,0,0,0,0,0,0,0,0,0,0,0,0,0],"id":24,"left_children":[1,3,5,7,9,11,13,-1,-1,-1,-1,-1,-1,-1,-1],"loss_changes":[2.0386204E1,9.8312025E0,8.344814E0,7.3374443E0,4.7196274E0,6.2037997E0,1.5891172E1,0E0,0E0,0E0,0E0,0E0,0E0,0E0,0E0],"parents":[2147483647,0,0,1,1,2,2,3,3,4,4,5,5,6,6],"right_children":[2,4,6,8,10,12,14,-1,-1,-1,-1,-1,-1,-1,-1],"split_conditions":[1.093605E-1,4.8894115E-2,2.1733943E-2,-1.8090372E-3,7.689473E-3,1.8296793E-2,2.7263293E-2,2.2510581E-3,-1.0991308E-3,1.0866548E-2,1.6231103E-3,5.438756E-3,-4.960404E-3,-1.2324941E-2,3.2168876E-3],"split_indices":[7,8,11,13,13,17,17,0,0,0,0,0,0,0,0],"split_type":[0,0,0,0,0,0,0,0,0,0,0,0,0,0,0],"sum_hessian":[3.4999933E2,2.9326215E2,5.6737167E1,2.707478E2,2.2514332E1,2.1898367E1,3.4838802E1,1.0770044E2,1.6304738E2,1.2449081E1,1.0065251E1,8.594772E0,1.3303595E1,2.6676697E1,8.162106E0],"tree_param":{"num_deleted":"0","num_feature":"23","num_nodes":"15","size_leaf_vector":"1"}},{"base_weights":[1.7103754E-3,-5.295154E-1,9.4491445E-2,-2.9284E-1,-1.434883E-2,5.304504E-1,-1.2946399E-3,-7.133023E-3,3.4930506E-3,1.1382824E-2,-5.396523E-4,-1.5592289E-3,4.012063E-3],"categories":[],"categories_nodes":[],"categories_segments":[],"categories_sizes":[],"default_left":[0,0,0,0,0,0,0,0,0,0,0,0,0],"id":25,"left_children":[1,3,5,7,-1,9,11,-1,-1,-1,-1,-1,-1],"loss_changes":[1.755199E1,1.09257345E1,1.26598015E1,1.1921907E1,0E0,1.9460415E1,1.5593322E1,0E0,0E0,0E0,0E0,0E0,0E0],"parents":[2147483647,0,0,1,1,2,2,3,3,5,5,6,6],"right_children":[2,4,6,8,-1,10,12,-1,-1,-1,-1,-1,-1],"split_conditions":[0E0,1.822442E-2,1.6475642E-2,8.782927E-2,-1.434883E-2,5.801657E-2,3.0120946E-2,-7.133023E-3,3.4930506E-3,1.1382824E-2,-5.396523E-4,-1.5592289E-3,4.012063E-3],"split_indices":[22,12,17,7,0,7,17,0,0,0,0,0,0],"split_type":[0,0,0,0,0,0,0,0,0,0,0,0,0],"sum_hessian":[3.540979E2,5.1949512E1,3.021484E2,4.223275E1,9.716763E0,5.361018E1,2.4853822E2,2.545474E1,1.677801E1,2.5814066E1,2.7796112E1,1.8000035E2,6.853788E1],"tree_param":{"num_deleted":"0","num_feature":"23","num_nodes":"13","size_leaf_vector":"1"}},{"base_weights":[-4.784611E-3,6.59326E-2,-7.458114E-1,-4.1785908E-1,1.6223602E-1,-1.1352984E0,1.884137E-4,4.0121297E-3,-5.7746265E-3,-2.870115E-3,2.5433418E-3,-6.910531E-3,-1.450284E-2],"categories":[],"categories_nodes":[],"categories_segments":[],"categories_sizes":[],"default_left":[0,0,0,0,0,0,0,0,0,0,0,0,0],"id":26,"left_children":[1,3,5,7,9,11,-1,-1,-1,-1,-1,-1,-1],"loss_changes":[1.8042719E1,1.4714623E1,8.954416E0,7.090863E0,1.0950546E1,1.7808037E0,0E0,0E0,0E0,0E0,0E0,0E0,0E0],"parents":[2147483647,0,0,1,1,2,2,3,3,4,4,5,5],"right_children":[2,4,6,8,10,12,-1,-1,-1,-1,-1,-1,-1],"split_conditions":[7.2573625E-2,0E0,5.1718466E-3,-2.1185738E-3,-1.7848825E-2,2.0683022E-2,1.884137E-4,4.0121297E-3,-5.7746265E-3,-2.870115E-3,2.5433418E-3,-6.910531E-3,-1.450284E-2],"split_indices":[6,22,22,6,12,12,0,0,0,0,0,0,0],"split_type":[0,0,0,0,0,0,0,0,0,0,0,0,0],"sum_hessian":[3.4236633E2,3.1337183E2,2.8994482E1,5.1469532E1,2.619023E2,1.8888584E1,1.0105898E1,8.146841E0,4.3322693E1,4.4196915E1,2.1770538E2,9.16147E0,9.727115E0],"tree_param":{"num_deleted":"0","num_feature":"23","num_nodes":"13","size_leaf_vector":"1"}},{"base_weights":[1.715556E-3,1.3078311E-1,-5.003858E-1,6.5682255E-2,7.2055554E-1,2.4983642E-1,-7.586198E-1,3.0634378E-3,-1.013417E-3,1.002563E-2,1.8921112E-4,6.8150344E-3,-1.7485457E-3,-1.2416171E-2,-3.3684294E-3],"categories":[],"categories_nodes":[],"categories_segments":[],"categories_sizes":[],"default_left":[0,0,0,0,0,0,0,0,0,0,0,0,0,0,0],"id":27,"left_children":[1,3,5,7,9,11,13,-1,-1,-1,-1,-1,-1,-1,-1],"loss_changes":[2.3124311E1,1.0851032E1,1.4325947E1,1.0350766E1,5.544483E0,3.6824942E0,1.0690739E1,0E0,0E0,0E0,0E0,0E0,0E0,0E0,0E0],"parents":[2147483647,0,0,1,1,2,2,3,3,4,4,5,5,6,6],"right_children":[2,4,6,8,10,12,14,-1,-1,-1,-1,-1,-1,-1,-1],"split_conditions":[1.0099075E-1,4.270621E-2,5.984436E-1,-1.7251649E-3,7.3086336E-2,2.3094E-2,6.990962E-1,3.0634378E-3,-1.013417E-3,1.002563E-2,1.8921112E-4,6.8150344E-3,-1.7485457E-3,-1.2416171E-2,-3.3684294E-3],"split_indices":[7,8,14,13,7,17,14,0,0,0,0,0,0,0,0],"split_type":[0,0,0,0,0,0,0,0,0,0,0,0,0,0,0],"sum_hessian":[3.548193E2,2.828507E2,7.19686E1,2.5573344E2,2.711726E1,1.8437222E1,5.3531372E1,1.0442925E2,1.513042E2,1.9036882E1,8.080379E0,8.843625E0,9.593596E0,2.404849E1,2.9482882E1],"tree_param":{"num_deleted":"0","num_feature":"23","num_nodes":"15","size_leaf_vector":"1"}},{"base_weights":[-2.0805243E-2,2.1420169E-1,-2.3830967E-1,-1.0586204E-2,5.5451113E-1,-6.209998E-1,-9.800018E-3,-1.2041508E-3,6.0667377E-3,8.404614E-3,1.4938317E-3,-3.856353E-3,-1.5095763E-2,2.151395E-3,-4.311204E-3],"categories":[],"categories_nodes":[],"categories_segments":[],"categories_sizes":[],"default_left":[0,0,0,0,0,0,0,0,0,0,0,0,0,0,0],"id":28,"left_children":[1,3,5,7,9,11,13,-1,-1,-1,-1,-1,-1,-1,-1],"loss_changes":[1.769776E1,1.2740215E1,1.5714296E1,6.935761E0,7.547802E0,1.347072E1,1.0856319E1,0E0,0E0,0E0,0E0,0E0,0E0,0E0,0E0],"parents":[2147483647,0,0,1,1,2,2,3,3,4,4,5,5,6,6],"right_children":[2,4,6,8,10,12,14,-1,-1,-1,-1,-1,-1,-1,-1],"split_conditions":[1.88354E-1,3.4691999E-3,6.9522014E-4,4.9797574E-1,3.9972273E-1,1.9758131E-2,2.4584018E-2,-1.2041508E-3,6.0667377E-3,8.404614E-3,1.4938317E-3,-3.856353E-3,-1.5095763E-2,2.151395E-3,-4.311204E-3],"split_indices":[9,12,22,14,19,12,1,0,0,0,0,0,0,0,0],"split_type":[0,0,0,0,0,0,0,0,0,0,0,0,0,0,0],"sum_hessian":[3.4423517E2,1.654676E2,1.7876755E2,1.0023036E2,6.523724E1,6.619377E1,1.1257378E2,8.577361E1,1.4456753E1,3.7613823E1,2.7623415E1,5.346583E1,1.2727939E1,7.3709984E1,3.8863796E1],"tree_param":{"num_deleted":"0","num_feature":"23","num_nodes":"15","size_leaf_vector":"1"}},{"base_weights":[1.5128403E-3,1.07028864E-1,-5.327022E-1,5.1740956E-2,7.6590246E-1,-2.099288E-1,-1.1784482E0,3.0330652E-3,-1.2741403E-3,1.0444715E-2,2.4067732E-3,2.4763204E-3,-6.7568175E-3,-1.6738847E-2,-4.736422E-3],"categories":[],"categories_nodes":[],"categories_segments":[],"categories_sizes":[],"default_left":[0,0,0,0,0,0,0,0,0,0,0,0,0,0,0],"id":29,"left_children":[1,3,5,7,9,11,13,-1,-1,-1,-1,-1,-1,-1,-1],"loss_changes":[1.9648363E1,1.0563278E1,1.1735897E1,1.2189574E1,3.0349102E0,8.595723E0,5.8220654E0,0E0,0E0,0E0,0E0,0E0,0E0,0E0,0E0],"parents":[2147483647,0,0,1,1,2,2,3,3,4,4,5,5,6,6],"right_children":[2,4,6,8,10,12,14,-1,-1,-1,-1,-1,-1,-1,-1],"split_conditions":[1.074985E-1,4.7882687E-2,7.2573625E-2,-1.7251649E-3,7.689473E-3,1.9758131E-2,3.9807395E-3,3.0330652E-3,-1.2741403E-3,1.0444715E-2,2.4067732E-3,2.4763204E-3,-6.7568175E-3,-1.6738847E-2,-4.736422E-3],"split_indices":[7,8,6,13,13,12,22,0,0,0,0,0,0,0,0],"split_type":[0,0,0,0,0,0,0,0,0,0,0,0,0,0,0],"sum_hessian":[3.4656003E2,2.9006683E2,5.649319E1,2.686059E2,2.1460936E1,3.8549484E1,1.7943703E1,1.1143637E2,1.5716953E2,1.3377276E1,8.083659E0,1.9681995E1,1.886749E1,9.729493E0,8.2142105E0],"tree_param":{"num_deleted":"0","num_feature":"23","num_nodes":"15","size_leaf_vector":"1"}},{"base_weights":[8.301294E-3,8.7184444E-2,-8.4292734E-1,-1.1085916E-2,4.4437268E-1,-1.34739075E-2,-2.4467586E-3,2.4713532E-3,-2.2148248E-3,1.8836362E-3,9.05029E-3],"categories":[],"categories_nodes":[],"categories_segments":[],"categories_sizes":[],"default_left":[0,0,0,0,0,0,0,0,0,0,0],"id":30,"left_children":[1,3,5,7,9,-1,-1,-1,-1,-1,-1],"loss_changes":[2.3562035E1,1.1273892E1,8.652021E0,1.3786394E1,8.001426E0,0E0,0E0,0E0,0E0,0E0,0E0],"parents":[2147483647,0,0,1,1,2,2,3,3,4,4],"right_children":[2,4,6,8,10,-1,-1,-1,-1,-1,-1],"split_conditions":[7.2573625E-2,1.4744312E-1,2.6300449E-2,4.9318536E-3,3.0661453E-3,-1.34739075E-2,-2.4467586E-3,2.4713532E-3,-2.2148248E-3,1.8836362E-3,9.05029E-3],"split_indices":[6,10,17,3,13,0,0,0,0,0,0],"split_type":[0,0,0,0,0,0,0,0,0,0,0],"sum_hessian":[3.4880472E2,3.200439E2,2.876081E1,2.517507E2,6.8293205E1,1.4924128E1,1.3836683E1,1.12950775E2,1.3879993E2,4.4802937E1,2.3490263E1],"tree_param":{"num_deleted":"0","num_feature":"23","num_nodes":"11","size_leaf_vector":"1"}},{"base_weights":[-1.0949083E-2,9.0456225E-2,-6.5174234E-1,2.8052544E-2,7.4346435E-1,-9.272247E-3,-1.016021E0,2.5516786E-3,-1.3095122E-3,9.660116E-3,2.6442313E-3,5.354022E-3,-6.2156236E-3,-1.4162741E-2,-6.4884033E-4],"categories":[],"categories_nodes":[],"categories_segments":[],"categories_sizes":[],"default_left":[0,0,0,0,0,0,0,0,0,0,0,0,0,0,0],"id":31,"left_children":[1,3,5,7,9,11,13,-1,-1,-1,-1,-1,-1,-1,-1],"loss_changes":[2.3008512E1,1.2440669E1,1.1312458E1,1.0150901E1,2.584136E0,6.507015E0,1.16574E1,0E0,0E0,0E0,0E0,0E0,0E0,0E0,0E0],"parents":[2147483647,0,0,1,1,2,2,3,3,4,4,5,5,6,6],"right_children":[2,4,6,8,10,12,14,-1,-1,-1,-1,-1,-1,-1,-1],"split_conditions":[1.18722804E-1,4.8894115E-2,5.3172305E-2,8.190124E-1,6.827574E-2,1.822442E-2,3.9807395E-3,2.5516786E-3,-1.3095122E-3,9.660116E-3,2.6442313E-3,5.354022E-3,-6.2156236E-3,-1.4162741E-2,-6.4884033E-4],"split_indices":[7,8,6,16,8,12,22,0,0,0,0,0,0,0,0],"split_type":[0,0,0,0,0,0,0,0,0,0,0,0,0,0,0],"sum_hessian":[3.5217966E2,3.0480344E2,4.73762E1,2.7916815E2,2.56353E1,1.7513496E1,2.9862705E1,1.1471234E2,1.6445581E2,1.680956E1,8.82574E0,9.3349695E0,8.178528E0,2.0673815E1,9.18889E0],"tree_param":{"num_deleted":"0","num_feature":"23","num_nodes":"15","size_leaf_vector":"1"}}]},"name":"gbtree"},"learner_model_param":{"base_score":"5.641246E-1","boost_from_average":"1","num_class":"0","num_feature":"23","num_target":"1"},"objective":{"name":"binary:logistic","reg_loss_param":{"scale_pos_weight":"1"}}},"version":[2,1,4]}