{"learner":{"attributes":{"best_iteration":"3","best_score":"0.6892734325232626","scikit_learn":"{\"_estimator_type\": \"classifier\"}"},"feature_names":[],"feature_types":[],"gradient_booster":{"model":{"gbtree_model_param":{"num_parallel_tree":"1","num_trees":"34"},"iteration_indptr":[0,1,2,3,4,5,6,7,8,9,10,11,12,13,14,15,16,17,18,19,20,21,22,23,24,25,26,27,28,29,30,31,32,33,34],"tree_info":[0,0,0,0,0,0,0,0,0,0,0,0,0,0,0,0,0,0,0,0,0,0,0,0,0,0,0,0,0,0,0,0,0,0],"trees":[{"base_weights":[4.204597E-2,-3.144427E-1,6.658548E-1,-4.7601825E-1,2.6618958E-1,3.5821846E-1,1.010472E0,-5.624929E-3,2.7583074E-3,9.25767E-3,-9.438924E-4,3.1150132E-4,8.852909E-3,1.1289279E-2,2.7699003E-3],"categories":[],"categories_nodes":[],"categories_segments":[],"categories_sizes":[],"default_left":[0,0,0,0,0,0,0,0,0,0,0,0,0,0,0],"id":0,"left_children":[1,3,5,7,9,11,13,-1,-1,-1,-1,-1,-1,-1,-1],"loss_changes":[7.709977E1,2.0832119E1,1.3002258E1,1.1403881E1,1.16666765E1,1.1720988E1,4.8053703E0,0E0,0E0,0E0,0E0,0E0,0E0,0E0,0E0],"parents":[2147483647,0,0,1,1,2,2,3,3,4,4,5,5,6,6],"right_children":[2,4,6,8,10,12,14,-1,-1,-1,-1,-1,-1,-1,-1],"split_conditions":[1.7403465E-3,2.123416E-2,2.8407702E-3,6.490258E-3,2.5003595E-2,3.1188902E-2,6.6438556E-2,-5.624929E-3,2.7583074E-3,9.25767E-3,-9.438924E-4,3.1150132E-4,8.852909E-3,1.1289279E-2,2.7699003E-3],"split_indices":[22,11,22,13,12,8,21,0,0,0,0,0,0,0,0],"split_type":[0,0,0,0,0,0,0,0,0,0,0,0,0,0,0],"sum_hessian":[3.4476007E2,2.1970244E2,1.2505764E2,1.7201509E2,4.768735E1,6.715157E1,5.7906067E1,1.5449728E2,1.7517801E1,1.6301289E1,3.1386063E1,4.2091385E1,2.5060188E1,4.939047E1,8.515598E0],"tree_param":{"num_deleted":"0","num_feature":"23","num_nodes":"15","size_leaf_vector":"1"}},{"base_weights":[2.7744532E-2,-4.7809902E-1,2.4180292E-1,4.5181043E-3,-6.094816E-1,1.862591E-1,1.0303788E-2,4.559196E-3,-7.2349138E-3,2.2615418E-3,-7.962182E-3],"categories":[],"categories_nodes":[],"categories_segments":[],"categories_sizes":[],"default_left":[0,0,0,0,0,0,0,0,0,0,0],"id":1,"left_children":[1,3,5,-1,7,9,-1,-1,-1,-1,-1],"loss_changes":[3.7051304E1,1.2708231E1,1.0335494E1,0E0,1.1212189E1,9.028746E0,0E0,0E0,0E0,0E0,0E0],"parents":[2147483647,0,0,1,1,2,2,4,4,5,5],"right_children":[2,4,6,-1,8,10,-1,-1,-1,-1,-1],"split_conditions":[-1.2769782E-2,2.4297331E-1,2.7908953E-2,4.5181043E-3,6.9783163E-1,2.4624279E-2,1.0303788E-2,4.559196E-3,-7.2349138E-3,2.2615418E-3,-7.962182E-3],"split_indices":[3,14,15,0,16,15,0,0,0,0,0],"split_type":[0,0,0,0,0,0,0,0,0,0,0],"sum_hessian":[3.4011264E2,1.0076362E2,2.3934903E2,1.2172103E1,8.8591515E1,2.2475452E2,1.4594522E1,8.2739525E0,8.0317566E1,2.1672389E2,8.030613E0],"tree_param":{"num_deleted":"0","num_feature":"23","num_nodes":"11","size_leaf_vector":"1"}},{"base_weights":[6.553729E-2,-3.0088237E-1,6.9513595E-1,-5.1720536E-1,2.1694188E-1,4.0953374E-1,1.0045404E0,-8.522751E-3,-2.4225046E-3,5.803986E-3,-3.2260215E-3,2.2742937E-3,8.2238205E-3,1.16514005E-2,1.5228133E-4],"categories":[],"categories_nodes":[],"categories_segments":[],"categories_sizes":[],"default_left":[0,0,0,0,0,0,0,0,0,0,0,0,0,0,0],"id":2,"left_children":[1,3,5,7,9,11,13,-1,-1,-1,-1,-1,-1,-1,-1],"loss_changes":[7.805745E1,2.4084341E1,1.0585285E1,1.3727253E1,1.2691152E1,4.804963E0,9.363441E0,0E0,0E0,0E0,0E0,0E0,0E0,0E0,0E0],"parents":[2147483647,0,0,1,1,2,2,3,3,4,4,5,5,6,6],"right_children":[2,4,6,8,10,12,14,-1,-1,-1,-1,-1,-1,-1,-1],"split_conditions":[1.7403465E-3,1.7820325E-2,2.8407702E-3,-8.265462E-3,1.716996E-2,8.86991E-2,4.938121E-2,-8.522751E-3,-2.4225046E-3,5.803986E-3,-3.2260215E-3,2.2742937E-3,8.2238205E-3,1.16514005E-2,1.5228133E-4],"split_indices":[22,12,22,3,17,7,20,0,0,0,0,0,0,0,0],"split_type":[0,0,0,0,0,0,0,0,0,0,0,0,0,0,0],"sum_hessian":[3.3644775E2,2.1300389E2,1.2344387E2,1.5024124E2,6.2762646E1,6.539931E1,5.8044567E1,6.6771484E1,8.346976E1,3.7455513E1,2.5307133E1,4.645793E1,1.8941378E1,4.978501E1,8.259557E0],"tree_param":{"num_deleted":"0","num_feature":"23","num_nodes":"15","size_leaf_vector":"1"}},{"base_weights":[-1.7645959E-2,-3.9000973E-1,6.207423E-1,-5.455802E-1,1.7531684E-1,3.6027297E-1,9.1510653E-1,-6.744074E-3,-8.324287E-4,5.523929E-3,-4.2780084E-3,-2.6291497E-3,5.763299E-3,1.4384718E-2,7.3539303E-3],"categories":[],"categories_nodes":[],"categories_segments":[],"categories_sizes":[],"default_left":[0,0,0,0,0,0,0,0,0,0,0,0,0,0,0],"id":3,"left_children":[1,3,5,7,9,11,13,-1,-1,-1,-1,-1,-1,-1,-1],"loss_changes":[8.224163E1,1.9311E1,9.443592E0,1.01633835E1,1.1131192E1,9.479185E0,4.509392E0,0E0,0E0,0E0,0E0,0E0,0E0,0E0,0E0],"parents":[2147483647,0,0,1,1,2,2,3,3,4,4,5,5,6,6],"right_children":[2,4,6,8,10,12,14,-1,-1,-1,-1,-1,-1,-1,-1],"split_conditions":[1.7403465E-3,2.123416E-2,2.8407702E-3,1.2651058E-3,3.0232655E-2,3.6092457E-1,6.359379E-2,-6.744074E-3,-8.324287E-4,5.523929E-3,-4.2780084E-3,-2.6291497E-3,5.763299E-3,1.4384718E-2,7.3539303E-3],"split_indices":[22,11,22,22,11,19,10,0,0,0,0,0,0,0,0],"split_type":[0,0,0,0,0,0,0,0,0,0,0,0,0,0,0],"sum_hessian":[3.439523E2,2.1748509E2,1.2646722E2,1.7057893E2,4.6906155E1,6.827643E1,5.8190784E1,1.3304745E2,3.753147E1,2.891332E1,1.7992834E1,1.752139E1,5.075504E1,1.3083752E1,4.5107033E1],"tree_param":{"num_deleted":"0","num_feature":"23","num_nodes":"15","size_leaf_vector":"1"}},{"base_weights":[1.8163959E-2,-3.2631168E-1,6.182495E-1,-5.1379997E-1,1.6842608E-1,2.7498E-1,9.6191823E-1,-7.892319E-3,-3.3584635E-3,-1.3461767E-3,4.241584E-3,-1.7409509E-3,6.405499E-3,1.1239823E-2,-5.333393E-4],"categories":[],"categories_nodes":[],"categories_segments":[],"categories_sizes":[],"default_left":[0,0,0,0,0,0,0,0,0,0,0,0,0,0,0],"id":4,"left_children":[1,3,5,7,9,11,13,-1,-1,-1,-1,-1,-1,-1,-1],"loss_changes":[7.080607E1,2.027485E1,1.4471031E1,7.483078E0,4.7508693E0,1.0600346E1,1.0264046E1,0E0,0E0,0E0,0E0,0E0,0E0,0E0,0E0],"parents":[2147483647,0,0,1,1,2,2,3,3,4,4,5,5,6,6],"right_children":[2,4,6,8,10,12,14,-1,-1,-1,-1,-1,-1,-1,-1],"split_conditions":[1.7403465E-3,3.8791005E-2,2.7524228E-3,4.325706E-1,6.76161E-4,5.425855E-1,4.938121E-2,-7.892319E-3,-3.3584635E-3,-1.3461767E-3,4.241584E-3,-1.7409509E-3,6.405499E-3,1.1239823E-2,-5.333393E-4],"split_indices":[22,8,22,14,22,14,2,0,0,0,0,0,0,0,0],"split_type":[0,0,0,0,0,0,0,0,0,0,0,0,0,0,0],"sum_hessian":[3.405542E2,2.1664603E2,1.2390818E2,1.5707976E2,5.9566265E1,6.2890686E1,6.101749E1,6.030548E1,9.6774284E1,2.7478151E1,3.208811E1,2.8457079E1,3.443361E1,5.2525745E1,8.491748E0],"tree_param":{"num_deleted":"0","num_feature":"23","num_nodes":"15","size_leaf_vector":"1"}},{"base_weights":[-1.0484311E-2,-3.677265E-1,6.214035E-1,-5.3776497E-1,1.8478253E-1,3.2966825E-1,9.5837754E-1,2.1418035E-3,-6.092578E-3,4.7613E-3,-2.9977278E-3,-3.4612396E-3,5.1210374E-3,1.0897751E-2,1.9035093E-3],"categories":[],"categories_nodes":[],"categories_segments":[],"categories_sizes":[],"default_left":[0,0,0,0,0,0,0,0,0,0,0,0,0,0,0],"id":5,"left_children":[1,3,5,7,9,11,13,-1,-1,-1,-1,-1,-1,-1,-1],"loss_changes":[7.918909E1,2.1151697E1,1.2140053E1,9.355846E0,7.6925316E0,8.7378235E0,5.6729355E0,0E0,0E0,0E0,0E0,0E0,0E0,0E0,0E0],"parents":[2147483647,0,0,1,1,2,2,3,3,4,4,5,5,6,6],"right_children":[2,4,6,8,10,12,14,-1,-1,-1,-1,-1,-1,-1,-1],"split_conditions":[1.7403465E-3,2.0625472E-2,2.8407702E-3,4.7758218E-2,1.6602126E-1,-2.540664E-2,6.6438556E-2,2.1418035E-3,-6.092578E-3,4.7613E-3,-2.9977278E-3,-3.4612396E-3,5.1210374E-3,1.0897751E-2,1.9035093E-3],"split_indices":[22,11,22,10,7,6,3,0,0,0,0,0,0,0,0],"split_type":[0,0,0,0,0,0,0,0,0,0,0,0,0,0,0],"sum_hessian":[3.487902E2,2.2308537E2,1.2570482E2,1.7060667E2,5.2478695E1,6.843529E1,5.7269535E1,1.4639195E1,1.5596748E2,3.2784073E1,1.969462E1,1.4356723E1,5.407856E1,4.8545258E1,8.724276E0],"tree_param":{"num_deleted":"0","num_feature":"23","num_nodes":"15","size_leaf_vector":"1"}},{"base_weights":[-2.2684356E-2,-2.6312026E-1,8.62415E-1,-4.4971555E-1,3.5962203E-1,9.975534E-1,1.3103375E-3,4.471338E-3,-5.3451164E-3,5.3745518E-3,-3.2238911E-3,1.4273947E-2,7.977382E-3],"categories":[],"categories_nodes":[],"categories_segments":[],"categories_sizes":[],"default_left":[0,0,0,0,0,0,0,0,0,0,0,0,0],"id":6,"left_children":[1,3,5,7,9,11,-1,-1,-1,-1,-1,-1,-1],"loss_changes":[7.315938E1,3.1567133E1,7.1282883E0,1.6087795E1,7.798031E0,4.1725426E0,0E0,0E0,0E0,0E0,0E0,0E0,0E0],"parents":[2147483647,0,0,1,1,2,2,3,3,4,4,5,5],"right_children":[2,4,6,8,10,12,-1,-1,-1,-1,-1,-1,-1],"split_conditions":[2.5959103E-3,2.1779764E-2,7.5912964E-1,4.7758218E-2,3.33308E-2,6.359379E-2,1.3103375E-3,4.471338E-3,-5.3451164E-3,5.3745518E-3,-3.2238911E-3,1.4273947E-2,7.977382E-3],"split_indices":[22,11,14,10,12,10,0,0,0,0,0,0,0],"split_type":[0,0,0,0,0,0,0,0,0,0,0,0,0],"sum_hessian":[3.4171213E2,2.6926846E2,7.244365E1,2.0740158E2,6.1866898E1,6.08385E1,1.1605147E1,1.7546564E1,1.8985501E2,4.9239693E1,1.2627204E1,1.7356884E1,4.3481617E1],"tree_param":{"num_deleted":"0","num_feature":"23","num_nodes":"13","size_leaf_vector":"1"}},{"base_weights":[-3.3756368E-2,-4.1138425E-1,6.597443E-1,-5.454217E-1,1.2372052E-1,2.0481206E-1,8.101076E-1,-6.1987885E-3,5.628217E-4,9.824045E-3,-1.7974612E-3,-4.647756E-3,5.9190863E-3,1.0380801E-2,4.8079635E-3],"categories":[],"categories_nodes":[],"categories_segments":[],"categories_sizes":[],"default_left":[0,0,0,0,0,0,0,0,0,0,0,0,0,0,0],"id":7,"left_children":[1,3,5,7,9,11,13,-1,-1,-1,-1,-1,-1,-1,-1],"loss_changes":[9.105094E1,1.6208748E1,8.219997E0,8.1059E0,1.2135923E1,8.515386E0,6.3926926E0,0E0,0E0,0E0,0E0,0E0,0E0,0E0,0E0],"parents":[2147483647,0,0,1,1,2,2,3,3,4,4,5,5,6,6],"right_children":[2,4,6,8,10,12,14,-1,-1,-1,-1,-1,-1,-1,-1],"split_conditions":[1.7403465E-3,2.123416E-2,-1.4904889E-2,5.957067E-3,2.3420969E-2,2.4345145E-3,7.1978086E-1,-6.1987885E-3,5.628217E-4,9.824045E-3,-1.7974612E-3,-4.647756E-3,5.9190863E-3,1.0380801E-2,4.8079635E-3],"split_indices":[22,11,21,13,12,22,9,0,0,0,0,0,0,0,0],"split_type":[0,0,0,0,0,0,0,0,0,0,0,0,0,0,0],"sum_hessian":[3.4563864E2,2.2404663E2,1.21592E2,1.791519E2,4.489474E1,3.079181E1,9.080019E1,1.5939726E2,1.9754631E1,1.1138933E1,3.3755806E1,1.1206493E1,1.9585316E1,5.2384E1,3.8416195E1],"tree_param":{"num_deleted":"0","num_feature":"23","num_nodes":"15","size_leaf_vector":"1"}},{"base_weights":[2.5352262E-2,-3.451179E-1,6.5843767E-1,-5.3097105E-1,1.4133897E-1,3.0495802E-1,1.0204493E0,-6.156063E-3,2.3349556E-3,4.1213296E-3,-2.807341E-3,5.33518E-4,8.188E-3,5.416745E-3,1.1563077E-2],"categories":[],"categories_nodes":[],"categories_segments":[],"categories_sizes":[],"default_left":[0,0,0,0,0,0,0,0,0,0,0,0,0,0,0],"id":8,"left_children":[1,3,5,7,9,11,13,-1,-1,-1,-1,-1,-1,-1,-1],"loss_changes":[8.069035E1,1.9701015E1,1.5938972E1,1.0319862E1,7.064699E0,8.447625E0,3.4267654E0,0E0,0E0,0E0,0E0,0E0,0E0,0E0,0E0],"parents":[2147483647,0,0,1,1,2,2,3,3,4,4,5,5,6,6],"right_children":[2,4,6,8,10,12,14,-1,-1,-1,-1,-1,-1,-1,-1],"split_conditions":[1.7403465E-3,1.8673096E-2,2.8407702E-3,2.7908953E-2,1.7179672E-2,8.347746E-2,1.2464584E-2,-6.156063E-3,2.3349556E-3,4.1213296E-3,-2.807341E-3,5.33518E-4,8.188E-3,5.416745E-3,1.1563077E-2],"split_indices":[22,12,22,15,18,7,17,0,0,0,0,0,0,0,0],"split_type":[0,0,0,0,0,0,0,0,0,0,0,0,0,0,0],"sum_hessian":[3.4206888E2,2.1607849E2,1.2599037E2,1.5627962E2,5.979888E1,6.4678566E1,6.1311806E1,1.4087758E2,1.5402041E1,3.6441967E1,2.3356916E1,4.415943E1,2.0519136E1,1.4654682E1,4.6657124E1],"tree_param":{"num_deleted":"0","num_feature":"23","num_nodes":"15","size_leaf_vector":"1"}},{"base_weights":[-1.9827314E-2,-3.608747E-1,5.9591836E-1,-4.9851367E-1,1.4479485E-1,2.8439558E-1,9.5760095E-1,1.3672148E-3,-5.6568733E-3,7.955181E-3,-2.2172465E-3,5.8600894E-4,9.736403E-3,1.4610999E-2,7.76375E-3],"categories":[],"categories_nodes":[],"categories_segments":[],"categories_sizes":[],"default_left":[0,0,0,0,0,0,0,0,0,0,0,0,0,0,0],"id":9,"left_children":[1,3,5,7,9,11,13,-1,-1,-1,-1,-1,-1,-1,-1],"loss_changes":[7.17663E1,1.5376867E1,1.3454227E1,7.4625435E0,1.1582212E1,1.0350506E1,3.9711456E0,0E0,0E0,0E0,0E0,0E0,0E0,0E0,0E0],"parents":[2147483647,0,0,1,1,2,2,3,3,4,4,5,5,6,6],"right_children":[2,4,6,8,10,12,14,-1,-1,-1,-1,-1,-1,-1,-1],"split_conditions":[1.7403465E-3,2.123416E-2,2.8537023E-3,4.8974983E-2,2.5003595E-2,5.478289E-2,6.359379E-2,1.3672148E-3,-5.6568733E-3,7.955181E-3,-2.2172465E-3,5.8600894E-4,9.736403E-3,1.4610999E-2,7.76375E-3],"split_indices":[22,11,22,10,12,3,10,0,0,0,0,0,0,0,0],"split_type":[0,0,0,0,0,0,0,0,0,0,0,0,0,0,0],"sum_hessian":[3.3972272E2,2.1889546E2,1.20827255E2,1.7207285E2,4.682261E1,6.5874695E1,5.4952564E1,1.6356882E1,1.5571597E2,1.6448778E1,3.0373833E1,5.0436768E1,1.5437923E1,1.2675101E1,4.2277462E1],"tree_param":{"num_deleted":"0","num_feature":"23","num_nodes":"15","size_leaf_vector":"1"}},{"base_weights":[3.183217E-2,-3.1368417E-1,6.4475787E-1,-8.0090433E-1,-1.362504E-1,4.1360494E-1,8.992845E-1,-1.0858984E-2,-9.459878E-4,-2.0843565E-3,1.025521E-2,7.659178E-3,1.3633528E-3,1.01008E-2,2.2993484E-3],"categories":[],"categories_nodes":[],"categories_segments":[],"categories_sizes":[],"default_left":[0,0,0,0,0,0,0,0,0,0,0,0,0,0,0],"id":10,"left_children":[1,3,5,7,9,11,13,-1,-1,-1,-1,-1,-1,-1,-1],"loss_changes":[7.178766E1,1.8636543E1,6.8167152E0,1.1508232E1,1.36450615E1,6.3314905E0,4.0172043E0,0E0,0E0,0E0,0E0,0E0,0E0,0E0,0E0],"parents":[2147483647,0,0,1,1,2,2,3,3,4,4,5,5,6,6],"right_children":[2,4,6,8,10,12,14,-1,-1,-1,-1,-1,-1,-1,-1],"split_conditions":[1.7403465E-3,-2.1905035E-2,2.8407702E-3,1.2464304E-3,2.7846644E-2,1.615315E-2,6.6438556E-2,-1.0858984E-2,-9.459878E-4,-2.0843565E-3,1.025521E-2,7.659178E-3,1.3633528E-3,1.01008E-2,2.2993484E-3],"split_indices":[22,21,22,22,15,17,21,0,0,0,0,0,0,0,0],"split_type":[0,0,0,0,0,0,0,0,0,0,0,0,0,0,0],"sum_hessian":[3.370244E2,2.1584004E2,1.2118438E2,5.668189E1,1.5915816E2,6.4883896E1,5.630048E1,4.000318E1,1.6678707E1,1.5062013E2,8.538011E0,2.7798876E1,3.7085022E1,4.786798E1,8.432499E0],"tree_param":{"num_deleted":"0","num_feature":"23","num_nodes":"15","size_leaf_vector":"1"}},{"base_weights":[2.6230538E-2,-3.313454E-1,6.687106E-1,-5.0662136E-1,3.124033E-1,3.9832532E-1,9.669014E-1,-5.8169602E-3,1.8173767E-3,8.097482E-3,4.4126026E-4,1.5096947E-3,1.18412655E-2,1.0905771E-2,2.1648656E-3],"categories":[],"categories_nodes":[],"categories_segments":[],"categories_sizes":[],"default_left":[0,0,0,0,0,0,0,0,0,0,0,0,0,0,0],"id":11,"left_children":[1,3,5,7,9,11,13,-1,-1,-1,-1,-1,-1,-1,-1],"loss_changes":[7.8860115E1,2.5046854E1,9.50956E0,9.085033E0,6.3451743E0,1.2662034E1,5.115223E0,0E0,0E0,0E0,0E0,0E0,0E0,0E0,0E0],"parents":[2147483647,0,0,1,1,2,2,3,3,4,4,5,5,6,6],"right_children":[2,4,6,8,10,12,14,-1,-1,-1,-1,-1,-1,-1,-1],"split_conditions":[1.7403465E-3,2.1423683E-2,2.8407702E-3,6.8853465E-3,2.5003595E-2,2.266553E-2,7.622432E-1,-5.8169602E-3,1.8173767E-3,8.097482E-3,4.4126026E-4,1.5096947E-3,1.18412655E-2,1.0905771E-2,2.1648656E-3],"split_indices":[22,11,22,13,12,12,14,0,0,0,0,0,0,0,0],"split_type":[0,0,0,0,0,0,0,0,0,0,0,0,0,0,0],"sum_hessian":[3.413005E2,2.195776E2,1.217229E2,1.7275417E2,4.6823437E1,6.5062836E1,5.666007E1,1.5590556E2,1.6848612E1,1.5699902E1,3.1123537E1,5.039236E1,1.4670472E1,4.8254036E1,8.406034E0],"tree_param":{"num_deleted":"0","num_feature":"23","num_nodes":"15","size_leaf_vector":"1"}},{"base_weights":[-2.5435102E-3,-2.41929E-1,8.571242E-1,-3.8770425E-1,2.4599439E-1,9.726644E-1,1.4302203E-3,-4.8510375E-4,-5.449326E-3,-3.2873666E-3,5.871833E-3,4.8199133E-3,1.1329818E-2],"categories":[],"categories_nodes":[],"categories_segments":[],"categories_sizes":[],"default_left":[0,0,0,0,0,0,0,0,0,0,0,0,0],"id":12,"left_children":[1,3,5,7,9,11,-1,-1,-1,-1,-1,-1,-1],"loss_changes":[7.053633E1,1.9163952E1,6.0205994E0,1.1002827E1,1.2406262E1,4.4952126E0,0E0,0E0,0E0,0E0,0E0,0E0,0E0],"parents":[2147483647,0,0,1,1,2,2,3,3,4,4,5,5],"right_children":[2,4,6,8,10,12,-1,-1,-1,-1,-1,-1,-1],"split_conditions":[2.57205E-3,4.542279E-2,7.5912964E-1,-4.5515946E-3,7.9132325E-4,3.6092457E-1,1.4302203E-3,-4.8510375E-4,-5.449326E-3,-3.2873666E-3,5.871833E-3,4.8199133E-3,1.1329818E-2],"split_indices":[22,8,14,12,22,19,0,0,0,0,0,0,0],"split_type":[0,0,0,0,0,0,0,0,0,0,0,0,0],"sum_hessian":[3.4074786E2,2.670914E2,7.365644E1,2.0580818E2,6.128323E1,6.3087017E1,1.0569426E1,6.559864E1,1.4020955E2,2.2842182E1,3.8441048E1,1.6522905E1,4.6564114E1],"tree_param":{"num_deleted":"0","num_feature":"23","num_nodes":"13","size_leaf_vector":"1"}},{"base_weights":[-1.6531626E-2,-2.4624443E-1,8.758348E-1,-6.101349E-1,-4.4910863E-2,1.0054386E0,3.0083074E-3,-8.614434E-3,-2.0012169E-3,-1.2775064E-3,9.8300455E-3,7.567074E-3,1.4199721E-2],"categories":[],"categories_nodes":[],"categories_segments":[],"categories_sizes":[],"default_left":[0,0,0,0,0,0,0,0,0,0,0,0,0],"id":13,"left_children":[1,3,5,7,9,11,-1,-1,-1,-1,-1,-1,-1],"loss_changes":[7.075895E1,2.008068E1,4.9641037E0,9.893009E0,1.5263812E1,4.827862E0,0E0,0E0,0E0,0E0,0E0,0E0,0E0],"parents":[2147483647,0,0,1,1,2,2,3,3,4,4,5,5],"right_children":[2,4,6,8,10,12,-1,-1,-1,-1,-1,-1,-1],"split_conditions":[2.5959103E-3,-7.2071753E-3,3.6997426E-2,1.2651058E-3,2.7908953E-2,2.0918867E-2,3.0083074E-3,-8.614434E-3,-2.0012169E-3,-1.2775064E-3,9.8300455E-3,7.567074E-3,1.4199721E-2],"split_indices":[22,3,2,22,15,8,0,0,0,0,0,0,0],"split_type":[0,0,0,0,0,0,0,0,0,0,0,0,0],"sum_hessian":[3.431337E2,2.7346298E2,6.967073E1,9.668462E1,1.7677835E2,5.6244797E1,1.3425933E1,5.9260937E1,3.7423687E1,1.6440468E2,1.2373666E1,3.691829E1,1.9326506E1],"tree_param":{"num_deleted":"0","num_feature":"23","num_nodes":"13","size_leaf_vector":"1"}},{"base_weights":[-4.224096E-3,-2.25447E-1,8.3653927E-1,-3.8165596E-1,2.6451558E-1,3.5913134E-1,1.0317621E0,-5.6765783E-3,-1.3788949E-3,5.2817087E-3,-7.8631926E-4,-1.5179617E-3,6.6624302E-3,1.2480063E-2,5.065471E-3],"categories":[],"categories_nodes":[],"categories_segments":[],"categories_sizes":[],"default_left":[0,0,0,0,0,0,0,0,0,0,0,0,0,0,0],"id":14,"left_children":[1,3,5,7,9,11,13,-1,-1,-1,-1,-1,-1,-1,-1],"loss_changes":[6.365206E1,2.0836153E1,6.27372E0,9.254488E0,6.020329E0,3.5884757E0,5.053917E0,0E0,0E0,0E0,0E0,0E0,0E0,0E0,0E0],"parents":[2147483647,0,0,1,1,2,2,3,3,4,4,5,5,6,6],"right_children":[2,4,6,8,10,12,14,-1,-1,-1,-1,-1,-1,-1,-1],"split_conditions":[2.5959103E-3,2.097325E-2,-6.419993E-3,1.0710121E-3,1.6284204E-1,2.97392E-3,9.2797446E-1,-5.6765783E-3,-1.3788949E-3,5.2817087E-3,-7.8631926E-4,-1.5179617E-3,6.6624302E-3,1.2480063E-2,5.065471E-3],"split_indices":[22,11,6,22,7,22,19,0,0,0,0,0,0,0,0],"split_type":[0,0,0,0,0,0,0,0,0,0,0,0,0,0,0],"sum_hessian":[3.4020856E2,2.6991895E2,7.028961E1,2.048349E2,6.508403E1,2.1224857E1,4.906476E1,1.1542961E2,8.940529E1,3.6500164E1,2.858387E1,8.158187E0,1.3066669E1,3.3780354E1,1.5284404E1],"tree_param":{"num_deleted":"0","num_feature":"23","num_nodes":"15","size_leaf_vector":"1"}},{"base_weights":[2.5530695E-3,-2.3724914E-1,9.280562E-1,-7.548965E-1,-1.1593047E-2,4.3829842E-3,1.0457507E0,-1.742372E-3,-9.344619E-3,-1.883204E-3,2.7701056E-3,8.522873E-3,1.3242318E-2],"categories":[],"categories_nodes":[],"categories_segments":[],"categories_sizes":[],"default_left":[0,0,0,0,0,0,0,0,0,0,0,0,0],"id":15,"left_children":[1,3,5,7,9,-1,11,-1,-1,-1,-1,-1,-1],"loss_changes":[7.674362E1,3.207195E1,3.643299E0,8.528919E0,9.859166E0,0E0,1.9234009E0,0E0,0E0,0E0,0E0,0E0,0E0],"parents":[2147483647,0,0,1,1,2,2,3,3,4,4,6,6],"right_children":[2,4,6,8,10,-1,12,-1,-1,-1,-1,-1,-1],"split_conditions":[2.5959103E-3,-1.7610112E-2,1.1890663E-2,-3.0184517E-2,1.8439453E-2,4.3829842E-3,3.3570004E-3,-1.742372E-3,-9.344619E-3,-1.883204E-3,2.7701056E-3,8.522873E-3,1.3242318E-2],"split_indices":[22,3,17,5,12,0,22,0,0,0,0,0,0],"split_type":[0,0,0,0,0,0,0,0,0,0,0,0,0],"sum_hessian":[3.4379697E2,2.7363937E2,7.01576E1,8.2360916E1,1.9127847E2,1.4508399E1,5.56492E1,1.9919073E1,6.244184E1,1.1884862E2,7.2429855E1,3.5232998E1,2.04162E1],"tree_param":{"num_deleted":"0","num_feature":"23","num_nodes":"13","size_leaf_vector":"1"}},{"base_weights":[9.660047E-3,-3.7992126E-1,1.7405517E-1,-4.5779172E-1,4.5954864E-3,3.319146E-1,-3.7105206E-2,-3.2831952E-3,-1.3032709E-2,-5.226753E-5,5.349251E-3,-1.7597239E-3,8.230028E-3],"categories":[],"categories_nodes":[],"categories_segments":[],"categories_sizes":[],"default_left":[0,0,0,0,0,0,0,0,0,0,0,0,0],"id":16,"left_children":[1,3,5,7,-1,9,11,-1,-1,-1,-1,-1,-1],"loss_changes":[2.1808764E1,6.816597E0,7.993377E0,9.750418E0,0E0,9.38683E0,1.2485769E1,0E0,0E0,0E0,0E0,0E0,0E0],"parents":[2147483647,0,0,1,1,2,2,3,3,5,5,6,6],"right_children":[2,4,6,8,-1,10,12,-1,-1,-1,-1,-1,-1],"split_conditions":[-1.4904889E-2,1.3691725E-2,1.7211033E-2,6.3503264E-3,4.5954864E-3,1.28261475E-2,2.7908953E-2,-3.2831952E-3,-1.3032709E-2,-5.226753E-5,5.349251E-3,-1.7597239E-3,8.230028E-3],"split_indices":[3,11,17,8,0,17,15,0,0,0,0,0,0],"split_type":[0,0,0,0,0,0,0,0,0,0,0,0,0],"sum_hessian":[3.3848856E2,1.0005903E2,2.3842952E2,9.198137E1,8.077661E0,1.3610683E2,1.023227E2,8.097032E1,1.1011043E1,5.15205E1,8.458632E1,8.87837E1,1.3539005E1],"tree_param":{"num_deleted":"0","num_feature":"23","num_nodes":"13","size_leaf_vector":"1"}},{"base_weights":[-3.7973017E-2,-3.4409955E-1,5.0649166E-1,7.066482E-3,-4.1100734E-1,2.700787E-1,7.737001E-1,-5.480898E-3,8.306933E-4,-2.5957753E-3,4.7158897E-3,9.271979E-3,-8.222007E-4],"categories":[],"categories_nodes":[],"categories_segments":[],"categories_sizes":[],"default_left":[0,0,0,0,0,0,0,0,0,0,0,0,0],"id":17,"left_children":[1,3,5,-1,7,9,11,-1,-1,-1,-1,-1,-1],"loss_changes":[5.6837082E1,1.5630886E1,7.5456905E0,0E0,1.39824295E1,7.2378764E0,7.5766144E0,0E0,0E0,0E0,0E0,0E0,0E0],"parents":[2147483647,0,0,1,1,2,2,4,4,5,5,6,6],"right_children":[2,4,6,-1,8,10,12,-1,-1,-1,-1,-1,-1],"split_conditions":[1.7403465E-3,1.0605138E-2,2.8407702E-3,7.066482E-3,2.1423683E-2,3.6092457E-1,4.4271067E-2,-5.480898E-3,8.306933E-4,-2.5957753E-3,4.7158897E-3,9.271979E-3,-8.222007E-4],"split_indices":[22,17,22,0,11,19,2,0,0,0,0,0,0],"split_type":[0,0,0,0,0,0,0,0,0,0,0,0,0],"sum_hessian":[3.389596E2,2.1720409E2,1.2175549E2,1.2430401E1,2.0477368E2,6.5667145E1,5.6088352E1,1.6021298E2,4.4560707E1,1.8018518E1,4.7648624E1,4.748862E1,8.59973E0],"tree_param":{"num_deleted":"0","num_feature":"23","num_nodes":"13","size_leaf_vector":"1"}},{"base_weights":[-1.9132186E-3,-3.4463024E-1,6.1288446E-1,-5.142287E-1,1.17318824E-1,3.308698E-1,8.4810036E-1,-6.704389E-3,-1.368897E-3,4.3260963E-3,-4.165446E-3,-2.7754873E-3,6.255612E-3,9.635455E-3,2.0182661E-3],"categories":[],"categories_nodes":[],"categories_segments":[],"categories_sizes":[],"default_left":[0,0,0,0,0,0,0,0,0,0,0,0,0,0,0],"id":18,"left_children":[1,3,5,7,9,11,13,-1,-1,-1,-1,-1,-1,-1,-1],"loss_changes":[7.3601135E1,1.7631979E1,8.0131E0,9.589157E0,1.0455292E1,1.0662043E1,4.8439713E0,0E0,0E0,0E0,0E0,0E0,0E0,0E0,0E0],"parents":[2147483647,0,0,1,1,2,2,3,3,4,4,5,5,6,6],"right_children":[2,4,6,8,10,12,14,-1,-1,-1,-1,-1,-1,-1,-1],"split_conditions":[1.7403465E-3,1.8673096E-2,2.6736143E-3,1.2074633E-3,1.7244799E-2,5.139285E-1,7.622432E-1,-6.704389E-3,-1.368897E-3,4.3260963E-3,-4.165446E-3,-2.7754873E-3,6.255612E-3,9.635455E-3,2.0182661E-3],"split_indices":[22,12,22,22,18,19,14,0,0,0,0,0,0,0,0],"split_type":[0,0,0,0,0,0,0,0,0,0,0,0,0,0,0],"sum_hessian":[3.4731204E2,2.2328307E2,1.24028984E2,1.6323889E2,6.0044167E1,5.74979E1,6.653109E1,1.1489717E2,4.8341717E1,3.786902E1,2.2175146E1,1.8780968E1,3.871693E1,5.6031197E1,1.0499891E1],"tree_param":{"num_deleted":"0","num_feature":"23","num_nodes":"15","size_leaf_vector":"1"}},{"base_weights":[7.713552E-3,-4.431634E-1,1.6463721E-1,2.341032E-1,-6.217398E-1,3.2035807E-1,-4.797711E-2,8.928653E-3,-6.0561714E-3,-9.27072E-3,-3.4528133E-3,7.972844E-3,2.073852E-3,-1.9628129E-3,8.3384E-3],"categories":[],"categories_nodes":[],"categories_segments":[],"categories_sizes":[],"default_left":[0,0,0,0,0,0,0,0,0,0,0,0,0,0,0],"id":19,"left_children":[1,3,5,7,9,11,13,-1,-1,-1,-1,-1,-1,-1,-1],"loss_changes":[2.452076E1,1.0967888E1,8.526026E0,1.1270938E1,5.680294E0,7.8363066E0,1.4489544E1,0E0,0E0,0E0,0E0,0E0,0E0,0E0,0E0],"parents":[2147483647,0,0,1,1,2,2,3,3,4,4,5,5,6,6],"right_children":[2,4,6,8,10,12,14,-1,-1,-1,-1,-1,-1,-1,-1],"split_conditions":[-2.1905035E-2,-3.449086E-2,1.5093141E-2,2.526045E-2,-3.727145E-3,3.8775406E-3,2.7908953E-2,8.928653E-3,-6.0561714E-3,-9.27072E-3,-3.4528133E-3,7.972844E-3,2.073852E-3,-1.9628129E-3,8.3384E-3],"split_indices":[21,5,15,15,0,8,15,0,0,0,0,0,0,0,0],"split_type":[0,0,0,0,0,0,0,0,0,0,0,0,0,0,0],"sum_hessian":[3.44536E2,8.848233E1,2.5605368E2,1.839745E1,7.008488E1,1.4750949E2,1.0854418E2,1.0274107E1,8.123343E0,3.2185013E1,3.7899864E1,2.7089811E1,1.20419685E2,9.358282E1,1.4961365E1],"tree_param":{"num_deleted":"0","num_feature":"23","num_nodes":"15","size_leaf_vector":"1"}},{"base_weights":[-1.002892E-3,-3.2473612E-1,5.8302796E-1,-8.1782585E-1,-1.668624E-1,2.4539533E-1,7.962994E-1,-1.0183747E-2,4.0233826E-5,5.5460427E-3,-2.3717002E-3,-5.8955024E-4,7.171405E-3,9.297419E-3,1.0647821E-3],"categories":[],"categories_nodes":[],"categories_segments":[],"categories_sizes":[],"default_left":[0,0,0,0,0,0,0,0,0,0,0,0,0,0,0],"id":20,"left_children":[1,3,5,7,9,11,13,-1,-1,-1,-1,-1,-1,-1,-1],"loss_changes":[6.586995E1,1.7312075E1,8.75119E0,8.921452E0,8.807407E0,7.1556835E0,6.8693886E0,0E0,0E0,0E0,0E0,0E0,0E0,0E0,0E0],"parents":[2147483647,0,0,1,1,2,2,3,3,4,4,5,5,6,6],"right_children":[2,4,6,8,10,12,14,-1,-1,-1,-1,-1,-1,-1,-1],"split_conditions":[1.7403465E-3,-2.950693E-2,2.5959103E-3,4.0222235E-2,-1.6574861E-2,1.3842008E-1,7.5912964E-1,-1.0183747E-2,4.0233826E-5,5.5460427E-3,-2.3717002E-3,-5.8955024E-4,7.171405E-3,9.297419E-3,1.0647821E-3],"split_indices":[22,3,22,18,8,10,14,0,0,0,0,0,0,0,0],"split_type":[0,0,0,0,0,0,0,0,0,0,0,0,0,0,0],"sum_hessian":[3.463875E2,2.23142E2,1.23245514E2,5.31033E1,1.7003871E2,4.8544586E1,7.470093E1,4.249458E1,1.0608718E1,1.4487364E1,1.5555135E2,3.0039427E1,1.850516E1,6.230125E1,1.2399676E1],"tree_param":{"num_deleted":"0","num_feature":"23","num_nodes":"15","size_leaf_vector":"1"}},{"base_weights":[-5.8077336E-3,-2.4882793E-1,7.515734E-1,-6.501755E-1,-8.349796E-2,8.62733E-1,1.09364446E-4,2.6879883E-3,-8.148327E-3,-4.807011E-3,6.0680497E-4,1.2161269E-2,6.9771716E-3],"categories":[],"categories_nodes":[],"categories_segments":[],"categories_sizes":[],"default_left":[0,0,0,0,0,0,0,0,0,0,0,0,0],"id":21,"left_children":[1,3,5,7,9,11,-1,-1,-1,-1,-1,-1,-1],"loss_changes":[6.3683014E1,1.7325699E1,6.9104233E0,1.1759888E1,1.07185545E1,3.41259E0,0E0,0E0,0E0,0E0,0E0,0E0,0E0],"parents":[2147483647,0,0,1,1,2,2,3,3,4,4,5,5],"right_children":[2,4,6,8,10,12,-1,-1,-1,-1,-1,-1,-1],"split_conditions":[2.360285E-3,-1.975229E-2,4.854622E-2,-4.6297897E-2,4.978822E-5,6.497708E-2,1.09364446E-4,2.6879883E-3,-8.148327E-3,-4.807011E-3,6.0680497E-4,1.2161269E-2,6.9771716E-3],"split_indices":[22,3,20,1,22,10,0,0,0,0,0,0,0],"split_type":[0,0,0,0,0,0,0,0,0,0,0,0,0],"sum_hessian":[3.439765E2,2.6092514E2,8.305135E1,7.527014E1,1.8565501E2,7.206979E1,1.0981556E1,1.1341144E1,6.3928997E1,4.882125E1,1.3683376E2,2.091308E1,5.1156715E1],"tree_param":{"num_deleted":"0","num_feature":"23","num_nodes":"13","size_leaf_vector":"1"}},{"base_weights":[-5.9371156E-4,-3.2718572E-1,6.142702E-1,-5.638058E-1,3.489953E-2,1.116814E0,5.011405E-1,-3.4167644E-4,-6.725177E-3,3.793443E-3,-2.269492E-3,7.191775E-3,1.3915003E-2,3.1024483E-3,7.1864957E-3],"categories":[],"categories_nodes":[],"categories_segments":[],"categories_sizes":[],"default_left":[0,0,0,0,0,0,0,0,0,0,0,0,0,0,0],"id":22,"left_children":[1,3,5,7,9,11,13,-1,-1,-1,-1,-1,-1,-1,-1],"loss_changes":[6.887277E1,1.9210882E1,6.204586E0,7.780361E0,8.155538E0,1.2982769E0,3.8847904E0,0E0,0E0,0E0,0E0,0E0,0E0,0E0,0E0],"parents":[2147483647,0,0,1,1,2,2,3,3,4,4,5,5,6,6],"right_children":[2,4,6,8,10,12,14,-1,-1,-1,-1,-1,-1,-1,-1],"split_conditions":[1.7403465E-3,5.071386E-2,6.11699E-2,7.2345585E-1,6.886742E-3,1.0136613E-2,2.8407702E-3,-3.4167644E-4,-6.725177E-3,3.793443E-3,-2.269492E-3,7.191775E-3,1.3915003E-2,3.1024483E-3,7.1864957E-3],"split_indices":[22,4,10,16,1,15,22,0,0,0,0,0,0,0,0],"split_type":[0,0,0,0,0,0,0,0,0,0,0,0,0,0,0],"sum_hessian":[3.409746E2,2.2299574E2,1.1797887E2,1.3452652E2,8.8469215E1,2.0048346E1,9.793052E1,2.313388E1,1.1139265E2,3.8014683E1,5.045453E1,9.669269E0,1.0379077E1,5.3448296E1,4.4482227E1],"tree_param":{"num_deleted":"0","num_feature":"23","num_nodes":"15","size_leaf_vector":"1"}},{"base_weights":[-1.0982551E-2,-3.2279727E-1,5.4779834E-1,-7.3397934E-1,-1.5481837E-1,2.81844E-1,8.4264785E-1,2.5298535E-3,-9.013901E-3,4.700202E-3,-2.3906166E-3,8.8326767E-4,8.719806E-3,9.650967E-3,1.1359975E-3],"categories":[],"categories_nodes":[],"categories_segments":[],"categories_sizes":[],"default_left":[0,0,0,0,0,0,0,0,0,0,0,0,0,0,0],"id":23,"left_children":[1,3,5,7,9,11,13,-1,-1,-1,-1,-1,-1,-1,-1],"loss_changes":[6.071163E1,1.5331966E1,9.549442E0,1.0900452E1,8.536139E0,7.5883565E0,5.129303E0,0E0,0E0,0E0,0E0,0E0,0E0,0E0,0E0],"parents":[2147483647,0,0,1,1,2,2,3,3,4,4,5,5,6,6],"right_children":[2,4,6,8,10,12,14,-1,-1,-1,-1,-1,-1,-1,-1],"split_conditions":[1.7403465E-3,-1.975229E-2,2.8407702E-3,2.4297331E-1,-1.1391151E-2,2.266553E-2,4.938121E-2,2.5298535E-3,-9.013901E-3,4.700202E-3,-2.3906166E-3,8.8326767E-4,8.719806E-3,9.650967E-3,1.1359975E-3],"split_indices":[22,3,22,14,0,12,2,0,0,0,0,0,0,0,0],"split_type":[0,0,0,0,0,0,0,0,0,0,0,0,0,0,0],"sum_hessian":[3.4642975E2,2.2262267E2,1.238071E2,6.3591835E1,1.5903082E2,6.6121445E1,5.7685654E1,9.148137E0,5.44437E1,1.8349789E1,1.4068103E2,5.0659035E1,1.5462409E1,4.9112995E1,8.572657E0],"tree_param":{"num_deleted":"0","num_feature":"23","num_nodes":"15","size_leaf_vector":"1"}},{"base_weights":[-1.7852391E-3,-3.331668E-1,5.4487807E-1,-7.578841E-1,-1.8222308E-1,4.7084186E-2,7.193955E-1,-9.891012E-3,-7.292889E-4,-3.0834712E-3,3.1430982E-3,-4.52253E-3,4.4981297E-3,4.4642887E-3,9.244429E-3],"categories":[],"categories_nodes":[],"categories_segments":[],"categories_sizes":[],"default_left":[0,0,0,0,0,0,0,0,0,0,0,0,0,0,0],"id":24,"left_children":[1,3,5,7,9,11,13,-1,-1,-1,-1,-1,-1,-1,-1],"loss_changes":[6.3016636E1,1.3746021E1,1.1371548E1,8.871338E0,1.0185872E1,7.2718806E0,5.0242157E0,0E0,0E0,0E0,0E0,0E0,0E0,0E0,0E0],"parents":[2147483647,0,0,1,1,2,2,3,3,4,4,5,5,6,6],"right_children":[2,4,6,8,10,12,14,-1,-1,-1,-1,-1,-1,-1,-1],"split_conditions":[1.6425214E-3,-2.3481512E-2,-1.2769782E-2,1.2464304E-3,1.5090968E-1,2.4722847E-3,1.2516209E-3,-9.891012E-3,-7.292889E-4,-3.0834712E-3,3.1430982E-3,-4.52253E-3,4.4981297E-3,4.4642887E-3,9.244429E-3],"split_indices":[22,3,3,22,10,22,0,0,0,0,0,0,0,0,0],"split_type":[0,0,0,0,0,0,0,0,0,0,0,0,0,0,0],"sum_hessian":[3.458599E2,2.1557259E2,1.302873E2,5.5470814E1,1.6010176E2,3.414938E1,9.613792E1,4.1139507E1,1.4331306E1,1.2797413E2,3.212764E1,1.5191145E1,1.8958237E1,4.2601894E1,5.3536022E1],"tree_param":{"num_deleted":"0","num_feature":"23","num_nodes":"15","size_leaf_vector":"1"}},{"base_weights":[-2.1575054E-4,-2.7596542E-1,5.175829E-1,-4.3712413E-1,1.5695338E-1,2.7344006E-1,7.8582984E-1,-5.2460306E-3,3.4654737E-3,4.829513E-3,-3.7786432E-3,-3.4501695E-3,4.314421E-3,9.092901E-3,2.3727972E-4],"categories":[],"categories_nodes":[],"categories_segments":[],"categories_sizes":[],"default_left":[0,0,0,0,0,0,0,0,0,0,0,0,0,0,0],"id":25,"left_children":[1,3,5,7,9,11,13,-1,-1,-1,-1,-1,-1,-1,-1],"loss_changes":[5.025414E1,1.6091568E1,7.794834E0,1.167308E1,1.1172877E1,6.555412E0,5.4112625E0,0E0,0E0,0E0,0E0,0E0,0E0,0E0,0E0],"parents":[2147483647,0,0,1,1,2,2,3,3,4,4,5,5,6,6],"right_children":[2,4,6,8,10,12,14,-1,-1,-1,-1,-1,-1,-1,-1],"split_conditions":[1.7403465E-3,1.8673096E-2,2.8407702E-3,2.7908953E-2,1.7244799E-2,-2.400928E-2,4.854622E-2,-5.2460306E-3,3.4654737E-3,4.829513E-3,-3.7786432E-3,-3.4501695E-3,4.314421E-3,9.092901E-3,2.3727972E-4],"split_indices":[22,12,22,15,18,6,2,0,0,0,0,0,0,0,0],"split_type":[0,0,0,0,0,0,0,0,0,0,0,0,0,0,0],"sum_hessian":[3.4996176E2,2.286585E2,1.21303276E2,1.6662195E2,6.203654E1,6.456203E1,5.674125E1,1.5018755E2,1.643441E1,3.8603046E1,2.3433493E1,1.2896906E1,5.1665123E1,4.866448E1,8.07677E0],"tree_param":{"num_deleted":"0","num_feature":"23","num_nodes":"15","size_leaf_vector":"1"}},{"base_weights":[-2.0474194E-2,-2.1810016E-1,7.52525E-1,-4.0164548E-1,2.4318758E-1,8.6508095E-1,3.6913838E-4,-6.1431206E-3,-8.665857E-4,-1.3120834E-3,6.0471008E-3,5.1128566E-3,1.0258637E-2],"categories":[],"categories_nodes":[],"categories_segments":[],"categories_sizes":[],"default_left":[0,0,0,0,0,0,0,0,0,0,0,0,0],"id":26,"left_children":[1,3,5,7,9,11,-1,-1,-1,-1,-1,-1,-1],"loss_changes":[5.199468E1,2.3040663E1,5.55035E0,1.2957296E1,1.0603569E1,2.8795166E0,0E0,0E0,0E0,0E0,0E0,0E0,0E0],"parents":[2147483647,0,0,1,1,2,2,3,3,4,4,5,5],"right_children":[2,4,6,8,10,12,-1,-1,-1,-1,-1,-1,-1],"split_conditions":[2.57205E-3,1.8439453E-2,7.7041674E-1,1.1879449E-3,2.2836082E-4,-4.4937328E-2,3.6913838E-4,-6.1431206E-3,-8.665857E-4,-1.3120834E-3,6.0471008E-3,5.1128566E-3,1.0258637E-2],"split_indices":[22,12,14,22,13,9,0,0,0,0,0,0,0],"split_type":[0,0,0,0,0,0,0,0,0,0,0,0,0],"sum_hessian":[3.382836E2,2.6997842E2,6.830518E1,1.9322423E2,7.675418E1,5.8841354E1,9.463824E0,1.1477946E2,7.844477E1,3.8018723E1,3.873546E1,1.969137E1,3.9149986E1],"tree_param":{"num_deleted":"0","num_feature":"23","num_nodes":"13","size_leaf_vector":"1"}},{"base_weights":[2.1532398E-2,-2.5369996E-1,5.1844263E-1,-6.6800076E-1,-1.0921568E-1,1.950159E-2,6.772442E-1,-4.047717E-3,-1.222178E-2,1.2119848E-3,-3.292325E-3,-6.963821E-3,4.277446E-3,8.784424E-3,3.9133593E-3],"categories":[],"categories_nodes":[],"categories_segments":[],"categories_sizes":[],"default_left":[0,0,0,0,0,0,0,0,0,0,0,0,0,0,0],"id":27,"left_children":[1,3,5,7,9,11,13,-1,-1,-1,-1,-1,-1,-1,-1],"loss_changes":[4.8192757E1,1.3504604E1,9.937664E0,8.032251E0,8.626038E0,9.460494E0,5.1347885E0,0E0,0E0,0E0,0E0,0E0,0E0,0E0,0E0],"parents":[2147483647,0,0,1,1,2,2,3,3,4,4,5,5,6,6],"right_children":[2,4,6,8,10,12,14,-1,-1,-1,-1,-1,-1,-1,-1],"split_conditions":[1.7403465E-3,4.325706E-1,3.6092457E-1,-2.735513E-2,6.2323856E-1,2.4722847E-3,7.1978086E-1,-4.047717E-3,-1.222178E-2,1.2119848E-3,-3.292325E-3,-6.963821E-3,4.277446E-3,8.784424E-3,3.9133593E-3],"split_indices":[22,14,19,6,14,22,9,0,0,0,0,0,0,0,0],"split_type":[0,0,0,0,0,0,0,0,0,0,0,0,0,0,0],"sum_hessian":[3.504127E2,2.2582211E2,1.2459058E2,5.745362E1,1.6836848E2,3.035151E1,9.4239075E1,4.012501E1,1.732861E1,8.24604E1,8.590809E1,1.0766271E1,1.9585238E1,5.409741E1,4.0141666E1],"tree_param":{"num_deleted":"0","num_feature":"23","num_nodes":"15","size_leaf_vector":"1"}},{"base_weights":[1.7177828E-2,-3.0271035E-1,6.1977327E-1,1.9045362E-1,-4.1773063E-1,1.4298117E-1,7.670692E-1,-5.4906243E-3,5.145872E-3,-7.5584617E-3,-2.5965935E-3,-3.8274527E-3,6.1557516E-3,-1.4752601E-3,8.613505E-3],"categories":[],"categories_nodes":[],"categories_segments":[],"categories_sizes":[],"default_left":[0,0,0,0,0,0,0,0,0,0,0,0,0,0,0],"id":28,"left_children":[1,3,5,7,9,11,13,-1,-1,-1,-1,-1,-1,-1,-1],"loss_changes":[6.594339E1,1.275754E1,8.220852E0,1.0579182E1,9.506794E0,7.4967585E0,7.9216156E0,0E0,0E0,0E0,0E0,0E0,0E0,0E0,0E0],"parents":[2147483647,0,0,1,1,2,2,3,3,4,4,5,5,6,6],"right_children":[2,4,6,8,10,12,14,-1,-1,-1,-1,-1,-1,-1,-1],"split_conditions":[1.7403465E-3,7.2345585E-1,3.6092457E-1,4.978822E-5,-2.1905035E-2,2.57205E-3,-5.3761244E-2,-5.4906243E-3,5.145872E-3,-7.5584617E-3,-2.5965935E-3,-3.8274527E-3,6.1557516E-3,-1.4752601E-3,8.613505E-3],"split_indices":[22,16,19,22,3,22,4,0,0,0,0,0,0,0,0],"split_type":[0,0,0,0,0,0,0,0,0,0,0,0,0,0,0],"sum_hessian":[3.4012207E2,2.2250356E2,1.1761851E2,4.195601E1,1.8054755E2,2.8225191E1,8.939331E1,1.2574087E1,2.9381922E1,5.6312675E1,1.2423488E2,1.3451498E1,1.4773694E1,8.301187E0,8.1092125E1],"tree_param":{"num_deleted":"0","num_feature":"23","num_nodes":"15","size_leaf_vector":"1"}},{"base_weights":[2.3076423E-2,-2.9103753E-1,6.012728E-1,-6.732714E-1,-1.4143033E-1,3.5324815E-1,8.6952263E-1,1.6648058E-3,-8.789422E-3,-2.7243157E-3,3.6542728E-3,-1.6195083E-3,5.378546E-3,9.6089905E-3,3.221867E-3],"categories":[],"categories_nodes":[],"categories_segments":[],"categories_sizes":[],"default_left":[0,0,0,0,0,0,0,0,0,0,0,0,0,0,0],"id":29,"left_children":[1,3,5,7,9,11,13,-1,-1,-1,-1,-1,-1,-1,-1],"loss_changes":[6.250692E1,1.266044E1,7.7526474E0,1.0937565E1,1.0828227E1,6.233762E0,2.5668602E0,0E0,0E0,0E0,0E0,0E0,0E0,0E0,0E0],"parents":[2147483647,0,0,1,1,2,2,3,3,4,4,5,5,6,6],"right_children":[2,4,6,8,10,12,14,-1,-1,-1,-1,-1,-1,-1,-1],"split_conditions":[1.7403465E-3,4.325706E-1,2.8407702E-3,-2.3811141E-2,1.4976029E-1,-2.096967E-2,4.5165632E-2,1.6648058E-3,-8.789422E-3,-2.7243157E-3,3.6542728E-3,-1.6195083E-3,5.378546E-3,9.6089905E-3,3.221867E-3],"split_indices":[22,14,22,12,10,3,2,0,0,0,0,0,0,0,0],"split_type":[0,0,0,0,0,0,0,0,0,0,0,0,0,0,0],"sum_hessian":[3.4220053E2,2.2205981E2,1.20140724E2,6.148093E1,1.6057889E2,6.3627445E1,5.6513275E1,1.2132911E1,4.934802E1,1.2796727E2,3.2611618E1,1.6817093E1,4.6810352E1,4.778079E1,8.732489E0],"tree_param":{"num_deleted":"0","num_feature":"23","num_nodes":"15","size_leaf_vector":"1"}},{"base_weights":[4.5280834E-3,-2.963358E-1,1.3241212E-1,6.874644E-3,-3.9323634E-1,7.1094173E-1,7.744905E-2,4.7287047E-3,-4.794904E-3,1.03503885E-2,2.3547746E-3,-1.284584E-3,2.3896764E-3],"categories":[],"categories_nodes":[],"categories_segments":[],"categories_sizes":[],"default_left":[0,0,0,0,0,0,0,0,0,0,0,0,0],"id":30,"left_children":[1,3,5,-1,7,9,11,-1,-1,-1,-1,-1,-1],"loss_changes":[1.3324518E1,1.0117975E1,7.671495E0,0E0,7.299342E0,2.986147E0,7.4482203E0,0E0,0E0,0E0,0E0,0E0,0E0],"parents":[2147483647,0,0,1,1,2,2,4,4,5,5,6,6],"right_children":[2,4,6,-1,8,10,12,-1,-1,-1,-1,-1,-1],"split_conditions":[-1.4904889E-2,3.197365E-2,4.9432173E-2,6.874644E-3,6.9419026E-1,1.1811614E-2,5.103372E-2,4.7287047E-3,-4.794904E-3,1.03503885E-2,2.3547746E-3,-1.284584E-3,2.3896764E-3],"split_indices":[3,19,10,0,16,11,4,0,0,0,0,0,0],"split_type":[0,0,0,0,0,0,0,0,0,0,0,0,0],"sum_hessian":[3.4429028E2,1.0229968E2,2.4199059E2,8.626191E0,9.367349E1,1.996008E1,2.220305E2,8.07793E0,8.5595566E1,1.1169538E1,8.790542E0,9.7693436E1,1.24337074E2],"tree_param":{"num_deleted":"0","num_feature":"23","num_nodes":"13","size_leaf_vector":"1"}},{"base_weights":[2.927377E-2,-2.274244E-1,6.800805E-1,-6.5173614E-1,-6.570589E-2,1.9443662E-1,7.91211E-1,2.0025931E-3,-7.978032E-3,-4.388453E-3,7.147936E-4,9.2166085E-3,-7.7253697E-3,-2.6449712E-4,8.882371E-3],"categories":[],"categories_nodes":[],"categories_segments":[],"categories_sizes":[],"default_left":[0,0,0,0,0,0,0,0,0,0,0,0,0,0,0],"id":31,"left_children":[1,3,5,7,9,11,13,-1,-1,-1,-1,-1,-1,-1,-1],"loss_changes":[5.8422886E1,1.717206E1,5.184227E0,8.76148E0,9.386581E0,1.4596395E1,6.3832474E0,0E0,0E0,0E0,0E0,0E0,0E0,0E0,0E0],"parents":[2147483647,0,0,1,1,2,2,3,3,4,4,5,5,6,6],"right_children":[2,4,6,8,10,12,14,-1,-1,-1,-1,-1,-1,-1,-1],"split_conditions":[2.0817732E-3,4.325706E-1,-3.623426E-2,2.4632956E-1,4.978822E-5,-4.5076013E-3,-1.7864482E-2,2.0025931E-3,-7.978032E-3,-4.388453E-3,7.147936E-4,9.2166085E-3,-7.7253697E-3,-2.6449712E-4,8.882371E-3],"split_indices":[22,14,4,14,22,5,2,0,0,0,0,0,0,0,0],"split_type":[0,0,0,0,0,0,0,0,0,0,0,0,0,0,0],"sum_hessian":[3.4778433E2,2.4987608E2,9.790826E1,6.8118614E1,1.8175746E2,1.8744377E1,7.916388E1,9.914908E0,5.8203705E1,4.8268845E1,1.3348862E2,1.0725212E1,8.019165E0,8.474524E0,7.0689354E1],"tree_param":{"num_deleted":"0","num_feature":"23","num_nodes":"15","size_leaf_vector":"1"}},{"base_weights":[-3.426069E-2,-4.44898E-1,1.5918535E-1,2.5853175E-3,-5.5424863E-1,4.6505174E-1,3.9857935E-2,3.9219065E-3,-6.4863297E-3,6.2200674E-3,-2.717691E-3,7.031771E-3,-4.066477E-4],"categories":[],"categories_nodes":[],"categories_segments":[],"categories_sizes":[],"default_left":[0,0,0,0,0,0,0,0,0,0,0,0,0],"id":32,"left_children":[1,3,5,-1,7,9,11,-1,-1,-1,-1,-1,-1],"loss_changes":[2.7334003E1,8.617577E0,8.523483E0,0E0,8.800095E0,7.754097E0,9.079387E0,0E0,0E0,0E0,0E0,0E0,0E0],"parents":[2147483647,0,0,1,1,2,2,4,4,5,5,6,6],"right_children":[2,4,6,-1,8,10,12,-1,-1,-1,-1,-1,-1],"split_conditions":[-1.1260338E-2,-3.856045E-2,3.0882102E-2,2.5853175E-3,1.3136714E-2,9.1368693E-1,1.0464217E-2,3.9219065E-3,-6.4863297E-3,6.2200674E-3,-2.717691E-3,7.031771E-3,-4.066477E-4],"split_indices":[3,5,7,0,17,19,17,0,0,0,0,0,0],"split_type":[0,0,0,0,0,0,0,0,0,0,0,0,0],"sum_hessian":[3.4220868E2,1.0916947E2,2.330392E2,1.4504001E1,9.4665474E1,6.4587585E1,1.6845161E2,8.2983675E0,8.636711E1,5.337389E1,1.1213697E1,1.7398222E1,1.5105339E2],"tree_param":{"num_deleted":"0","num_feature":"23","num_nodes":"13","size_leaf_vector":"1"}},{"base_weights":[1.725703E-2,-1.9238718E-1,7.9450524E-1,-3.2669526E-1,2.5585666E-1,8.994119E-1,1.2457314E-3,8.330273E-4,-4.2609493E-3,4.915032E-3,-8.169414E-4,2.6222477E-3,1.0342966E-2],"categories":[],"categories_nodes":[],"categories_segments":[],"categories_sizes":[],"default_left":[0,0,0,0,0,0,0,0,0,0,0,0,0],"id":33,"left_children":[1,3,5,7,9,11,-1,-1,-1,-1,-1,-1,-1],"loss_changes":[5.6536484E1,1.6538588E1,5.067692E0,8.624321E0,5.0971994E0,5.1917114E0,0E0,0E0,0E0,0E0,0E0,0E0,0E0],"parents":[2147483647,0,0,1,1,2,2,3,3,4,4,5,5],"right_children":[2,4,6,8,10,12,-1,-1,-1,-1,-1,-1,-1],"split_conditions":[2.5959103E-3,2.097325E-2,4.938121E-2,7.2345585E-1,2.8492343E-2,-1.7864482E-2,1.2457314E-3,8.330273E-4,-4.2609493E-3,4.915032E-3,-8.169414E-4,2.6222477E-3,1.0342966E-2],"split_indices":[22,11,20,16,12,20,0,0,0,0,0,0,0],"split_type":[0,0,0,0,0,0,0,0,0,0,0,0,0],"sum_hessian":[3.4502737E2,2.723263E2,7.270106E1,2.0974977E2,6.2576523E1,6.256178E1,1.0139281E1,4.096046E1,1.6878932E2,3.6582172E1,2.5994352E1,1.1444187E1,5.111759E1],"tree_param":{"num_deleted":"0","num_feature":"23","num_nodes":"13","size_leaf_vector":"1"}}]},"name":"gbtree"},"learner_model_param":{"base_score":"5.818364E-1","boost_from_average":"1","num_class":"0","num_feature":"23","num_target":"1"},"objective":{"name":"binary:logistic","reg_loss_param":{"scale_pos_weight":"1"}}},"version":[2,1,4]}