{"learner":{"attributes":{"best_iteration":"2","best_score":"0.6935758332119268","scikit_learn":"{\"_estimator_type\": \"classifier\"}"},"feature_names":[],"feature_types":[],"gradient_booster":{"model":{"gbtree_model_param":{"num_parallel_tree":"1","num_trees":"33"},"iteration_indptr":[0,1,2,3,4,5,6,7,8,9,10,11,12,13,14,15,16,17,18,19,20,21,22,23,24,25,26,27,28,29,30,31,32,33],"tree_info":[0,0,0,0,0,0,0,0,0,0,0,0,0,0,0,0,0,0,0,0,0,0,0,0,0,0,0,0,0,0,0,0,0],"trees":[{"base_weights":[2.0019716E-2,-6.909158E-1,3.6652145E-1,-1.0873466E0,-3.853758E-1,4.5979884E-1,-3.3310336E-1,-1.813063E-2,-7.98375E-3,2.0219515E-4,-8.778269E-3,1.1761513E-3,6.6250935E-3,4.172538E-3,-1.0484327E-2],"categories":[],"categories_nodes":[],"categories_segments":[],"categories_sizes":[],"default_left":[0,0,0,0,0,0,0,0,0,0,0,0,0,0,0],"id":0,"left_children":[1,3,5,7,9,11,13,-1,-1,-1,-1,-1,-1,-1,-1],"loss_changes":[8.640408E1,1.3503609E1,1.5539894E1,8.929352E0,1.3292683E1,1.438187E1,1.5636702E1,0E0,0E0,0E0,0E0,0E0,0E0,0E0,0E0],"parents":[2147483647,0,0,1,1,2,2,3,3,4,4,5,5,6,6],"right_children":[2,4,6,8,10,12,14,-1,-1,-1,-1,-1,-1,-1,-1],"split_conditions":[4.5801638E-4,-2.0733837E-3,6.286071E-2,2.7492912E-2,1.5178636E-2,3.2140843E-3,-3.4525234E-2,-1.813063E-2,-7.98375E-3,2.0219515E-4,-8.778269E-3,1.1761513E-3,6.6250935E-3,4.172538E-3,-1.0484327E-2],"split_indices":[22,22,17,15,20,22,11,0,0,0,0,0,0,0,0],"split_type":[0,0,0,0,0,0,0,0,0,0,0,0,0,0,0],"sum_hessian":[3.4872284E2,1.13944016E2,2.3477881E2,4.848158E1,6.546243E1,2.0746178E2,2.7317032E1,1.2304969E1,3.617661E1,3.642271E1,2.9039726E1,7.77674E1,1.2969438E2,1.3535466E1,1.3781566E1],"tree_param":{"num_deleted":"0","num_feature":"23","num_nodes":"15","size_leaf_vector":"1"}},{"base_weights":[2.5057793E-2,7.293175E-1,-4.7398936E-2,1.8664998E-3,1.0441848E0,6.608897E-1,-1.03427775E-1,1.3799856E-2,4.8522702E-3,1.0515073E-2,3.6859813E-3,-5.108254E-3,3.2098472E-4],"categories":[],"categories_nodes":[],"categories_segments":[],"categories_sizes":[],"default_left":[0,0,0,0,0,0,0,0,0,0,0,0,0],"id":1,"left_children":[1,3,5,-1,7,9,11,-1,-1,-1,-1,-1,-1],"loss_changes":[1.7641264E1,5.3152905E0,1.2520954E1,0E0,3.119976E0,2.2541656E0,1.611937E1,0E0,0E0,0E0,0E0,0E0,0E0],"parents":[2147483647,0,0,1,1,2,2,4,4,5,5,6,6],"right_children":[2,4,6,-1,8,10,12,-1,-1,-1,-1,-1,-1],"split_conditions":[1.9879626E-2,8.2997215E-1,-4.3949883E-2,1.8664998E-3,1.2253553E0,3.447681E-1,-6.1810357E-3,1.3799856E-2,4.8522702E-3,1.0515073E-2,3.6859813E-3,-5.108254E-3,3.2098472E-4],"split_indices":[15,16,11,0,16,10,12,0,0,0,0,0,0],"split_type":[0,0,0,0,0,0,0,0,0,0,0,0,0],"sum_hessian":[3.4403748E2,3.1248173E1,3.127893E2,1.20584545E1,1.9189718E1,2.213787E1,2.9065143E2,1.1070263E1,8.119454E0,8.36348E0,1.3774391E1,7.186201E1,2.1878943E2],"tree_param":{"num_deleted":"0","num_feature":"23","num_nodes":"13","size_leaf_vector":"1"}},{"base_weights":[2.6271328E-2,-7.1320945E-1,3.5086235E-1,-1.0189406E0,-4.1888997E-1,4.519279E-1,-5.5298305E-1,-1.8393282E-2,-6.602885E-3,-8.323501E-3,-1.5677555E-4,3.4634408E-3,8.764205E-3,1.3746907E-3,-1.0301122E-2],"categories":[],"categories_nodes":[],"categories_segments":[],"categories_sizes":[],"default_left":[0,0,0,0,0,0,0,0,0,0,0,0,0,0,0],"id":2,"left_children":[1,3,5,7,9,11,13,-1,-1,-1,-1,-1,-1,-1,-1],"loss_changes":[8.217924E1,8.971958E0,2.1979563E1,1.3654392E1,9.142264E0,9.310482E0,8.171114E0,0E0,0E0,0E0,0E0,0E0,0E0,0E0,0E0],"parents":[2147483647,0,0,1,1,2,2,3,3,4,4,5,5,6,6],"right_children":[2,4,6,8,10,12,14,-1,-1,-1,-1,-1,-1,-1,-1],"split_conditions":[2.826842E-5,-2.0733837E-3,1.19229764E-1,2.8052647E-2,1.9694243E-2,7.7256947E-3,8.750004E-1,-1.8393282E-2,-6.602885E-3,-8.323501E-3,-1.5677555E-4,3.4634408E-3,8.764205E-3,1.3746907E-3,-1.0301122E-2],"split_indices":[22,22,20,15,12,22,19,0,0,0,0,0,0,0,0],"split_type":[0,0,0,0,0,0,0,0,0,0,0,0,0,0,0],"sum_hessian":[3.4032983E2,1.03451096E2,2.3687874E2,4.953424E1,5.3916855E1,2.1350516E2,2.3373571E1,1.3811987E1,3.572225E1,2.6094677E1,2.7822176E1,1.7243211E2,4.1073044E1,9.842461E0,1.353111E1],"tree_param":{"num_deleted":"0","num_feature":"23","num_nodes":"15","size_leaf_vector":"1"}},{"base_weights":[1.0836967E-3,-7.4663955E-1,3.2605398E-1,-1.8365748E-1,-9.6462053E-1,4.2483786E-1,-4.19325E-1,-9.448305E-3,4.1075796E-3,-1.4737272E-2,-5.296747E-3,4.9335845E-3,-6.9919084E-3,2.925315E-3,-1.079014E-2],"categories":[],"categories_nodes":[],"categories_segments":[],"categories_sizes":[],"default_left":[0,0,0,0,0,0,0,0,0,0,0,0,0,0,0],"id":3,"left_children":[1,3,5,7,9,11,13,-1,-1,-1,-1,-1,-1,-1,-1],"loss_changes":[8.502937E1,1.2832539E1,1.8138248E1,1.4334955E1,1.6089752E1,1.6971249E1,1.3956064E1,0E0,0E0,0E0,0E0,0E0,0E0,0E0,0E0],"parents":[2147483647,0,0,1,1,2,2,3,3,4,4,5,5,6,6],"right_children":[2,4,6,8,10,12,14,-1,-1,-1,-1,-1,-1,-1,-1],"split_conditions":[2.826842E-5,4.6666667E-1,6.286071E-2,-6.036365E-1,2.8699398E-2,9.811529E-2,-3.258785E-2,-9.448305E-3,4.1075796E-3,-1.4737272E-2,-5.296747E-3,4.9335845E-3,-6.9919084E-3,2.925315E-3,-1.079014E-2],"split_indices":[22,14,17,9,12,5,11,0,0,0,0,0,0,0,0],"split_type":[0,0,0,0,0,0,0,0,0,0,0,0,0,0,0],"sum_hessian":[3.4793076E2,1.0501181E2,2.4291896E2,2.9824991E1,7.518682E1,2.1487231E2,2.8046644E1,1.281954E1,1.7005451E1,3.3539883E1,4.164694E1,2.0305518E2,1.1817129E1,1.3757635E1,1.4289009E1],"tree_param":{"num_deleted":"0","num_feature":"23","num_nodes":"15","size_leaf_vector":"1"}},{"base_weights":[9.1867E-3,-6.7510307E-1,3.6552954E-1,-1.827922E-1,-8.420599E-1,4.315112E-1,-5.047537E-3,2.4066146E-3,-7.915783E-3,1.6868081E-4,-9.752226E-3,2.680373E-3,6.6740206E-3],"categories":[],"categories_nodes":[],"categories_segments":[],"categories_sizes":[],"default_left":[0,0,0,0,0,0,0,0,0,0,0,0,0],"id":4,"left_children":[1,3,5,7,9,11,-1,-1,-1,-1,-1,-1,-1],"loss_changes":[8.44845E1,9.598232E0,1.3299486E1,8.265635E0,1.0118576E1,8.007744E0,0E0,0E0,0E0,0E0,0E0,0E0,0E0],"parents":[2147483647,0,0,1,1,2,2,3,3,4,4,5,5],"right_children":[2,4,6,8,10,12,-1,-1,-1,-1,-1,-1,-1],"split_conditions":[5.3801213E-4,6.881658E-1,1.3745022E-1,4.2411957E-2,-1.1761244E-1,5.469424E-3,-5.047537E-3,2.4066146E-3,-7.915783E-3,1.6868081E-4,-9.752226E-3,2.680373E-3,6.6740206E-3],"split_indices":[22,16,2,15,7,22,0,0,0,0,0,0,0],"split_type":[0,0,0,0,0,0,0,0,0,0,0,0,0],"sum_hessian":[3.444606E2,1.1764701E2,2.268136E2,3.0324135E1,8.7322876E1,2.1129794E2,1.5515655E1,1.8240952E1,1.2083182E1,1.18380785E1,7.5484795E1,1.2606817E2,8.5229774E1],"tree_param":{"num_deleted":"0","num_feature":"23","num_nodes":"13","size_leaf_vector":"1"}},{"base_weights":[3.0735362E-4,-7.0341873E-1,3.412283E-1,-4.989126E-1,-1.3515782E0,4.1986412E-1,-7.974761E-3,-8.9375395E-3,-2.257412E-3,-1.6218571E-2,-8.498206E-3,5.0229686E-3,-2.1219673E-3],"categories":[],"categories_nodes":[],"categories_segments":[],"categories_sizes":[],"default_left":[0,0,0,0,0,0,0,0,0,0,0,0,0],"id":5,"left_children":[1,3,5,7,9,11,-1,-1,-1,-1,-1,-1,-1],"loss_changes":[8.512593E1,1.4674587E1,2.173755E1,9.463234E0,2.308731E0,1.1789898E1,0E0,0E0,0E0,0E0,0E0,0E0,0E0],"parents":[2147483647,0,0,1,1,2,2,3,3,4,4,5,5],"right_children":[2,4,6,8,10,12,-1,-1,-1,-1,-1,-1,-1],"split_conditions":[1.9278313E-4,2.6281022E-2,1.3745022E-1,2.1196753E-3,1.8138906E-1,6.286071E-2,-7.974761E-3,-8.9375395E-3,-2.257412E-3,-1.6218571E-2,-8.498206E-3,5.0229686E-3,-2.1219673E-3],"split_indices":[22,5,2,11,4,17,0,0,0,0,0,0,0],"split_type":[0,0,0,0,0,0,0,0,0,0,0,0,0],"sum_hessian":[3.5281665E2,1.14794846E2,2.380218E2,8.860735E1,2.6187492E1,2.2323695E2,1.4784856E1,3.5305332E1,5.3302017E1,1.5568788E1,1.0618705E1,1.9766321E2,2.5573738E1],"tree_param":{"num_deleted":"0","num_feature":"23","num_nodes":"13","size_leaf_vector":"1"}},{"base_weights":[-1.922205E-2,-7.328118E-1,3.4101257E-1,1.6449788E-3,-8.2886463E-1,4.9397856E-1,-5.6357577E-2,-1.2621986E-2,-5.27611E-3,5.9316927E-3,7.2294695E-4,6.3730245E-3,-2.7191539E-3],"categories":[],"categories_nodes":[],"categories_segments":[],"categories_sizes":[],"default_left":[0,0,0,0,0,0,0,0,0,0,0,0,0],"id":6,"left_children":[1,3,5,-1,7,9,11,-1,-1,-1,-1,-1,-1],"loss_changes":[8.9358826E1,1.0186588E1,1.40714035E1,0E0,1.310601E1,6.939102E0,9.909566E0,0E0,0E0,0E0,0E0,0E0,0E0],"parents":[2147483647,0,0,1,1,2,2,4,4,5,5,6,6],"right_children":[2,4,6,-1,8,10,12,-1,-1,-1,-1,-1,-1],"split_conditions":[4.5801638E-4,-1.4837068E-1,1.1342033E0,1.6449788E-3,2.1030229E-2,3.3763424E-1,-2.8673481E-2,-1.2621986E-2,-5.27611E-3,5.9316927E-3,7.2294695E-4,6.3730245E-3,-2.7191539E-3],"split_indices":[22,7,16,0,12,10,5,0,0,0,0,0,0],"split_type":[0,0,0,0,0,0,0,0,0,0,0,0,0],"sum_hessian":[3.4564676E2,1.15606766E2,2.3004001E2,1.1109656E1,1.0449711E2,1.6592482E2,6.411519E1,4.154602E1,6.2951084E1,1.3399835E2,3.1926468E1,1.4736608E1,4.9378582E1],"tree_param":{"num_deleted":"0","num_feature":"23","num_nodes":"13","size_leaf_vector":"1"}},{"base_weights":[-3.5665028E-2,-6.9093084E-1,3.0361658E-1,-1.0760182E0,-3.8556823E-1,4.1142142E-1,-1.9974525E-1,-1.6352529E-2,-7.655931E-3,-1.4994408E-3,-1.4665945E-2,3.365598E-3,1.0842557E-2,-6.678439E-3,2.6084254E-3],"categories":[],"categories_nodes":[],"categories_segments":[],"categories_sizes":[],"default_left":[0,0,0,0,0,0,0,0,0,0,0,0,0,0,0],"id":7,"left_children":[1,3,5,7,9,11,13,-1,-1,-1,-1,-1,-1,-1,-1],"loss_changes":[7.814971E1,1.3684479E1,1.2653967E1,7.856865E0,1.7210682E1,9.262489E0,9.129967E0,0E0,0E0,0E0,0E0,0E0,0E0,0E0,0E0],"parents":[2147483647,0,0,1,1,2,2,3,3,4,4,5,5,6,6],"right_children":[2,4,6,8,10,12,14,-1,-1,-1,-1,-1,-1,-1,-1],"split_conditions":[4.9076765E-4,-2.136429E-3,3.1250052E-2,1.595592E-3,8.820403E-2,3.63749E-1,6.991145E-3,-1.6352529E-2,-7.655931E-3,-1.4994408E-3,-1.4665945E-2,3.365598E-3,1.0842557E-2,-6.678439E-3,2.6084254E-3],"split_indices":[22,22,0,12,2,7,11,0,0,0,0,0,0,0,0],"split_type":[0,0,0,0,0,0,0,0,0,0,0,0,0,0,0],"sum_hessian":[3.49576E2,1.18901375E2,2.3067462E2,5.1469883E1,6.7431496E1,1.9013593E2,4.0538685E1,1.6848791E1,3.462109E1,5.6299065E1,1.113243E1,1.7244894E2,1.7686987E1,1.988224E1,2.0656446E1],"tree_param":{"num_deleted":"0","num_feature":"23","num_nodes":"15","size_leaf_vector":"1"}},{"base_weights":[1.8311026E-2,-6.4352936E-1,3.2441187E-1,-7.38672E-1,4.5295954E-3,3.955724E-1,-6.842659E-3,-1.132527E-2,-3.985748E-3,4.791929E-3,-2.3405533E-3],"categories":[],"categories_nodes":[],"categories_segments":[],"categories_sizes":[],"default_left":[0,0,0,0,0,0,0,0,0,0,0],"id":8,"left_children":[1,3,5,7,-1,9,-1,-1,-1,-1,-1],"loss_changes":[7.0528275E1,1.1820801E1,1.7353853E1,1.3170132E1,0E0,1.1850418E1,0E0,0E0,0E0,0E0,0E0],"parents":[2147483647,0,0,1,1,2,2,3,3,5,5],"right_children":[2,4,6,8,-1,10,-1,-1,-1,-1,-1],"split_conditions":[1.9278313E-4,5.311451E-2,1.5432099E-1,-2.136429E-3,4.5295954E-3,6.286071E-2,-6.842659E-3,-1.132527E-2,-3.985748E-3,4.791929E-3,-2.3405533E-3],"split_indices":[22,15,2,22,0,17,0,0,0,0,0],"split_type":[0,0,0,0,0,0,0,0,0,0,0],"sum_hessian":[3.461027E2,1.0910259E2,2.370001E2,1.00691864E2,8.410731E0,2.2194975E2,1.505035E1,4.557871E1,5.511315E1,1.961395E2,2.5810255E1],"tree_param":{"num_deleted":"0","num_feature":"23","num_nodes":"11","size_leaf_vector":"1"}},{"base_weights":[5.662377E-3,-6.9512856E-1,3.3795008E-1,-1.0461072E0,-3.6825767E-1,4.185186E-1,-8.835455E-3,-1.7969469E-2,-7.596664E-3,-2.627883E-4,-1.1731328E-2,1.0627795E-2,3.3633774E-3],"categories":[],"categories_nodes":[],"categories_segments":[],"categories_sizes":[],"default_left":[0,0,0,0,0,0,0,0,0,0,0,0,0],"id":9,"left_children":[1,3,5,7,9,11,-1,-1,-1,-1,-1,-1,-1],"loss_changes":[8.047969E1,1.2368332E1,2.344122E1,1.0047291E1,1.6237415E1,1.1322666E1,0E0,0E0,0E0,0E0,0E0,0E0,0E0],"parents":[2147483647,0,0,1,1,2,2,3,3,4,4,5,5],"right_children":[2,4,6,8,10,12,-1,-1,-1,-1,-1,-1,-1],"split_conditions":[1.9278313E-4,-2.0733837E-3,1.5432099E-1,2.7572187E-2,2.7487647E-2,2.0092014E-2,-8.835455E-3,-1.7969469E-2,-7.596664E-3,-2.627883E-4,-1.1731328E-2,1.0627795E-2,3.3633774E-3],"split_indices":[22,22,2,15,5,15,0,0,0,0,0,0,0],"split_type":[0,0,0,0,0,0,0,0,0,0,0,0,0],"sum_hessian":[3.43599E2,1.1016672E2,2.3343228E2,5.2063255E1,5.8103462E1,2.1960475E2,1.3827516E1,1.2920839E1,3.9142414E1,4.1502396E1,1.6601067E1,2.3493567E1,1.9611119E2],"tree_param":{"num_deleted":"0","num_feature":"23","num_nodes":"13","size_leaf_vector":"1"}},{"base_weights":[-1.076197E-2,-6.0721034E-1,3.0879498E-1,-3.4442988E-1,-1.0296601E0,4.3715835E-1,-2.717738E-1,-8.571901E-3,1.5213287E-3,-1.2964008E-2,-5.2435533E-3,5.303068E-3,-2.7348166E-3,-8.494437E-3,9.265444E-4],"categories":[],"categories_nodes":[],"categories_segments":[],"categories_sizes":[],"default_left":[0,0,0,0,0,0,0,0,0,0,0,0,0,0,0],"id":10,"left_children":[1,3,5,7,9,11,13,-1,-1,-1,-1,-1,-1,-1,-1],"loss_changes":[6.534851E1,1.2922688E1,1.6757824E1,1.9287573E1,5.434662E0,1.2273804E1,8.719137E0,0E0,0E0,0E0,0E0,0E0,0E0,0E0,0E0],"parents":[2147483647,0,0,1,1,2,2,3,3,4,4,5,5,6,6],"right_children":[2,4,6,8,10,12,14,-1,-1,-1,-1,-1,-1,-1,-1],"split_conditions":[4.9076765E-4,1.4541726E-2,6.2244385E-2,1.9694243E-2,2.4453466E-1,6.4777166E-2,6.1389368E-2,-8.571901E-3,1.5213287E-3,-1.2964008E-2,-5.2435533E-3,5.303068E-3,-2.7348166E-3,-8.494437E-3,9.265444E-4],"split_indices":[22,5,1,12,7,17,6,0,0,0,0,0,0,0,0],"split_type":[0,0,0,0,0,0,0,0,0,0,0,0,0,0,0],"sum_hessian":[3.4087448E2,1.1860319E2,2.2227129E2,7.4238945E1,4.4364246E1,1.8222784E2,4.0043438E1,3.616648E1,3.807246E1,2.8011782E1,1.6352463E1,1.613344E2,2.0893456E1,1.4975025E1,2.5068413E1],"tree_param":{"num_deleted":"0","num_feature":"23","num_nodes":"15","size_leaf_vector":"1"}},{"base_weights":[-2.5656959E-2,-6.36633E-1,2.8866187E-1,-8.273993E-2,-8.521748E-1,4.0670857E-1,-2.9630932E-1,5.4474347E-3,-4.6327026E-3,-1.6203265E-4,-9.47172E-3,2.7966595E-3,8.244156E-3,-7.941912E-3,1.0107611E-3],"categories":[],"categories_nodes":[],"categories_segments":[],"categories_sizes":[],"default_left":[0,0,0,0,0,0,0,0,0,0,0,0,0,0,0],"id":11,"left_children":[1,3,5,7,9,11,13,-1,-1,-1,-1,-1,-1,-1,-1],"loss_changes":[6.667837E1,1.4009075E1,1.5955912E1,8.40512E0,6.7181168E0,9.917622E0,7.813183E0,0E0,0E0,0E0,0E0,0E0,0E0,0E0,0E0],"parents":[2147483647,0,0,1,1,2,2,3,3,4,4,5,5,6,6],"right_children":[2,4,6,8,10,12,14,-1,-1,-1,-1,-1,-1,-1,-1],"split_conditions":[4.9076765E-4,6.94354E-1,3.5152156E-2,-4.259002E-3,2.7685454E-2,8.278362E-2,-2.3486265E-3,5.4474347E-3,-4.6327026E-3,-1.6203265E-4,-9.47172E-3,2.7966595E-3,8.244156E-3,-7.941912E-3,1.0107611E-3],"split_indices":[22,16,0,13,17,8,11,0,0,0,0,0,0,0,0],"split_type":[0,0,0,0,0,0,0,0,0,0,0,0,0,0,0],"sum_hessian":[3.452516E2,1.169322E2,2.283194E2,3.3143887E1,8.3788315E1,1.902349E2,3.8084507E1,1.2349078E1,2.0794807E1,8.669309E0,7.5119E1,1.4714984E2,4.3085056E1,1.6461477E1,2.1623028E1],"tree_param":{"num_deleted":"0","num_feature":"23","num_nodes":"15","size_leaf_vector":"1"}},{"base_weights":[1.300961E-2,-6.562588E-1,3.3999422E-1,-4.548334E-1,-1.1615313E0,4.150318E-1,-4.29914E-1,-7.417249E-3,3.279728E-4,-3.523442E-3,-1.43910535E-2,1.0729453E-2,3.4758719E-3,-9.761723E-3,6.235688E-4],"categories":[],"categories_nodes":[],"categories_segments":[],"categories_sizes":[],"default_left":[0,0,0,0,0,0,0,0,0,0,0,0,0,0,0],"id":12,"left_children":[1,3,5,7,9,11,13,-1,-1,-1,-1,-1,-1,-1,-1],"loss_changes":[7.588593E1,1.1055641E1,1.3634954E1,1.1638844E1,6.6349792E0,9.067265E0,5.7554235E0,0E0,0E0,0E0,0E0,0E0,0E0,0E0,0E0],"parents":[2147483647,0,0,1,1,2,2,3,3,4,4,5,5,6,6],"right_children":[2,4,6,8,10,12,14,-1,-1,-1,-1,-1,-1,-1,-1],"split_conditions":[1.9278313E-4,7.5495934E-1,5.3481307E-2,2.2511755E-1,1.7391604E-1,1.9879626E-2,1.7207345E-2,-7.417249E-3,3.279728E-4,-3.523442E-3,-1.43910535E-2,1.0729453E-2,3.4758719E-3,-9.761723E-3,6.235688E-4],"split_indices":[22,19,0,10,10,15,8,0,0,0,0,0,0,0,0],"split_type":[0,0,0,0,0,0,0,0,0,0,0,0,0,0,0],"sum_hessian":[3.4474408E2,1.12819466E2,2.3192462E2,8.202186E1,3.079761E1,2.1174797E2,2.0176655E1,5.1311996E1,3.0709862E1,8.44577E0,2.235184E1,1.8302343E1,1.9344562E2,9.097941E0,1.1078712E1],"tree_param":{"num_deleted":"0","num_feature":"23","num_nodes":"15","size_leaf_vector":"1"}},{"base_weights":[1.1467815E-2,-6.7358696E-1,3.0698636E-1,-9.994407E-1,-3.553831E-1,3.785827E-1,-6.3815296E-1,-3.3917877E-5,-1.2518441E-2,2.9079646E-3,-8.595699E-3,4.6119266E-3,-2.9083127E-3,-1.0513755E-2,-1.4405051E-3],"categories":[],"categories_nodes":[],"categories_segments":[],"categories_sizes":[],"default_left":[0,0,0,0,0,0,0,0,0,0,0,0,0,0,0],"id":13,"left_children":[1,3,5,7,9,11,13,-1,-1,-1,-1,-1,-1,-1,-1],"loss_changes":[7.066801E1,1.0553371E1,1.6742088E1,1.2924622E1,1.8096828E1,1.2703873E1,3.4304285E0,0E0,0E0,0E0,0E0,0E0,0E0,0E0,0E0],"parents":[2147483647,0,0,1,1,2,2,3,3,4,4,5,5,6,6],"right_children":[2,4,6,8,10,12,14,-1,-1,-1,-1,-1,-1,-1,-1],"split_conditions":[2.826842E-5,2.1030229E-2,1.3745022E-1,-1.4837068E-1,3.4885216E-1,6.342698E-2,2.7318045E-1,-3.3917877E-5,-1.2518441E-2,2.9079646E-3,-8.595699E-3,4.6119266E-3,-2.9083127E-3,-1.0513755E-2,-1.4405051E-3],"split_indices":[22,12,2,7,9,17,7,0,0,0,0,0,0,0,0],"split_type":[0,0,0,0,0,0,0,0,0,0,0,0,0,0,0],"sum_hessian":[3.4704877E2,1.0420565E2,2.4284312E2,5.042624E1,5.3779408E1,2.2629987E2,1.6543251E1,1.0399715E1,4.0026527E1,2.3756136E1,3.0023272E1,2.0171767E2,2.4582209E1,8.3947735E0,8.148478E0],"tree_param":{"num_deleted":"0","num_feature":"23","num_nodes":"15","size_leaf_vector":"1"}},{"base_weights":[2.1910144E-2,-1.064949E0,2.1494484E-1,-1.6889976E-2,-9.0088814E-1,3.4478143E-1,-3.292367E-1,-1.1583649E-2,-5.8706515E-3,-9.0591307E-4,5.624286E-3,-9.983313E-3,-1.3246627E-3],"categories":[],"categories_nodes":[],"categories_segments":[],"categories_sizes":[],"default_left":[0,0,0,0,0,0,0,0,0,0,0,0,0],"id":14,"left_children":[1,3,5,-1,7,9,11,-1,-1,-1,-1,-1,-1],"loss_changes":[7.26138E1,3.8231087E0,2.0872736E1,0E0,2.8331947E0,2.2575186E1,7.386593E0,0E0,0E0,0E0,0E0,0E0,0E0],"parents":[2147483647,0,0,1,1,2,2,4,4,5,5,6,6],"right_children":[2,4,6,-1,8,10,12,-1,-1,-1,-1,-1,-1],"split_conditions":[-2.0733837E-3,3.6456034E-2,7.733376E-2,-1.6889976E-2,5.4098356E-1,1.8084788E-3,-2.4248278E-2,-1.1583649E-2,-5.8706515E-3,-9.0591307E-4,5.624286E-3,-9.983313E-3,-1.3246627E-3],"split_indices":[22,17,2,0,19,22,8,0,0,0,0,0,0],"split_type":[0,0,0,0,0,0,0,0,0,0,0,0,0],"sum_hessian":[3.4401605E2,5.1203556E1,2.928125E2,8.724126E0,4.2479427E1,2.3670364E2,5.6108837E1,2.1856264E1,2.0623165E1,7.908632E1,1.5761734E2,1.1825165E1,4.4283672E1],"tree_param":{"num_deleted":"0","num_feature":"23","num_nodes":"13","size_leaf_vector":"1"}},{"base_weights":[-3.084861E-2,-6.37874E-1,2.5065836E-1,-9.538002E-1,-3.3715928E-1,3.2506832E-1,-7.204821E-1,1.5414337E-3,-1.2176231E-2,3.7935444E-3,-6.0750344E-3,4.0509924E-3,-4.090327E-3,-1.2198951E-2,-1.4167968E-3],"categories":[],"categories_nodes":[],"categories_segments":[],"categories_sizes":[],"default_left":[0,0,0,0,0,0,0,0,0,0,0,0,0,0,0],"id":15,"left_children":[1,3,5,7,9,11,13,-1,-1,-1,-1,-1,-1,-1,-1],"loss_changes":[5.97397E1,1.0199661E1,1.7498817E1,1.5814121E1,1.1520679E1,1.3243681E1,4.831996E0,0E0,0E0,0E0,0E0,0E0,0E0,0E0,0E0],"parents":[2147483647,0,0,1,1,2,2,3,3,4,4,5,5,6,6],"right_children":[2,4,6,8,10,12,14,-1,-1,-1,-1,-1,-1,-1,-1],"split_conditions":[1.9278313E-4,2.1030229E-2,1.3745022E-1,-4.9938317E-2,6.8187386E-1,6.4777166E-2,2.4453466E-1,1.5414337E-3,-1.2176231E-2,3.7935444E-3,-6.0750344E-3,4.0509924E-3,-4.090327E-3,-1.2198951E-2,-1.4167968E-3],"split_indices":[22,12,20,8,16,17,7,0,0,0,0,0,0,0,0],"split_type":[0,0,0,0,0,0,0,0,0,0,0,0,0,0,0],"sum_hessian":[3.476608E2,1.0974566E2,2.3791515E2,5.246011E1,5.7285545E1,2.2160107E2,1.6314072E1,1.0169267E1,4.2290844E1,1.5582593E1,4.1702953E1,2.0022133E2,2.1379747E1,8.163054E0,8.151017E0],"tree_param":{"num_deleted":"0","num_feature":"23","num_nodes":"15","size_leaf_vector":"1"}},{"base_weights":[3.0416869E-2,9.9891536E-2,-7.277845E-1,-1.15630746E-1,2.294817E-1,-1.2790455E-2,-2.5411956E-3,5.87343E-3,-3.109299E-3,5.404368E-3,7.474761E-4],"categories":[],"categories_nodes":[],"categories_segments":[],"categories_sizes":[],"default_left":[0,0,0,0,0,0,0,0,0,0,0],"id":16,"left_children":[1,3,5,7,9,-1,-1,-1,-1,-1,-1],"loss_changes":[1.8166012E1,8.839201E0,7.2348633E0,1.6540413E1,9.456819E0,0E0,0E0,0E0,0E0,0E0,0E0],"parents":[2147483647,0,0,1,1,2,2,3,3,4,4],"right_children":[2,4,6,8,10,-1,-1,-1,-1,-1,-1],"split_conditions":[1.19229764E-1,8.623927E-4,2.361987E-1,-4.0017214E-2,1.0615895E-1,-1.2790455E-2,-2.5411956E-3,5.87343E-3,-3.109299E-3,5.404368E-3,7.474761E-4],"split_indices":[2,12,7,11,7,0,0,0,0,0,0],"split_type":[0,0,0,0,0,0,0,0,0,0,0],"sum_hessian":[3.4248438E2,3.145318E2,2.795258E1,1.1814754E2,1.9638428E2,1.2132367E1,1.5820211E1,2.5250757E1,9.289678E1,6.4424164E1,1.3196011E2],"tree_param":{"num_deleted":"0","num_feature":"23","num_nodes":"11","size_leaf_vector":"1"}},{"base_weights":[4.956422E-3,-6.4495546E-1,2.9257575E-1,-8.294732E-2,-8.5833615E-1,3.8997912E-1,-6.1933607E-1,4.1240207E-3,-6.737299E-3,-6.8088796E-4,-9.887334E-3,4.86662E-3,-3.9315755E-3,6.215059E-4,-1.1180065E-2],"categories":[],"categories_nodes":[],"categories_segments":[],"categories_sizes":[],"default_left":[0,0,0,0,0,0,0,0,0,0,0,0,0,0,0],"id":17,"left_children":[1,3,5,7,9,11,13,-1,-1,-1,-1,-1,-1,-1,-1],"loss_changes":[6.447152E1,1.2618038E1,2.1477365E1,9.123225E0,7.8246536E0,1.6593002E1,8.041597E0,0E0,0E0,0E0,0E0,0E0,0E0,0E0,0E0],"parents":[2147483647,0,0,1,1,2,2,3,3,4,4,5,5,6,6],"right_children":[2,4,6,8,10,12,14,-1,-1,-1,-1,-1,-1,-1,-1],"split_conditions":[2.826842E-5,6.94354E-1,1.12112105E-1,-7.060075E-4,-1.2181721E-1,6.342698E-2,8.750004E-1,4.1240207E-3,-6.737299E-3,-6.8088796E-4,-9.887334E-3,4.86662E-3,-3.9315755E-3,6.215059E-4,-1.1180065E-2],"split_indices":[22,16,2,13,7,17,19,0,0,0,0,0,0,0,0],"split_type":[0,0,0,0,0,0,0,0,0,0,0,0,0,0,0],"sum_hessian":[3.4289227E2,1.0481263E2,2.3807964E2,2.9225748E1,7.5586876E1,2.1562102E2,2.2458618E1,1.6061071E1,1.3164677E1,1.0921489E1,6.466539E1,1.922635E2,2.3357508E1,9.859677E0,1.259894E1],"tree_param":{"num_deleted":"0","num_feature":"23","num_nodes":"15","size_leaf_vector":"1"}},{"base_weights":[3.112093E-2,-5.193567E-1,3.149438E-1,-8.428523E-1,-1.492614E-1,4.21355E-1,-1.6874672E-1,1.2051777E-3,-1.1908375E-2,6.087797E-4,-1.1565734E-2,3.0039682E-4,5.2402085E-3,2.894041E-4,-8.482231E-3],"categories":[],"categories_nodes":[],"categories_segments":[],"categories_sizes":[],"default_left":[0,0,0,0,0,0,0,0,0,0,0,0,0,0,0],"id":18,"left_children":[1,3,5,7,9,11,13,-1,-1,-1,-1,-1,-1,-1,-1],"loss_changes":[5.5191242E1,1.4264397E1,1.2064106E1,2.1571903E1,1.2194104E1,7.66877E0,5.764451E0,0E0,0E0,0E0,0E0,0E0,0E0,0E0,0E0],"parents":[2147483647,0,0,1,1,2,2,3,3,4,4,5,5,6,6],"right_children":[2,4,6,8,10,12,14,-1,-1,-1,-1,-1,-1,-1,-1],"split_conditions":[4.9076765E-4,2.8346032E-2,3.1250052E-2,-6.988589E-2,4.2504033E-1,-2.3584884E-2,1.02673255E-1,1.2051777E-3,-1.1908375E-2,6.087797E-4,-1.1565734E-2,3.0039682E-4,5.2402085E-3,2.894041E-4,-8.482231E-3],"split_indices":[22,12,0,4,7,0,5,0,0,0,0,0,0,0,0],"split_type":[0,0,0,0,0,0,0,0,0,0,0,0,0,0,0],"sum_hessian":[3.512038E2,1.1919462E2,2.3200919E2,6.2919823E1,5.6274796E1,1.9027733E2,4.173186E1,1.6870056E1,4.604977E1,4.733882E1,8.935975E0,3.9814648E1,1.5046268E2,3.3068348E1,8.663511E0],"tree_param":{"num_deleted":"0","num_feature":"23","num_nodes":"15","size_leaf_vector":"1"}},{"base_weights":[-3.43506E-2,6.5918565E-2,-6.2715983E-1,7.817686E-1,-4.7338512E-4,-9.928993E-1,-1.5307952E-1,2.8552054E-3,1.4628487E-2,-7.163004E-4,7.800079E-3,-5.4959552E-3,-1.4197292E-2,2.321185E-3,-6.502656E-3],"categories":[],"categories_nodes":[],"categories_segments":[],"categories_sizes":[],"default_left":[0,0,0,0,0,0,0,0,0,0,0,0,0,0,0],"id":19,"left_children":[1,3,5,7,9,11,13,-1,-1,-1,-1,-1,-1,-1,-1],"loss_changes":[2.0811266E1,1.4247768E1,8.629686E0,8.181955E0,1.5346885E1,4.5949707E0,4.601546E0,0E0,0E0,0E0,0E0,0E0,0E0,0E0,0E0],"parents":[2147483647,0,0,1,1,2,2,3,3,4,4,5,5,6,6],"right_children":[2,4,6,8,10,12,14,-1,-1,-1,-1,-1,-1,-1,-1],"split_conditions":[8.9007154E-2,1.917781E-2,2.3197412E-1,4.572711E-2,5.47608E-2,1.1911827E0,3.5152156E-2,2.8552054E-3,1.4628487E-2,-7.163004E-4,7.800079E-3,-5.4959552E-3,-1.4197292E-2,2.321185E-3,-6.502656E-3],"split_indices":[20,15,7,21,15,16,0,0,0,0,0,0,0,0,0],"split_type":[0,0,0,0,0,0,0,0,0,0,0,0,0,0,0],"sum_hessian":[3.4842386E2,2.9877686E2,4.9647022E1,2.4443842E1,2.74333E2,2.740809E1,2.2238932E1,1.4961685E1,9.482156E0,2.5224408E2,2.2088926E1,1.456675E1,1.2841341E1,1.2831096E1,9.407836E0],"tree_param":{"num_deleted":"0","num_feature":"23","num_nodes":"15","size_leaf_vector":"1"}},{"base_weights":[-2.071062E-2,-5.733053E-1,2.5935984E-1,-9.1148174E-1,-3.1925693E-1,3.863795E-1,-3.3811602E-1,-1.6204948E-2,-6.3465647E-3,-4.379764E-4,-9.64312E-3,4.9620913E-3,-5.8790337E-4,-7.0913294E-3,7.99585E-4],"categories":[],"categories_nodes":[],"categories_segments":[],"categories_sizes":[],"default_left":[0,0,0,0,0,0,0,0,0,0,0,0,0,0,0],"id":20,"left_children":[1,3,5,7,9,11,13,-1,-1,-1,-1,-1,-1,-1,-1],"loss_changes":[5.453469E1,9.89053E0,1.7881573E1,8.843716E0,1.2255651E1,9.48303E0,6.500235E0,0E0,0E0,0E0,0E0,0E0,0E0,0E0,0E0],"parents":[2147483647,0,0,1,1,2,2,3,3,4,4,5,5,6,6],"right_children":[2,4,6,8,10,12,14,-1,-1,-1,-1,-1,-1,-1,-1],"split_conditions":[4.5801638E-4,-2.0733837E-3,3.1250052E-2,2.7572187E-2,2.7487647E-2,6.1142337E-2,1.7207345E-2,-1.6204948E-2,-6.3465647E-3,-4.379764E-4,-9.64312E-3,4.9620913E-3,-5.8790337E-4,-7.0913294E-3,7.99585E-4],"split_indices":[22,22,0,15,5,2,8,0,0,0,0,0,0,0,0],"split_type":[0,0,0,0,0,0,0,0,0,0,0,0,0,0,0],"sum_hessian":[3.5040918E2,1.17509445E2,2.3289973E2,4.929826E1,6.821118E1,1.9235876E2,4.0540974E1,1.2480075E1,3.6818188E1,4.8547665E1,1.966352E1,1.5420065E2,3.8158115E1,2.1110468E1,1.9430506E1],"tree_param":{"num_deleted":"0","num_feature":"23","num_nodes":"15","size_leaf_vector":"1"}},{"base_weights":[-3.7404444E-2,-5.80677E-1,2.4906199E-1,-9.3706894E-1,-2.923315E-1,3.3172557E-1,-3.5557488E-1,-1.6305706E-2,-6.1232713E-3,-1.1711129E-3,-1.3672826E-2,7.2619417E-3,1.8999729E-3,5.2877394E-3,-1.0283348E-2],"categories":[],"categories_nodes":[],"categories_segments":[],"categories_sizes":[],"default_left":[0,0,0,0,0,0,0,0,0,0,0,0,0,0,0],"id":21,"left_children":[1,3,5,7,9,11,13,-1,-1,-1,-1,-1,-1,-1,-1],"loss_changes":[5.4452175E1,1.2137527E1,1.1572613E1,1.10640335E1,1.2688387E1,1.116267E1,1.7230186E1,0E0,0E0,0E0,0E0,0E0,0E0,0E0,0E0],"parents":[2147483647,0,0,1,1,2,2,3,3,4,4,5,5,6,6],"right_children":[2,4,6,8,10,12,14,-1,-1,-1,-1,-1,-1,-1,-1],"split_conditions":[4.5801638E-4,-2.0733837E-3,6.286071E-2,2.835254E-2,1.3655601E-2,3.3697087E-1,-1.3288502E-1,-1.6305706E-2,-6.1232713E-3,-1.1711129E-3,-1.3672826E-2,7.2619417E-3,1.8999729E-3,5.2877394E-3,-1.0283348E-2],"split_indices":[22,22,17,15,13,19,7,0,0,0,0,0,0,0,0],"split_type":[0,0,0,0,0,0,0,0,0,0,0,0,0,0,0],"sum_hessian":[3.4795447E2,1.19776306E2,2.2817816E2,5.2561287E1,6.721502E1,2.0113159E2,2.7046562E1,1.54805975E1,3.7080692E1,5.8747883E1,8.467133E0,5.207335E1,1.4905824E2,1.1778131E1,1.5268433E1],"tree_param":{"num_deleted":"0","num_feature":"23","num_nodes":"15","size_leaf_vector":"1"}},{"base_weights":[2.6396539E-3,-4.7744143E-1,3.2947615E-1,-7.6592064E-1,-1.3165379E-1,4.937967E-1,-2.354851E-1,-2.5398892E-3,-1.1086554E-2,-1.152378E-2,5.705633E-4,1.1305082E-2,3.8794868E-3,-8.887635E-3,2.1060878E-4],"categories":[],"categories_nodes":[],"categories_segments":[],"categories_sizes":[],"default_left":[0,0,0,0,0,0,0,0,0,0,0,0,0,0,0],"id":22,"left_children":[1,3,5,7,9,11,13,-1,-1,-1,-1,-1,-1,-1,-1],"loss_changes":[5.442381E1,1.3913616E1,1.927338E1,1.3120773E1,1.260666E1,1.03569565E1,7.92474E0,0E0,0E0,0E0,0E0,0E0,0E0,0E0,0E0],"parents":[2147483647,0,0,1,1,2,2,3,3,4,4,5,5,6,6],"right_children":[2,4,6,8,10,12,14,-1,-1,-1,-1,-1,-1,-1,-1],"split_conditions":[1.3678252E-3,2.9372977E-2,7.343567E-2,4.6666667E-1,-4.8406753E-3,2.0636773E-2,-8.473827E-3,-2.5398892E-3,-1.1086554E-2,-1.152378E-2,5.705633E-4,1.1305082E-2,3.8794868E-3,-8.887635E-3,2.1060878E-4],"split_indices":[22,12,2,14,22,15,11,0,0,0,0,0,0,0,0],"split_type":[0,0,0,0,0,0,0,0,0,0,0,0,0,0,0],"sum_hessian":[3.4484915E2,1.3949216E2,2.0535698E2,7.538551E1,6.410665E1,1.5918387E2,4.617311E1,3.0928976E1,4.4456535E1,9.205878E0,5.4900772E1,2.1310936E1,1.3787292E2,1.2324697E1,3.3848415E1],"tree_param":{"num_deleted":"0","num_feature":"23","num_nodes":"15","size_leaf_vector":"1"}},{"base_weights":[3.739006E-3,-5.4695135E-1,2.8651685E-1,-3.5904524E-1,-1.0114537E0,3.6063138E-1,-3.892495E-1,-7.4532456E-3,-5.4813514E-4,-1.6115513E-2,-4.8106746E-3,2.3190852E-3,7.3345806E-3,3.141234E-3,-8.998302E-3],"categories":[],"categories_nodes":[],"categories_segments":[],"categories_sizes":[],"default_left":[0,0,0,0,0,0,0,0,0,0,0,0,0,0,0],"id":23,"left_children":[1,3,5,7,9,11,13,-1,-1,-1,-1,-1,-1,-1,-1],"loss_changes":[5.4889046E1,1.0075058E1,1.1804037E1,1.0147602E1,1.0012665E1,9.926498E0,8.721383E0,0E0,0E0,0E0,0E0,0E0,0E0,0E0,0E0],"parents":[2147483647,0,0,1,1,2,2,3,3,4,4,5,5,6,6],"right_children":[2,4,6,8,10,12,14,-1,-1,-1,-1,-1,-1,-1,-1],"split_conditions":[4.5801638E-4,7.6259E-1,1.19229764E-1,-2.2017946E-3,2.9372977E-2,7.837676E-2,8.750004E-1,-7.4532456E-3,-5.4813514E-4,-1.6115513E-2,-4.8106746E-3,2.3190852E-3,7.3345806E-3,3.141234E-3,-8.998302E-3],"split_indices":[22,19,2,22,12,6,19,0,0,0,0,0,0,0,0],"split_type":[0,0,0,0,0,0,0,0,0,0,0,0,0,0,0],"sum_hessian":[3.5047232E2,1.1859076E2,2.3188155E2,8.569667E1,3.289409E1,2.0938377E2,2.2497786E1,3.711824E1,4.857843E1,1.4476463E1,1.8417624E1,1.5685109E2,5.2532673E1,9.6242485E0,1.2873536E1],"tree_param":{"num_deleted":"0","num_feature":"23","num_nodes":"15","size_leaf_vector":"1"}},{"base_weights":[-1.1877491E-2,-5.5901706E-1,2.8243104E-1,-9.182413E-1,-2.909255E-1,3.8732377E-1,-2.4494265E-1,-1.2168882E-2,-3.8520726E-3,-1.204998E-3,-1.2530731E-2,4.5122067E-3,-4.2222855E-3,-6.305105E-3,1.3933897E-3],"categories":[],"categories_nodes":[],"categories_segments":[],"categories_sizes":[],"default_left":[0,0,0,0,0,0,0,0,0,0,0,0,0,0,0],"id":24,"left_children":[1,3,5,7,9,11,13,-1,-1,-1,-1,-1,-1,-1,-1],"loss_changes":[5.664609E1,1.1581478E1,1.2749655E1,7.827484E0,1.16415E1,1.0080938E1,5.801859E0,0E0,0E0,0E0,0E0,0E0,0E0,0E0,0E0],"parents":[2147483647,0,0,1,1,2,2,3,3,4,4,5,5,6,6],"right_children":[2,4,6,8,10,12,14,-1,-1,-1,-1,-1,-1,-1,-1],"split_conditions":[6.048063E-4,-2.0733837E-3,3.381651E-2,2.4092019E-1,1.3655601E-2,6.8326935E-2,7.7813976E-3,-1.2168882E-2,-3.8520726E-3,-1.204998E-3,-1.2530731E-2,4.5122067E-3,-4.2222855E-3,-6.305105E-3,1.3933897E-3],"split_indices":[22,22,0,10,13,17,11,0,0,0,0,0,0,0,0],"split_type":[0,0,0,0,0,0,0,0,0,0,0,0,0,0,0],"sum_hessian":[3.4979782E2,1.2203221E2,2.2776561E2,5.1115643E1,7.091657E1,1.9020088E2,3.756472E1,3.1938356E1,1.9177286E1,6.120121E1,9.715362E0,1.7669705E2,1.3503841E1,1.8431139E1,1.9133581E1],"tree_param":{"num_deleted":"0","num_feature":"23","num_nodes":"15","size_leaf_vector":"1"}},{"base_weights":[-1.5859617E-2,-6.139908E-1,2.534692E-1,-9.6432865E-1,-2.9364783E-1,3.4762847E-1,-2.4376924E-1,-2.6818577E-3,-1.3258204E-2,-7.2918145E-4,-1.1369544E-2,2.057518E-3,7.1155266E-3,-1.0120184E-2,1.9877517E-4],"categories":[],"categories_nodes":[],"categories_segments":[],"categories_sizes":[],"default_left":[0,0,0,0,0,0,0,0,0,0,0,0,0,0,0],"id":25,"left_children":[1,3,5,7,9,11,13,-1,-1,-1,-1,-1,-1,-1,-1],"loss_changes":[5.733215E1,1.2116898E1,1.1575996E1,1.2814861E1,1.092808E1,1.0529715E1,8.054116E0,0E0,0E0,0E0,0E0,0E0,0E0,0E0,0E0],"parents":[2147483647,0,0,1,1,2,2,3,3,4,4,5,5,6,6],"right_children":[2,4,6,8,10,12,14,-1,-1,-1,-1,-1,-1,-1,-1],"split_conditions":[2.826842E-5,2.1030229E-2,8.9007154E-2,-1.1903119E-1,4.0418085E-1,6.343334E-2,-1.1073995E-2,-2.6818577E-3,-1.3258204E-2,-7.2918145E-4,-1.1369544E-2,2.057518E-3,7.1155266E-3,-1.0120184E-2,1.9877517E-4],"split_indices":[22,12,2,7,7,6,11,0,0,0,0,0,0,0,0],"split_type":[0,0,0,0,0,0,0,0,0,0,0,0,0,0,0],"sum_hessian":[3.5392654E2,1.0948972E2,2.4443681E2,5.1336308E1,5.815341E1,2.0577184E2,3.8664986E1,1.8141739E1,3.319457E1,4.6950825E1,1.1202588E1,1.491793E2,5.659252E1,9.153564E0,2.951142E1],"tree_param":{"num_deleted":"0","num_feature":"23","num_nodes":"15","size_leaf_vector":"1"}},{"base_weights":[1.168282E-2,-5.354944E-1,2.8443348E-1,-3.5233253E-1,-1.0298654E0,4.0831482E-1,-3.2122707E-1,-5.15042E-3,3.7393677E-3,-3.2422463E-3,-1.2987081E-2,3.0199576E-3,7.896518E-3,-9.450478E-3,-7.700532E-4],"categories":[],"categories_nodes":[],"categories_segments":[],"categories_sizes":[],"default_left":[0,0,0,0,0,0,0,0,0,0,0,0,0,0,0],"id":26,"left_children":[1,3,5,7,9,11,13,-1,-1,-1,-1,-1,-1,-1,-1],"loss_changes":[5.1343105E1,1.0000359E1,1.7354723E1,1.0240456E1,5.3496666E0,7.5059586E0,5.951143E0,0E0,0E0,0E0,0E0,0E0,0E0,0E0,0E0],"parents":[2147483647,0,0,1,1,2,2,3,3,4,4,5,5,6,6],"right_children":[2,4,6,8,10,12,14,-1,-1,-1,-1,-1,-1,-1,-1],"split_conditions":[4.5801638E-4,7.6259E-1,3.1250052E-2,4.4898298E-2,1.7590939E-1,8.565603E-2,8.964159E-3,-5.15042E-3,3.7393677E-3,-3.2422463E-3,-1.2987081E-2,3.0199576E-3,7.896518E-3,-9.450478E-3,-7.700532E-4],"split_indices":[22,19,0,15,10,8,2,0,0,0,0,0,0,0,0],"split_type":[0,0,0,0,0,0,0,0,0,0,0,0,0,0,0],"sum_hessian":[3.420031E2,1.1344758E2,2.2855553E2,8.4028244E1,2.9419334E1,1.900157E2,3.8539833E1,6.888619E1,1.5142054E1,8.72487E0,2.0694466E1,1.4998961E2,4.002608E1,1.0035729E1,2.8504103E1],"tree_param":{"num_deleted":"0","num_feature":"23","num_nodes":"15","size_leaf_vector":"1"}},{"base_weights":[2.4057405E-2,-4.27433E-1,3.3195212E-1,-8.6346287E-1,-1.7950198E-1,7.584308E-1,1.5659894E-1,-6.664278E-3,-1.3412946E-2,-5.2040437E-4,-1.2736963E-2,3.2604616E-3,1.1563268E-2,4.833692E-3,-1.075374E-3],"categories":[],"categories_nodes":[],"categories_segments":[],"categories_sizes":[],"default_left":[0,0,0,0,0,0,0,0,0,0,0,0,0,0,0],"id":27,"left_children":[1,3,5,7,9,11,13,-1,-1,-1,-1,-1,-1,-1,-1],"loss_changes":[4.9553844E1,1.5472307E1,1.5727751E1,4.0149117E0,1.2962515E1,1.02000885E1,1.3121075E1,0E0,0E0,0E0,0E0,0E0,0E0,0E0,0E0],"parents":[2147483647,0,0,1,1,2,2,3,3,4,4,5,5,6,6],"right_children":[2,4,6,8,10,12,14,-1,-1,-1,-1,-1,-1,-1,-1],"split_conditions":[1.3678252E-3,-2.0733837E-3,3.3697087E-1,7.4358994E-1,1.7493533E-2,5.282484E-3,3.4351204E-2,-6.664278E-3,-1.3412946E-2,-5.2040437E-4,-1.2736963E-2,3.2604616E-3,1.1563268E-2,4.833692E-3,-1.075374E-3],"split_indices":[22,22,19,19,13,22,18,0,0,0,0,0,0,0,0],"split_type":[0,0,0,0,0,0,0,0,0,0,0,0,0,0,0],"sum_hessian":[3.544523E2,1.4355621E2,2.1089609E2,5.113817E1,9.241804E1,6.0479053E1,1.5041704E2,3.790333E1,1.3234838E1,8.371386E1,8.70418E0,2.9855343E1,3.0623709E1,6.686568E1,8.355135E1],"tree_param":{"num_deleted":"0","num_feature":"23","num_nodes":"15","size_leaf_vector":"1"}},{"base_weights":[-3.341912E-2,-5.1379067E-1,2.8730935E-1,-7.7123964E-1,-1.9973248E-1,3.891713E-1,-3.7191233E-1,-1.4819031E-3,-1.1184616E-2,-1.0900086E-2,-1.4219811E-4,8.413455E-3,1.8116939E-3,5.894668E-3,-9.976353E-3],"categories":[],"categories_nodes":[],"categories_segments":[],"categories_sizes":[],"default_left":[0,0,0,0,0,0,0,0,0,0,0,0,0,0,0],"id":28,"left_children":[1,3,5,7,9,11,13,-1,-1,-1,-1,-1,-1,-1,-1],"loss_changes":[5.329025E1,1.1040512E1,1.4076529E1,1.6218403E1,1.0508231E1,1.6795437E1,1.7599644E1,0E0,0E0,0E0,0E0,0E0,0E0,0E0,0E0],"parents":[2147483647,0,0,1,1,2,2,3,3,4,4,5,5,6,6],"right_children":[2,4,6,8,10,12,14,-1,-1,-1,-1,-1,-1,-1,-1],"split_conditions":[1.3678252E-3,2.9372977E-2,6.286071E-2,4.5815897E-1,-4.6345633E-3,-1.4160706E-1,-4.486553E-2,-1.4819031E-3,-1.1184616E-2,-1.0900086E-2,-1.4219811E-4,8.413455E-3,1.8116939E-3,5.894668E-3,-9.976353E-3],"split_indices":[22,12,17,14,22,9,11,0,0,0,0,0,0,0,0],"split_type":[0,0,0,0,0,0,0,0,0,0,0,0,0,0,0],"sum_hessian":[3.4392783E2,1.3745398E2,2.0647386E2,7.473461E1,6.2719368E1,1.7919463E2,2.7279236E1,2.725517E1,4.7479446E1,9.974766E0,5.2744602E1,5.5499554E1,1.2369507E2,1.0777819E1,1.6501417E1],"tree_param":{"num_deleted":"0","num_feature":"23","num_nodes":"15","size_leaf_vector":"1"}},{"base_weights":[1.101451E-2,-4.8825523E-1,2.84943E-1,3.4297068E-2,-6.6584545E-1,3.770877E-1,-3.8853577E-1,8.200384E-3,-3.0007001E-3,7.543292E-4,-7.7984026E-3,2.178691E-3,6.7147063E-3,4.1407505E-3,-9.896304E-3],"categories":[],"categories_nodes":[],"categories_segments":[],"categories_sizes":[],"default_left":[0,0,0,0,0,0,0,0,0,0,0,0,0,0,0],"id":29,"left_children":[1,3,5,7,9,11,13,-1,-1,-1,-1,-1,-1,-1,-1],"loss_changes":[4.763212E1,1.1474045E1,1.4101093E1,8.719074E0,7.8453407E0,9.148737E0,1.3703863E1,0E0,0E0,0E0,0E0,0E0,0E0,0E0,0E0],"parents":[2147483647,0,0,1,1,2,2,3,3,4,4,5,5,6,6],"right_children":[2,4,6,8,10,12,14,-1,-1,-1,-1,-1,-1,-1,-1],"split_conditions":[6.048063E-4,6.94354E-1,6.286071E-2,-6.588484E-3,-1.0137313E-1,5.469424E-3,-1.2402358E-1,8.200384E-3,-3.0007001E-3,7.543292E-4,-7.7984026E-3,2.178691E-3,6.7147063E-3,4.1407505E-3,-9.896304E-3],"split_indices":[22,16,17,13,7,22,7,0,0,0,0,0,0,0,0],"split_type":[0,0,0,0,0,0,0,0,0,0,0,0,0,0,0],"sum_hessian":[3.4626184E2,1.2239638E2,2.2386545E2,3.1250341E1,9.1146034E1,1.9730981E2,2.6555635E1,8.895045E0,2.2355297E1,1.21934595E1,7.8952576E1,1.2918144E2,6.812838E1,1.1504886E1,1.5050751E1],"tree_param":{"num_deleted":"0","num_feature":"23","num_nodes":"15","size_leaf_vector":"1"}},{"base_weights":[-1.4499729E-2,4.0223982E-2,-7.633483E-1,-3.4031637E-2,5.595844E-1,-1.2431213E-2,-2.9660792E-3,1.3412592E-4,-1.0081543E-2,1.7116328E-3,9.182816E-3],"categories":[],"categories_nodes":[],"categories_segments":[],"categories_sizes":[],"default_left":[0,0,0,0,0,0,0,0,0,0,0],"id":30,"left_children":[1,3,5,7,9,-1,-1,-1,-1,-1,-1],"loss_changes":[1.4348529E1,1.2612355E1,4.9705524E0,1.3260984E1,5.541914E0,0E0,0E0,0E0,0E0,0E0,0E0],"parents":[2147483647,0,0,1,1,2,2,3,3,4,4],"right_children":[2,4,6,8,10,-1,-1,-1,-1,-1,-1],"split_conditions":[1.3745022E-1,2.2799997E-1,2.4453466E-1,5.556593E-2,8.39968E-3,-1.2431213E-2,-2.9660792E-3,1.3412592E-4,-1.0081543E-2,1.7116328E-3,9.182816E-3],"split_indices":[2,4,7,11,13,0,0,0,0,0,0],"split_type":[0,0,0,0,0,0,0,0,0,0,0],"sum_hessian":[3.483876E2,3.2554407E2,2.2843544E1,2.8563922E2,3.990483E1,1.044425E1,1.2399293E1,2.7331384E2,1.2325403E1,1.9867823E1,2.0037008E1],"tree_param":{"num_deleted":"0","num_feature":"23","num_nodes":"11","size_leaf_vector":"1"}},{"base_weights":[-2.6150958E-3,-5.0899905E-1,2.605681E-1,-8.560939E-1,-2.2899938E-1,3.710132E-1,-2.3242438E-1,-1.5571305E-2,-5.8803004E-3,9.0863166E-4,-6.818115E-3,4.4003576E-3,-1.760318E-3,-7.1538594E-3,2.3956045E-3],"categories":[],"categories_nodes":[],"categories_segments":[],"categories_sizes":[],"default_left":[0,0,0,0,0,0,0,0,0,0,0,0,0,0,0],"id":31,"left_children":[1,3,5,7,9,11,13,-1,-1,-1,-1,-1,-1,-1,-1],"loss_changes":[4.7154E1,1.1563528E1,1.27631235E1,9.16861E0,9.959917E0,7.274044E0,1.002514E1,0E0,0E0,0E0,0E0,0E0,0E0,0E0,0E0],"parents":[2147483647,0,0,1,1,2,2,3,3,4,4,5,5,6,6],"right_children":[2,4,6,8,10,12,14,-1,-1,-1,-1,-1,-1,-1,-1],"split_conditions":[4.5801638E-4,-2.0733837E-3,3.1250052E-2,2.7492912E-2,1.4541726E-2,8.820403E-2,6.445264E-2,-1.5571305E-2,-5.8803004E-3,9.0863166E-4,-6.818115E-3,4.4003576E-3,-1.760318E-3,-7.1538594E-3,2.3956045E-3],"split_indices":[22,22,0,15,5,2,6,0,0,0,0,0,0,0,0],"split_type":[0,0,0,0,0,0,0,0,0,0,0,0,0,0,0],"sum_hessian":[3.518232E2,1.20000114E2,2.3182309E2,5.266176E1,6.733835E1,1.8959546E2,4.222763E1,1.3236653E1,3.9425106E1,3.993087E1,2.7407482E1,1.6852739E2,2.1068071E1,2.0616236E1,2.1611395E1],"tree_param":{"num_deleted":"0","num_feature":"23","num_nodes":"15","size_leaf_vector":"1"}},{"base_weights":[-1.4559835E-2,7.519078E-2,-5.805908E-1,4.7071072E-1,-1.40550975E-2,-1.1883672E-2,-3.7452626E-1,6.842354E-3,-5.555977E-3,3.2800753E-4,-1.1667298E-2,4.1784258E-3,-7.28316E-3],"categories":[],"categories_nodes":[],"categories_segments":[],"categories_sizes":[],"default_left":[0,0,0,0,0,0,0,0,0,0,0,0,0],"id":32,"left_children":[1,3,5,7,9,-1,11,-1,-1,-1,-1,-1,-1],"loss_changes":[1.769085E1,1.0621521E1,5.523485E0,1.2518774E1,1.3342258E1,0E0,1.0690648E1,0E0,0E0,0E0,0E0,0E0,0E0],"parents":[2147483647,0,0,1,1,2,2,3,3,4,4,6,6],"right_children":[2,4,6,8,10,-1,12,-1,-1,-1,-1,-1,-1],"split_conditions":[3.5152156E-2,-8.675507E-2,2.0418236E-2,5.3303945E-1,6.535902E-2,-1.1883672E-2,5.5477526E-2,6.842354E-3,-5.555977E-3,3.2800753E-4,-1.1667298E-2,4.1784258E-3,-7.28316E-3],"split_indices":[0,4,5,19,17,0,1,0,0,0,0,0,0],"split_type":[0,0,0,0,0,0,0,0,0,0,0,0,0],"sum_hessian":[3.463746E2,2.9971808E2,4.6656536E1,5.4391495E1,2.4532658E2,1.0606438E1,3.60501E1,4.5300068E1,9.091428E0,2.3667728E2,8.64931E0,1.1071855E1,2.4978243E1],"tree_param":{"num_deleted":"0","num_feature":"23","num_nodes":"13","size_leaf_vector":"1"}}]},"name":"gbtree"},"learner_model_param":{"base_score":"5.6245494E-1","boost_from_average":"1","num_class":"0","num_feature":"23","num_target":"1"},"objective":{"name":"binary:logistic","reg_loss_param":{"scale_pos_weight":"1"}}},"version":[2,1,4]}