{"learner":{"attributes":{"best_iteration":"0","best_score":"0.6873970012329206","scikit_learn":"{\"_estimator_type\": \"classifier\"}"},"feature_names":[],"feature_types":[],"gradient_booster":{"model":{"gbtree_model_param":{"num_parallel_tree":"1","num_trees":"31"},"iteration_indptr":[0,1,2,3,4,5,6,7,8,9,10,11,12,13,14,15,16,17,18,19,20,21,22,23,24,25,26,27,28,29,30,31],"tree_info":[0,0,0,0,0,0,0,0,0,0,0,0,0,0,0,0,0,0,0,0,0,0,0,0,0,0,0,0,0,0,0],"trees":[{"base_weights":[6.337469E-2,-2.662323E-1,2.577019E-1,3.0206824E-2,-5.184317E-1,1.1787374E-2,1.9984989E-1,1.0025208E-2,-1.4969563E-3,-9.717541E-3,-2.4158896E-3,6.531312E-3,1.0410757E-3],"categories":[],"categories_nodes":[],"categories_segments":[],"categories_sizes":[],"default_left":[0,0,0,0,0,0,0,0,0,0,0,0,0],"id":0,"left_children":[1,3,5,7,9,-1,11,-1,-1,-1,-1,-1,-1],"loss_changes":[2.2165102E1,9.618419E0,1.1355498E1,1.0643401E1,8.481899E0,0E0,8.866942E0,0E0,0E0,0E0,0E0,0E0,0E0],"parents":[2147483647,0,0,1,1,2,2,3,3,4,4,6,6],"right_children":[2,4,6,8,10,-1,12,-1,-1,-1,-1,-1,-1],"split_conditions":[1.3258059E-3,7.084249E-1,3.712848E-2,1.3363182E-2,4.3187004E-2,1.1787374E-2,-5.0216084E-3,1.0025208E-2,-1.4969563E-3,-9.717541E-3,-2.4158896E-3,6.531312E-3,1.0410757E-3],"split_indices":[22,19,10,17,6,0,13,0,0,0,0,0,0],"split_type":[0,0,0,0,0,0,0,0,0,0,0,0,0],"sum_hessian":[3.439795E2,1.2744477E2,2.1653473E2,5.898872E1,6.845605E1,1.1652093E1,2.0488264E2,8.496318E0,5.0492405E1,2.500345E1,4.34526E1,3.4713528E1,1.7016911E2],"tree_param":{"num_deleted":"0","num_feature":"23","num_nodes":"13","size_leaf_vector":"1"}},{"base_weights":[8.142395E-3,1.1384883E-2,-3.2726668E-2,1.3577132E-1,-2.103459E-1,-7.5051794E-3,2.073445E-3,-2.796909E-3,5.9006414E-3],"categories":[],"categories_nodes":[],"categories_segments":[],"categories_sizes":[],"default_left":[0,0,0,0,0,0,0,0,0],"id":1,"left_children":[1,-1,3,5,7,-1,-1,-1,-1],"loss_changes":[1.5759198E1,0E0,9.887787E0,1.0918018E1,9.088192E0,0E0,0E0,0E0,0E0],"parents":[2147483647,0,0,2,2,3,3,4,4],"right_children":[2,-1,4,6,8,-1,-1,-1,-1],"split_conditions":[3.45121E-2,1.1384883E-2,1.3118388E-2,5.905185E-1,8.959479E-3,-7.5051794E-3,2.073445E-3,-2.796909E-3,5.9006414E-3],"split_indices":[10,0,3,16,13,0,0,0,0],"split_type":[0,0,0,0,0,0,0,0,0],"sum_hessian":[3.393299E2,1.0903615E1,3.2842627E2,1.6866156E2,1.5976472E2,1.1893878E1,1.5676768E2,1.4762547E2,1.2139241E1],"tree_param":{"num_deleted":"0","num_feature":"23","num_nodes":"9","size_leaf_vector":"1"}},{"base_weights":[3.1204795E-2,3.0746257E-1,-1.9152679E-1,1.0208122E0,1.8665995E-1,-3.1277627E-2,-5.813947E-1,6.5565067E-3,1.3475286E-2,1.1158779E-3,1.1835297E-2,-1.1343288E-3,7.0083784E-3,-1.1665297E-2,-3.53023E-3],"categories":[],"categories_nodes":[],"categories_segments":[],"categories_sizes":[],"default_left":[0,0,0,0,0,0,0,0,0,0,0,0,0,0,0],"id":2,"left_children":[1,3,5,7,9,11,13,-1,-1,-1,-1,-1,-1,-1,-1],"loss_changes":[2.0775206E1,1.2793002E1,1.1665667E1,1.6929588E0,9.602003E0,8.11475E0,6.86026E0,0E0,0E0,0E0,0E0,0E0,0E0,0E0,0E0],"parents":[2147483647,0,0,1,1,2,2,3,3,4,4,5,5,6,6],"right_children":[2,4,6,8,10,12,14,-1,-1,-1,-1,-1,-1,-1,-1],"split_conditions":[4.821523E-3,9.551843E-3,1.0581785E0,4.8447025E-1,6.613819E-3,7.653257E-3,1.1862384E-3,6.5565067E-3,1.3475286E-2,1.1158779E-3,1.1835297E-2,-1.1343288E-3,7.0083784E-3,-1.1665297E-2,-3.53023E-3],"split_indices":[3,15,16,14,22,13,1,0,0,0,0,0,0,0,0],"split_type":[0,0,0,0,0,0,0,0,0,0,0,0,0,0,0],"sum_hessian":[3.3567917E2,1.4966576E2,1.8601341E2,2.0595768E1,1.2906999E2,1.3259323E2,5.342017E1,1.1145524E1,9.450245E0,1.2106479E2,8.005196E0,1.19975136E2,1.2618099E1,1.384315E1,3.957702E1],"tree_param":{"num_deleted":"0","num_feature":"23","num_nodes":"15","size_leaf_vector":"1"}},{"base_weights":[2.1118319E-2,1.3790886E-2,-2.7309429E-2,-6.5884465E-1,4.042473E-2,-3.3110317E-3,-1.4696369E-2,-1.1909683E-4,8.792955E-3],"categories":[],"categories_nodes":[],"categories_segments":[],"categories_sizes":[],"default_left":[0,0,0,0,0,0,0,0,0],"id":3,"left_children":[1,-1,3,5,7,-1,-1,-1,-1],"loss_changes":[2.267237E1,0E0,1.4284589E1,8.108146E0,1.3267454E1,0E0,0E0,0E0,0E0],"parents":[2147483647,0,0,2,2,3,3,4,4],"right_children":[2,-1,4,6,8,-1,-1,-1,-1],"split_conditions":[3.45121E-2,1.3790886E-2,-1.4625936E-3,4.1445387E-3,5.7725605E-2,-3.3110317E-3,-1.4696369E-2,-1.1909683E-4,8.792955E-3],"split_indices":[10,0,22,13,8,0,0,0,0],"split_type":[0,0,0,0,0,0,0,0,0],"sum_hessian":[3.4318375E2,1.0871E1,3.3231274E2,3.134388E1,3.0096887E2,2.3324097E1,8.019782E0,2.8422293E2,1.6745937E1],"tree_param":{"num_deleted":"0","num_feature":"23","num_nodes":"9","size_leaf_vector":"1"}},{"base_weights":[1.1009283E-3,1.04313284E-1,-4.4807905E-1,3.615457E-1,-9.4150335E-2,1.8237525E-1,-6.8461466E-1,4.723771E-4,6.9845915E-3,-1.8786237E-3,7.05325E-3,-3.1785055E-3,6.281432E-3,-9.350059E-3,-3.523634E-3],"categories":[],"categories_nodes":[],"categories_segments":[],"categories_sizes":[],"default_left":[0,0,0,0,0,0,0,0,0,0,0,0,0,0,0],"id":4,"left_children":[1,3,5,7,9,11,13,-1,-1,-1,-1,-1,-1,-1,-1],"loss_changes":[1.5845025E1,1.4221563E1,9.647949E0,1.2805682E1,1.1945005E1,4.260685E0,3.5512924E0,0E0,0E0,0E0,0E0,0E0,0E0,0E0,0E0],"parents":[2147483647,0,0,1,1,2,2,3,3,4,4,5,5,6,6],"right_children":[2,4,6,8,10,12,14,-1,-1,-1,-1,-1,-1,-1,-1],"split_conditions":[1.2481835E0,4.821523E-3,-7.3104525E-1,-2.376024E-3,7.653257E-3,3.4247993E-3,1.1617498E-2,4.723771E-4,6.9845915E-3,-1.8786237E-3,7.05325E-3,-3.1785055E-3,6.281432E-3,-9.350059E-3,-3.523634E-3],"split_indices":[16,3,9,13,13,22,11,0,0,0,0,0,0,0,0],"split_type":[0,0,0,0,0,0,0,0,0,0,0,0,0,0,0],"sum_hessian":[3.397672E2,2.7690735E2,6.2859863E1,1.20240135E2,1.5666722E2,1.7212145E1,4.564772E1,6.2796867E1,5.7443264E1,1.4091466E2,1.5752567E1,8.245869E0,8.966275E0,2.4996044E1,2.0651676E1],"tree_param":{"num_deleted":"0","num_feature":"23","num_nodes":"15","size_leaf_vector":"1"}},{"base_weights":[-4.241063E-3,2.8225192E-1,-2.387251E-1,1.0229913E0,1.4193174E-1,-6.8478145E-2,-6.192521E-1,1.38409715E-2,3.9005578E-3,-5.598837E-3,2.4886401E-3,3.41613E-4,-6.1048768E-3,-1.1210792E-2,-3.06452E-3],"categories":[],"categories_nodes":[],"categories_segments":[],"categories_sizes":[],"default_left":[0,0,0,0,0,0,0,0,0,0,0,0,0,0,0],"id":5,"left_children":[1,3,5,7,9,11,13,-1,-1,-1,-1,-1,-1,-1,-1],"loss_changes":[2.351401E1,1.623045E1,1.2426764E1,5.1581535E0,1.0166891E1,7.4812627E0,8.975912E0,0E0,0E0,0E0,0E0,0E0,0E0,0E0,0E0],"parents":[2147483647,0,0,1,1,2,2,3,3,4,4,5,5,6,6],"right_children":[2,4,6,8,10,12,14,-1,-1,-1,-1,-1,-1,-1,-1],"split_conditions":[4.821523E-3,5.202254E-2,1.0581785E0,1.3087328E-2,-8.583235E-3,7.7319777E-1,8.577318E-3,1.38409715E-2,3.9005578E-3,-5.598837E-3,2.4886401E-3,3.41613E-4,-6.1048768E-3,-1.1210792E-2,-3.06452E-3],"split_indices":[3,10,16,17,13,14,1,0,0,0,0,0,0,0,0],"split_type":[0,0,0,0,0,0,0,0,0,0,0,0,0,0,0],"sum_hessian":[3.4802228E2,1.5654799E2,1.914743E2,2.3930471E1,1.3261752E2,1.3310387E2,5.837043E1,1.4481572E1,9.448899E0,1.6974566E1,1.1564295E2,1.1269919E2,2.0404684E1,2.1420834E1,3.6949593E1],"tree_param":{"num_deleted":"0","num_feature":"23","num_nodes":"15","size_leaf_vector":"1"}},{"base_weights":[-4.2083994E-3,1.5543254E-1,-2.6542524E-1,-6.296654E-3,2.0602489E-1,-1.032567E0,-1.4632912E-1,-4.4096652E-3,2.7011677E-3,-5.1112203E-3,-1.4536109E-2,-2.7601628E-3,6.9133374E-3],"categories":[],"categories_nodes":[],"categories_segments":[],"categories_sizes":[],"default_left":[0,0,0,0,0,0,0,0,0,0,0,0,0],"id":6,"left_children":[1,3,5,-1,7,9,11,-1,-1,-1,-1,-1,-1],"loss_changes":[1.43024645E1,8.585899E0,1.1734687E1,0E0,8.443998E0,3.0590668E0,1.2550759E1,0E0,0E0,0E0,0E0,0E0,0E0],"parents":[2147483647,0,0,1,1,2,2,4,4,5,5,6,6],"right_children":[2,4,6,-1,8,10,12,-1,-1,-1,-1,-1,-1],"split_conditions":[2.292619E-2,-8.947209E-3,-1.5649727E-3,-6.296654E-3,6.007134E-1,1.4380548E-2,1.6309094E-1,-4.4096652E-3,2.7011677E-3,-5.1112203E-3,-1.4536109E-2,-2.7601628E-3,6.9133374E-3],"split_indices":[3,13,22,0,16,18,10,0,0,0,0,0,0],"split_type":[0,0,0,0,0,0,0,0,0,0,0,0,0],"sum_hessian":[3.4098804E2,2.1189485E2,1.2909317E2,1.2135098E1,1.9975975E2,1.6317316E1,1.12775856E2,1.7474895E1,1.8228485E2,8.278584E0,8.038733E0,9.8237236E1,1.453862E1],"tree_param":{"num_deleted":"0","num_feature":"23","num_nodes":"13","size_leaf_vector":"1"}},{"base_weights":[-3.169965E-2,-2.8696147E-1,1.0656934E-1,1.394496E-1,-4.9936476E-1,5.9549723E-2,9.609042E-3,-2.4471788E-3,7.1469597E-3,-2.1354437E-3,-8.027166E-3,3.707801E-3,-9.4074756E-4],"categories":[],"categories_nodes":[],"categories_segments":[],"categories_sizes":[],"default_left":[0,0,0,0,0,0,0,0,0,0,0,0,0],"id":7,"left_children":[1,3,5,7,9,11,-1,-1,-1,-1,-1,-1,-1],"loss_changes":[1.2236798E1,1.1099572E1,8.983316E0,9.296028E0,6.8956947E0,1.0284955E1,0E0,0E0,0E0,0E0,0E0,0E0,0E0],"parents":[2147483647,0,0,1,1,2,2,3,3,4,4,5,5],"right_children":[2,4,6,8,10,12,-1,-1,-1,-1,-1,-1,-1],"split_conditions":[1.0944282E-3,-2.433819E-3,4.454656E-2,1.1582211E-2,1.6276447E-2,1.4366954E-2,9.609042E-3,-2.4471788E-3,7.1469597E-3,-2.1354437E-3,-8.027166E-3,3.707801E-3,-9.4074756E-4],"split_indices":[22,5,1,6,17,17,0,0,0,0,0,0,0],"split_type":[0,0,0,0,0,0,0,0,0,0,0,0,0],"sum_hessian":[3.448362E2,1.2078206E2,2.2405414E2,4.0273766E1,8.050829E1,2.1338014E2,1.0673998E1,2.4491898E1,1.5781868E1,4.232928E1,3.817901E1,7.005038E1,1.4332977E2],"tree_param":{"num_deleted":"0","num_feature":"23","num_nodes":"13","size_leaf_vector":"1"}},{"base_weights":[-1.2613885E-3,1.0078854E-2,-5.0326154E-2,2.321556E-1,-2.1118508E-1,1.5354675E-3,9.973809E-3,-5.1450524E-3,-2.3653221E-4],"categories":[],"categories_nodes":[],"categories_segments":[],"categories_sizes":[],"default_left":[0,0,0,0,0,0,0,0,0],"id":8,"left_children":[1,-1,3,5,7,-1,-1,-1,-1],"loss_changes":[1.7008656E1,0E0,1.49334135E1,7.024812E0,1.1889633E1,0E0,0E0,0E0,0E0],"parents":[2147483647,0,0,2,2,3,3,4,4],"right_children":[2,-1,4,6,8,-1,-1,-1,-1],"split_conditions":[3.712848E-2,1.0078854E-2,-2.3749643E-3,6.409284E-2,1.0944282E-3,1.5354675E-3,9.973809E-3,-5.1450524E-3,-2.3653221E-4],"split_indices":[10,0,5,4,22,0,0,0,0],"split_type":[0,0,0,0,0,0,0,0,0],"sum_hessian":[3.4149075E2,1.4927396E1,3.2656335E2,1.1832736E2,2.08236E2,1.0839318E2,9.934186E0,7.8891205E1,1.293448E2],"tree_param":{"num_deleted":"0","num_feature":"23","num_nodes":"9","size_leaf_vector":"1"}},{"base_weights":[-1.9484185E-2,1.0489571E-2,-6.5054476E-2,1.4307158E-1,-2.2542997E-1,8.731176E-3,6.151227E-4,-6.3736844E-3,-3.6619874E-4],"categories":[],"categories_nodes":[],"categories_segments":[],"categories_sizes":[],"default_left":[0,0,0,0,0,0,0,0,0],"id":9,"left_children":[1,-1,3,5,7,-1,-1,-1,-1],"loss_changes":[1.6624935E1,0E0,1.09496355E1,8.458435E0,1.437494E1,0E0,0E0,0E0,0E0],"parents":[2147483647,0,0,2,2,3,3,4,4],"right_children":[2,-1,4,6,8,-1,-1,-1,-1],"split_conditions":[3.712848E-2,1.0489571E-2,4.598569E-3,5.202254E-2,4.3873866E-3,8.731176E-3,6.151227E-4,-6.3736844E-3,-3.6619874E-4],"split_indices":[10,0,3,10,12,0,0,0,0],"split_type":[0,0,0,0,0,0,0,0,0],"sum_hessian":[3.390487E2,1.2968592E1,3.260801E2,1.4196022E2,1.8411989E2,1.3290472E1,1.2866974E2,5.7120625E1,1.2699926E2],"tree_param":{"num_deleted":"0","num_feature":"23","num_nodes":"9","size_leaf_vector":"1"}},{"base_weights":[-1.8495398E-2,2.5044692E-1,-2.30278E-1,8.8216776E-1,1.3061945E-1,-6.44304E-2,-6.281737E-1,1.194453E-2,5.241682E-3,-3.403519E-3,2.9179559E-3,-1.713207E-3,4.2175236E-3,-9.123403E-3,-1.8367852E-3],"categories":[],"categories_nodes":[],"categories_segments":[],"categories_sizes":[],"default_left":[0,0,0,0,0,0,0,0,0,0,0,0,0,0,0],"id":10,"left_children":[1,3,5,7,9,11,13,-1,-1,-1,-1,-1,-1,-1,-1],"loss_changes":[1.9272825E1,1.1171474E1,1.2448666E1,2.0122547E0,9.702108E0,7.072086E0,6.850683E0,0E0,0E0,0E0,0E0,0E0,0E0,0E0,0E0],"parents":[2147483647,0,0,1,1,2,2,3,3,4,4,5,5,6,6],"right_children":[2,4,6,8,10,12,14,-1,-1,-1,-1,-1,-1,-1,-1],"split_conditions":[4.821523E-3,9.559751E-3,1.0581785E0,2.3480453E-2,1.2660834E-2,3.5874076E-2,6.9293135E-1,1.194453E-2,5.241682E-3,-3.403519E-3,2.9179559E-3,-1.713207E-3,4.2175236E-3,-9.123403E-3,-1.8367852E-3],"split_indices":[21,15,16,7,15,2,14,0,0,0,0,0,0,0,0],"split_type":[0,0,0,0,0,0,0,0,0,0,0,0,0,0,0],"sum_hessian":[3.3636063E2,1.481027E2,1.882579E2,2.2599257E1,1.2550345E2,1.3369443E2,5.4563484E1,1.082237E1,1.1776887E1,3.1715677E1,9.378777E1,1.1012941E2,2.3565016E1,3.2642525E1,2.192096E1],"tree_param":{"num_deleted":"0","num_feature":"23","num_nodes":"15","size_leaf_vector":"1"}},{"base_weights":[7.220041E-3,-2.614196E-1,1.7165081E-1,1.334849E-1,-4.6042743E-1,-6.39103E-3,2.3666479E-1,-7.096162E-3,3.7473305E-3,-7.7780476E-3,-1.3953353E-3,4.4477843E-3,-6.693149E-4],"categories":[],"categories_nodes":[],"categories_segments":[],"categories_sizes":[],"default_left":[0,0,0,0,0,0,0,0,0,0,0,0,0],"id":11,"left_children":[1,3,5,7,9,-1,11,-1,-1,-1,-1,-1,-1],"loss_changes":[1.5141385E1,1.02905E1,1.1357638E1,9.294426E0,8.728493E0,0E0,1.2511483E1,0E0,0E0,0E0,0E0,0E0,0E0],"parents":[2147483647,0,0,1,1,2,2,3,3,4,4,6,6],"right_children":[2,4,6,8,10,-1,12,-1,-1,-1,-1,-1,-1],"split_conditions":[1.3258059E-3,-2.433819E-3,5.8308554E-1,-3.646625E-2,6.5233886E-2,-6.39103E-3,1.2169167E-2,-7.096162E-3,3.7473305E-3,-7.7780476E-3,-1.3953353E-3,4.4477843E-3,-6.693149E-4],"split_indices":[22,5,16,3,4,0,3,0,0,0,0,0,0],"split_type":[0,0,0,0,0,0,0,0,0,0,0,0,0],"sum_hessian":[3.4076175E2,1.2915851E2,2.1160324E2,4.338869E1,8.576982E1,1.5053166E1,1.9655008E2,9.221266E0,3.4167423E1,4.2405327E1,4.3364494E1,1.16336784E2,8.021329E1],"tree_param":{"num_deleted":"0","num_feature":"23","num_nodes":"13","size_leaf_vector":"1"}},{"base_weights":[2.4144059E-2,2.4901891E-1,-1.6171955E-1,9.4613796E-1,1.2588707E-1,4.6690498E-3,-5.5846924E-1,1.3275144E-2,3.0695223E-3,-2.4146587E-3,2.705613E-3,-1.2218385E-3,5.311449E-3,-8.8100135E-3,-1.5630829E-3],"categories":[],"categories_nodes":[],"categories_segments":[],"categories_sizes":[],"default_left":[0,0,0,0,0,0,0,0,0,0,0,0,0,0,0],"id":12,"left_children":[1,3,5,7,9,11,13,-1,-1,-1,-1,-1,-1,-1,-1],"loss_changes":[1.4300931E1,1.3167582E1,1.2374245E1,5.2193756E0,7.1182003E0,8.949077E0,7.0457516E0,0E0,0E0,0E0,0E0,0E0,0E0,0E0,0E0],"parents":[2147483647,0,0,1,1,2,2,3,3,4,4,5,5,6,6],"right_children":[2,4,6,8,10,12,14,-1,-1,-1,-1,-1,-1,-1,-1],"split_conditions":[4.821523E-3,5.202254E-2,1.0581785E0,1.3012132E-2,1.2714198E-2,3.5874076E-2,6.709473E-1,1.3275144E-2,3.0695223E-3,-2.4146587E-3,2.705613E-3,-1.2218385E-3,5.311449E-3,-8.8100135E-3,-1.5630829E-3],"split_indices":[3,10,16,17,15,2,14,0,0,0,0,0,0,0,0],"split_type":[0,0,0,0,0,0,0,0,0,0,0,0,0,0,0],"sum_hessian":[3.4019635E2,1.5378877E2,1.8640756E2,2.208262E1,1.3170615E2,1.3202658E2,5.438098E1,1.3156051E1,8.92657E0,3.7024784E1,9.4681366E1,1.070106E2,2.5015987E1,2.9517412E1,2.486357E1],"tree_param":{"num_deleted":"0","num_feature":"23","num_nodes":"15","size_leaf_vector":"1"}},{"base_weights":[2.3411233E-3,2.4539465E-1,-1.8738663E-1,8.81099E-1,1.3967046E-1,-4.7706205E-2,-5.0258154E-1,5.165067E-3,1.1599925E-2,3.4675695E-4,8.652852E-3,-1.3535586E-3,4.665033E-3,-1.1235205E-2,-1.8653321E-3],"categories":[],"categories_nodes":[],"categories_segments":[],"categories_sizes":[],"default_left":[0,0,0,0,0,0,0,0,0,0,0,0,0,0,0],"id":13,"left_children":[1,3,5,7,9,11,13,-1,-1,-1,-1,-1,-1,-1,-1],"loss_changes":[1.5894466E1,1.0032245E1,8.49872E0,1.5725594E0,9.930671E0,6.158541E0,1.1435465E1,0E0,0E0,0E0,0E0,0E0,0E0,0E0,0E0],"parents":[2147483647,0,0,1,1,2,2,3,3,4,4,5,5,6,6],"right_children":[2,4,6,8,10,12,14,-1,-1,-1,-1,-1,-1,-1,-1],"split_conditions":[4.821523E-3,9.559751E-3,1.0581785E0,-8.588217E-3,4.4823136E-2,2.4811462E-2,5.652906E-2,5.165067E-3,1.1599925E-2,3.4675695E-4,8.652852E-3,-1.3535586E-3,4.665033E-3,-1.1235205E-2,-1.8653321E-3],"split_indices":[3,15,16,3,4,17,7,0,0,0,0,0,0,0,0],"split_type":[0,0,0,0,0,0,0,0,0,0,0,0,0,0,0],"sum_hessian":[3.426805E2,1.5009969E2,1.9258081E2,2.0357716E1,1.2974197E2,1.3424203E2,5.833877E1,1.005933E1,1.0298387E1,1.14257034E2,1.548494E1,1.1532164E2,1.8920399E1,1.8816048E1,3.9522724E1],"tree_param":{"num_deleted":"0","num_feature":"23","num_nodes":"15","size_leaf_vector":"1"}},{"base_weights":[8.245823E-3,-6.8829274E-1,7.234604E-2,-1.2895531E-2,-2.1597886E-1,1.1159558E-2,3.5822753E-2,2.039634E-3,-6.00603E-3,1.1130244E-3,-4.4207354E-3],"categories":[],"categories_nodes":[],"categories_segments":[],"categories_sizes":[],"default_left":[0,0,0,0,0,0,0,0,0,0,0],"id":14,"left_children":[1,3,5,-1,7,-1,9,-1,-1,-1,-1],"loss_changes":[1.5263636E1,7.903207E0,1.1887994E1,0E0,2.9227166E0,0E0,1.0992917E1,0E0,0E0,0E0,0E0],"parents":[2147483647,0,0,1,1,2,2,4,4,6,6],"right_children":[2,4,6,-1,8,-1,10,-1,-1,-1,-1],"split_conditions":[-1.4625936E-3,2.0435054E-2,3.45121E-2,-1.2895531E-2,1.1760379E-1,1.1159558E-2,1.3645074E0,2.039634E-3,-6.00603E-3,1.1130244E-3,-4.4207354E-3],"split_indices":[22,12,10,0,7,0,16,0,0,0,0],"split_type":[0,0,0,0,0,0,0,0,0,0,0],"sum_hessian":[3.3974872E2,2.7810537E1,3.1193817E2,1.1473881E1,1.6336657E1,9.5484295E0,3.0238974E2,8.0343075E0,8.30235E0,2.618067E2,4.0583057E1],"tree_param":{"num_deleted":"0","num_feature":"23","num_nodes":"11","size_leaf_vector":"1"}},{"base_weights":[1.860445E-2,-6.4496756E-1,8.0102645E-2,-9.930393E-1,9.794802E-4,3.2471687E-2,9.043402E-1,-3.854211E-3,-1.3897289E-2,2.3232505E-3,-1.6152165E-3,5.178247E-3,1.1837726E-2],"categories":[],"categories_nodes":[],"categories_segments":[],"categories_sizes":[],"default_left":[0,0,0,0,0,0,0,0,0,0,0,0,0],"id":15,"left_children":[1,3,5,7,-1,9,11,-1,-1,-1,-1,-1,-1],"loss_changes":[1.4100577E1,7.6764565E0,1.2374768E1,4.296797E0,0E0,1.1658162E1,1.2472515E0,0E0,0E0,0E0,0E0,0E0,0E0],"parents":[2147483647,0,0,1,1,2,2,3,3,5,5,6,6],"right_children":[2,4,6,8,-1,10,12,-1,-1,-1,-1,-1,-1],"split_conditions":[-1.5649727E-3,2.7203158E-2,5.7725605E-2,1.4380548E-2,9.794802E-4,4.821523E-3,2.3948395E-4,-3.854211E-3,-1.3897289E-2,2.3232505E-3,-1.6152165E-3,5.178247E-3,1.1837726E-2],"split_indices":[22,12,8,18,0,3,22,0,0,0,0,0,0],"split_type":[0,0,0,0,0,0,0,0,0,0,0,0,0],"sum_hessian":[3.4326453E2,2.8309921E1,3.1495462E2,1.904858E1,9.261342E0,2.98731E2,1.622364E1,8.302717E0,1.0745862E1,1.4704576E2,1.5168523E2,8.004635E0,8.219007E0],"tree_param":{"num_deleted":"0","num_feature":"23","num_nodes":"13","size_leaf_vector":"1"}},{"base_weights":[-1.3701107E-2,2.3656274E-1,-2.1376273E-1,8.1078506E-1,1.3125989E-1,-2.631637E-1,5.125815E-3,1.3909793E-2,3.5650916E-3,-2.0763134E-3,2.737019E-3,2.498509E-3,-3.5286038E-3],"categories":[],"categories_nodes":[],"categories_segments":[],"categories_sizes":[],"default_left":[0,0,0,0,0,0,0,0,0,0,0,0,0],"id":16,"left_children":[1,3,5,7,9,11,-1,-1,-1,-1,-1,-1,-1],"loss_changes":[1.703741E1,9.0362625E0,6.9192476E0,5.628824E0,6.282174E0,8.264867E0,0E0,0E0,0E0,0E0,0E0,0E0,0E0],"parents":[2147483647,0,0,1,1,2,2,3,3,4,4,5,5],"right_children":[2,4,6,8,10,12,-1,-1,-1,-1,-1,-1,-1],"split_conditions":[4.821523E-3,5.202254E-2,9.216448E-3,-2.7711745E-3,1.2660834E-2,9.082668E-3,5.125815E-3,1.3909793E-2,3.5650916E-3,-2.0763134E-3,2.737019E-3,2.498509E-3,-3.5286038E-3],"split_indices":[3,10,13,6,15,18,0,0,0,0,0,0,0],"split_type":[0,0,0,0,0,0,0,0,0,0,0,0,0],"sum_hessian":[3.3827414E2,1.5020064E2,1.8807352E2,2.2237696E1,1.27962944E2,1.7669371E2,1.13798065E1,8.8599415E0,1.3377754E1,3.773293E1,9.023002E1,2.6030195E1,1.5066351E2],"tree_param":{"num_deleted":"0","num_feature":"23","num_nodes":"13","size_leaf_vector":"1"}},{"base_weights":[-2.9245643E-2,-2.6820236E-1,1.20995454E-1,-3.7885433E-1,4.504278E-1,-6.2073157E-3,1.7867257E-1,-1.8634027E-3,-9.4635775E-3,1.1230305E-2,-3.052495E-3,3.5260133E-3,-7.3351886E-4],"categories":[],"categories_nodes":[],"categories_segments":[],"categories_sizes":[],"default_left":[0,0,0,0,0,0,0,0,0,0,0,0,0],"id":17,"left_children":[1,3,5,7,9,-1,11,-1,-1,-1,-1,-1,-1],"loss_changes":[1.2229241E1,1.0623832E1,9.063864E0,1.2328667E1,9.490307E0,0E0,8.571491E0,0E0,0E0,0E0,0E0,0E0,0E0],"parents":[2147483647,0,0,1,1,2,2,3,3,4,4,6,6],"right_children":[2,4,6,8,10,-1,12,-1,-1,-1,-1,-1,-1],"split_conditions":[1.3258059E-3,2.6783891E-2,5.9463614E-1,1.7662242E-2,1.2609033E-1,-6.2073157E-3,6.4429024E-4,-1.8634027E-3,-9.4635775E-3,1.1230305E-2,-3.052495E-3,3.5260133E-3,-7.3351886E-4],"split_indices":[22,12,16,15,7,0,13,0,0,0,0,0,0],"split_type":[0,0,0,0,0,0,0,0,0,0,0,0,0],"sum_hessian":[3.3873282E2,1.3045712E2,2.0827571E2,1.1345982E2,1.6997307E1,1.4322775E1,1.9395293E2,8.571208E1,2.7747742E1,8.735769E0,8.261537E0,1.14520325E2,7.94326E1],"tree_param":{"num_deleted":"0","num_feature":"23","num_nodes":"13","size_leaf_vector":"1"}},{"base_weights":[2.8821891E-2,1.1082699E-2,-1.1112126E-2,-2.4225153E-1,1.317314E-1,-5.737273E-3,-3.2221052E-4,3.0119484E-3,-1.0679108E-3],"categories":[],"categories_nodes":[],"categories_segments":[],"categories_sizes":[],"default_left":[0,0,0,0,0,0,0,0,0],"id":18,"left_children":[1,-1,3,5,7,-1,-1,-1,-1],"loss_changes":[1.50108795E1,0E0,1.1142642E1,8.95455E0,8.46524E0,0E0,0E0,0E0,0E0],"parents":[2147483647,0,0,2,2,3,3,4,4],"right_children":[2,-1,4,6,8,-1,-1,-1,-1],"split_conditions":[3.5618596E-2,1.1082699E-2,1.3258059E-3,1.2132268E-2,1.2169167E-2,-5.737273E-3,-3.2221052E-4,3.0119484E-3,-1.0679108E-3],"split_indices":[10,0,22,11,3,0,0,0,0],"split_type":[0,0,0,0,0,0,0,0,0],"sum_hessian":[3.4694046E2,1.1422722E1,3.3551773E2,1.27885864E2,2.0763187E2,4.8930614E1,7.895525E1,1.2123506E2,8.6396805E1],"tree_param":{"num_deleted":"0","num_feature":"23","num_nodes":"9","size_leaf_vector":"1"}},{"base_weights":[1.4700774E-2,1.0974603E-2,-2.551454E-2,2.1215029E-1,-1.6240172E-1,7.4752356E-4,5.8324514E-3,6.6827826E-4,-3.1236608E-3],"categories":[],"categories_nodes":[],"categories_segments":[],"categories_sizes":[],"default_left":[0,0,0,0,0,0,0,0,0],"id":19,"left_children":[1,-1,3,5,7,-1,-1,-1,-1],"loss_changes":[1.5058558E1,0E0,1.0894075E1,6.1986866E0,7.321471E0,0E0,0E0,0E0,0E0],"parents":[2147483647,0,0,2,2,3,3,4,4],"right_children":[2,-1,4,6,8,-1,-1,-1,-1],"split_conditions":[3.45121E-2,1.0974603E-2,-2.3749643E-3,-1.073911E-2,8.074358E-1,7.4752356E-4,5.8324514E-3,6.6827826E-4,-3.1236608E-3],"split_indices":[10,0,5,20,16,0,0,0,0],"split_type":[0,0,0,0,0,0,0,0,0],"sum_hessian":[3.4418478E2,1.1384275E1,3.328005E2,1.2142736E2,2.1137315E2,8.949373E1,3.193363E1,8.381352E1,1.2755963E2],"tree_param":{"num_deleted":"0","num_feature":"23","num_nodes":"9","size_leaf_vector":"1"}},{"base_weights":[-9.473698E-3,1.527363E-1,-2.695584E-1,-7.040811E-1,2.2662486E-1,-8.966032E-1,-1.6339768E-1,-1.06121525E-2,-2.5851752E-3,-9.955879E-4,3.678631E-3,-4.8545534E-3,-1.2977371E-2,-4.8795203E-3,1.4583763E-3],"categories":[],"categories_nodes":[],"categories_segments":[],"categories_sizes":[],"default_left":[0,0,0,0,0,0,0,0,0,0,0,0,0,0,0],"id":20,"left_children":[1,3,5,7,9,11,13,-1,-1,-1,-1,-1,-1,-1,-1],"loss_changes":[1.4687794E1,1.3736577E1,8.754641E0,2.4736261E0,9.167031E0,2.5263271E0,1.1671005E1,0E0,0E0,0E0,0E0,0E0,0E0,0E0,0E0],"parents":[2147483647,0,0,1,1,2,2,3,3,4,4,5,5,6,6],"right_children":[2,4,6,8,10,12,14,-1,-1,-1,-1,-1,-1,-1,-1],"split_conditions":[2.1910783E-2,5.905185E-1,-1.4625936E-3,6.3876216E-3,1.4020349E-3,1.3498865E-2,1.19787045E-2,-1.06121525E-2,-2.5851752E-3,-9.955879E-4,3.678631E-3,-4.8545534E-3,-1.2977371E-2,-4.8795203E-3,1.4583763E-3],"split_indices":[3,16,22,8,22,15,11,0,0,0,0,0,0,0,0],"split_type":[0,0,0,0,0,0,0,0,0,0,0,0,0,0,0],"sum_hessian":[3.4617227E2,2.134563E2,1.3271597E2,1.626914E1,1.9718716E2,1.8137865E1,1.1457811E2,8.26374E0,8.005402E0,5.9672104E1,1.3751505E2,1.0048608E1,8.089256E0,5.5622368E1,5.8955746E1],"tree_param":{"num_deleted":"0","num_feature":"23","num_nodes":"15","size_leaf_vector":"1"}},{"base_weights":[-1.0565179E-2,2.4877642E-1,-2.18412E-1,9.361985E-1,1.2327366E-1,-6.686099E-1,-1.0382271E-1,1.3072835E-2,2.8996086E-3,-6.395347E-3,2.184717E-3,-9.102033E-3,1.697997E-3,-7.3689455E-3,-1.3937296E-4],"categories":[],"categories_nodes":[],"categories_segments":[],"categories_sizes":[],"default_left":[0,0,0,0,0,0,0,0,0,0,0,0,0,0,0],"id":21,"left_children":[1,3,5,7,9,11,13,-1,-1,-1,-1,-1,-1,-1,-1],"loss_changes":[1.863385E1,1.3154527E1,9.828718E0,5.2791405E0,9.668497E0,8.002403E0,8.760048E0,0E0,0E0,0E0,0E0,0E0,0E0,0E0,0E0],"parents":[2147483647,0,0,1,1,2,2,3,3,4,4,5,5,6,6],"right_children":[2,4,6,8,10,12,14,-1,-1,-1,-1,-1,-1,-1,-1],"split_conditions":[4.598569E-3,5.202254E-2,1.1582211E-2,1.3012132E-2,-8.781213E-3,4.817246E-3,-1.5649727E-3,1.3072835E-2,2.8996086E-3,-6.395347E-3,2.184717E-3,-9.102033E-3,1.697997E-3,-7.3689455E-3,-1.3937296E-4],"split_indices":[3,10,6,17,13,22,22,0,0,0,0,0,0,0,0],"split_type":[0,0,0,0,0,0,0,0,0,0,0,0,0,0,0],"sum_hessian":[3.4368216E2,1.5281267E2,1.9086948E2,2.2594606E1,1.3021806E2,3.774444E1,1.5312503E2,1.3703065E1,8.891542E0,1.3813613E1,1.1640445E2,2.9234644E1,8.509792E0,1.8143118E1,1.3498192E2],"tree_param":{"num_deleted":"0","num_feature":"23","num_nodes":"15","size_leaf_vector":"1"}},{"base_weights":[3.087124E-2,-2.8283873E-1,2.2621484E-1,1.4453298E-1,-4.9647975E-1,4.5772648E-1,3.9743915E-2,-7.0036924E-4,9.751611E-3,-7.922656E-3,-2.0535113E-3,3.3999183E-3,9.844186E-3,-3.671005E-4,7.2405594E-3],"categories":[],"categories_nodes":[],"categories_segments":[],"categories_sizes":[],"default_left":[0,0,0,0,0,0,0,0,0,0,0,0,0,0,0],"id":22,"left_children":[1,3,5,7,9,11,13,-1,-1,-1,-1,-1,-1,-1,-1],"loss_changes":[2.1009258E1,1.20875845E1,9.098802E0,8.023638E0,7.4122467E0,5.5016766E0,6.2036614E0,0E0,0E0,0E0,0E0,0E0,0E0,0E0,0E0],"parents":[2147483647,0,0,1,1,2,2,3,3,4,4,5,5,6,6],"right_children":[2,4,6,8,10,12,14,-1,-1,-1,-1,-1,-1,-1,-1],"split_conditions":[1.3258059E-3,-2.433819E-3,-1.7763431E-4,4.4440676E-2,6.5233886E-2,-5.0573135E-3,8.7389104E-2,-7.0036924E-4,9.751611E-3,-7.922656E-3,-2.0535113E-3,3.3999183E-3,9.844186E-3,-3.671005E-4,7.2405594E-3],"split_indices":[22,5,2,8,4,2,4,0,0,0,0,0,0,0,0],"split_type":[0,0,0,0,0,0,0,0,0,0,0,0,0,0,0],"sum_hessian":[3.407894E2,1.3060223E2,2.1018718E2,4.36358E1,8.696644E1,9.312001E1,1.1706716E2,3.5405457E1,8.230342E0,4.2284325E1,4.4682114E1,7.745219E1,1.5667827E1,1.06153625E2,1.0913535E1],"tree_param":{"num_deleted":"0","num_feature":"23","num_nodes":"15","size_leaf_vector":"1"}},{"base_weights":[2.9068445E-3,-6.0662913E-1,6.4771324E-2,-8.7565374E-1,1.4784181E-3,1.3952884E-1,-2.9155192E-1,-2.2423677E-3,-1.5760152E-2,3.784466E-3,4.905483E-6,-2.3464383E-4,-6.3226568E-3],"categories":[],"categories_nodes":[],"categories_segments":[],"categories_sizes":[],"default_left":[0,0,0,0,0,0,0,0,0,0,0,0,0],"id":23,"left_children":[1,3,5,7,-1,9,11,-1,-1,-1,-1,-1,-1],"loss_changes":[1.3136552E1,6.6448603E0,8.464305E0,1.0508041E1,0E0,8.705254E0,5.023863E0,0E0,0E0,0E0,0E0,0E0,0E0],"parents":[2147483647,0,0,1,1,2,2,3,3,5,5,6,6],"right_children":[2,4,6,8,-1,10,12,-1,-1,-1,-1,-1,-1],"split_conditions":[-1.4625936E-3,2.022131E-2,1.2643704E0,1.6806664E-2,1.4784181E-3,4.9836192E-1,1.0210563E-2,-2.2423677E-3,-1.5760152E-2,3.784466E-3,4.905483E-6,-2.3464383E-4,-6.3226568E-3],"split_indices":[22,17,16,17,0,19,3,0,0,0,0,0,0],"split_type":[0,0,0,0,0,0,0,0,0,0,0,0,0],"sum_hessian":[3.463279E2,3.1100119E1,3.152278E2,2.2807087E1,8.293032E0,2.610643E2,5.416352E1,1.25004225E1,1.03066635E1,9.540401E1,1.6566028E2,3.0910637E1,2.3252884E1],"tree_param":{"num_deleted":"0","num_feature":"23","num_nodes":"13","size_leaf_vector":"1"}},{"base_weights":[-3.9185826E-2,1.0531558E-2,-8.248528E-2,-7.4335307E-1,-2.0431258E-2,-1.3742453E-2,-3.8046555E-3,-6.913881E-4,7.922735E-3],"categories":[],"categories_nodes":[],"categories_segments":[],"categories_sizes":[],"default_left":[0,0,0,0,0,0,0,0,0],"id":24,"left_children":[1,-1,3,5,7,-1,-1,-1,-1],"loss_changes":[1.6492847E1,0E0,1.3705268E1,6.0455866E0,1.2202475E1,0E0,0E0,0E0,0E0],"parents":[2147483647,0,0,2,2,3,3,4,4],"right_children":[2,-1,4,6,8,-1,-1,-1,-1],"split_conditions":[3.5618596E-2,1.0531558E-2,-1.4962321E-3,1.9826224E-2,5.7725605E-2,-1.3742453E-2,-3.8046555E-3,-6.913881E-4,7.922735E-3],"split_indices":[10,0,22,12,8,0,0,0,0],"split_type":[0,0,0,0,0,0,0,0,0],"sum_hessian":[3.458655E2,1.229784E1,3.335677E2,2.7690294E1,3.0587738E2,9.093668E0,1.8596626E1,2.894451E2,1.6432283E1],"tree_param":{"num_deleted":"0","num_feature":"23","num_nodes":"9","size_leaf_vector":"1"}},{"base_weights":[-2.406218E-2,1.1307576E-2,-6.333348E-2,-3.385146E-1,7.850043E-2,-1.023548E-2,-2.499554E-3,5.6226137E-3,-3.8534494E-5],"categories":[],"categories_nodes":[],"categories_segments":[],"categories_sizes":[],"default_left":[0,0,0,0,0,0,0,0,0],"id":25,"left_children":[1,-1,3,5,7,-1,-1,-1,-1],"loss_changes":[1.5989689E1,0E0,1.3312331E1,6.7792044E0,8.983402E0,0E0,0E0,0E0,0E0],"parents":[2147483647,0,0,2,2,3,3,4,4],"right_children":[2,-1,4,6,8,-1,-1,-1,-1],"split_conditions":[3.45121E-2,1.1307576E-2,9.995413E-4,9.442082E-3,1.7731258E-1,-1.023548E-2,-2.499554E-3,5.6226137E-3,-3.8534494E-5],"split_indices":[10,0,22,15,19,0,0,0,0],"split_type":[0,0,0,0,0,0,0,0,0],"sum_hessian":[3.499951E2,1.0596575E1,3.3939853E2,1.1496358E2,2.2443494E2,1.1952145E1,1.0301143E2,3.1801287E1,1.9263365E2],"tree_param":{"num_deleted":"0","num_feature":"23","num_nodes":"9","size_leaf_vector":"1"}},{"base_weights":[1.19645875E-2,-3.0400616E-1,1.6405402E-1,-4.1922066E-1,4.3804226E-3,6.6194236E-1,6.922298E-2,-2.2412597E-3,-9.820843E-3,1.0364339E-2,-8.506358E-4,-9.820698E-3,1.2540881E-3],"categories":[],"categories_nodes":[],"categories_segments":[],"categories_sizes":[],"default_left":[0,0,0,0,0,0,0,0,0,0,0,0,0],"id":26,"left_children":[1,3,5,7,-1,9,11,-1,-1,-1,-1,-1,-1],"loss_changes":[1.6351305E1,9.637197E0,1.0796885E1,1.0346489E1,0E0,1.0333817E1,1.1583448E1,0E0,0E0,0E0,0E0,0E0,0E0],"parents":[2147483647,0,0,1,1,2,2,3,3,5,5,6,6],"right_children":[2,4,6,8,-1,10,12,-1,-1,-1,-1,-1,-1],"split_conditions":[9.4634504E-4,2.6783891E-2,5.202254E-2,1.7662242E-2,4.3804226E-3,1.3118388E-2,5.4240853E-2,-2.2412597E-3,-9.820843E-3,1.0364339E-2,-8.506358E-4,-9.820698E-3,1.2540881E-3],"split_indices":[22,12,10,15,0,21,10,0,0,0,0,0,0],"split_type":[0,0,0,0,0,0,0,0,0,0,0,0,0],"sum_hessian":[3.3821878E2,1.0957477E2,2.2864401E2,9.522471E1,1.4350059E1,3.5624676E1,1.9301933E2,7.175265E1,2.3472061E1,2.347078E1,1.2153898E1,8.956442E0,1.840629E2],"tree_param":{"num_deleted":"0","num_feature":"23","num_nodes":"13","size_leaf_vector":"1"}},{"base_weights":[3.8556643E-2,2.8029472E-1,-1.5718673E-1,9.5360535E-1,1.6280757E-1,-4.7540754E-2,-7.667306E-1,1.2371348E-2,4.1750334E-3,-6.7361486E-3,2.4873994E-3,-1.1207077E-3,8.401612E-3,-1.2505321E-2,-3.8992485E-3],"categories":[],"categories_nodes":[],"categories_segments":[],"categories_sizes":[],"default_left":[0,0,0,0,0,0,0,0,0,0,0,0,0,0,0],"id":27,"left_children":[1,3,5,7,9,11,13,-1,-1,-1,-1,-1,-1,-1,-1],"loss_changes":[1.6682795E1,1.2318931E1,1.2992249E1,3.013239E0,9.904485E0,9.619641E0,4.918314E0,0E0,0E0,0E0,0E0,0E0,0E0,0E0,0E0],"parents":[2147483647,0,0,1,1,2,2,3,3,4,4,5,5,6,6],"right_children":[2,4,6,8,10,12,14,-1,-1,-1,-1,-1,-1,-1,-1],"split_conditions":[4.821523E-3,5.202254E-2,1.2481835E0,4.645474E-3,5.905185E-1,8.959479E-3,1.08834775E-2,1.2371348E-2,4.1750334E-3,-6.7361486E-3,2.4873994E-3,-1.1207077E-3,8.401612E-3,-1.2505321E-2,-3.8992485E-3],"split_indices":[3,10,16,11,16,13,1,0,0,0,0,0,0,0,0],"split_type":[0,0,0,0,0,0,0,0,0,0,0,0,0,0,0],"sum_hessian":[3.5063187E2,1.5669078E2,1.9394107E2,2.2221907E1,1.3446889E2,1.6528693E2,2.8654148E1,1.3679534E1,8.542372E0,1.1890812E1,1.2257807E2,1.5490044E2,1.0386477E1,1.1530603E1,1.7123545E1],"tree_param":{"num_deleted":"0","num_feature":"23","num_nodes":"15","size_leaf_vector":"1"}},{"base_weights":[1.8515944E-2,1.9604863E-1,-2.4875726E-1,-4.8227343E-3,2.4763352E-1,-5.7032365E-1,-4.0985186E-2,5.119311E-3,9.4617024E-4,2.0371643E-3,-9.013697E-3,-1.9509535E-3,1.1261655E-2],"categories":[],"categories_nodes":[],"categories_segments":[],"categories_sizes":[],"default_left":[0,0,0,0,0,0,0,0,0,0,0,0,0],"id":28,"left_children":[1,3,5,-1,7,9,11,-1,-1,-1,-1,-1,-1],"loss_changes":[1.6233574E1,7.310614E0,9.101841E0,0E0,7.702277E0,1.3900751E1,1.5337355E1,0E0,0E0,0E0,0E0,0E0,0E0],"parents":[2147483647,0,0,1,1,2,2,4,4,5,5,6,6],"right_children":[2,4,6,-1,8,10,12,-1,-1,-1,-1,-1,-1],"split_conditions":[2.113336E-2,5.905185E-1,1.0894807E-2,-4.8227343E-3,-6.762163E-4,7.694081E-1,2.4616813E-2,5.119311E-3,9.4617024E-4,2.0371643E-3,-9.013697E-3,-1.9509535E-3,1.1261655E-2],"split_indices":[3,16,11,0,12,16,17,0,0,0,0,0,0],"split_type":[0,0,0,0,0,0,0,0,0,0,0,0,0],"sum_hessian":[3.4009375E2,2.0451431E2,1.3557944E2,1.3863628E1,1.9065068E2,5.253174E1,8.30477E1,6.90458E1,1.2160488E2,1.5851934E1,3.6679802E1,7.4096825E1,8.950874E0],"tree_param":{"num_deleted":"0","num_feature":"23","num_nodes":"13","size_leaf_vector":"1"}},{"base_weights":[1.8399851E-2,1.0578637E-2,-1.9886361E-2,-2.5515825E-1,1.2546873E-1,-3.7366594E-3,4.730318E-3,-5.926561E-3,1.7746683E-3],"categories":[],"categories_nodes":[],"categories_segments":[],"categories_sizes":[],"default_left":[0,0,0,0,0,0,0,0,0],"id":29,"left_children":[1,-1,3,5,7,-1,-1,-1,-1],"loss_changes":[1.3690502E1,0E0,1.1394575E1,1.1154794E1,7.7991223E0,0E0,0E0,0E0,0E0],"parents":[2147483647,0,0,2,2,3,3,4,4],"right_children":[2,-1,4,6,8,-1,-1,-1,-1],"split_conditions":[3.45121E-2,1.0578637E-2,1.3258059E-3,2.6783891E-2,5.8308554E-1,-3.7366594E-3,4.730318E-3,-5.926561E-3,1.7746683E-3],"split_indices":[10,0,22,12,16,0,0,0,0],"split_type":[0,0,0,0,0,0,0,0,0],"sum_hessian":[3.4247864E2,1.1220256E1,3.3125836E2,1.2621356E2,2.050448E2,1.0896685E2,1.7246714E1,1.3142424E1,1.9190237E2],"tree_param":{"num_deleted":"0","num_feature":"23","num_nodes":"9","size_leaf_vector":"1"}},{"base_weights":[-1.4751346E-2,1.9936286E-1,-1.7800486E-1,8.7231916E-1,8.174492E-2,1.5015481E-1,-3.4029055E-1,1.1999846E-2,2.7104768E-3,2.3120693E-4,8.429757E-3,9.7361775E-3,1.8927112E-4,-8.54833E-3,-1.2778956E-3],"categories":[],"categories_nodes":[],"categories_segments":[],"categories_sizes":[],"default_left":[0,0,0,0,0,0,0,0,0,0,0,0,0,0,0],"id":30,"left_children":[1,3,5,7,9,11,13,-1,-1,-1,-1,-1,-1,-1,-1],"loss_changes":[1.2122936E1,1.1806933E1,1.0528185E1,4.05307E0,5.7304654E0,7.0910683E0,1.4317252E1,0E0,0E0,0E0,0E0,0E0,0E0,0E0,0E0],"parents":[2147483647,0,0,1,1,2,2,3,3,4,4,5,5,6,6],"right_children":[2,4,6,8,10,12,14,-1,-1,-1,-1,-1,-1,-1,-1],"split_conditions":[4.598569E-3,5.202254E-2,7.983958E-1,1.3087328E-2,3.4611475E-2,-1.8483795E-2,2.2743173E-2,1.1999846E-2,2.7104768E-3,2.3120693E-4,8.429757E-3,9.7361775E-3,1.8927112E-4,-8.54833E-3,-1.2778956E-3],"split_indices":[3,10,16,17,8,7,4,0,0,0,0,0,0,0,0],"split_type":[0,0,0,0,0,0,0,0,0,0,0,0,0,0,0],"sum_hessian":[3.448013E2,1.4906923E2,1.9573207E2,2.1223198E1,1.2784602E2,6.4791405E1,1.3094066E2,1.309259E1,8.130608E0,1.1966101E2,8.185011E0,8.023581E0,5.6767826E1,3.7387985E1,9.355267E1],"tree_param":{"num_deleted":"0","num_feature":"23","num_nodes":"15","size_leaf_vector":"1"}}]},"name":"gbtree"},"learner_model_param":{"base_score":"5.851355E-1","boost_from_average":"1","num_class":"0","num_feature":"23","num_target":"1"},"objective":{"name":"binary:logistic","reg_loss_param":{"scale_pos_weight":"1"}}},"version":[2,1,4]}