{"learner":{"attributes":{"best_iteration":"25","best_score":"0.6867786528182631","scikit_learn":"{\"_estimator_type\": \"classifier\"}"},"feature_names":[],"feature_types":[],"gradient_booster":{"model":{"gbtree_model_param":{"num_parallel_tree":"1","num_trees":"56"},"iteration_indptr":[0,1,2,3,4,5,6,7,8,9,10,11,12,13,14,15,16,17,18,19,20,21,22,23,24,25,26,27,28,29,30,31,32,33,34,35,36,37,38,39,40,41,42,43,44,45,46,47,48,49,50,51,52,53,54,55,56],"tree_info":[0,0,0,0,0,0,0,0,0,0,0,0,0,0,0,0,0,0,0,0,0,0,0,0,0,0,0,0,0,0,0,0,0,0,0,0,0,0,0,0,0,0,0,0,0,0,0,0,0,0,0,0,0,0,0,0],"trees":[{"base_weights":[6.337469E-2,-2.29975E-1,2.928909E-1,8.024759E-3,-3.0607516E-1,7.515951E-1,5.2971035E-2,1.4543928E-3,-4.90447E-3,1.2651994E-2,4.890923E-3,5.0929897E-3,-1.6888765E-3],"categories":[],"categories_nodes":[],"categories_segments":[],"categories_sizes":[],"default_left":[0,0,0,0,0,0,0,0,0,0,0,0,0],"id":0,"left_children":[1,3,5,-1,7,9,11,-1,-1,-1,-1,-1,-1],"loss_changes":[2.3294315E1,1.2187556E1,2.130898E1,0E0,1.1915783E1,8.352703E0,1.3089803E1,0E0,0E0,0E0,0E0,0E0,0E0],"parents":[2147483647,0,0,1,1,2,2,4,4,5,5,6,6],"right_children":[2,4,6,-1,8,10,12,-1,-1,-1,-1,-1,-1],"split_conditions":[5.912516E-4,-5.630958E-2,1.6806664E-2,8.024759E-3,1.2858806E-2,5.5883616E-1,3.4100404E-1,1.4543928E-3,-4.90447E-3,1.2651994E-2,4.890923E-3,5.0929897E-3,-1.6888765E-3],"split_indices":[22,7,17,0,17,19,19,0,0,0,0,0,0],"split_type":[0,0,0,0,0,0,0,0,0,0,0,0,0],"sum_hessian":[3.439795E2,1.5099171E2,1.929878E2,9.710077E0,1.4128163E2,6.554302E1,1.2744477E2,4.1025078E1,1.0025655E2,2.0876667E1,4.466636E1,4.126783E1,8.617694E1],"tree_param":{"num_deleted":"0","num_feature":"23","num_nodes":"13","size_leaf_vector":"1"}},{"base_weights":[8.300751E-3,1.1409579E-2,-3.2673955E-2,1.361313E-1,-2.1063691E-1,-7.495218E-3,2.0765725E-3,-2.8011792E-3,5.911214E-3],"categories":[],"categories_nodes":[],"categories_segments":[],"categories_sizes":[],"default_left":[0,0,0,0,0,0,0,0,0],"id":1,"left_children":[1,-1,3,5,7,-1,-1,-1,-1],"loss_changes":[1.5832498E1,0E0,9.925068E0,1.0903862E1,9.120871E0,0E0,0E0,0E0,0E0],"parents":[2147483647,0,0,2,2,3,3,4,4],"right_children":[2,-1,4,6,8,-1,-1,-1,-1],"split_conditions":[3.4512024E-2,1.1409579E-2,1.3118389E-2,5.905185E-1,8.959483E-3,-7.495218E-3,2.0765725E-3,-2.8011792E-3,5.911214E-3],"split_indices":[10,0,3,16,13,0,0,0,0],"split_type":[0,0,0,0,0,0,0,0,0],"sum_hessian":[3.3933865E2,1.0909994E1,3.2842865E2,1.6867165E2,1.59757E2,1.1895793E1,1.5677585E2,1.4761517E2,1.2141829E1],"tree_param":{"num_deleted":"0","num_feature":"23","num_nodes":"9","size_leaf_vector":"1"}},{"base_weights":[3.143291E-2,-5.4417104E-1,2.0909484E-1,2.8405164E-3,-6.971615E-1,4.6380043E-1,-2.5456646E-2,-1.0536249E-2,-2.9882856E-4,1.0237855E-2,2.4084612E-3,-3.7301413E-3,1.7196168E-3],"categories":[],"categories_nodes":[],"categories_segments":[],"categories_sizes":[],"default_left":[0,0,0,0,0,0,0,0,0,0,0,0,0],"id":2,"left_children":[1,3,5,-1,7,9,11,-1,-1,-1,-1,-1,-1],"loss_changes":[3.4544933E1,1.0295357E1,1.5425375E1,0E0,1.6036667E1,1.5202501E1,9.345179E0,0E0,0E0,0E0,0E0,0E0,0E0],"parents":[2147483647,0,0,1,1,2,2,4,4,5,5,6,6],"right_children":[2,4,6,-1,8,10,12,-1,-1,-1,-1,-1,-1],"split_conditions":[-5.835161E-4,1.1419739E-2,4.8217303E-3,2.8405164E-3,1.4888163E-2,1.624939E-2,6.5196953E-3,-1.0536249E-2,-2.9882856E-4,1.0237855E-2,2.4084612E-3,-3.7301413E-3,1.7196168E-3],"split_indices":[22,17,3,0,15,17,11,0,0,0,0,0,0],"split_type":[0,0,0,0,0,0,0,0,0,0,0,0,0],"sum_hessian":[3.3569244E2,7.868836E1,2.5700406E2,1.2135496E1,6.6552864E1,1.2274005E2,1.3426402E2,4.3002007E1,2.3550856E1,3.3929314E1,8.881074E1,4.8315136E1,8.594888E1],"tree_param":{"num_deleted":"0","num_feature":"23","num_nodes":"13","size_leaf_vector":"1"}},{"base_weights":[2.1451296E-2,-5.195886E-1,1.9907704E-1,3.069646E-3,-6.639088E-1,4.977532E-1,-8.965109E-3,-1.1646552E-2,-2.6320086E-3,7.5385617E-3,2.2128971E-4,1.7522722E-3,-5.928824E-3],"categories":[],"categories_nodes":[],"categories_segments":[],"categories_sizes":[],"default_left":[0,0,0,0,0,0,0,0,0,0,0,0,0],"id":3,"left_children":[1,3,5,-1,7,9,11,-1,-1,-1,-1,-1,-1],"loss_changes":[3.318214E1,1.0385063E1,1.615093E1,0E0,1.43369255E1,1.2980856E1,1.6682913E1,0E0,0E0,0E0,0E0,0E0,0E0],"parents":[2147483647,0,0,1,1,2,2,4,4,5,5,6,6],"right_children":[2,4,6,-1,8,10,12,-1,-1,-1,-1,-1,-1],"split_conditions":[-5.9450266E-4,1.1419739E-2,1.6806664E-2,3.069646E-3,1.2143919E-2,6.292294E-1,7.714171E-1,-1.1646552E-2,-2.6320086E-3,7.5385617E-3,2.2128971E-4,1.7522722E-3,-5.928824E-3],"split_indices":[22,17,17,0,15,9,19,0,0,0,0,0,0],"split_type":[0,0,0,0,0,0,0,0,0,0,0,0,0],"sum_hessian":[3.4320187E2,8.4350105E1,2.5885175E2,1.2371107E1,7.1979004E1,1.0570442E2,1.5314734E2,3.1148119E1,4.0830883E1,6.832785E1,3.7376564E1,1.1695475E2,3.6192585E1],"tree_param":{"num_deleted":"0","num_feature":"23","num_nodes":"13","size_leaf_vector":"1"}},{"base_weights":[1.1239683E-3,-6.4587176E-1,1.5798827E-1,-8.9730746E-1,-1.7927824E-1,3.8276896E-1,-5.0694216E-2,-1.4332635E-2,-3.4955721E-3,6.161193E-3,-9.168688E-3,1.08143E-2,2.3775813E-3,-2.1158142E-3,6.841854E-3],"categories":[],"categories_nodes":[],"categories_segments":[],"categories_sizes":[],"default_left":[0,0,0,0,0,0,0,0,0,0,0,0,0,0,0],"id":4,"left_children":[1,3,5,7,9,11,13,-1,-1,-1,-1,-1,-1,-1,-1],"loss_changes":[3.4686153E1,7.663374E0,1.292231E1,1.2148556E1,1.4999338E1,1.3171354E1,1.7114193E1,0E0,0E0,0E0,0E0,0E0,0E0,0E0,0E0],"parents":[2147483647,0,0,1,1,2,2,3,3,4,4,5,5,6,6],"right_children":[2,4,6,8,10,12,14,-1,-1,-1,-1,-1,-1,-1,-1],"split_conditions":[-8.5353584E-4,7.937557E-2,4.8217303E-3,1.1990215E-2,1.1633832E-1,9.600944E-3,4.675005E-2,-1.4332635E-2,-3.4955721E-3,6.161193E-3,-9.168688E-3,1.08143E-2,2.3775813E-3,-2.1158142E-3,6.841854E-3],"split_indices":[22,7,3,15,7,15,8,0,0,0,0,0,0,0,0],"split_type":[0,0,0,0,0,0,0,0,0,0,0,0,0,0,0],"sum_hessian":[3.39762E2,6.569244E1,2.7406958E2,4.2088745E1,2.360369E1,1.315439E2,1.4252568E2,2.0456287E1,2.1632458E1,1.143605E1,1.2167639E1,2.1499912E1,1.1004398E2,1.1751107E2,2.5014612E1],"tree_param":{"num_deleted":"0","num_feature":"23","num_nodes":"15","size_leaf_vector":"1"}},{"base_weights":[-4.394446E-3,-4.1473216E-1,3.1940177E-1,8.634599E-4,-6.3646847E-1,4.7011888E-1,-1.8272763E-1,3.7270717E-3,-3.421163E-3,1.0672664E-4,-7.2731874E-3,1.0900329E-2,2.8613075E-3,-7.7545624E-3,4.4955313E-3],"categories":[],"categories_nodes":[],"categories_segments":[],"categories_sizes":[],"default_left":[0,0,0,0,0,0,0,0,0,0,0,0,0,0,0],"id":5,"left_children":[1,3,5,7,9,11,13,-1,-1,-1,-1,-1,-1,-1,-1],"loss_changes":[4.6502804E1,1.4225706E1,1.4891544E1,7.104221E0,5.925907E0,1.6882313E1,1.7544954E1,0E0,0E0,0E0,0E0,0E0,0E0,0E0,0E0],"parents":[2147483647,0,0,1,1,2,2,3,3,4,4,5,5,6,6],"right_children":[2,4,6,8,10,12,14,-1,-1,-1,-1,-1,-1,-1,-1],"split_conditions":[5.912516E-4,8.5463715E-1,8.520078E-2,2.4795726E-2,-4.1364133E-2,5.8538347E-2,5.1014144E-2,3.7270717E-3,-3.421163E-3,1.0672664E-4,-7.2731874E-3,1.0900329E-2,2.8613075E-3,-7.7545624E-3,4.4955313E-3],"split_indices":[22,16,7,3,4,10,4,0,0,0,0,0,0,0,0],"split_type":[0,0,0,0,0,0,0,0,0,0,0,0,0,0,0],"sum_hessian":[3.480013E2,1.5336517E2,1.9463615E2,5.370435E1,9.966082E1,1.497512E2,4.4884956E1,2.5726318E1,2.797803E1,1.2377372E1,8.728345E1,3.3146317E1,1.1660488E2,2.3050207E1,2.1834747E1],"tree_param":{"num_deleted":"0","num_feature":"23","num_nodes":"15","size_leaf_vector":"1"}},{"base_weights":[-4.3116375E-3,-6.12828E-1,1.9485438E-1,-4.4217727E-1,-1.065172E0,6.1113787E-1,8.640281E-2,-5.703569E-3,3.165439E-3,-4.5798803E-3,-1.3719513E-2,1.3940907E-2,3.5990376E-3,9.3275856E-5,5.6365803E-3],"categories":[],"categories_nodes":[],"categories_segments":[],"categories_sizes":[],"default_left":[0,0,0,0,0,0,0,0,0,0,0,0,0,0,0],"id":6,"left_children":[1,3,5,7,9,11,13,-1,-1,-1,-1,-1,-1,-1,-1],"loss_changes":[4.1564404E1,6.0569572E0,1.1613098E1,6.3183517E0,3.554348E0,9.971048E0,7.578219E0,0E0,0E0,0E0,0E0,0E0,0E0,0E0,0E0],"parents":[2147483647,0,0,1,1,2,2,3,3,4,4,5,5,6,6],"right_children":[2,4,6,8,10,12,14,-1,-1,-1,-1,-1,-1,-1,-1],"split_conditions":[-5.26424E-4,1.2330098E0,5.8060654E-2,2.0637691E-2,-6.1899805E-3,-4.3880525E-3,4.551316E-2,-5.703569E-3,3.165439E-3,-4.5798803E-3,-1.3719513E-2,1.3940907E-2,3.5990376E-3,9.3275856E-5,5.6365803E-3],"split_indices":[22,16,10,5,3,6,8,0,0,0,0,0,0,0,0],"split_type":[0,0,0,0,0,0,0,0,0,0,0,0,0,0,0],"sum_hessian":[3.409673E2,8.35668E1,2.5740048E2,6.2112022E1,2.1454782E1,5.224122E1,2.0515926E2,5.3347645E1,8.764376E0,8.038238E0,1.3416545E1,1.1585834E1,4.0655388E1,1.7751128E2,2.7647972E1],"tree_param":{"num_deleted":"0","num_feature":"23","num_nodes":"15","size_leaf_vector":"1"}},{"base_weights":[-3.1788047E-2,-6.1023694E-1,1.4732224E-1,3.7947914E-3,-7.3009276E-1,5.129838E-1,-8.431492E-2,-1.5422119E-2,-5.3081308E-3,9.99756E-3,2.3091875E-3,-1.9676238E-3,5.9854635E-3],"categories":[],"categories_nodes":[],"categories_segments":[],"categories_sizes":[],"default_left":[0,0,0,0,0,0,0,0,0,0,0,0,0],"id":7,"left_children":[1,3,5,-1,7,9,11,-1,-1,-1,-1,-1,-1],"loss_changes":[3.59182E1,9.998842E0,2.2476883E1,0E0,1.1067532E1,1.3891264E1,1.2634079E1,0E0,0E0,0E0,0E0,0E0,0E0],"parents":[2147483647,0,0,1,1,2,2,4,4,5,5,6,6],"right_children":[2,4,6,-1,8,10,12,-1,-1,-1,-1,-1,-1],"split_conditions":[-5.26424E-4,-1.8557645E-2,1.6276447E-2,3.7947914E-3,6.3876603E-3,1.6713383E-3,4.4440713E-2,-1.5422119E-2,-5.3081308E-3,9.99756E-3,2.3091875E-3,-1.9676238E-3,5.9854635E-3],"split_indices":[22,8,17,0,8,2,8,0,0,0,0,0,0],"split_type":[0,0,0,0,0,0,0,0,0,0,0,0,0],"sum_hessian":[3.448125E2,8.095518E1,2.6385733E2,8.510784E0,7.24444E1,1.0185492E2,1.6200241E2,1.2946192E1,5.9498203E1,3.6434265E1,6.5420654E1,1.3970836E2,2.229406E1],"tree_param":{"num_deleted":"0","num_feature":"23","num_nodes":"13","size_leaf_vector":"1"}},{"base_weights":[-1.7923088E-3,-5.582828E-1,1.6407552E-1,2.7533327E-3,-7.327485E-1,4.1337436E-1,-7.336046E-2,-1.2980319E-2,-3.6947825E-3,8.698199E-3,2.0435853E-3,1.3809802E-3,-3.8060592E-3],"categories":[],"categories_nodes":[],"categories_segments":[],"categories_sizes":[],"default_left":[0,0,0,0,0,0,0,0,0,0,0,0,0],"id":8,"left_children":[1,3,5,-1,7,9,11,-1,-1,-1,-1,-1,-1],"loss_changes":[3.1699354E1,1.1670393E1,1.5691203E1,0E0,1.2967167E1,1.2149841E1,8.911895E0,0E0,0E0,0E0,0E0,0E0,0E0],"parents":[2147483647,0,0,1,1,2,2,4,4,5,5,6,6],"right_children":[2,4,6,-1,8,10,12,-1,-1,-1,-1,-1,-1],"split_conditions":[-5.835161E-4,1.1419739E-2,4.9984334E-3,2.7533327E-3,1.5565407E-2,1.5815988E-2,1.5523355E-2,-1.2980319E-2,-3.6947825E-3,8.698199E-3,2.0435853E-3,1.3809802E-3,-3.8060592E-3],"split_indices":[22,17,2,0,17,17,15,0,0,0,0,0,0],"split_type":[0,0,0,0,0,0,0,0,0,0,0,0,0],"sum_hessian":[3.4143152E2,7.7856224E1,2.635753E2,1.3374285E1,6.448194E1,1.282142E2,1.3536108E2,2.422004E1,4.02619E1,3.9278008E1,8.8936195E1,8.050494E1,5.485615E1],"tree_param":{"num_deleted":"0","num_feature":"23","num_nodes":"13","size_leaf_vector":"1"}},{"base_weights":[-1.9787977E-2,-5.38932E-1,1.1890549E-1,-7.193766E-1,4.224889E-3,4.4191474E-1,-9.879024E-2,2.1363038E-3,-9.230699E-3,6.461466E-3,-1.6355847E-3,2.4328625E-3,-4.0776934E-3],"categories":[],"categories_nodes":[],"categories_segments":[],"categories_sizes":[],"default_left":[0,0,0,0,0,0,0,0,0,0,0,0,0],"id":9,"left_children":[1,3,5,7,-1,9,11,-1,-1,-1,-1,-1,-1],"loss_changes":[2.4544008E1,1.277072E1,1.8968155E1,1.1766449E1,0E0,1.3527136E1,1.7178444E1,0E0,0E0,0E0,0E0,0E0,0E0],"parents":[2147483647,0,0,1,1,2,2,3,3,5,5,6,6],"right_children":[2,4,6,8,-1,10,12,-1,-1,-1,-1,-1,-1],"split_conditions":[-6.534351E-4,2.322022E-2,1.6726207E-2,-2.5806507E-2,4.224889E-3,8.9269316E-1,-5.202842E-3,2.1363038E-3,-9.230699E-3,6.461466E-3,-1.6355847E-3,2.4328625E-3,-4.0776934E-3],"split_indices":[22,1,17,4,0,19,3,0,0,0,0,0,0],"split_type":[0,0,0,0,0,0,0,0,0,0,0,0,0],"sum_hessian":[3.3899005E2,7.086167E1,2.681284E2,5.9875652E1,1.0986023E1,1.0753773E2,1.6059065E2,1.0720798E1,4.9154854E1,8.036325E1,2.7174475E1,7.631429E1,8.427636E1],"tree_param":{"num_deleted":"0","num_feature":"23","num_nodes":"13","size_leaf_vector":"1"}},{"base_weights":[-1.8343678E-2,-6.035101E-1,1.1657376E-1,5.649129E-3,-7.8929293E-1,4.012574E-1,-1.8683812E-1,-1.3628165E-2,-3.173888E-3,6.7848023E-3,2.152397E-3,-5.248285E-3,-8.210706E-5],"categories":[],"categories_nodes":[],"categories_segments":[],"categories_sizes":[],"default_left":[0,0,0,0,0,0,0,0,0,0,0,0,0],"id":10,"left_children":[1,3,5,-1,7,9,11,-1,-1,-1,-1,-1,-1],"loss_changes":[2.670097E1,1.42000885E1,2.3824284E1,0E0,1.4476566E1,7.185507E0,8.072571E0,0E0,0E0,0E0,0E0,0E0,0E0],"parents":[2147483647,0,0,1,1,2,2,4,4,5,5,6,6],"right_children":[2,4,6,-1,8,10,12,-1,-1,-1,-1,-1,-1],"split_conditions":[-8.681528E-4,1.1419739E-2,4.852323E-3,5.649129E-3,1.2116568E-2,1.6806664E-2,5.544585E-4,-1.3628165E-2,-3.173888E-3,6.7848023E-3,2.152397E-3,-5.248285E-3,-8.210706E-5],"split_indices":[22,17,5,0,15,17,22,0,0,0,0,0,0],"split_type":[0,0,0,0,0,0,0,0,0,0,0,0,0],"sum_hessian":[3.3631354E2,6.2362137E1,2.739514E2,8.275466E0,5.408667E1,1.4117139E2,1.3278E2,2.3562422E1,3.0524248E1,5.5625343E1,8.554605E1,4.524031E1,8.7539696E1],"tree_param":{"num_deleted":"0","num_feature":"23","num_nodes":"13","size_leaf_vector":"1"}},{"base_weights":[6.959389E-3,-6.5604526E-1,1.5180169E-1,4.4931555E-3,-8.362122E-1,3.984731E-1,-7.162705E-2,-1.4095387E-2,-3.485695E-3,6.834614E-3,1.9391569E-3,3.1392025E-3,-3.2289815E-3],"categories":[],"categories_nodes":[],"categories_segments":[],"categories_sizes":[],"default_left":[0,0,0,0,0,0,0,0,0,0,0,0,0],"id":11,"left_children":[1,3,5,-1,7,9,11,-1,-1,-1,-1,-1,-1],"loss_changes":[3.2911255E1,1.2613205E1,1.552804E1,0E0,1.4378387E1,7.6683807E0,1.44792795E1,0E0,0E0,0E0,0E0,0E0,0E0],"parents":[2147483647,0,0,1,1,2,2,4,4,5,5,6,6],"right_children":[2,4,6,-1,8,10,12,-1,-1,-1,-1,-1,-1],"split_conditions":[-9.2344044E-4,1.1419739E-2,1.0540017E-3,4.4931555E-3,1.2116568E-2,1.6806664E-2,7.603634E-2,-1.4095387E-2,-3.485695E-3,6.834614E-3,1.9391569E-3,3.1392025E-3,-3.2289815E-3],"split_indices":[22,17,0,0,15,17,10,0,0,0,0,0,0],"split_type":[0,0,0,0,0,0,0,0,0,0,0,0,0],"sum_hessian":[3.406775E2,6.044871E1,2.802288E2,8.262529E0,5.218618E1,1.328145E2,1.4741428E2,2.3116894E1,2.9069288E1,5.4518475E1,7.829602E1,5.806726E1,8.934702E1],"tree_param":{"num_deleted":"0","num_feature":"23","num_nodes":"13","size_leaf_vector":"1"}},{"base_weights":[2.4439136E-2,-2.7663422E-1,2.712539E-1,-1.3967645E-1,-7.2010857E-1,6.800009E-1,1.0188552E-1,2.0234727E-3,-4.039037E-3,-6.704129E-4,-9.499171E-3,1.1742657E-2,3.8292531E-3,5.449694E-3,-1.2067448E-3],"categories":[],"categories_nodes":[],"categories_segments":[],"categories_sizes":[],"default_left":[0,0,0,0,0,0,0,0,0,0,0,0,0,0,0],"id":12,"left_children":[1,3,5,7,9,11,13,-1,-1,-1,-1,-1,-1,-1,-1],"loss_changes":[2.5424135E1,9.26318E0,1.2943035E1,1.083886E1,5.359722E0,7.6100616E0,1.3286871E1,0E0,0E0,0E0,0E0,0E0,0E0,0E0,0E0],"parents":[2147483647,0,0,1,1,2,2,3,3,4,4,5,5,6,6],"right_children":[2,4,6,8,10,12,14,-1,-1,-1,-1,-1,-1,-1,-1],"split_conditions":[5.912516E-4,1.2330098E0,1.5780127E-2,-8.2119106E-4,-2.8695714E-2,6.121093E-1,3.5189754E-1,2.0234727E-3,-4.039037E-3,-6.704129E-4,-9.499171E-3,1.1742657E-2,3.8292531E-3,5.449694E-3,-1.2067448E-3],"split_indices":[22,16,17,0,3,19,19,0,0,0,0,0,0,0,0],"split_type":[0,0,0,0,0,0,0,0,0,0,0,0,0,0,0],"sum_hessian":[3.4012933E2,1.5316835E2,1.8696097E2,1.180317E2,3.5136654E1,5.3890007E1,1.3307097E2,5.1544777E1,6.648692E1,9.482142E0,2.5654512E1,1.912226E1,3.476775E1,4.4008312E1,8.906265E1],"tree_param":{"num_deleted":"0","num_feature":"23","num_nodes":"15","size_leaf_vector":"1"}},{"base_weights":[3.2853172E-3,-3.324021E-1,2.8890473E-1,8.129454E-3,-4.0465805E-1,7.407677E-1,7.526759E-2,-1.6722167E-2,-3.2090482E-3,1.2300692E-2,4.230683E-3,-6.612225E-3,2.3973244E-3],"categories":[],"categories_nodes":[],"categories_segments":[],"categories_sizes":[],"default_left":[0,0,0,0,0,0,0,0,0,0,0,0,0],"id":13,"left_children":[1,3,5,-1,7,9,11,-1,-1,-1,-1,-1,-1],"loss_changes":[3.3043842E1,1.3441078E1,1.7919113E1,0E0,1.535631E1,8.753899E0,1.5607071E1,0E0,0E0,0E0,0E0,0E0,0E0],"parents":[2147483647,0,0,1,1,2,2,4,4,5,5,6,6],"right_children":[2,4,6,-1,8,10,12,-1,-1,-1,-1,-1,-1],"split_conditions":[5.912516E-4,-5.7559516E-2,1.6806664E-2,8.129454E-3,-8.037997E-3,4.8217303E-3,1.8725714E-2,-1.6722167E-2,-3.2090482E-3,1.2300692E-2,4.230683E-3,-6.612225E-3,2.3973244E-3],"split_indices":[22,7,17,0,12,3,17,0,0,0,0,0,0],"split_type":[0,0,0,0,0,0,0,0,0,0,0,0,0],"sum_hessian":[3.4264E2,1.5743889E2,1.8520111E2,8.734539E0,1.4870435E2,5.866071E1,1.2654041E2,8.0410795E0,1.4066327E2,2.1962929E1,3.669778E1,2.2547955E1,1.03992455E2],"tree_param":{"num_deleted":"0","num_feature":"23","num_nodes":"13","size_leaf_vector":"1"}},{"base_weights":[8.651371E-3,-5.416157E-1,1.9161615E-1,4.869191E-3,-6.620459E-1,4.7416005E-1,8.166147E-4,7.2821404E-4,-8.61945E-3,7.610588E-3,-5.267311E-4,-1.2620961E-3,7.654969E-3],"categories":[],"categories_nodes":[],"categories_segments":[],"categories_sizes":[],"default_left":[0,0,0,0,0,0,0,0,0,0,0,0,0],"id":14,"left_children":[1,3,5,-1,7,9,11,-1,-1,-1,-1,-1,-1],"loss_changes":[3.440167E1,1.0884207E1,1.3821737E1,0E0,1.13379135E1,1.5661022E1,1.5059925E1,0E0,0E0,0E0,0E0,0E0,0E0],"parents":[2147483647,0,0,1,1,2,2,4,4,5,5,6,6],"right_children":[2,4,6,-1,8,10,12,-1,-1,-1,-1,-1,-1],"split_conditions":[-5.835161E-4,-4.4182885E-2,1.6726207E-2,4.869191E-3,1.2058952E-2,6.292294E-1,4.3956585E-2,7.2821404E-4,-8.61945E-3,7.610588E-3,-5.267311E-4,-1.2620961E-3,7.654969E-3],"split_indices":[22,4,17,0,17,9,8,0,0,0,0,0,0],"split_type":[0,0,0,0,0,0,0,0,0,0,0,0,0],"sum_hessian":[3.396641E2,8.426791E1,2.5539618E2,8.513669E0,7.5754234E1,1.02348755E2,1.5304742E2,1.6335936E1,5.9418297E1,6.597565E1,3.6373108E1,1.3196138E2,2.1086048E1],"tree_param":{"num_deleted":"0","num_feature":"23","num_nodes":"13","size_leaf_vector":"1"}},{"base_weights":[1.841363E-2,-5.1599294E-1,1.7940903E-1,-6.786131E-1,2.8418903E-3,4.032442E-1,-7.788134E-2,7.4497296E-4,-8.086534E-3,8.217036E-3,1.9013927E-3,-4.514307E-3,6.9726753E-4],"categories":[],"categories_nodes":[],"categories_segments":[],"categories_sizes":[],"default_left":[0,0,0,0,0,0,0,0,0,0,0,0,0],"id":15,"left_children":[1,3,5,7,-1,9,11,-1,-1,-1,-1,-1,-1],"loss_changes":[2.9700268E1,1.0593594E1,1.5304391E1,6.594782E0,0E0,1.2505091E1,6.8806853E0,0E0,0E0,0E0,0E0,0E0,0E0],"parents":[2147483647,0,0,1,1,2,2,3,3,5,5,6,6],"right_children":[2,4,6,8,-1,10,12,-1,-1,-1,-1,-1,-1],"split_conditions":[-5.9450266E-4,2.2997608E-2,4.852323E-3,-2.9752474E-2,2.8418903E-3,1.5735453E-2,5.544585E-4,7.4497296E-4,-8.086534E-3,8.217036E-3,1.9013927E-3,-4.514307E-3,6.9726753E-4],"split_indices":[22,1,5,4,0,17,22,0,0,0,0,0,0],"split_type":[0,0,0,0,0,0,0,0,0,0,0,0,0],"sum_hessian":[3.431275E2,7.892838E1,2.6419913E2,6.5723404E1,1.3204978E1,1.4098178E2,1.2321734E2,9.740394E0,5.598301E1,4.660699E1,9.437479E1,3.431603E1,8.8901306E1],"tree_param":{"num_deleted":"0","num_feature":"23","num_nodes":"13","size_leaf_vector":"1"}},{"base_weights":[-1.471175E-2,2.4236105E-1,-2.2061662E-1,8.108771E-1,1.3816835E-1,-2.7245742E-1,5.36524E-3,1.3873719E-2,3.6011678E-3,-4.3851063E-3,2.1927857E-3,2.3306666E-3,-3.6058729E-3],"categories":[],"categories_nodes":[],"categories_segments":[],"categories_sizes":[],"default_left":[0,0,0,0,0,0,0,0,0,0,0,0,0],"id":16,"left_children":[1,3,5,7,9,11,-1,-1,-1,-1,-1,-1,-1],"loss_changes":[1.800119E1,8.848691E0,7.5564957E0,5.535571E0,6.132367E0,7.9857035E0,0E0,0E0,0E0,0E0,0E0,0E0,0E0],"parents":[2147483647,0,0,1,1,2,2,3,3,4,4,5,5],"right_children":[2,4,6,8,10,12,-1,-1,-1,-1,-1,-1,-1],"split_conditions":[4.8217303E-3,5.2022498E-2,9.216443E-3,-2.7711152E-3,-8.781203E-3,9.082668E-3,5.36524E-3,1.3873719E-2,3.6011678E-3,-4.3851063E-3,2.1927857E-3,2.3306666E-3,-3.6058729E-3],"split_indices":[3,10,13,6,13,18,0,0,0,0,0,0,0],"split_type":[0,0,0,0,0,0,0,0,0,0,0,0,0],"sum_hessian":[3.3806778E2,1.5027367E2,1.8779413E2,2.2224678E1,1.2804898E2,1.7635912E2,1.1435016E1,8.840443E0,1.3384235E1,1.5246044E1,1.1280294E2,2.5936941E1,1.5042218E2],"tree_param":{"num_deleted":"0","num_feature":"23","num_nodes":"13","size_leaf_vector":"1"}},{"base_weights":[-3.0123228E-2,-5.1978356E-1,1.18473634E-1,4.481311E-3,-7.0197433E-1,3.928027E-1,-5.4120805E-2,-1.15097985E-2,-3.112055E-3,8.271828E-3,6.3982693E-4,2.866979E-3,-3.1307393E-3],"categories":[],"categories_nodes":[],"categories_segments":[],"categories_sizes":[],"default_left":[0,0,0,0,0,0,0,0,0,0,0,0,0],"id":17,"left_children":[1,3,5,-1,7,9,11,-1,-1,-1,-1,-1,-1],"loss_changes":[2.4766932E1,1.4287338E1,1.2393259E1,0E0,1.141029E1,1.4377659E1,1.4322802E1,0E0,0E0,0E0,0E0,0E0,0E0],"parents":[2147483647,0,0,1,1,2,2,4,4,5,5,6,6],"right_children":[2,4,6,-1,8,10,12,-1,-1,-1,-1,-1,-1],"split_conditions":[-5.835161E-4,1.1419739E-2,1.6276447E-2,4.481311E-3,1.2143919E-2,7.1163785E-1,-2.557603E-3,-1.15097985E-2,-3.112055E-3,8.271828E-3,6.3982693E-4,2.866979E-3,-3.1307393E-3],"split_indices":[22,17,17,0,15,19,5,0,0,0,0,0,0],"split_type":[0,0,0,0,0,0,0,0,0,0,0,0,0],"sum_hessian":[3.3853647E2,7.8235344E1,2.6030112E2,1.2162205E1,6.607314E1,1.0003126E2,1.6026987E2,2.984029E1,3.623285E1,4.2444847E1,5.758641E1,6.9150696E1,9.111917E1],"tree_param":{"num_deleted":"0","num_feature":"23","num_nodes":"13","size_leaf_vector":"1"}},{"base_weights":[2.8711418E-2,-2.6470223E-1,2.545764E-1,7.286442E-3,-3.3216837E-1,3.516883E-1,-2.8611833E-1,-1.3671088E-2,-2.478903E-3,-5.1365737E-3,4.326677E-3,-8.322066E-3,5.8478354E-3],"categories":[],"categories_nodes":[],"categories_segments":[],"categories_sizes":[],"default_left":[0,0,0,0,0,0,0,0,0,0,0,0,0],"id":18,"left_children":[1,3,5,-1,7,9,11,-1,-1,-1,-1,-1,-1],"loss_changes":[2.3114136E1,1.0412025E1,1.0445135E1,0E0,1.2115437E1,1.1957096E1,1.5014854E1,0E0,0E0,0E0,0E0,0E0,0E0],"parents":[2147483647,0,0,1,1,2,2,4,4,5,5,6,6],"right_children":[2,4,6,-1,8,10,12,-1,-1,-1,-1,-1,-1],"split_conditions":[5.7356356E-4,-5.7559516E-2,1.0216508E-1,7.286442E-3,-5.389456E-3,5.989256E-1,1.4581119E-1,-1.3671088E-2,-2.478903E-3,-5.1365737E-3,4.326677E-3,-8.322066E-3,5.8478354E-3],"split_indices":[22,7,7,0,12,16,10,0,0,0,0,0,0],"split_type":[0,0,0,0,0,0,0,0,0,0,0,0,0],"sum_hessian":[3.4676062E2,1.5075192E2,1.9600871E2,8.964327E0,1.417876E2,1.6646094E2,2.9547775E1,9.530536E0,1.3225706E2,1.3787256E1,1.5267368E2,1.8187782E1,1.1359992E1],"tree_param":{"num_deleted":"0","num_feature":"23","num_nodes":"13","size_leaf_vector":"1"}},{"base_weights":[1.599085E-2,1.1050787E-2,-2.4569152E-2,2.1351366E-1,-1.6165334E-1,7.639364E-4,5.8405E-3,-6.315737E-4,-5.0388267E-3],"categories":[],"categories_nodes":[],"categories_segments":[],"categories_sizes":[],"default_left":[0,0,0,0,0,0,0,0,0],"id":19,"left_children":[1,-1,3,5,7,-1,-1,-1,-1],"loss_changes":[1.5270455E1,0E0,1.0924532E1,6.171794E0,7.124962E0,0E0,0E0,0E0,0E0],"parents":[2147483647,0,0,2,2,3,3,4,4],"right_children":[2,-1,4,6,8,-1,-1,-1,-1],"split_conditions":[3.4512024E-2,1.1050787E-2,-2.3749936E-3,-1.0739046E-2,1.6796123E-2,7.639364E-4,5.8405E-3,-6.315737E-4,-5.0388267E-3],"split_indices":[10,0,5,20,12,0,0,0,0],"split_type":[0,0,0,0,0,0,0,0,0],"sum_hessian":[3.4407874E2,1.14118E1,3.3266693E2,1.2135115E2,2.1131578E2,8.94541E1,3.189705E1,1.6500948E2,4.6306316E1],"tree_param":{"num_deleted":"0","num_feature":"23","num_nodes":"9","size_leaf_vector":"1"}},{"base_weights":[-8.395179E-3,-2.807631E-1,2.2295482E-1,-1.244285E-1,-8.015785E-1,-5.4779947E-1,2.988165E-1,-9.653224E-3,-4.3543355E-4,-2.117463E-4,-1.1771856E-2,9.830561E-4,-1.1482055E-2,5.351919E-3,4.3517916E-4],"categories":[],"categories_nodes":[],"categories_segments":[],"categories_sizes":[],"default_left":[0,0,0,0,0,0,0,0,0,0,0,0,0,0,0],"id":20,"left_children":[1,3,5,7,9,11,13,-1,-1,-1,-1,-1,-1,-1,-1],"loss_changes":[2.1930956E1,1.291442E1,1.116858E1,8.40002E0,1.0738054E1,6.7921104E0,1.0355926E1,0E0,0E0,0E0,0E0,0E0,0E0,0E0,0E0],"parents":[2147483647,0,0,1,1,2,2,3,3,4,4,5,5,6,6],"right_children":[2,4,6,8,10,12,14,-1,-1,-1,-1,-1,-1,-1,-1],"split_conditions":[5.912516E-4,1.2439737E0,5.9463614E-1,-2.556171E-3,-1.5145023E-2,1.8438548E-3,4.8217303E-3,-9.653224E-3,-4.3543355E-4,-2.117463E-4,-1.1771856E-2,9.830561E-4,-1.1482055E-2,5.351919E-3,4.3517916E-4],"split_indices":[22,16,16,22,0,22,3,0,0,0,0,0,0,0,0],"split_type":[0,0,0,0,0,0,0,0,0,0,0,0,0,0,0],"sum_hessian":[3.4604898E2,1.5883696E2,1.8721202E2,1.2311893E2,3.571803E1,1.6217834E1,1.7099419E2,9.844068E0,1.13274864E2,1.1948612E1,2.3769417E1,8.214437E0,8.003398E0,8.821836E1,8.277582E1],"tree_param":{"num_deleted":"0","num_feature":"23","num_nodes":"15","size_leaf_vector":"1"}},{"base_weights":[-1.0322619E-2,-4.7537327E-1,1.4027408E-1,2.5867313E-1,-6.6527426E-1,3.9324144E-1,-1.2607399E-1,-4.419572E-3,8.653773E-3,-1.24114E-2,-2.134422E-3,7.4973693E-3,1.9321226E-3,1.0721954E-3,-4.422256E-3],"categories":[],"categories_nodes":[],"categories_segments":[],"categories_sizes":[],"default_left":[0,0,0,0,0,0,0,0,0,0,0,0,0,0,0],"id":21,"left_children":[1,3,5,7,9,11,13,-1,-1,-1,-1,-1,-1,-1,-1],"loss_changes":[2.419343E1,1.1950584E1,1.7634972E1,8.070716E0,1.7274744E1,9.418064E0,9.480383E0,0E0,0E0,0E0,0E0,0E0,0E0,0E0,0E0],"parents":[2147483647,0,0,1,1,2,2,3,3,4,4,5,5,6,6],"right_children":[2,4,6,8,10,12,14,-1,-1,-1,-1,-1,-1,-1,-1],"split_conditions":[-5.26424E-4,1.2058952E-2,4.264147E-3,6.40933E-2,1.2029908E-2,1.6053734E-2,1.5523355E-2,-4.419572E-3,8.653773E-3,-1.24114E-2,-2.134422E-3,7.4973693E-3,1.9321226E-3,1.0721954E-3,-4.422256E-3],"split_indices":[22,17,5,4,15,17,15,0,0,0,0,0,0,0,0],"split_type":[0,0,0,0,0,0,0,0,0,0,0,0,0,0,0],"sum_hessian":[3.4349512E2,8.349658E1,2.5999854E2,1.7086807E1,6.6409775E1,1.3310448E2,1.26894035E2,8.055615E0,9.031192E0,2.842933E1,3.7980446E1,4.6853394E1,8.625109E1,7.339529E1,5.349875E1],"tree_param":{"num_deleted":"0","num_feature":"23","num_nodes":"15","size_leaf_vector":"1"}},{"base_weights":[3.0027779E-2,-3.068171E-1,3.042327E-1,3.3407144E-2,-5.1564246E-1,6.5936506E-1,1.258687E-1,4.2755934E-3,-5.2787024E-3,1.7469486E-3,-6.4720055E-3,1.0855498E-2,3.2471456E-3,-5.354901E-3,2.7020078E-3],"categories":[],"categories_nodes":[],"categories_segments":[],"categories_sizes":[],"default_left":[0,0,0,0,0,0,0,0,0,0,0,0,0,0,0],"id":22,"left_children":[1,3,5,7,9,11,13,-1,-1,-1,-1,-1,-1,-1,-1],"loss_changes":[3.1639154E1,1.0941487E1,1.1874603E1,1.3371153E1,8.771786E0,8.615288E0,1.2257808E1,0E0,0E0,0E0,0E0,0E0,0E0,0E0,0E0],"parents":[2147483647,0,0,1,1,2,2,3,3,4,4,5,5,6,6],"right_children":[2,4,6,8,10,12,14,-1,-1,-1,-1,-1,-1,-1,-1],"split_conditions":[5.912516E-4,8.648631E-1,1.6806664E-2,7.9842734E-1,1.9544372E-1,3.6589673E-1,1.8725714E-2,4.2755934E-3,-5.2787024E-3,1.7469486E-3,-6.4720055E-3,1.0855498E-2,3.2471456E-3,-5.354901E-3,2.7020078E-3],"split_indices":[22,16,17,19,19,9,17,0,0,0,0,0,0,0,0],"split_type":[0,0,0,0,0,0,0,0,0,0,0,0,0,0,0],"sum_hessian":[3.4053598E2,1.5276009E2,1.8777588E2,5.842021E1,9.4339874E1,6.1877567E1,1.25898315E2,3.4459538E1,2.3960674E1,1.5048193E1,7.929168E1,2.622967E1,3.5647896E1,2.206803E1,1.0383029E2],"tree_param":{"num_deleted":"0","num_feature":"23","num_nodes":"15","size_leaf_vector":"1"}},{"base_weights":[3.426911E-3,-4.9216875E-1,1.6554548E-1,3.5947312E-3,-6.2496805E-1,4.6897045E-1,-3.6119018E-2,-1.4891712E-2,-4.4605206E-3,9.685614E-3,2.3677454E-3,-1.0409474E-3,1.0144785E-2],"categories":[],"categories_nodes":[],"categories_segments":[],"categories_sizes":[],"default_left":[0,0,0,0,0,0,0,0,0,0,0,0,0],"id":23,"left_children":[1,3,5,-1,7,9,11,-1,-1,-1,-1,-1,-1],"loss_changes":[2.797044E1,9.929678E0,1.6067266E1,0E0,1.08704605E1,1.1927761E1,1.1425117E1,0E0,0E0,0E0,0E0,0E0,0E0],"parents":[2147483647,0,0,1,1,2,2,4,4,5,5,6,6],"right_children":[2,4,6,-1,8,10,12,-1,-1,-1,-1,-1,-1],"split_conditions":[-5.835161E-4,-2.8887942E-2,1.6726207E-2,3.5947312E-3,5.5505945E-3,5.680956E-1,2.807501E-2,-1.4891712E-2,-4.4605206E-3,9.685614E-3,2.3677454E-3,-1.0409474E-3,1.0144785E-2],"split_indices":[22,4,17,0,8,19,15,0,0,0,0,0,0],"split_type":[0,0,0,0,0,0,0,0,0,0,0,0,0],"sum_hessian":[3.4611398E2,8.481108E1,2.6130292E2,1.1210606E1,7.360048E1,1.0379986E2,1.5750305E2,1.1367876E1,6.22326E1,3.1929428E1,7.187043E1,1.4877776E2,8.725292E0],"tree_param":{"num_deleted":"0","num_feature":"23","num_nodes":"13","size_leaf_vector":"1"}},{"base_weights":[-3.9291415E-2,-3.43336E-1,2.03912E-1,7.223085E-3,-4.138873E-1,6.7394024E-1,-4.139458E-2,-6.983428E-4,-6.0524577E-3,9.715987E-3,2.1469314E-3,-5.803983E-3,1.1328463E-3],"categories":[],"categories_nodes":[],"categories_segments":[],"categories_sizes":[],"default_left":[0,0,0,0,0,0,0,0,0,0,0,0,0],"id":24,"left_children":[1,3,5,-1,7,9,11,-1,-1,-1,-1,-1,-1],"loss_changes":[2.5698244E1,1.1907131E1,2.230254E1,0E0,9.5336685E0,8.8554325E0,1.072747E1,0E0,0E0,0E0,0E0,0E0,0E0],"parents":[2147483647,0,0,1,1,2,2,4,4,5,5,6,6],"right_children":[2,4,6,-1,8,10,12,-1,-1,-1,-1,-1,-1],"split_conditions":[5.912516E-4,-5.630958E-2,1.6806664E-2,7.223085E-3,8.5463715E-1,1.1270822E-2,1.9010788E-2,-6.983428E-4,-6.0524577E-3,9.715987E-3,2.1469314E-3,-5.803983E-3,1.1328463E-3],"split_indices":[22,7,17,0,16,11,17,0,0,0,0,0,0],"split_type":[0,0,0,0,0,0,0,0,0,0,0,0,0],"sum_hessian":[3.4558658E2,1.5339975E2,1.9218683E2,8.951622E0,1.4444814E2,6.5306564E1,1.2688027E2,5.2114243E1,9.2333885E1,3.8947395E1,2.635917E1,2.7678383E1,9.920189E1],"tree_param":{"num_deleted":"0","num_feature":"23","num_nodes":"13","size_leaf_vector":"1"}},{"base_weights":[-2.4793623E-2,-4.7039467E-1,1.0966486E-1,-6.198982E-1,3.8106395E-3,3.7047592E-1,-1.4129043E-1,-9.8872855E-3,-3.267292E-3,8.947891E-3,2.3690844E-3,2.1188548E-3,-4.2856378E-3],"categories":[],"categories_nodes":[],"categories_segments":[],"categories_sizes":[],"default_left":[0,0,0,0,0,0,0,0,0,0,0,0,0],"id":25,"left_children":[1,3,5,7,-1,9,11,-1,-1,-1,-1,-1,-1],"loss_changes":[2.1061443E1,1.0607405E1,1.7736736E1,7.211952E0,0E0,9.085983E0,1.4134644E1,0E0,0E0,0E0,0E0,0E0,0E0],"parents":[2147483647,0,0,1,1,2,2,3,3,5,5,6,6],"right_children":[2,4,6,8,-1,10,12,-1,-1,-1,-1,-1,-1],"split_conditions":[-5.835161E-4,2.2997608E-2,4.66428E-3,8.799208E-2,3.8106395E-3,5.8060654E-2,1.6806664E-2,-9.8872855E-3,-3.267292E-3,8.947891E-3,2.3690844E-3,2.1188548E-3,-4.2856378E-3],"split_indices":[22,1,2,10,0,10,17,0,0,0,0,0,0],"split_type":[0,0,0,0,0,0,0,0,0,0,0,0,0],"sum_hessian":[3.4966202E2,8.047293E1,2.691891E2,6.8684845E1,1.1788084E1,1.3176894E2,1.3742017E2,2.9366653E1,3.931819E1,2.5595552E1,1.06173386E2,6.1757484E1,7.5662674E1],"tree_param":{"num_deleted":"0","num_feature":"23","num_nodes":"13","size_leaf_vector":"1"}},{"base_weights":[1.3563062E-2,-5.4313874E-1,1.2541063E-1,-8.5016733E-1,6.5410864E-3,3.594767E-1,-1.24763295E-1,-1.4733787E-2,-4.484685E-3,4.367858E-3,-4.7429404E-3,-7.607837E-3,4.791785E-3,2.2579143E-3,-3.151461E-3],"categories":[],"categories_nodes":[],"categories_segments":[],"categories_sizes":[],"default_left":[0,0,0,0,0,0,0,0,0,0,0,0,0,0,0],"id":26,"left_children":[1,3,5,7,9,11,13,-1,-1,-1,-1,-1,-1,-1,-1],"loss_changes":[2.1176233E1,9.608763E0,1.662231E1,8.481018E0,4.631223E0,2.001186E1,9.253395E0,0E0,0E0,0E0,0E0,0E0,0E0,0E0,0E0],"parents":[2147483647,0,0,1,1,2,2,3,3,4,4,5,5,6,6],"right_children":[2,4,6,8,10,12,14,-1,-1,-1,-1,-1,-1,-1,-1],"split_conditions":[-1.1175358E-3,8.160216E-3,9.883907E-3,8.035656E-2,-1.7759484E-3,6.075244E-1,6.465457E-4,-1.4733787E-2,-4.484685E-3,4.367858E-3,-4.7429404E-3,-7.607837E-3,4.791785E-3,2.2579143E-3,-3.151461E-3],"split_indices":[22,5,21,10,22,16,0,0,0,0,0,0,0,0,0],"split_type":[0,0,0,0,0,0,0,0,0,0,0,0,0,0,0],"sum_hessian":[3.3800046E2,5.590198E1,2.8209848E2,3.551699E1,2.038499E1,1.4551541E2,1.3658305E2,1.28747425E1,2.264225E1,1.0806811E1,9.578179E0,1.3530556E1,1.3198485E2,4.8004913E1,8.857815E1],"tree_param":{"num_deleted":"0","num_feature":"23","num_nodes":"15","size_leaf_vector":"1"}},{"base_weights":[3.7693907E-2,-4.2298648E-1,1.817583E-1,4.3744817E-3,-5.822534E-1,4.1555852E-1,-3.521599E-2,-1.1228753E-2,-2.120836E-3,-6.215154E-3,5.3765485E-3,-1.5032302E-3,5.345115E-3],"categories":[],"categories_nodes":[],"categories_segments":[],"categories_sizes":[],"default_left":[0,0,0,0,0,0,0,0,0,0,0,0,0],"id":27,"left_children":[1,3,5,-1,7,9,11,-1,-1,-1,-1,-1,-1],"loss_changes":[2.3387894E1,1.1762442E1,1.3623418E1,0E0,1.402803E1,1.6694426E1,9.26555E0,0E0,0E0,0E0,0E0,0E0,0E0],"parents":[2147483647,0,0,1,1,2,2,4,4,5,5,6,6],"right_children":[2,4,6,-1,8,10,12,-1,-1,-1,-1,-1,-1],"split_conditions":[-5.835161E-4,1.1419739E-2,4.8217303E-3,4.3744817E-3,1.5565407E-2,6.075244E-1,4.675005E-2,-1.1228753E-2,-2.120836E-3,-6.215154E-3,5.3765485E-3,-1.5032302E-3,5.345115E-3],"split_indices":[22,17,3,0,17,16,8,0,0,0,0,0,0],"split_type":[0,0,0,0,0,0,0,0,0,0,0,0,0],"sum_hessian":[3.502406E2,8.297431E1,2.672663E2,1.268693E1,7.0287384E1,1.2820453E2,1.3906178E2,2.7740217E1,4.254716E1,1.3073049E1,1.15131485E2,1.1630068E2,2.2761093E1],"tree_param":{"num_deleted":"0","num_feature":"23","num_nodes":"13","size_leaf_vector":"1"}},{"base_weights":[2.1026354E-2,-5.4012245E-1,1.8987317E-1,4.2020935E-3,-6.657231E-1,4.232462E-1,-3.0551499E-2,2.5127092E-3,-8.394995E-3,5.6231255E-3,-1.7843823E-3,-1.6369582E-3,5.761687E-3],"categories":[],"categories_nodes":[],"categories_segments":[],"categories_sizes":[],"default_left":[0,0,0,0,0,0,0,0,0,0,0,0,0],"id":28,"left_children":[1,3,5,-1,7,9,11,-1,-1,-1,-1,-1,-1],"loss_changes":[3.2402203E1,9.821825E0,1.3531167E1,0E0,1.1420822E1,1.0786627E1,1.1086795E1,0E0,0E0,0E0,0E0,0E0,0E0],"parents":[2147483647,0,0,1,1,2,2,4,4,5,5,6,6],"right_children":[2,4,6,-1,8,10,12,-1,-1,-1,-1,-1,-1],"split_conditions":[-6.534351E-4,-4.4182885E-2,5.075457E-3,4.2020935E-3,1.1419739E-2,1.39140235E-2,4.812835E-2,2.5127092E-3,-8.394995E-3,5.6231255E-3,-1.7843823E-3,-1.6369582E-3,5.761687E-3],"split_indices":[22,4,3,0,17,12,8,0,0,0,0,0,0],"split_type":[0,0,0,0,0,0,0,0,0,0,0,0,0],"sum_hessian":[3.398999E2,7.8109695E1,2.617902E2,8.762993E0,6.93467E1,1.2671328E2,1.3507692E2,1.0976946E1,5.836976E1,1.0297765E2,2.373562E1,1.1136758E2,2.3709341E1],"tree_param":{"num_deleted":"0","num_feature":"23","num_nodes":"13","size_leaf_vector":"1"}},{"base_weights":[1.6413892E-2,-4.2035684E-1,1.5105656E-1,4.4287536E-3,-5.9833354E-1,4.6792313E-1,-6.126298E-2,3.2011634E-3,-7.5374246E-3,1.2968035E-2,3.6835994E-3,-1.9099534E-3,7.297212E-3],"categories":[],"categories_nodes":[],"categories_segments":[],"categories_sizes":[],"default_left":[0,0,0,0,0,0,0,0,0,0,0,0,0],"id":29,"left_children":[1,3,5,-1,7,9,11,-1,-1,-1,-1,-1,-1],"loss_changes":[2.0233126E1,1.2721688E1,1.771542E1,0E0,9.896744E0,8.236565E0,1.6383583E1,0E0,0E0,0E0,0E0,0E0,0E0],"parents":[2147483647,0,0,1,1,2,2,4,4,5,5,6,6],"right_children":[2,4,6,-1,8,10,12,-1,-1,-1,-1,-1,-1],"split_conditions":[-5.26424E-4,1.1927374E-2,1.6726207E-2,4.4287536E-3,-3.0713188E-2,-1.3879781E-2,4.4440713E-2,3.2011634E-3,-7.5374246E-3,1.2968035E-2,3.6835994E-3,-1.9099534E-3,7.297212E-3],"split_indices":[22,17,17,0,4,7,8,0,0,0,0,0,0],"split_type":[0,0,0,0,0,0,0,0,0,0,0,0,0],"sum_hessian":[3.4197437E2,8.007972E1,2.6189465E2,1.3433834E1,6.664589E1,1.045941E2,1.5730054E2,9.491617E0,5.715427E1,9.9268055E0,9.46673E1,1.3578796E2,2.1512575E1],"tree_param":{"num_deleted":"0","num_feature":"23","num_nodes":"13","size_leaf_vector":"1"}},{"base_weights":[-1.5538039E-2,2.0690972E-1,-1.8548211E-1,8.741821E-1,9.0340905E-2,1.4166354E-1,-3.4715772E-1,1.2079564E-2,2.5903587E-3,-4.937102E-3,1.6852668E-3,9.783896E-3,8.07239E-5,-8.701953E-3,-1.3142958E-3],"categories":[],"categories_nodes":[],"categories_segments":[],"categories_sizes":[],"default_left":[0,0,0,0,0,0,0,0,0,0,0,0,0,0,0],"id":30,"left_children":[1,3,5,7,9,11,13,-1,-1,-1,-1,-1,-1,-1,-1],"loss_changes":[1.3093233E1,1.1591272E1,1.0431627E1,4.2446404E0,5.966543E0,7.328696E0,1.4741635E1,0E0,0E0,0E0,0E0,0E0,0E0,0E0,0E0],"parents":[2147483647,0,0,1,1,2,2,3,3,4,4,5,5,6,6],"right_children":[2,4,6,8,10,12,14,-1,-1,-1,-1,-1,-1,-1,-1],"split_conditions":[4.5986506E-3,5.2022498E-2,7.983958E-1,1.3087329E-2,-8.781203E-3,-1.848392E-2,2.2743234E-2,1.2079564E-2,2.5903587E-3,-4.937102E-3,1.6852668E-3,9.783896E-3,8.07239E-5,-8.701953E-3,-1.3142958E-3],"split_indices":[3,10,16,17,13,7,4,0,0,0,0,0,0,0,0],"split_type":[0,0,0,0,0,0,0,0,0,0,0,0,0,0,0],"sum_hessian":[3.4433292E2,1.4903566E2,1.9529726E2,2.1197273E1,1.2783838E2,6.46347E1,1.3066257E2,1.3116601E1,8.080671E0,1.44655485E1,1.1337283E2,8.028122E0,5.6606575E1,3.7269085E1,9.339348E1],"tree_param":{"num_deleted":"0","num_feature":"23","num_nodes":"15","size_leaf_vector":"1"}},{"base_weights":[4.76693E-2,-2.2948655E-1,2.6735863E-1,7.391659E-3,-2.956732E-1,-4.8908722E-1,3.536533E-1,-1.407733E-3,-9.501764E-3,3.433467E-4,-9.6432995E-3,5.017698E-3,-1.9991375E-3],"categories":[],"categories_nodes":[],"categories_segments":[],"categories_sizes":[],"default_left":[0,0,0,0,0,0,0,0,0,0,0,0,0],"id":31,"left_children":[1,3,5,-1,7,9,11,-1,-1,-1,-1,-1,-1],"loss_changes":[2.1284924E1,1.0134294E1,1.2895712E1,0E0,1.4615915E1,5.1020083E0,1.4492096E1,0E0,0E0,0E0,0E0,0E0,0E0],"parents":[2147483647,0,0,1,1,2,2,4,4,5,5,6,6],"right_children":[2,4,6,-1,8,10,12,-1,-1,-1,-1,-1,-1],"split_conditions":[5.7356356E-4,-5.630958E-2,6.111052E-1,7.391659E-3,1.7719258E-2,1.8438548E-3,8.9986235E-2,-1.407733E-3,-9.501764E-3,3.433467E-4,-9.6432995E-3,5.017698E-3,-1.9991375E-3],"split_indices":[22,7,16,0,15,22,7,0,0,0,0,0,0],"split_type":[0,0,0,0,0,0,0,0,0,0,0,0,0],"sum_hessian":[3.475663E2,1.5366318E2,1.9390314E2,9.177726E0,1.4448546E2,1.937728E1,1.7452585E2,1.17817024E2,2.6668425E1,9.662723E0,9.714557E0,1.3775949E2,3.6766365E1],"tree_param":{"num_deleted":"0","num_feature":"23","num_nodes":"13","size_leaf_vector":"1"}},{"base_weights":[-3.374523E-2,1.9432187E-1,-2.1188717E-1,-6.3338988E-3,2.9481098E-1,-2.6220295E-1,4.8208507E-3,-4.39153E-3,3.7528644E-3,-2.0391443E-3,-1.1437986E-2],"categories":[],"categories_nodes":[],"categories_segments":[],"categories_sizes":[],"default_left":[0,0,0,0,0,0,0,0,0,0,0],"id":32,"left_children":[1,3,5,-1,7,9,-1,-1,-1,-1,-1],"loss_changes":[1.3990955E1,1.2754412E1,6.8743916E0,0E0,8.163639E0,9.059417E0,0E0,0E0,0E0,0E0,0E0],"parents":[2147483647,0,0,1,1,2,2,4,4,5,5],"right_children":[2,4,6,-1,8,10,-1,-1,-1,-1,-1],"split_conditions":[4.8217303E-3,-8.583227E-3,9.216443E-3,-6.3338988E-3,6.075244E-1,1.513562E-1,4.8208507E-3,-4.39153E-3,3.7528644E-3,-2.0391443E-3,-1.1437986E-2],"split_indices":[3,13,13,0,16,7,0,0,0,0,0],"split_type":[0,0,0,0,0,0,0,0,0,0,0],"sum_hessian":[3.4235123E2,1.5009743E2,1.922538E2,1.5675761E1,1.3442166E2,1.7983707E2,1.2416738E1,1.2841926E1,1.21579735E2,1.698391E2,9.997958E0],"tree_param":{"num_deleted":"0","num_feature":"23","num_nodes":"11","size_leaf_vector":"1"}},{"base_weights":[1.2169727E-2,-2.9601496E-1,2.7142003E-1,7.1569714E-3,-4.7773004E-1,7.664331E-1,7.917562E-2,5.979312E-3,-2.1772853E-3,-6.650335E-3,-1.2478309E-3,1.549478E-3,9.098798E-3,7.6471544E-3,-3.5648688E-4],"categories":[],"categories_nodes":[],"categories_segments":[],"categories_sizes":[],"default_left":[0,0,0,0,0,0,0,0,0,0,0,0,0,0,0],"id":33,"left_children":[1,3,5,7,9,11,13,-1,-1,-1,-1,-1,-1,-1,-1],"loss_changes":[2.7741238E1,8.743796E0,1.7882706E1,8.160295E0,6.475731E0,4.4753246E0,1.0805539E1,0E0,0E0,0E0,0E0,0E0,0E0,0E0,0E0],"parents":[2147483647,0,0,1,1,2,2,3,3,4,4,5,5,6,6],"right_children":[2,4,6,8,10,12,14,-1,-1,-1,-1,-1,-1,-1,-1],"split_conditions":[5.912516E-4,8.6982447E-1,1.5451968E-2,1.2912375E-2,1.5694814E-2,1.0903051E-2,-6.856603E-1,5.979312E-3,-2.1772853E-3,-6.650335E-3,-1.2478309E-3,1.549478E-3,9.098798E-3,7.6471544E-3,-3.5648688E-4],"split_indices":[22,16,17,17,11,17,9,0,0,0,0,0,0,0,0],"split_type":[0,0,0,0,0,0,0,0,0,0,0,0,0,0,0],"sum_hessian":[3.45207E2,1.5765375E2,1.8755325E2,5.9441936E1,9.821182E1,5.162821E1,1.3592503E2,1.5931377E1,4.351056E1,6.358435E1,3.462747E1,1.0205278E1,4.142293E1,1.8688503E1,1.17236534E2],"tree_param":{"num_deleted":"0","num_feature":"23","num_nodes":"15","size_leaf_vector":"1"}},{"base_weights":[-1.4271637E-2,-1.1494958E-2,4.2477537E-2,3.4539765E-1,-1.0982608E-1,-3.2612155E-3,4.4886502E-3,2.6910019E-3,-2.9555105E-3],"categories":[],"categories_nodes":[],"categories_segments":[],"categories_sizes":[],"default_left":[0,0,0,0,0,0,0,0,0],"id":34,"left_children":[1,-1,3,5,7,-1,-1,-1,-1],"loss_changes":[2.212775E1,0E0,1.5141214E1,7.773073E0,1.5463606E1,0E0,0E0,0E0,0E0],"parents":[2147483647,0,0,2,2,3,3,4,4],"right_children":[2,-1,4,6,8,-1,-1,-1,-1],"split_conditions":[-2.5030724E-3,-1.1494958E-2,-3.542921E-3,-8.583227E-3,7.129959E-2,-3.2612155E-3,4.4886502E-3,2.6910019E-3,-2.9555105E-3],"split_indices":[22,0,5,13,10,0,0,0,0],"split_type":[0,0,0,0,0,0,0,0,0],"sum_hessian":[3.417178E2,1.5352236E1,3.2636557E2,1.0876754E2,2.1759804E2,1.4234104E1,9.453343E1,7.1424644E1,1.4617339E2],"tree_param":{"num_deleted":"0","num_feature":"23","num_nodes":"9","size_leaf_vector":"1"}},{"base_weights":[-1.3138409E-2,1.7519099E-1,-3.0962297E-1,-5.4096174E-3,2.312442E-1,1.3410547E-1,-4.718375E-1,-4.0245396E-3,2.87468E-3,-4.449596E-3,7.981008E-3,-6.1756605E-3,1.4647916E-3],"categories":[],"categories_nodes":[],"categories_segments":[],"categories_sizes":[],"default_left":[0,0,0,0,0,0,0,0,0,0,0,0,0],"id":35,"left_children":[1,3,5,-1,7,9,11,-1,-1,-1,-1,-1,-1],"loss_changes":[1.971539E1,8.794872E0,9.934804E0,0E0,7.2770176E0,1.4771051E1,9.159779E0,0E0,0E0,0E0,0E0,0E0,0E0],"parents":[2147483647,0,0,1,1,2,2,4,4,5,5,6,6],"right_children":[2,4,6,-1,8,10,12,-1,-1,-1,-1,-1,-1],"split_conditions":[2.1910591E-2,-8.583227E-3,1.3087329E-2,-5.4096174E-3,5.905185E-1,2.390341E-2,2.4811462E-2,-4.0245396E-3,2.87468E-3,-4.449596E-3,7.981008E-3,-6.1756605E-3,1.4647916E-3],"split_indices":[3,13,17,0,16,2,17,0,0,0,0,0,0],"split_type":[0,0,0,0,0,0,0,0,0,0,0,0,0],"sum_hessian":[3.5111835E2,2.1497414E2,1.361442E2,1.49766865E1,1.9999745E2,3.6492996E1,9.965121E1,1.5796555E1,1.842009E2,1.966937E1,1.6823626E1,8.0645424E1,1.9005783E1],"tree_param":{"num_deleted":"0","num_feature":"23","num_nodes":"13","size_leaf_vector":"1"}},{"base_weights":[1.6474213E-2,-2.7786782E-1,2.3941113E-1,6.6459477E-3,-3.4533334E-1,6.935064E-1,8.225328E-3,-2.0842857E-3,-7.610572E-3,9.391572E-3,-3.883204E-4,-1.0154747E-3,8.149417E-3],"categories":[],"categories_nodes":[],"categories_segments":[],"categories_sizes":[],"default_left":[0,0,0,0,0,0,0,0,0,0,0,0,0],"id":36,"left_children":[1,3,5,-1,7,9,11,-1,-1,-1,-1,-1,-1],"loss_changes":[2.2501524E1,9.627969E0,2.0474062E1,0E0,7.729521E0,1.1873976E1,1.1619874E1,0E0,0E0,0E0,0E0,0E0,0E0],"parents":[2147483647,0,0,1,1,2,2,4,4,5,5,6,6],"right_children":[2,4,6,-1,8,10,12,-1,-1,-1,-1,-1,-1],"split_conditions":[5.7356356E-4,1.0714972E-2,1.6806664E-2,6.6459477E-3,1.2439737E0,2.6102243E-2,4.585082E-2,-2.0842857E-3,-7.610572E-3,9.391572E-3,-3.883204E-4,-1.0154747E-3,8.149417E-3],"split_indices":[22,17,17,0,16,8,8,0,0,0,0,0,0],"split_type":[0,0,0,0,0,0,0,0,0,0,0,0,0],"sum_hessian":[3.4089426E2,1.4681244E2,1.9408182E2,9.216147E0,1.375963E2,6.480062E1,1.2928119E2,1.0463847E2,3.295782E1,4.831256E1,1.648806E1,1.14565926E2,1.4715273E1],"tree_param":{"num_deleted":"0","num_feature":"23","num_nodes":"13","size_leaf_vector":"1"}},{"base_weights":[-1.0320487E-3,-2.7646217E-1,2.340893E-1,7.3937885E-3,-3.4306183E-1,6.2761825E-1,3.127347E-2,-1.650119E-2,-2.501381E-3,8.29817E-3,2.9515114E-4,5.054743E-3,-2.0001049E-3],"categories":[],"categories_nodes":[],"categories_segments":[],"categories_sizes":[],"default_left":[0,0,0,0,0,0,0,0,0,0,0,0,0],"id":37,"left_children":[1,3,5,-1,7,9,11,-1,-1,-1,-1,-1,-1],"loss_changes":[2.2534817E1,1.1095325E1,1.4963637E1,0E0,1.7936115E1,7.690401E0,1.3803261E1,0E0,0E0,0E0,0E0,0E0,0E0],"parents":[2147483647,0,0,1,1,2,2,4,4,5,5,6,6],"right_children":[2,4,6,-1,8,10,12,-1,-1,-1,-1,-1,-1],"split_conditions":[5.912516E-4,-5.630958E-2,1.6806664E-2,7.3937885E-3,-7.873657E-3,1.3530618E-2,3.471379E-1,-1.650119E-2,-2.501381E-3,8.29817E-3,2.9515114E-4,5.054743E-3,-2.0001049E-3],"split_indices":[22,7,17,0,12,12,19,0,0,0,0,0,0],"split_type":[0,0,0,0,0,0,0,0,0,0,0,0,0],"sum_hessian":[3.4597766E2,1.5925015E2,1.8672752E2,9.176695E0,1.5007346E2,6.279336E1,1.2393416E2,8.848827E0,1.4122462E2,4.6638893E1,1.615447E1,4.0241535E1,8.369262E1],"tree_param":{"num_deleted":"0","num_feature":"23","num_nodes":"13","size_leaf_vector":"1"}},{"base_weights":[1.9492622E-2,-2.1403468E-1,2.1582073E-1,1.4479806E-1,-3.4228167E-1,5.6262696E-1,3.977828E-2,-8.969593E-4,7.56003E-3,-2.5183447E-3,-1.19287465E-2,9.4364155E-3,1.2125194E-3,-6.614061E-3,1.6931333E-3],"categories":[],"categories_nodes":[],"categories_segments":[],"categories_sizes":[],"default_left":[0,0,0,0,0,0,0,0,0,0,0,0,0,0,0],"id":38,"left_children":[1,3,5,7,9,11,13,-1,-1,-1,-1,-1,-1,-1,-1],"loss_changes":[1.5763796E1,7.2781906E0,1.1378679E1,6.096175E0,8.625243E0,1.04466E1,1.1460211E1,0E0,0E0,0E0,0E0,0E0,0E0,0E0,0E0],"parents":[2147483647,0,0,1,1,2,2,3,3,4,4,5,5,6,6],"right_children":[2,4,6,8,10,12,14,-1,-1,-1,-1,-1,-1,-1,-1],"split_conditions":[5.912516E-4,1.2858806E-2,1.7083876E-2,2.2945596E-2,7.8332263E-1,4.9444878E-1,1.8493041E-2,-8.969593E-4,7.56003E-3,-2.5183447E-3,-1.19287465E-2,9.4364155E-3,1.2125194E-3,-6.614061E-3,1.6931333E-3],"split_indices":[22,17,17,2,14,9,17,0,0,0,0,0,0,0,0],"split_type":[0,0,0,0,0,0,0,0,0,0,0,0,0,0,0],"sum_hessian":[3.4182E2,1.5607846E2,1.8574155E2,4.106113E1,1.1501733E2,6.179955E1,1.2394201E2,3.0292429E1,1.0768701E1,1.0513404E2,9.883285E0,3.255697E1,2.9242579E1,1.8686167E1,1.0525584E2],"tree_param":{"num_deleted":"0","num_feature":"23","num_nodes":"15","size_leaf_vector":"1"}},{"base_weights":[-1.2778429E-2,1.0554456E-2,-5.446424E-2,1.5150471E-1,-2.0225677E-1,-4.754541E-3,2.2943593E-3,-1.0772526E-2,-1.4011614E-3],"categories":[],"categories_nodes":[],"categories_segments":[],"categories_sizes":[],"default_left":[0,0,0,0,0,0,0,0,0],"id":39,"left_children":[1,-1,3,5,7,-1,-1,-1,-1],"loss_changes":[1.468084E1,0E0,9.680701E0,6.6079726E0,9.908069E0,0E0,0E0,0E0,0E0],"parents":[2147483647,0,0,2,2,3,3,4,4],"right_children":[2,-1,4,6,8,-1,-1,-1,-1],"split_conditions":[3.4512024E-2,1.0554456E-2,2.5126792E-3,-8.781203E-3,4.6927176E-2,-4.754541E-3,2.2943593E-3,-1.0772526E-2,-1.4011614E-3],"split_indices":[10,0,3,13,10,0,0,0,0],"split_type":[0,0,0,0,0,0,0,0,0],"sum_hessian":[3.2739487E2,1.138287E1,3.16012E2,1.3201128E2,1.8400073E2,1.4030951E1,1.17980316E2,1.1117707E1,1.7288303E2],"tree_param":{"num_deleted":"0","num_feature":"23","num_nodes":"9","size_leaf_vector":"1"}},{"base_weights":[-5.300603E-3,-4.2455786E-1,1.1540019E-1,5.716799E-3,-5.5463624E-1,3.3662567E-1,-9.582621E-2,-9.316976E-3,-1.4292751E-3,6.9024786E-3,1.7697708E-3,9.415799E-4,-3.8312222E-3],"categories":[],"categories_nodes":[],"categories_segments":[],"categories_sizes":[],"default_left":[0,0,0,0,0,0,0,0,0,0,0,0,0],"id":40,"left_children":[1,3,5,-1,7,9,11,-1,-1,-1,-1,-1,-1],"loss_changes":[1.722625E1,1.0177662E1,1.2384923E1,0E0,1.039378E1,7.17976E0,7.459673E0,0E0,0E0,0E0,0E0,0E0,0E0],"parents":[2147483647,0,0,1,1,2,2,4,4,5,5,6,6],"right_children":[2,4,6,-1,8,10,12,-1,-1,-1,-1,-1,-1],"split_conditions":[-6.534351E-4,-4.4182885E-2,4.9984334E-3,5.716799E-3,3.4375787E-2,1.5815988E-2,1.5523355E-2,-9.316976E-3,-1.4292751E-3,6.9024786E-3,1.7697708E-3,9.415799E-4,-3.8312222E-3],"split_indices":[22,4,2,0,6,17,15,0,0,0,0,0,0],"split_type":[0,0,0,0,0,0,0,0,0,0,0,0,0],"sum_hessian":[3.3844003E2,7.509124E1,2.633488E2,8.28022E0,6.681102E1,1.2833986E2,1.3500891E2,3.4213634E1,3.259739E1,3.888528E1,8.945458E1,8.1672485E1,5.333643E1],"tree_param":{"num_deleted":"0","num_feature":"23","num_nodes":"13","size_leaf_vector":"1"}},{"base_weights":[-3.908935E-4,-5.2575624E-1,1.209705E-1,5.4820757E-3,-6.8995774E-1,2.7158904E-1,-2.728689E-1,-1.2300727E-2,-3.5185134E-3,6.220931E-3,1.3357061E-3,-5.9256935E-3,-1.8774671E-4],"categories":[],"categories_nodes":[],"categories_segments":[],"categories_sizes":[],"default_left":[0,0,0,0,0,0,0,0,0,0,0,0,0],"id":41,"left_children":[1,3,5,-1,7,9,11,-1,-1,-1,-1,-1,-1],"loss_changes":[2.1762331E1,1.1673311E1,1.6521832E1,0E0,9.793537E0,9.643861E0,6.260432E0,0E0,0E0,0E0,0E0,0E0,0E0],"parents":[2147483647,0,0,1,1,2,2,4,4,5,5,6,6],"right_children":[2,4,6,-1,8,10,12,-1,-1,-1,-1,-1,-1],"split_conditions":[-8.681528E-4,1.1419739E-2,8.302049E-1,5.4820757E-3,1.5565407E-2,1.5532763E-2,4.928456E-4,-1.2300727E-2,-3.5185134E-3,6.220931E-3,1.3357061E-3,-5.9256935E-3,-1.8774671E-4],"split_indices":[22,17,19,0,17,17,22,0,0,0,0,0,0],"split_type":[0,0,0,0,0,0,0,0,0,0,0,0,0],"sum_hessian":[3.393238E2,6.3050453E1,2.7627335E2,8.051406E0,5.4999046E1,2.0006976E2,7.620357E1,2.0158428E1,3.484062E1,5.553325E1,1.4453651E2,3.3155437E1,4.304813E1],"tree_param":{"num_deleted":"0","num_feature":"23","num_nodes":"13","size_leaf_vector":"1"}},{"base_weights":[-4.9334583E-3,-2.720524E-1,2.174456E-1,8.87278E-3,-3.460532E-1,7.009614E-1,2.5657186E-2,-2.0192668E-3,-8.700543E-3,9.63397E-3,1.9510096E-3,3.5360395E-3,-2.9618691E-3],"categories":[],"categories_nodes":[],"categories_segments":[],"categories_sizes":[],"default_left":[0,0,0,0,0,0,0,0,0,0,0,0,0],"id":42,"left_children":[1,3,5,-1,7,9,11,-1,-1,-1,-1,-1,-1],"loss_changes":[2.0459267E1,1.3730225E1,1.7412392E1,0E0,1.0986118E1,6.893797E0,1.441905E1,0E0,0E0,0E0,0E0,0E0,0E0],"parents":[2147483647,0,0,1,1,2,2,4,4,5,5,6,6],"right_children":[2,4,6,-1,8,10,12,-1,-1,-1,-1,-1,-1],"split_conditions":[5.912516E-4,-6.019326E-2,1.5780127E-2,8.87278E-3,1.2643704E0,8.4987235E-1,-2.2595823E-3,-2.0192668E-3,-8.700543E-3,9.63397E-3,1.9510096E-3,3.5360395E-3,-2.9618691E-3],"split_indices":[22,7,17,0,16,19,21,0,0,0,0,0,0],"split_type":[0,0,0,0,0,0,0,0,0,0,0,0,0],"sum_hessian":[3.424266E2,1.55463E2,1.869636E2,8.668484E0,1.4679453E2,5.2344223E1,1.3461937E2,1.1621494E2,3.0579573E1,3.386889E1,1.8475334E1,6.662865E1,6.7990715E1],"tree_param":{"num_deleted":"0","num_feature":"23","num_nodes":"13","size_leaf_vector":"1"}},{"base_weights":[2.425336E-2,-2.6813328E-1,2.678927E-1,8.023228E-3,-3.377987E-1,6.1281055E-1,7.65707E-2,-1.8527478E-3,-9.067227E-3,7.5550354E-3,-3.7357106E-3,-7.0464816E-3,1.7620041E-3],"categories":[],"categories_nodes":[],"categories_segments":[],"categories_sizes":[],"default_left":[0,0,0,0,0,0,0,0,0,0,0,0,0],"id":43,"left_children":[1,3,5,-1,7,9,11,-1,-1,-1,-1,-1,-1],"loss_changes":[2.462898E1,1.1993077E1,1.2394758E1,0E0,1.2699486E1,9.729994E0,9.651905E0,0E0,0E0,0E0,0E0,0E0,0E0],"parents":[2147483647,0,0,1,1,2,2,4,4,5,5,6,6],"right_children":[2,4,6,-1,8,10,12,-1,-1,-1,-1,-1,-1],"split_conditions":[5.544585E-4,-6.019326E-2,1.7544406E-2,8.023228E-3,1.2439737E0,7.4572945E-1,1.2714203E-2,-1.8527478E-3,-9.067227E-3,7.5550354E-3,-3.7357106E-3,-7.0464816E-3,1.7620041E-3],"split_indices":[22,7,17,0,16,14,15,0,0,0,0,0,0],"split_type":[0,0,0,0,0,0,0,0,0,0,0,0,0],"sum_hessian":[3.437252E2,1.5618736E2,1.8753784E2,8.900983E0,1.4728638E2,6.612456E1,1.21413284E2,1.1719343E2,3.009295E1,5.797219E1,8.152366E0,1.3045775E1,1.0836751E2],"tree_param":{"num_deleted":"0","num_feature":"23","num_nodes":"13","size_leaf_vector":"1"}},{"base_weights":[1.0675272E-2,-2.7317795E-1,2.4226728E-1,7.276752E-3,-3.3514693E-1,3.7539557E-1,-1.7230085E-1,1.0762046E-3,-5.1472895E-3,-5.439473E-3,4.7349115E-3,-4.586989E-3,6.0601793E-3],"categories":[],"categories_nodes":[],"categories_segments":[],"categories_sizes":[],"default_left":[0,0,0,0,0,0,0,0,0,0,0,0,0],"id":44,"left_children":[1,3,5,-1,7,9,11,-1,-1,-1,-1,-1,-1],"loss_changes":[2.221034E1,9.660045E0,1.0332033E1,0E0,1.1477673E1,1.2985092E1,1.0510523E1,0E0,0E0,0E0,0E0,0E0,0E0],"parents":[2147483647,0,0,1,1,2,2,4,4,5,5,6,6],"right_children":[2,4,6,-1,8,10,12,-1,-1,-1,-1,-1,-1],"split_conditions":[5.912516E-4,-6.019326E-2,8.520078E-2,7.276752E-3,1.3087329E-2,5.989256E-1,4.4440713E-2,1.0762046E-3,-5.1472895E-3,-5.439473E-3,4.7349115E-3,-4.586989E-3,6.0601793E-3],"split_indices":[22,7,7,0,17,16,8,0,0,0,0,0,0],"split_type":[0,0,0,0,0,0,0,0,0,0,0,0,0],"sum_hessian":[3.358541E2,1.5082018E2,1.8503392E2,8.167375E0,1.426528E2,1.4012935E2,4.490458E1,4.1278805E1,1.0137399E2,1.3072261E1,1.2705708E2,3.3125893E1,1.1778684E1],"tree_param":{"num_deleted":"0","num_feature":"23","num_nodes":"13","size_leaf_vector":"1"}},{"base_weights":[1.096061E-2,-3.019147E-1,2.5362706E-1,-4.74036E-2,-5.590678E-1,5.531781E-1,1.03688024E-1,-9.594446E-3,8.0508133E-4,-1.263335E-2,-3.7695845E-3,8.845689E-3,-7.190211E-4,-4.063725E-3,2.4604807E-3],"categories":[],"categories_nodes":[],"categories_segments":[],"categories_sizes":[],"default_left":[0,0,0,0,0,0,0,0,0,0,0,0,0,0,0],"id":45,"left_children":[1,3,5,7,9,11,13,-1,-1,-1,-1,-1,-1,-1,-1],"loss_changes":[2.5974247E1,9.754875E0,8.595242E0,8.96731E0,9.046276E0,1.3327475E1,9.51162E0,0E0,0E0,0E0,0E0,0E0,0E0,0E0,0E0],"parents":[2147483647,0,0,1,1,2,2,3,3,4,4,5,5,6,6],"right_children":[2,4,6,8,10,12,14,-1,-1,-1,-1,-1,-1,-1,-1],"split_conditions":[5.544585E-4,2.292619E-2,1.6806664E-2,-2.2779847E-3,3.302954E-2,1.16174985E-2,1.9010788E-2,-9.594446E-3,8.0508133E-4,-1.263335E-2,-3.7695845E-3,8.845689E-3,-7.190211E-4,-4.063725E-3,2.4604807E-3],"split_indices":[22,3,17,22,3,11,17,0,0,0,0,0,0,0,0],"split_type":[0,0,0,0,0,0,0,0,0,0,0,0,0,0,0],"sum_hessian":[3.400984E2,1.4845189E2,1.916465E2,7.5204445E1,7.3247444E1,6.303155E1,1.2861494E2,8.450382E0,6.675406E1,1.3829131E1,5.9418316E1,4.092156E1,2.2109993E1,2.7659485E1,1.0095547E2],"tree_param":{"num_deleted":"0","num_feature":"23","num_nodes":"15","size_leaf_vector":"1"}},{"base_weights":[1.5990451E-2,-4.2411307E-1,1.5607741E-1,4.412609E-3,-5.3491575E-1,5.013583E-1,-9.996869E-3,-1.3041677E-2,-3.5862653E-3,6.1777034E-3,-1.6982171E-4,8.133385E-3,-6.7591015E-4],"categories":[],"categories_nodes":[],"categories_segments":[],"categories_sizes":[],"default_left":[0,0,0,0,0,0,0,0,0,0,0,0,0],"id":46,"left_children":[1,3,5,-1,7,9,11,-1,-1,-1,-1,-1,-1],"loss_changes":[2.1213526E1,8.202999E0,1.4966701E1,0E0,9.5822735E0,5.124937E0,8.455779E0,0E0,0E0,0E0,0E0,0E0,0E0],"parents":[2147483647,0,0,1,1,2,2,4,4,5,5,6,6],"right_children":[2,4,6,-1,8,10,12,-1,-1,-1,-1,-1,-1],"split_conditions":[-5.9450266E-4,-4.4182885E-2,-3.542921E-3,4.412609E-3,5.5505945E-3,1.605888E-2,7.658181E-3,-1.3041677E-2,-3.5862653E-3,6.1777034E-3,-1.6982171E-4,8.133385E-3,-6.7591015E-4],"split_indices":[22,4,5,0,8,12,18,0,0,0,0,0,0],"split_type":[0,0,0,0,0,0,0,0,0,0,0,0,0],"sum_hessian":[3.4200702E2,8.208804E1,2.5991898E2,8.979029E0,7.310901E1,8.375896E1,1.7616002E2,1.24378E1,6.067121E1,6.824113E1,1.5517834E1,1.0659245E1,1.6550078E2],"tree_param":{"num_deleted":"0","num_feature":"23","num_nodes":"13","size_leaf_vector":"1"}},{"base_weights":[2.4352893E-2,-4.270345E-1,1.6087452E-1,-5.4240227E-1,5.190587E-3,4.1216543E-1,-1.3847055E-2,2.942868E-3,-6.610243E-3,5.5397777E-3,-2.4174803E-3,4.0803323E-3,-2.2148949E-3],"categories":[],"categories_nodes":[],"categories_segments":[],"categories_sizes":[],"default_left":[0,0,0,0,0,0,0,0,0,0,0,0,0],"id":47,"left_children":[1,3,5,7,-1,9,11,-1,-1,-1,-1,-1,-1],"loss_changes":[2.1063381E1,8.946523E0,1.1522337E1,7.2658386E0,0E0,1.0113037E1,1.3728955E1,0E0,0E0,0E0,0E0,0E0,0E0],"parents":[2147483647,0,0,1,1,2,2,3,3,5,5,6,6],"right_children":[2,4,6,8,-1,10,12,-1,-1,-1,-1,-1,-1],"split_conditions":[-6.1889057E-4,9.8344755E-1,1.6726207E-2,1.1419739E-2,5.190587E-3,7.301671E-1,3.471379E-1,2.942868E-3,-6.610243E-3,5.5397777E-3,-2.4174803E-3,4.0803323E-3,-2.2148949E-3],"split_indices":[22,9,17,17,0,14,19,0,0,0,0,0,0],"split_type":[0,0,0,0,0,0,0,0,0,0,0,0,0],"sum_hessian":[3.396893E2,7.838699E1,2.613023E2,7.0247604E1,8.139387E0,1.066112E2,1.546911E2,8.53884E0,6.1708763E1,8.773679E1,1.8874403E1,5.0705154E1,1.0398595E2],"tree_param":{"num_deleted":"0","num_feature":"23","num_nodes":"13","size_leaf_vector":"1"}},{"base_weights":[-4.211403E-2,-4.4042927E-1,7.691627E-2,4.2518973E-3,-5.6501424E-1,3.9346355E-1,-1.340744E-1,-9.086425E-3,-2.3570023E-3,7.2170603E-3,7.650526E-4,1.8636768E-3,-4.6738884E-3],"categories":[],"categories_nodes":[],"categories_segments":[],"categories_sizes":[],"default_left":[0,0,0,0,0,0,0,0,0,0,0,0,0],"id":48,"left_children":[1,3,5,-1,7,9,11,-1,-1,-1,-1,-1,-1],"loss_changes":[1.6281368E1,8.759251E0,1.77314E1,0E0,7.6488705E0,1.0985443E1,1.7131062E1,0E0,0E0,0E0,0E0,0E0,0E0],"parents":[2147483647,0,0,1,1,2,2,4,4,5,5,6,6],"right_children":[2,4,6,-1,8,10,12,-1,-1,-1,-1,-1,-1],"split_conditions":[-6.534351E-4,1.1419739E-2,1.6726207E-2,4.2518973E-3,1.2404668E-2,4.852323E-3,-1.6199261E-3,-9.086425E-3,-2.3570023E-3,7.2170603E-3,7.650526E-4,1.8636768E-3,-4.6738884E-3],"split_indices":[22,17,17,0,15,5,3,0,0,0,0,0,0],"split_type":[0,0,0,0,0,0,0,0,0,0,0,0,0],"sum_hessian":[3.4169037E2,7.79945E1,2.6369586E2,9.509493E0,6.848501E1,1.0512019E2,1.5857567E2,3.2653233E1,3.583177E1,5.101353E1,5.4106667E1,8.107377E1,7.750189E1],"tree_param":{"num_deleted":"0","num_feature":"23","num_nodes":"13","size_leaf_vector":"1"}},{"base_weights":[1.1772376E-2,-4.7483295E-1,1.5779515E-1,-6.480381E-1,-8.407765E-2,2.5044328E-1,-4.256703E-1,-1.6097021E-3,-9.028596E-3,2.6535275E-3,-7.315187E-3,1.7940765E-3,8.571003E-3,-7.0598454E-4,-1.2636698E-2],"categories":[],"categories_nodes":[],"categories_segments":[],"categories_sizes":[],"default_left":[0,0,0,0,0,0,0,0,0,0,0,0,0,0,0],"id":49,"left_children":[1,3,5,7,9,11,13,-1,-1,-1,-1,-1,-1,-1,-1],"loss_changes":[2.4379662E1,5.3059635E0,1.4369605E1,6.6472626E0,5.957188E0,9.685731E0,1.0779117E1,0E0,0E0,0E0,0E0,0E0,0E0,0E0,0E0],"parents":[2147483647,0,0,1,1,2,2,3,3,4,4,5,5,6,6],"right_children":[2,4,6,8,10,12,14,-1,-1,-1,-1,-1,-1,-1,-1],"split_conditions":[-5.9450266E-4,1.1205754E-2,9.2194474E-1,-1.0522457E-2,-1.0830573E-3,4.551316E-2,1.6658999E-2,-1.6097021E-3,-9.028596E-3,2.6535275E-3,-7.315187E-3,1.7940765E-3,8.571003E-3,-7.0598454E-4,-1.2636698E-2],"split_indices":[22,5,19,5,22,8,15,0,0,0,0,0,0,0,0],"split_type":[0,0,0,0,0,0,0,0,0,0,0,0,0,0,0],"sum_hessian":[3.4105307E2,7.820188E1,2.628512E2,5.372809E1,2.4473791E1,2.2732513E2,3.5526054E1,1.9014778E1,3.471331E1,1.6278353E1,8.195438E0,2.0465688E2,2.2668264E1,2.5714653E1,9.811402E0],"tree_param":{"num_deleted":"0","num_feature":"23","num_nodes":"15","size_leaf_vector":"1"}},{"base_weights":[-2.1496564E-3,-2.9587513E-1,2.4421713E-1,7.7732173E-3,-3.6425996E-1,6.565802E-1,9.770229E-2,-1.4689307E-2,-2.8687655E-3,7.989974E-3,-2.5489565E-4,5.1123267E-3,-1.528362E-3],"categories":[],"categories_nodes":[],"categories_segments":[],"categories_sizes":[],"default_left":[0,0,0,0,0,0,0,0,0,0,0,0,0],"id":50,"left_children":[1,3,5,-1,7,9,11,-1,-1,-1,-1,-1,-1],"loss_changes":[2.4713106E1,1.171582E1,1.1157323E1,0E0,1.2155571E1,4.733204E0,1.4398047E1,0E0,0E0,0E0,0E0,0E0,0E0],"parents":[2147483647,0,0,1,1,2,2,4,4,5,5,6,6],"right_children":[2,4,6,-1,8,10,12,-1,-1,-1,-1,-1,-1],"split_conditions":[5.912516E-4,-5.630958E-2,3.4100404E-1,7.7732173E-3,-7.873657E-3,1.6155627E-1,1.6882686E-2,-1.4689307E-2,-2.8687655E-3,7.989974E-3,-2.5489565E-4,5.1123267E-3,-1.528362E-3],"split_indices":[22,7,19,0,12,10,17,0,0,0,0,0,0],"split_type":[0,0,0,0,0,0,0,0,0,0,0,0,0],"sum_hessian":[3.395116E2,1.5477888E2,1.8473273E2,8.650796E0,1.4612808E2,4.7516674E1,1.3721605E2,8.389072E0,1.3773901E2,3.9167095E1,8.349579E0,5.1376003E1,8.584004E1],"tree_param":{"num_deleted":"0","num_feature":"23","num_nodes":"13","size_leaf_vector":"1"}},{"base_weights":[-1.3088738E-2,1.0551361E-2,-4.8672702E-2,1.5989828E-1,-1.8601187E-1,8.722282E-3,7.0386124E-4,-1.015796E-2,-1.1974638E-3],"categories":[],"categories_nodes":[],"categories_segments":[],"categories_sizes":[],"default_left":[0,0,0,0,0,0,0,0,0],"id":51,"left_children":[1,-1,3,5,7,-1,-1,-1,-1],"loss_changes":[1.3038648E1,0E0,9.528621E0,8.367848E0,1.0898066E1,0E0,0E0,0E0,0E0],"parents":[2147483647,0,0,2,2,3,3,4,4],"right_children":[2,-1,4,6,8,-1,-1,-1,-1],"split_conditions":[3.4512024E-2,1.0551361E-2,1.1467966E-3,5.2022498E-2,4.6927176E-2,8.722282E-3,7.0386124E-4,-1.015796E-2,-1.1974638E-3],"split_indices":[10,0,3,10,10,0,0,0,0],"split_type":[0,0,0,0,0,0,0,0,0],"sum_hessian":[3.4066577E2,1.0058522E1,3.3060724E2,1.3119814E2,1.9940912E2,1.3669912E1,1.1752822E2,1.3687203E1,1.8572191E2],"tree_param":{"num_deleted":"0","num_feature":"23","num_nodes":"9","size_leaf_vector":"1"}},{"base_weights":[-4.290871E-3,-2.4450725E-1,2.0637973E-1,6.8648625E-3,-3.034708E-1,6.2049973E-1,4.9559295E-2,-1.1710109E-2,-2.3159746E-3,8.186173E-3,-3.286261E-3,2.1623287E-3,-4.9761883E-3],"categories":[],"categories_nodes":[],"categories_segments":[],"categories_sizes":[],"default_left":[0,0,0,0,0,0,0,0,0,0,0,0,0],"id":52,"left_children":[1,3,5,-1,7,9,11,-1,-1,-1,-1,-1,-1],"loss_changes":[1.738271E1,9.017905E0,1.1854296E1,0E0,9.182535E0,9.704847E0,1.2312784E1,0E0,0E0,0E0,0E0,0E0,0E0],"parents":[2147483647,0,0,1,1,2,2,4,4,5,5,6,6],"right_children":[2,4,6,-1,8,10,12,-1,-1,-1,-1,-1,-1],"split_conditions":[5.912516E-4,-6.019326E-2,1.5532763E-2,6.8648625E-3,-7.7318978E-3,7.332779E-1,8.661734E-2,-1.1710109E-2,-2.3159746E-3,8.186173E-3,-3.286261E-3,2.1623287E-3,-4.9761883E-3],"split_indices":[22,7,17,0,12,14,7,0,0,0,0,0,0],"split_type":[0,0,0,0,0,0,0,0,0,0,0,0,0],"sum_hessian":[3.4149036E2,1.5948152E2,1.8200885E2,8.865101E0,1.5061642E2,4.9180305E1,1.3282854E2,1.0353441E1,1.4026299E2,4.0801113E1,8.379192E0,1.02278694E2,3.054985E1],"tree_param":{"num_deleted":"0","num_feature":"23","num_nodes":"13","size_leaf_vector":"1"}},{"base_weights":[-6.238997E-2,1.5587687E-1,-2.3311427E-1,8.7682384E-1,4.203787E-2,-2.996724E-1,4.781246E-3,1.321977E-2,3.472072E-3,-6.8502147E-3,1.1346074E-3,-7.1471906E-4,-5.72869E-3],"categories":[],"categories_nodes":[],"categories_segments":[],"categories_sizes":[],"default_left":[0,0,0,0,0,0,0,0,0,0,0,0,0],"id":53,"left_children":[1,3,5,7,9,11,-1,-1,-1,-1,-1,-1,-1],"loss_changes":[1.2828069E1,1.2377384E1,9.280487E0,4.3922234E0,6.9158816E0,1.1001059E1,0E0,0E0,0E0,0E0,0E0,0E0,0E0],"parents":[2147483647,0,0,1,1,2,2,3,3,4,4,5,5],"right_children":[2,4,6,8,10,12,-1,-1,-1,-1,-1,-1,-1],"split_conditions":[4.8217303E-3,5.2022498E-2,8.753583E-3,2.2614321E-3,5.905185E-1,1.6276447E-2,4.781246E-3,1.321977E-2,3.472072E-3,-6.8502147E-3,1.1346074E-3,-7.1471906E-4,-5.72869E-3],"split_indices":[3,10,13,4,16,17,0,0,0,0,0,0,0],"split_type":[0,0,0,0,0,0,0,0,0,0,0,0,0],"sum_hessian":[3.422782E2,1.5026062E2,1.9201756E2,1.9576916E1,1.3068372E2,1.7611526E2,1.5902303E1,9.823755E0,9.753161E0,1.0920978E1,1.1976273E2,9.664747E1,7.94678E1],"tree_param":{"num_deleted":"0","num_feature":"23","num_nodes":"13","size_leaf_vector":"1"}},{"base_weights":[-6.163521E-3,-2.8319559E-1,2.2252429E-1,8.29486E-2,-4.9775106E-1,4.7033942E-1,-3.215647E-2,-5.5206018E-3,2.7226754E-3,-7.032771E-3,-1.3120866E-3,5.7837144E-3,-3.4163748E-3,-2.8095867E-3,4.1527776E-3],"categories":[],"categories_nodes":[],"categories_segments":[],"categories_sizes":[],"default_left":[0,0,0,0,0,0,0,0,0,0,0,0,0,0,0],"id":54,"left_children":[1,3,5,7,9,11,13,-1,-1,-1,-1,-1,-1,-1,-1],"loss_changes":[2.1648598E1,1.2179478E1,1.1830179E1,7.116515E0,7.2577724E0,8.526049E0,1.0498446E1,0E0,0E0,0E0,0E0,0E0,0E0,0E0,0E0],"parents":[2147483647,0,0,1,1,2,2,3,3,4,4,5,5,6,6],"right_children":[2,4,6,8,10,12,14,-1,-1,-1,-1,-1,-1,-1,-1],"split_conditions":[5.544585E-4,8.5463715E-1,5.075457E-3,-1.6480928E-3,5.2825045E-2,8.4285595E-2,2.4223616E-3,-5.5206018E-3,2.7226754E-3,-7.032771E-3,-1.3120866E-3,5.7837144E-3,-3.4163748E-3,-2.8095867E-3,4.1527776E-3],"split_indices":[22,16,21,22,4,7,13,0,0,0,0,0,0,0,0],"split_type":[0,0,0,0,0,0,0,0,0,0,0,0,0,0,0],"sum_hessian":[3.3971454E2,1.5351201E2,1.8620255E2,5.6945873E1,9.656613E1,9.3944145E1,9.225841E1,1.263841E1,4.4307465E1,6.1284355E1,3.5281776E1,8.316667E1,1.0777474E1,5.9528694E1,3.2729713E1],"tree_param":{"num_deleted":"0","num_feature":"23","num_nodes":"15","size_leaf_vector":"1"}},{"base_weights":[1.2856083E-2,-2.0283453E-1,3.2847774E-1,1.7526198E-2,-4.3116468E-1,-7.760892E-3,4.3512863E-1,-4.326492E-3,2.5216513E-3,8.456538E-4,-5.96902E-3,-2.3195082E-3,5.4889177E-3],"categories":[],"categories_nodes":[],"categories_segments":[],"categories_sizes":[],"default_left":[0,0,0,0,0,0,0,0,0,0,0,0,0],"id":55,"left_children":[1,3,5,7,9,-1,11,-1,-1,-1,-1,-1,-1],"loss_changes":[2.285916E1,1.0045779E1,1.6394188E1,1.0934612E1,8.4289E0,0E0,9.608789E0,0E0,0E0,0E0,0E0,0E0,0E0],"parents":[2147483647,0,0,1,1,2,2,3,3,4,4,6,6],"right_children":[2,4,6,8,10,-1,12,-1,-1,-1,-1,-1,-1],"split_conditions":[1.4258771E-3,1.0540017E-3,6.173872E-1,-8.681528E-4,6.794682E-2,-7.760892E-3,-5.630958E-2,-4.326492E-3,2.5216513E-3,8.456538E-4,-5.96902E-3,-2.3195082E-3,5.4889177E-3],"split_indices":[22,0,16,22,10,0,7,0,0,0,0,0,0],"split_type":[0,0,0,0,0,0,0,0,0,0,0,0,0],"sum_hessian":[3.33807E2,1.9850757E2,1.3529944E2,1.014865E2,9.702107E1,1.1360769E1,1.2393867E2,3.4483322E1,6.700318E1,2.3715275E1,7.330579E1,1.7905611E1,1.0603306E2],"tree_param":{"num_deleted":"0","num_feature":"23","num_nodes":"13","size_leaf_vector":"1"}}]},"name":"gbtree"},"learner_model_param":{"base_score":"5.851355E-1","boost_from_average":"1","num_class":"0","num_feature":"23","num_target":"1"},"objective":{"name":"binary:logistic","reg_loss_param":{"scale_pos_weight":"1"}}},"version":[2,1,4]}